<?xml version="1.0"?>
<opencv_storage>
<OCRMLP type_id="opencv-ml-ann-mlp">
  <layer_sizes type_id="opencv-matrix">
    <rows>1</rows>
    <cols>3</cols>
    <dt>i</dt>
    <data>
      400 71 29</data></layer_sizes>
  <activation_function>SIGMOID_SYM</activation_function>
  <f_param1>6.5000000000000002e-001</f_param1>
  <f_param2>1.</f_param2>
  <min_val>-9.4999999999999996e-001</min_val>
  <max_val>9.4999999999999996e-001</max_val>
  <min_val1>-9.7999999999999998e-001</min_val1>
  <max_val1>9.7999999999999998e-001</max_val1>
  <training_params>
    <train_method>BACKPROP</train_method>
    <dw_scale>1.0000000000000000e-002</dw_scale>
    <moment_scale>1.0000000000000000e-002</moment_scale>
    <term_criteria><epsilon>1.0000000000000001e-005</epsilon>
      <iterations>1000</iterations></term_criteria></training_params>
  <input_scale>
    8.1561353861327817e+000 -8.0316276216917100e+000
    3.5748441434399760e+000 -3.2689340232316098e+000
    2.8442956258658101e+000 -2.4333374103031731e+000
    2.4024971834810742e+000 -1.8668296755752745e+000
    2.4301510013242154e+000 -1.9052989951255108e+000
    2.4618411709564549e+000 -1.9486708817192406e+000
    2.5202378802278478e+000 -2.0268651453434239e+000
    2.4941869700959400e+000 -1.9922392160624418e+000
    2.2611997474053944e+000 -1.6580997072728654e+000
    2.1811976730364027e+000 -1.5258066285151444e+000
    2.1838823656688686e+000 -1.5305019503112613e+000
    2.2646968699365400e+000 -1.6635856495674455e+000
    2.4882411693335773e+000 -1.9842800466691546e+000
    2.5432324919328977e+000 -2.0571147354658268e+000
    2.6019019557914396e+000 -2.1331008723785763e+000
    2.6285356640953461e+000 -2.1670866488870359e+000
    2.5746912601902325e+000 -2.0980606054872029e+000
    2.9490690352598006e+000 -2.5581636256193647e+000
    3.2992454257616628e+000 -2.9615888309083944e+000
    7.7149552822659837e+000 -7.5830827935667475e+000
    4.0003451846864104e+000 -3.7324226895176689e+000
    2.0213370368629202e+000 -8.6420741728701722e-001
    2.0625818670102629e+000 -7.7917788439841573e-001
    2.1050637100889058e+000 -7.2416726212475802e-001
    2.0630440464118229e+000 -7.7846534109927956e-001
    2.0111926599599439e+000 -8.9965304860173367e-001
    2.0000029586136638e+000 -1.0017215420534358e+000
    2.0000703168550054e+000 -1.0084207467265076e+000
    2.0141324367470848e+000 -8.8797646990967471e-001
    2.0308815575901296e+000 -8.3903223240366243e-001
    2.0309598295571147e+000 -8.3884623362270849e-001
    2.0126675809088161e+000 -8.9360536542178137e-001
    2.0024499680963839e+000 -1.0507372924401688e+000
    2.0068875968419717e+000 -1.0865067660391494e+000
    2.0027353324199462e+000 -1.0536859510710832e+000
    2.0041179354820193e+000 -9.3785480253206088e-001
    2.0255927363596657e+000 -8.5230810257060108e-001
    2.0010548840058684e+000 -1.0330107023216706e+000
    2.0514394201454857e+000 -1.2539759775260408e+000
    4.5518716366082526e+000 -4.3204122424870199e+000
    4.0709069014258485e+000 -3.8083242158898876e+000
    2.0355974646200732e+000 -8.2828815347097151e-001
    2.1066351237422869e+000 -7.2244313531905990e-001
    2.1767832482904748e+000 -6.5874487679398908e-001
    2.1145441757010732e+000 -7.1401669059095574e-001
    2.0406766864159058e+000 -8.1763083318341012e-001
    2.0019646324681721e+000 -9.5664725772103043e-001
    2.0002075508545927e+000 -1.0145107745572961e+000
    2.0059512536954225e+000 -9.2577389078848082e-001
    2.0111007172227828e+000 -9.0004432227461240e-001
    2.0115175218511161e+000 -8.9828464693286769e-001
    2.0053023101645855e+000 -9.2978594536012227e-001
    2.0033037327054459e+000 -1.0591537043050294e+000
    2.0032297296850849e+000 -1.0584685144487413e+000
    2.0000362439221537e+000 -9.9399780215567801e-001
    2.0345921987730797e+000 -8.3050382484856844e-001
    2.0827520662641712e+000 -7.5074905162156158e-001
    2.0347586660449988e+000 -8.3013428699642766e-001
    2.0000667569148840e+000 -1.0082039371289928e+000
    4.5337731757919659e+000 -4.3012844846661045e+000
    4.2801160717837492e+000 -4.0321067659687158e+000
    2.0567480509544240e+000 -7.8847167810185725e-001
    2.1094998973924208e+000 -7.1934354703598780e-001
    2.1539984853723730e+000 -6.7709004205857004e-001
    2.0868771692044126e+000 -7.4550557227115277e-001
    2.0130634402405572e+000 -8.9204982806617683e-001
    2.0264496741796103e+000 -1.1763952096936030e+000
    2.0577347229045722e+000 -1.2708757238321615e+000
    2.0297201596571188e+000 -1.1878947053508229e+000
    2.0239918743739298e+000 -1.1673528709972192e+000
    2.0240603439901887e+000 -1.1676099554774622e+000
    2.0328702024890029e+000 -1.1984799172704463e+000
    2.0977180569320981e+000 -1.3652531839031308e+000
    2.0647944876970961e+000 -1.2889982358693868e+000
    2.0122297216088265e+000 -1.1168718611767761e+000
    2.0092176813049574e+000 -9.0848952564702767e-001
    2.0367899328079027e+000 -8.2570789471281458e-001
    2.0152989081426123e+000 -8.8372438683226351e-001
    2.0006549596375343e+000 -1.0259217541895331e+000
    4.4982650895007330e+000 -4.2637285846192174e+000
    4.0397227384126895e+000 -3.7748086478481078e+000
    2.0398644081760526e+000 -8.1927901837730954e-001
    2.0640910325692348e+000 -7.7686333100676108e-001
    2.0783504298947495e+000 -7.5653564347706104e-001
    2.0200706880890795e+000 -8.6800930340701465e-001
    2.0182468735176098e+000 -1.1445121756402268e+000
    2.2949481881810665e+000 -1.7102322984810958e+000
    2.4470982885071333e+000 -1.9285828373517300e+000
    2.2754040278298637e+000 -1.6802569627137534e+000
    2.2635272156929314e+000 -1.6617531021250300e+000
    2.2845800357104258e+000 -1.6944009531677304e+000
    2.3445185030981763e+000 -1.7839714002288638e+000
    2.7877049523695749e+000 -2.3648440958017969e+000
    2.6129056795041485e+000 -2.1471781352536778e+000
    2.1984315304296302e+000 -1.5555876513962401e+000
    2.0230440760607715e+000 -1.1637614331327875e+000
    2.0004441238684940e+000 -1.0212974784187785e+000
    2.0041457051390283e+000 -1.0664933606147271e+000
    2.0206987970130408e+000 -1.1545919271258129e+000
    4.1457748326301926e+000 -3.8886137835625059e+000
    3.9196986999457177e+000 -3.6453787844797252e+000
    2.0327086633240414e+000 -8.3476102923004070e-001
    2.0482933210783565e+000 -8.0306662459393308e-001
    2.0581763196026315e+000 -7.8614281482994519e-001
    2.0022412082584289e+000 -9.5376594214073296e-001
    2.0814033004460342e+000 -1.3289028382443557e+000
    2.5114108505017989e+000 -2.0151763693985623e+000
    2.6498090968606109e+000 -2.1940259797914883e+000
    2.3132267707683853e+000 -1.7377799047655855e+000
    2.3049580553102595e+000 -1.7253733540233647e+000
    2.3775918811524011e+000 -1.8316301247407125e+000
    2.4562608668424963e+000 -1.9410851034357333e+000
    3.1680253389931039e+000 -2.8124654106004141e+000
    3.1165824848606638e+000 -2.7533944163174517e+000
    2.4892274010596545e+000 -1.9856017325158715e+000
    2.0872962313083288e+000 -1.3423141319809095e+000
    2.0085625667064275e+000 -1.0969144096827190e+000
    2.0161216741340828e+000 -1.1352876079460681e+000
    2.0386185543132864e+000 -1.2167716849653156e+000
    3.9855366247868003e+000 -3.7164636296926150e+000
    3.8706366617925818e+000 -3.5922604064991783e+000
    2.0367040523356001e+000 -8.2589203240269660e-001
    2.0483930923362799e+000 -8.0288553156934805e-001
    2.0498018738198405e+000 -8.0035265595717697e-001
    2.0017421194815230e+000 -9.5912326666621672e-001
    2.0778264643351911e+000 -1.3205880517253976e+000
    2.4693800653772162e+000 -1.9588857775121993e+000
    2.6037216678455182e+000 -2.1354324450648741e+000
    2.2876911364284296e+000 -1.6991677124902194e+000
    2.3062691382892790e+000 -1.7273464939218885e+000
    2.4033239312454406e+000 -1.8679888220710099e+000
    2.4327875169564375e+000 -1.9089352920087119e+000
    3.1140903394502817e+000 -2.7505231379191049e+000
    3.0483289039364871e+000 -2.6744154144297645e+000
    2.5537087325985248e+000 -2.0708046624371828e+000
    2.1692356132317698e+000 -1.5046127904290882e+000
    2.0347586660449988e+000 -1.2046243790485709e+000
    2.0426068065812970e+000 -1.2288139851245903e+000
    2.0686206312425686e+000 -1.2985031031848373e+000
    4.1258052006489319e+000 -3.8672216237860715e+000
    3.8235812719933495e+000 -3.5411903524212760e+000
    2.0346753786270710e+000 -8.3031904292285119e-001
    2.0462243589589688e+000 -8.0687496760497723e-001
    2.0461270822947211e+000 -8.0705657546111931e-001
    2.0029188022354663e+000 -9.4741375293872843e-001
    2.0487933171090029e+000 -1.2466319259123797e+000
    2.2497954812172827e+000 -1.6400626916936565e+000
    2.2997584857187867e+000 -1.7175254999235015e+000
    2.1578193906839753e+000 -1.4839357817894421e+000
    2.1679640836685232e+000 -1.5023324535935605e+000
    2.2015310109602217e+000 -1.5608575593724643e+000
    2.2425864100029611e+000 -1.6285391528241240e+000
    2.5706613036069763e+000 -2.0928421900898337e+000
    2.5706613036069763e+000 -2.0928421900898337e+000
    2.3445185030981763e+000 -1.7839714002288638e+000
    2.1450017825069763e+000 -1.4601323679675526e+000
    2.0659766657648171e+000 -1.2919572419645176e+000
    2.0761377372632328e+000 -1.3166132565164277e+000
    2.1063196954866510e+000 -1.3835318576030355e+000
    4.3807444597125400e+000 -4.1391488987759102e+000
    3.8442555938293972e+000 -3.5636439459891305e+000
    2.0298736409968225e+000 -8.4145267250954070e-001
    2.0433549699000708e+000 -8.1233354963346183e-001
    2.0455457907822434e+000 -8.0814671910607871e-001
    2.0105125539743538e+000 -9.0259088641119134e-001
    2.0142365070105650e+000 -1.1266472313455138e+000
    2.0530014399891114e+000 -1.2582413684560227e+000
    2.0304141472697066e+000 -1.1902653563816072e+000
    2.0056220412559935e+000 -1.0778439673445186e+000
    2.0052082376714138e+000 -1.0748192080229702e+000
    2.0054609913950148e+000 -1.0766794443159218e+000
    2.0128647273630396e+000 -1.1200373929080945e+000
    2.0707046778318992e+000 -1.3035956346359494e+000
    2.0861813915247414e+000 -1.3398030136496242e+000
    2.0708283887289669e+000 -1.3038961376892668e+000
    2.0361059245771020e+000 -1.2089242121521537e+000
    2.0186043968371852e+000 -1.1460169662112638e+000
    2.0484929775211151e+000 -1.2457885157855244e+000
    2.1107881905314199e+000 -1.3928206744229041e+000
    4.4551233970749635e+000 -4.2180468456288116e+000
    3.8547352006415525e+000 -3.5750161874795392e+000
    2.0200706880890795e+000 -8.6800930340701465e-001
    2.0351767179242430e+000 -8.2921089668166859e-001
    2.0523735063673496e+000 -7.9584081245614169e-001
    2.0127167207446259e+000 -8.9341080842341003e-001
    2.0022822128155964e+000 -1.0489272439314559e+000
    2.0102026358275280e+000 -1.1062381523114508e+000
    2.0010271037307930e+000 -1.0325661253394760e+000
    2.0048404616418458e+000 -9.3280472134873238e-001
    2.0068875968419717e+000 -9.2038083080282207e-001
    2.0119422096235495e+000 -8.9652767779935638e-001
    2.0088461492819683e+000 -9.1026516009712921e-001
    2.0022412082584289e+000 -1.0484752661176957e+000
    2.0102026358275280e+000 -1.1062381523114508e+000
    2.0148692083498911e+000 -1.1296004000800561e+000
    2.0032052496374249e+000 -1.0582402275551823e+000
    2.0000739692808605e+000 -9.9143636555085446e-001
    2.0085625667064275e+000 -1.0969144096827190e+000
    2.0495992472647919e+000 -1.2488850283269017e+000
    4.5610091051875248e+000 -4.3300657286509390e+000
    3.8626583860635439e+000 -3.5836101775670159e+000
    2.0144984066922045e+000 -8.8662185304212915e-001
    2.0246811998605043e+000 -8.5475414661924320e-001
    2.0525823537809633e+000 -7.9548047574504110e-001
    2.0115643198227890e+000 -8.9808929479940258e-001
    2.0027128199871687e+000 -1.0534588075894664e+000
    2.0112387770934301e+000 -1.1117813149660738e+000
    2.0052708580063752e+000 -1.0752839217088583e+000
    2.0055896417121235e+000 -9.2797869468167915e-001
    2.0127659584181328e+000 -8.9321628427758026e-001
    2.0189050934530997e+000 -8.7163221407306468e-001
    2.0223134536630676e+000 -8.6136378234928768e-001
    2.0000000462282372e+000 -9.9978501558388555e-001
    2.0064281063379164e+000 -1.0834539215368044e+000
    2.0203207177235809e+000 -1.1530727467635444e+000
    2.0046028376769169e+000 -1.0701846583426757e+000
    2.0016185177639043e+000 -9.6057031426554174e-001
    2.0075504240351987e+000 -1.0907503593930223e+000
    2.0509245236297740e+000 -1.2525588280736129e+000
    4.4174240178083251e+000 -4.1780796074691082e+000
    3.8653116596857178e+000 -3.5864873075411126e+000
    2.0112387770934301e+000 -8.9945746212735644e-001
    2.0186643352734071e+000 -8.7239632635982534e-001
    2.0387952183830205e+000 -8.2147973322936574e-001
    2.0005494640210810e+000 -9.7683247318681465e-001
    2.0541635162603669e+000 -1.2613827139195029e+000
    2.1090191841020833e+000 -1.3891593787350531e+000
    2.1086994329179034e+000 -1.3884953802001891e+000
    2.0268837478192046e+000 -1.1779545840368328e+000
    2.0123747953046376e+000 -1.1176013967473402e+000
    2.0046028376769169e+000 -1.0701846583426757e+000
    2.0008682227910310e+000 -1.0299029295553059e+000
    2.0372209639112620e+000 -1.2124333752110026e+000
    2.0649121562970798e+000 -1.2892936791844161e+000
    2.1007393880043268e+000 -1.3717362978647905e+000
    2.0328702024890029e+000 -1.1984799172704463e+000
    2.0018702871726921e+000 -1.0441920698088478e+000
    2.0299505397333335e+000 -1.1886842173648107e+000
    2.0841139193662737e+000 -1.3351144748982611e+000
    4.2913427905710613e+000 -4.0440669643244380e+000
    3.8494833803668618e+000 -3.5693177978568245e+000
    2.0137200918281399e+000 -8.8952653809092963e-001
    2.0285824590032679e+000 -8.4462479721776573e-001
    2.0549103653737233e+000 -7.9152266600022048e-001
    2.0001893777488813e+000 -1.0138564734558133e+000
    2.1455777281776744e+000 -1.4612163951844299e+000
    2.3870687815765614e+000 -1.8450897161401285e+000
    2.4270933919309106e+000 -1.9010753013984749e+000
    2.1792019408382752e+000 -1.5223021083172557e+000
    2.1555997187054263e+000 -1.4798602240005216e+000
    2.1082208909009417e+000 -1.3875003541276678e+000
    2.0854889299680290e+000 -1.3382373062759798e+000
    2.2679339145035020e+000 -1.6686454215074142e+000
    2.3000813737336205e+000 -1.7180139093422055e+000
    2.2545952764324473e+000 -1.6476820779604147e+000
    2.0806002939821147e+000 -1.3270481126850018e+000
    2.0029421574007751e+000 -1.0557326809004515e+000
    2.0223793631975409e+000 -1.1612049213973408e+000
    2.0428865325148409e+000 -1.2296411197108787e+000
    4.1626624837394823e+000 -3.9066914086267128e+000
    3.8600112335071750e+000 -3.5807392962732116e+000
    2.0337663079395485e+000 -8.3235307829777050e-001
    2.0680144946086352e+000 -7.7100346885645532e-001
    2.0904061178223574e+000 -7.4114807316471032e-001
    2.0009592784202437e+000 -9.6950370542249387e-001
    2.1816432342340772e+000 -1.5265873803084937e+000
    2.6848990341728358e+000 -2.2380893475571026e+000
    2.6116728510104248e+000 -2.1456035183209705e+000
    2.2483968252998805e+000 -1.6378345396938283e+000
    2.2100461570749119e+000 -1.5752102796610048e+000
    2.1356195982912221e+000 -1.4422664283450286e+000
    2.1365396002020494e+000 -1.4440361714115548e+000
    2.4389963865944146e+000 -1.9174780235610571e+000
    2.5281490415003378e+000 -2.0373043662746215e+000
    2.3967515616654462e+000 -1.8587578763550343e+000
    2.0906920592589970e+000 -1.3498921208245040e+000
    2.0033285880392029e+000 -1.0593822107680970e+000
    2.0113313029890492e+000 -1.1122649131988465e+000
    2.0319073618688055e+000 -1.1952910217314667e+000
    3.9680054036843218e+000 -3.6975565296856270e+000
    3.8733084364104617e+000 -3.5951564222713315e+000
    2.0426999372857924e+000 -8.1361032763318220e-001
    2.0832952331193209e+000 -7.5004899330430075e-001
    2.1002826256288034e+000 -7.2952194833440809e-001
    2.0056871247968768e+000 -9.2737694299627682e-001
    2.1629423328600410e+000 -1.4932719481431072e+000
    2.7934069965772168e+000 -2.3717833217551987e+000
    2.6738903760590591e+000 -2.2243134519399055e+000
    2.2049070319809077e+000 -1.5665696166804792e+000
    2.1282251891386803e+000 -1.4278922173096649e+000
    2.0928538741590303e+000 -1.3546627796507764e+000
    2.1055336321820337e+000 -1.3818837695626012e+000
    2.5139918936643175e+000 -2.0185987372370229e+000
    2.6732086995891180e+000 -2.2234590097528497e+000
    2.3667884168035886e+000 -1.8161831562184494e+000
    2.0691077672401490e+000 -1.2996986329804547e+000
    2.0032543035387600e+000 -1.0586968561810948e+000
    2.0068158579921769e+000 -1.0860364469073982e+000
    2.0260908024597355e+000 -1.1750978154450948e+000
    3.9943997675851777e+000 -3.7260166397910757e+000
    4.0274693450203971e+000 -3.7616269264176747e+000
    2.0393278387325280e+000 -8.2037892631016118e-001
    2.0828876614951986e+000 -7.5057401003353108e-001
    2.1011974134322902e+000 -7.2848437522243981e-001
    2.0135162785601013e+000 -8.9030234935687991e-001
    2.0849373422954520e+000 -1.3369868035683048e+000
    2.5804982391492439e+000 -2.1055667206130684e+000
    2.5804982391492439e+000 -2.1055667206130684e+000
    2.1391369902086073e+000 -1.4490111992371999e+000
    2.0692298610060051e+000 -1.2999977755019452e+000
    2.0615490215885983e+000 -1.2807666948785754e+000
    2.0815375900823994e+000 -1.3292123505793862e+000
    2.4457385594317893e+000 -1.9267224428634864e+000
    2.5421412014940374e+000 -2.0556854566370832e+000
    2.2066100037466447e+000 -1.5694400972680931e+000
    2.0294907274632830e+000 -1.1871058963801033e+000
    2.0006549596375343e+000 -1.0259217541895331e+000
    2.0019646324681721e+000 -1.0453173747471416e+000
    2.0196370249549909e+000 -1.1502942333059063e+000
    4.1390828264170736e+000 -3.8814469463380061e+000
    4.3064630210314156e+000 -4.0601677805252114e+000
    2.0288835353224757e+000 -8.4387770352210911e-001
    2.0784817426649540e+000 -7.5635999773391416e-001
    2.0996755700568781e+000 -7.3021398292130735e-001
    2.0201330438796488e+000 -8.6781892532176697e-001
    2.0218549418562035e+000 -1.1591649543022073e+000
    2.1877325351913823e+000 -1.5371984358214228e+000
    2.1393237294185159e+000 -1.4493676782192526e+000
    2.0000416067106306e+000 -1.0064711632995551e+000
    2.0074752481811546e+000 -9.1719735592022222e-001
    2.0078165527015517e+000 -9.1541066437403584e-001
    2.0008682227910310e+000 -9.7096529323572500e-001
    2.1002826256288034e+000 -1.3707606772943952e+000
    2.1334278802644562e+000 -1.4380340581872866e+000
    2.0295670995983817e+000 -1.1873687546779608e+000
    2.0013060238914737e+000 -9.6450816008444173e-001
    2.0183062099990257e+000 -8.7354341017588444e-001
    2.0086835253932307e+000 -9.1105523474887551e-001
    2.0007578339340015e+000 -1.0279103083606314e+000
    4.4424407769913135e+000 -4.2046063857913918e+000
    4.4508827765804329e+000 -4.2135534004049982e+000
    2.0113777117908467e+000 -8.9887090388245006e-001
    2.0596246323619893e+000 -7.8381758746091612e-001
    2.0968225070415878e+000 -7.3350466973912343e-001
    2.0188447531903693e+000 -8.7182319647019058e-001
    2.0106468290367663e+000 -1.1086441180530611e+000
    2.0647944876970961e+000 -1.2889982358693868e+000
    2.0445859738167664e+000 -1.2346204488205523e+000
    2.0317483784192727e+000 -8.3698772157629031e-001
    2.0959319338648164e+000 -7.3454505529986036e-001
    2.0981677035146005e+000 -7.3194519435657701e-001
    2.0554473388791710e+000 -7.9062465905285673e-001
    2.0294144605452229e+000 -1.1868431160359074e+000
    2.0414062123551981e+000 -1.2252387533411171e+000
    2.0072151431889185e+000 -1.0886261446342824e+000
    2.0100712655333921e+000 -9.0455367851244672e-001
    2.0417736297633469e+000 -8.1543636148901666e-001
    2.0174846112634337e+000 -8.7622423451991749e-001
    2.0017421194815230e+000 -1.0426188528153064e+000
    4.7106856488986173e+000 -4.4878624188926626e+000
    4.4722182393749765e+000 -4.2361551179459163e+000
    2.0113313029890492e+000 -1.1122649131988465e+000
    2.0024713580695450e+000 -9.5150756855164353e-001
    2.0308815575901296e+000 -8.3903223240366243e-001
    2.0000703168550054e+000 -9.9164957012849764e-001
    2.0257345231193953e+000 -1.1738023091392755e+000
    2.0586198139532477e+000 -1.2731928391392211e+000
    2.0348420610648215e+000 -1.2048925040147318e+000
    2.0596246323619893e+000 -7.8381758746091612e-001
    2.1748209963212952e+000 -6.6025526699756376e-001
    2.1847833253147493e+000 -6.5271047742955157e-001
    2.0879973336068951e+000 -7.4410999364726482e-001
    2.0320667705465389e+000 -1.1958217052216462e+000
    2.0443953575177836e+000 -1.2340657850421797e+000
    2.0162330627627281e+000 -1.1357838366885287e+000
    2.0000016642185705e+000 -9.9871078588424644e-001
    2.0148159405686905e+000 -8.8546200441247125e-001
    2.0000473393942926e+000 -1.0069040733587908e+000
    2.0336843087998937e+000 -1.2011461613144072e+000
    4.8604541053163715e+000 -4.6451770582952641e+000
    6.3725110347631135e+000 -6.2115198400555958e+000
    2.5729606354235504e+000 -2.0958205476891250e+000
    2.4470982885071333e+000 -1.9285828373517300e+000
    2.2936758310894718e+000 -1.7082978023852786e+000
    2.4266581926444943e+000 -1.9004735469162697e+000
    2.4717593733285566e+000 -1.9621018289247540e+000
    2.5292126804858346e+000 -2.0387052976008158e+000
    2.5007059693328033e+000 -2.0009411448875571e+000
    2.0605259158427405e+000 -1.2781374472600100e+000
    2.0097681185955762e+000 -1.1038384560207266e+000
    2.0102026358275280e+000 -1.1062381523114508e+000
    2.0646769409301444e+000 -1.2887028938981313e+000
    2.5119260568110273e+000 -2.0158598166087205e+000
    2.5340250325908262e+000 -2.0450361126273204e+000
    2.4775158169095928e+000 -1.9698674459109167e+000
    2.4142091048003933e+000 -1.8831972978318268e+000
    2.3441571862481032e+000 -1.7834444643171175e+000
    2.5088423032344660e+000 -2.0117667963691552e+000
    2.6925803458697981e+000 -2.2476764551364203e+000
    7.0334196808956682e+000 -6.8882448175617643e+000</input_scale>
  <output_scale>
    1.0526315789473684e+000 0. 1.0526315789473684e+000 0.
    1.0526315789473684e+000 0. 1.0526315789473684e+000 0.
    1.0526315789473684e+000 0. 1.0526315789473684e+000 0.
    1.0526315789473684e+000 0. 1.0526315789473684e+000 0.
    1.0526315789473684e+000 0. 1.0526315789473684e+000 0.
    1.0526315789473684e+000 0. 1.0526315789473684e+000 0.
    1.0526315789473684e+000 0. 1.0526315789473684e+000 0.
    1.0526315789473684e+000 0. 1.0526315789473684e+000 0.
    1.0526315789473684e+000 0. 1.0526315789473684e+000 0.
    1.0526315789473684e+000 0. 1.0526315789473684e+000 0.
    1.0526315789473684e+000 0. 1.0526315789473684e+000 0.
    1.0526315789473684e+000 0. 1.0526315789473684e+000 0.
    1.0526315789473684e+000 0. 1.0526315789473684e+000 0.
    1.0526315789473684e+000 0. 1.0526315789473684e+000 0.
    1.0526315789473684e+000 0.</output_scale>
  <inv_output_scale>
    9.4999999999999996e-001 0. 9.4999999999999996e-001 0.
    9.4999999999999996e-001 0. 9.4999999999999996e-001 0.
    9.4999999999999996e-001 0. 9.4999999999999996e-001 0.
    9.4999999999999996e-001 0. 9.4999999999999996e-001 0.
    9.4999999999999996e-001 0. 9.4999999999999996e-001 0.
    9.4999999999999996e-001 0. 9.4999999999999996e-001 0.
    9.4999999999999996e-001 0. 9.4999999999999996e-001 0.
    9.4999999999999996e-001 0. 9.4999999999999996e-001 0.
    9.4999999999999996e-001 0. 9.4999999999999996e-001 0.
    9.4999999999999996e-001 0. 9.4999999999999996e-001 0.
    9.4999999999999996e-001 0. 9.4999999999999996e-001 0.
    9.4999999999999996e-001 0. 9.4999999999999996e-001 0.
    9.4999999999999996e-001 0. 9.4999999999999996e-001 0.
    9.4999999999999996e-001 0. 9.4999999999999996e-001 0.
    9.4999999999999996e-001 0.</inv_output_scale>
  <weights>
    <_>
      1.9484021762930073e-001 -3.1866356029139386e-003
      -1.2956319018110261e-002 -1.8587112847015631e-002
      1.9624662996708484e-002 -3.5640125892797856e-004
      2.9577696436432727e-002 -2.0650347272538411e-002
      -3.3217884953905305e-002 -1.4506758006218517e-002
      -1.1188622484342750e-002 -5.5052222143176285e-003
      -3.8055330502434731e-002 1.3164804932915721e-002
      6.2299169367944524e-002 -3.1510870363475427e-002
      -9.8339641485775046e-004 3.7531837416547760e-002
      -3.1416883550341321e-002 -4.3766857028543875e-003
      1.8459897653220359e-002 -3.5669811759026587e-002
      1.6518419281100295e-002 1.9174230236649218e-002
      3.6796149860298819e-002 -2.7052078463401033e-002
      1.3827411447336619e-002 -4.0544081423696962e-002
      -2.6313077284008106e-002 -1.9580169823204669e-002
      1.3237626594847750e-003 -2.2715543067441564e-002
      1.6838369104987514e-002 1.0952211577723504e-002
      5.4882052478836249e-002 -2.4779983029426158e-002
      5.1123788311450459e-002 3.1143442527730311e-002
      -4.6162084032548290e-002 -2.3816705340102426e-002
      -4.1202251243009627e-003 1.9874888175196799e-003
      3.4560785522689638e-002 -2.4523470841749526e-002
      1.5530898158361787e-002 -1.8104808311084233e-003
      6.3844774629007364e-003 5.0252872284903216e-002
      3.6132146264212543e-003 5.1625711781778112e-002
      4.0008727683418059e-002 -1.0480413575776197e-002
      -2.5360425038234796e-002 1.0315250783643775e-002
      2.6485329881063811e-002 2.2935711397926114e-003
      -1.8753257212412819e-002 -3.8395449371344992e-003
      -2.4302294942911116e-002 -8.8667023492759005e-003
      -3.8430384876611426e-004 8.1642873579086561e-002
      3.2801582329716562e-002 4.8237235433576508e-003
      5.8714201872473192e-002 -1.2863301718805191e-002
      1.2457927542697688e-002 -8.8266205927582699e-003
      -2.6520846237344065e-002 4.4237123583835226e-002
      4.7530506690374875e-002 8.1238644546556293e-001
      3.5165137241717201e-002 -4.0219743049882597e-003
      3.9538571919586672e-002 -9.7702381717979736e-002
      -6.3234089499095036e-002 9.6932089046935913e-002
      -3.5807822185289599e-002 3.4112452434652073e-002
      1.0481579196107139e-002 -4.1609985081831249e-003
      -4.5899653823652763e-002 9.6860023911690008e-003
      -3.4427270420268254e-002 -6.9145528576954010e-002
      1.8563493935842501e-002 -4.4655783771041097e-002
      -2.3989959031200190e-003 -4.0083348709823954e-002
      -1.4912823477108997e-002 -3.1419628146899567e-002
      -6.2554392560245267e-002 -5.2050063172371279e-003
      2.9680796610230455e-002 -4.7052229163620986e-002
      -5.4930143211442080e-002 -2.9585948917130150e-002
      -1.3290771568597495e-001 1.4670575332035977e-002
      -9.9787325323562673e-004 -2.2298200929795012e-002
      -5.4802991115626830e-002 2.6980559881316039e-002
      5.6966308032288436e-002 4.9291271178700830e-002
      1.6521201056560592e-002 -1.3412956975794990e-002
      -8.1106873377895655e-003 -6.3852658281733018e-002
      -3.3127908351650512e-002 2.9602837671143978e-003
      1.5970331909716208e-003 2.5522090970071316e-002
      2.9140280865759493e-002 -4.7309243019473056e-002
      4.8984947648072957e-002 -6.0817022145512746e-002
      3.6731589767631414e-004 -1.8023188914696037e-002
      1.5664123982834666e-002 3.0157959729478497e-002
      -3.8577521366562055e-002 -5.1687886905174903e-002
      -6.8298930455786819e-002 1.5288371191833868e-003
      7.0327894301100757e-002 3.0916385278123806e-002
      -5.9054905151195769e-002 1.7320582126047479e-002
      -6.2211546916266153e-002 8.6155762600717792e-002
      8.9143794863917984e-003 2.7133944031470333e-002
      -3.6896322604149018e-002 5.1936293114021731e-003
      -3.4828206615853369e-002 -3.8373052739134092e-002
      -9.4702220077684703e-003 -1.9356242092860486e-002
      -3.5017305596602544e-002 7.6337459510705270e-003
      1.3692149586143226e-001 9.8093200504269049e-002
      -6.0325422431832650e-002 -5.5966077608086522e-002
      7.7465305049657721e-002 6.6396985984790352e-002
      -3.5564210705358560e-003 -5.7497641628354891e-002
      6.2548305419530617e-002 1.9295683397781097e-002
      -1.1456221100620104e-001 2.3064005580125608e-003
      -8.7761498119292482e-003 -1.2324645955430731e-001
      -6.9051178444365938e-002 -1.5079064034017811e-002
      2.5157414807613483e-002 -1.4040990277590049e-001
      -1.2277338134635832e-001 -9.2724611095056017e-003
      -8.5750514169462225e-003 9.6397342961511579e-003
      -3.3958736617300963e-003 -8.5079325073942919e-002
      -1.9484015645913311e-001 1.8555043881987876e-001
      -1.0847570161410795e-001 1.1280703433679920e-001
      -1.1218822292363767e-002 -4.3141592905964511e-002
      -1.3656581423030195e-002 -2.1367617833397527e-002
      -3.9362970725102843e-002 1.3280248537045136e-001
      6.4440100157773114e-002 2.3736796045917896e-001
      -1.5021021641453206e-001 -1.0095062942859570e-001
      1.6036269038880036e-001 -1.4574822785184861e-002
      -6.5636070822237949e-002 -9.4194585046618512e-002
      1.6083020693569729e-002 -6.4960112527564756e-002
      8.1066147753682760e-002 1.0255504775746545e-001
      1.7658417358427522e-003 -1.1782052286493108e-001
      -4.4421090029994489e-002 -1.4801335791957507e-001
      2.0335817223448860e-001 -1.1628958922749470e-001
      4.6447893702403292e-002 -5.9573245024086410e-002
      -1.7912618433232840e-002 9.2547451056061696e-003
      1.0424110850414424e-001 -1.8717501544632278e-001
      -7.2558205053887331e-003 7.5559824436395862e-002
      -1.2111876244114550e-002 2.7327431978619133e-002
      6.6833012266004882e-002 -8.5740974660692817e-002
      -7.0157630677088190e-002 -1.0078753903695068e-002
      4.8428609224134396e-002 6.1969827248730562e-002
      9.4202443367142740e-003 -7.2915657778089324e-002
      -1.8674607539972764e-002 5.9782965916609654e-001
      6.0133104584596669e-002 -1.4331880236306110e-001
      9.7977452777173678e-005 -2.8151921828471340e-002
      4.8829454293062978e-002 4.0915220441456089e-002
      1.4424511670021038e-004 1.8076817083514319e-002
      5.6367799303526254e-003 -1.9755399561232630e-002
      3.1363498920976653e-002 1.1831237497263732e-002
      -3.5957704031000570e-002 1.4631880315582957e-002
      5.3585653976001906e-003 2.1891806219857535e-003
      -1.1597784080726622e-001 -2.3243034349389718e-002
      5.4993193937424911e-002 -2.8073593244890879e-002
      -1.8232040113767341e-002 2.8171360844643140e-002
      -3.6366749252787142e-002 -5.4288259469925000e-002
      5.4115144639474172e-002 1.6290177397957583e-002
      1.2723653619397509e-002 -5.4498305986418081e-003
      -1.3402234339142817e-002 -4.7230492723828532e-003
      2.7696703318141878e-003 -2.8225185721197549e-002
      8.4623785643616403e-002 4.3436605409283575e-002
      5.1122704948868711e-002 2.2272810185258896e-002
      -3.0945772085019925e-002 1.1151010810414939e-002
      3.1781251707155310e-002 -1.6319863864151189e-002
      4.6036084855052443e-002 -5.8126256268993554e-003
      4.5552735601551257e-002 1.5635488853891603e-002
      2.6399849822471181e-002 1.5102616689607403e-002
      6.7999811164618810e-003 -4.1156984617648058e-002
      -6.7572397063846754e-002 9.5612944281369364e-002
      1.7803241771926090e-002 5.8753681597426978e-002
      -3.7286318224939441e-002 -1.9580863883287700e-002
      -1.8179905655499737e-002 -2.8890059099563373e-003
      -6.6345846721713009e-002 4.5078553178303539e-002
      4.3506352360884529e-002 -2.7060799962173820e-002
      -1.6086471345968325e-002 2.8267269127381901e-002
      3.3103751978584131e-002 1.4376431960002623e-002
      1.0912911334374253e-002 -2.8414062035812825e-002
      -7.5052707598756332e-004 4.4960380307908360e-002
      6.9973938328435931e-002 -3.4232715801346243e-002
      6.6205293244118257e-001 6.3875975527836221e-002
      -9.1615521354432433e-002 -3.6598994470100135e-002
      2.8874774866464236e-002 5.8564583562049133e-002
      5.7851336199813426e-002 5.1814860409682459e-002
      -5.8583091713716269e-003 3.2762511875270198e-002
      -5.4468389849989911e-002 9.1564924429955574e-003
      -9.4313887677417510e-003 -4.6801514694364901e-002
      1.1200429137009114e-002 6.7207421056010228e-002
      -7.6088278220503109e-003 -9.4717408295852554e-002
      -7.7612317497530335e-003 8.1099398703260769e-003
      7.2108384632459509e-003 3.8338293094041548e-002
      -5.3673312244107582e-002 -3.5448602165975077e-002
      -6.2507766784884997e-002 1.2199276315182971e-001
      -1.0169002105803097e-002 7.5718305775851633e-002
      -3.7692849049392615e-002 -3.9750411579057225e-002
      2.8936982321661024e-002 2.3818068486750001e-004
      9.3579295500123235e-004 1.4414083462250505e-002
      5.5804827179738699e-003 4.4445805152784949e-002
      7.6095693983344051e-002 -6.0590709656919437e-003
      7.1264514419600800e-002 1.4872056832126975e-002
      -1.5723816106836309e-002 -4.0121867985392509e-002
      -1.2219033867893994e-001 2.8620439839778512e-002
      7.9588380363465119e-003 4.0864404185419645e-002
      2.6037564606087821e-002 -2.3598099863625967e-002
      -1.0424335779214620e-001 -4.7747348157738269e-002
      1.3848442236884961e-001 -2.1423600537786115e-002
      3.8224515373654559e-002 -7.2283880392146694e-003
      -2.1901307813680375e-002 -2.5046875203941239e-002
      7.8798351846196147e-003 -8.5018068863277674e-002
      -1.3140075420211251e-002 8.0024248552598848e-002
      2.4716937563758878e-002 2.9918328818163971e-003
      -5.5036307603961256e-002 5.0166793664687799e-002
      5.1413530540870027e-003 -3.1048525404383060e-003
      -3.7316728602206799e-002 3.8812761499113661e-002
      -4.3492643706931119e-003 9.1995832365476565e-002
      -1.1738388800096474e-002 7.1127848398767146e-001
      -4.8417815197858420e-002 -6.8930767881078284e-002
      5.1250933379220841e-002 4.0119161096830336e-002
      -5.9653107366267562e-002 3.2115917397339641e-002
      1.2224669447000507e-002 -4.0835649295056564e-004
      2.1731106316226337e-002 -1.0005491635056870e-002
      -2.3912720582723680e-002 2.2520948028987849e-002
      -4.5951414819598701e-003 4.8268099117053723e-002
      2.3226478742276006e-002 -3.9767044450201738e-002
      9.0020542568990405e-002 2.0149641445300494e-002
      1.7450878402893086e-002 2.7208219861308780e-002
      -4.1132760197219571e-002 1.2795341898351655e-002
      7.3066905968194998e-002 5.1969855592661825e-002
      -5.0763956011496393e-002 8.8452472120480897e-003
      -5.0468737366137590e-003 -1.2346956961847736e-002
      -1.1385560491745376e-002 3.7051041901921773e-002
      -1.0503846656887316e-002 -4.4362503346096344e-003
      -3.0325592007876642e-002 1.0529490134522779e-002
      -3.3038324859678003e-002 3.7530486035799400e-002
      -1.4025718234002784e-002 -1.5251950999953344e-002
      -6.5393230050831081e-003 -1.6180132918285281e-003
      3.9089284550500369e-002 -6.5324244015083924e-002
      7.0848341565000902e-002 -1.5248138009429549e-002
      2.9147816342127927e-002 -6.8593257753457506e-003
      2.9000257353618601e-002 1.5441278678723421e-003
      2.6866216865130962e-002 -1.6533868615828264e-002
      5.2399258593768035e-003 -4.9374512880950863e-002
      5.4777838527725324e-002 -9.9366891818076682e-003
      -2.1320456045409724e-004 -5.6392235311595526e-002
      5.7370071340737759e-002 3.3788724401611091e-002
      4.4458469337265168e-002 -2.6579752520778134e-002
      -2.0692863934156761e-002 -7.8683758718543731e-002
      1.0711964807825700e-001 1.0407078839807212e-002
      -1.1987178492061887e-002 -6.5862744621623864e-002
      -6.4035849212789625e-002 -2.3769128758507358e-002
      8.4234519987254758e-002 1.7564301927927180e-002
      7.0184284660779450e-001 3.2995560444617510e-002
      -2.3218062646416956e-002 2.4736185145628371e-002
      1.0601295698018159e-002 7.5567895840974184e-003
      3.1747823606130738e-003 1.6830725491282859e-002
      -1.4255734782798977e-002 1.8067040302529598e-002
      -4.6700988533001422e-004 -5.2811512177524111e-002
      -2.4534842375321195e-002 4.8256670441268794e-002
      -2.1659963613822719e-002 5.4538086867847960e-002
      -4.0647029441587691e-002 1.1612946858584985e-001
      2.0295212182808626e-002 3.0618975343415226e-002
      3.6930433561084004e-002 2.0898334677020625e-002
      -1.5609287735573829e-002 7.3701117319862133e-002
      3.0550405051243644e-002 -5.4057059943939433e-003
      -1.4973305222978845e-002 -7.4202132005964528e-003
      8.1156097962253471e-003 -9.2901163780857443e-003
      1.4453626787331035e-003 -2.3393007260795566e-002
      3.8934692518857276e-003 -4.5749283864763991e-002
      -7.0304043956973877e-003 -5.0966746614841636e-002
      -1.3185079106182778e-002 -9.0546111889699341e-003
      5.7386324093897281e-002 2.2731023021126614e-002
      -3.9130016466738395e-002 -6.2005061994196229e-003
      -3.0105500481975186e-002 7.2230796056672708e-002
      -4.4766331248869674e-002 -7.1352715856430812e-003
      -2.2861167207456790e-002 -2.1763835688300742e-003
      -3.1123524913673150e-003 5.7161075540443945e-002
      1.0177756241802484e-002 7.4850461488954710e-003
      3.2867948771756757e-002 2.1729515791221975e-002
      -2.1928756360389559e-002 3.2665721611553802e-002
      -2.9777648396944266e-002 2.3213698597707982e-002
      1.4181999287090375e-002 1.1132444427507054e-002
      -2.9561161874270378e-003 -3.4400849390525297e-002
      1.5043651980386832e-002 2.4283852473840496e-002
      1.6949730385671238e-002 9.1963471083183739e-003
      -5.8444952070207841e-002 -2.0425364694431014e-002
      4.0151159372819274e-002 7.1479252153675149e-002
      1.7517046953530575e-002 8.1379075394205802e-001
      -4.2774076835385335e-003 -6.7391129060909794e-003
      3.6554912246201755e-002 -9.3015688537108083e-003
      -3.7681320174594538e-002 2.5112251735125581e-002
      -1.5670463982733512e-002 -3.2546295907721436e-002
      -1.1918514858966741e-002 5.0796189711839208e-003
      -6.8485504907877498e-002 -2.0032281644665299e-002
      6.9852322829208391e-002 -2.7277691984185004e-002
      5.5261793316402019e-002 -7.4748522774178844e-002
      9.9083900463978539e-002 2.4718545337880805e-002
      4.1282439142523294e-003 5.6032358625139004e-003
      3.3821286718556165e-002 -3.8285705563882680e-002
      3.1273942140033220e-002 2.7598251515179049e-002
      -1.5543566061777068e-002 3.0209630322510009e-002
      -4.4352588499446663e-002 2.3969189053568877e-002
      9.2002858528938431e-003 -1.6451984538704254e-002
      -7.5807776757204071e-002 1.1981965678798209e-002
      2.7957912913232968e-003 6.7336059333279047e-003
      -5.4029009412273191e-002 -2.4468230772508346e-002
      2.2554165421645529e-002 6.1726699122283998e-002
      2.2835020951858447e-002 -1.7846804233128229e-002
      -2.6239734484219977e-002 -4.8357535953477380e-003
      8.8481267696589511e-002 -5.6957486899091879e-002
      -2.4781063819001056e-003 -4.8042432059251579e-002
      6.8181467741498551e-003 1.6622761070749739e-002
      7.2883008835304006e-002 8.0879139030999737e-003
      5.7308881104633765e-004 -5.0036365330653832e-003
      3.1577749222218829e-002 -1.6553939854292172e-002
      2.9062827176578165e-002 -3.0295719238104708e-002
      1.5252688055244599e-002 -2.7294690959577678e-003
      9.6371464752318045e-003 -1.0162901859225085e-002
      -3.8499742891012441e-002 1.8079234734334159e-002
      6.2040925762621634e-003 -1.7683809061362493e-002
      3.2104531007802153e-002 -5.8074140106948981e-002
      1.7126542505850075e-002 2.8747344034394644e-003
      7.0285758944687235e-002 2.1147936185540193e-002
      3.9408012079669053e-001 -3.9974931659418154e-003
      3.2150000485914577e-002 1.8279391702036310e-002
      2.4965400662449754e-003 -7.1848495882296415e-002
      2.3677693648002863e-002 -6.5688875268269054e-002
      -3.1329433327594004e-002 3.2008586227082574e-002
      3.7955095893248046e-002 -5.4691209988704248e-002
      8.9304319817967368e-003 4.3608721468510261e-002
      -2.1183079948157567e-002 1.4899456742653347e-002
      -3.2399121028291053e-002 6.1504639012241152e-002
      -2.9075590739813164e-002 1.9354189452799195e-002
      -8.4418987141438272e-003 -7.5176022088555916e-003
      -1.1616535913556878e-002 2.4200233727519175e-002
      -2.3448532409966225e-002 -2.8969789488121629e-002
      1.3268943007076520e-003 -5.1624878951821052e-002
      3.9128027312807705e-004 9.3402445904736744e-003
      8.4818634972703352e-003 -3.6680332549238401e-002
      -1.7595030417309972e-002 9.1673916580752909e-003
      2.7475691657308197e-002 -2.2836148475171944e-002
      -2.0907572495786588e-002 3.4803199573916914e-002
      8.4046476889141578e-003 -2.1379319687105186e-002
      -6.8281117723882609e-002 -1.1687854954470119e-002
      1.4873255766629616e-002 5.7075048926970660e-003
      -3.0020151216668570e-002 1.4759774217668111e-002
      -1.8061112505985605e-002 -2.7971452577406315e-002
      1.8797611454138816e-002 7.1933790839481138e-003
      2.9985998669440985e-002 2.3326506475447081e-002
      -2.2111068159496119e-002 3.0942238425765035e-002
      5.4701469319162012e-002 9.4342289969679884e-003
      3.4305827056527342e-002 3.1223015445500164e-002
      -6.1621179346795368e-003 9.3293299614492873e-003
      -4.7771703775717919e-002 -2.6127314879649810e-002
      3.9429093435123580e-003 -1.1510351033850206e-002
      -2.6751145444058291e-002 3.4740813882155525e-002
      -3.3599361117915463e-002 -1.4907434256644009e-002
      -2.4044961810051724e-002 1.5007720806310382e-002
      3.2119055114514031e-002 5.5258351208779688e-001
      8.0931653728154255e-003 2.5253949153501116e-002
      3.5164868835902613e-002 -1.0171780705671551e-001
      3.7046089583832362e-002 2.5301871769922726e-002
      -2.4034949513911125e-002 1.6305208213709652e-002
      3.4672159125014444e-002 6.6869836489439491e-002
      -2.8082581830756868e-002 1.2212936424988007e-002
      6.1786661023621875e-002 -8.4452835956289486e-003
      4.3804703632937363e-002 1.0224316001578101e-001
      1.4415356233641426e-002 -1.8799785681125641e-002
      9.9248640427527790e-003 -2.4369646781441882e-002
      -5.4320496385270783e-002 4.5936316884848669e-004
      8.7674033258046246e-003 -5.8604558226507800e-002
      -6.6385843672221445e-002 2.0192779242656955e-002
      -5.6737945878195313e-002 1.3576402073448757e-002
      6.2965153642756330e-002 2.2547781644469796e-002
      -5.4757930406230722e-003 9.7580777625619706e-003
      1.3769968654012619e-002 2.6009357605251825e-002
      2.0795300356044055e-002 -9.1470126665321130e-002
      -1.2636262014669743e-002 -3.7287180321310641e-002
      4.4279839099159092e-002 -8.7117591264525160e-002
      -4.9004039840702188e-002 2.9663166182222173e-002
      7.9789316917664426e-003 2.2818284203124459e-002
      9.2117808739791349e-003 -1.0984463536186319e-002
      -4.5685918214329213e-002 -6.0136337568604840e-003
      -1.2539031771523565e-002 3.7446855438799248e-002
      4.6136172153598227e-002 -2.7610631099841909e-002
      -7.7628295192979202e-002 9.9797703871560062e-002
      -1.8941121171681223e-002 2.6666459233852028e-002
      6.2744222310674280e-002 -7.8916186833821039e-003
      -2.6579741661032956e-003 2.9429008623463836e-002
      -3.2831590113473839e-003 -2.4167666403294305e-002
      4.7285681219816141e-002 8.7728428154332308e-003
      1.5984671037972770e-002 -6.1522411810097696e-002
      -4.6461981001152487e-002 -2.5334212351704587e-002
      2.2017693097678547e-002 7.0336541391972721e-002
      5.7623530750551755e-001 7.2999280815311445e-003
      3.0389157893015762e-002 3.4319131939186447e-002
      -9.8298235983969459e-002 2.6863610273681001e-002
      2.1726538674634199e-002 -2.2105070880629556e-002
      2.6189862696968817e-002 3.6697675588636673e-002
      6.4832373179891795e-002 -2.7741956092110866e-002
      -4.4404322953747483e-003 5.9719862307443715e-002
      -1.2796125164509000e-002 4.7162853193632580e-002
      1.0721233354893241e-001 1.3728697755822174e-002
      -1.4483014326815201e-002 9.8508060649959792e-003
      -2.2296076363653557e-002 -4.6458778454867476e-002
      -6.1747886402927612e-003 1.4508408629914491e-002
      -6.0025648297950054e-002 -5.6169052164944215e-002
      2.5996217094789605e-002 -6.8706277188462575e-002
      1.5591203125646085e-002 6.0577679895530923e-002
      1.2092277629070036e-002 -2.4408593082386257e-003
      1.8891989250314312e-002 1.7415941899823668e-002
      2.3123381605585715e-002 1.0853931892242052e-002
      -1.0805133456146693e-001 -1.7939171547106086e-002
      -3.5091368790243174e-002 4.0419731649843846e-002
      -9.3273286019917426e-002 -5.4979354510609466e-002
      2.3161858151278285e-002 -1.1750907929030752e-003
      1.5701626967247542e-002 1.4660081301460905e-002
      -1.2782072208965630e-002 -4.5606550109549261e-002
      -6.7771393975859613e-003 -2.1526900234666746e-002
      2.5484390777582210e-002 3.9172718672431821e-002
      -3.2579915749833828e-002 -6.6137560166912718e-002
      9.7753136320510386e-002 -1.9747586744040070e-002
      3.3344330367599963e-002 5.4841587824799219e-002
      -1.0855792498795763e-002 -1.6577796079215470e-002
      3.8619462994316643e-002 -3.1426617187928175e-003
      -1.8433355334969575e-002 5.6844531041821231e-002
      1.9555376584536415e-002 1.7850338174004107e-002
      -6.2007531660388304e-002 -3.2947120646757991e-002
      -3.3233195718308059e-002 2.1431586992691341e-002
      7.1680224498670064e-002 4.4429612221969306e-001
      1.6086001051240899e-002 3.8062384110336876e-002
      1.3379676054435234e-002 -1.5370128623552994e-002
      -6.0870212563755903e-002 3.2734502142002991e-002
      -6.2954311990283465e-002 -2.5857874357929685e-002
      2.8646818084997448e-002 3.0851463667973575e-002
      -4.3170351798745558e-002 3.5786733212924094e-003
      1.3260418503069233e-002 -1.9894064527477603e-002
      1.0758134073044694e-002 -1.8713990066824147e-002
      5.4274835365411472e-002 -4.0592830736391541e-002
      1.3409541463751472e-002 6.8489780948767865e-003
      -1.4109617394109653e-002 -1.3441525178448625e-002
      2.4331709618227053e-002 -3.4542916863839208e-002
      -1.3463447377188435e-002 -2.0120244464434127e-004
      -3.8686513420880864e-002 1.6708926120665879e-002
      -9.1516170967216657e-004 1.5374211026140470e-002
      -3.5217891946968290e-002 -2.1339180392887375e-002
      1.3925323437109090e-002 4.1222462431065185e-002
      -2.1473346995212448e-002 -1.0001768593760625e-002
      3.8018243244505721e-002 7.0785571959967718e-003
      -1.5877236623627916e-002 -5.2537758575759867e-002
      -3.1278755811428249e-002 2.1468960377228816e-002
      1.0518998334588896e-003 -2.9574264708104252e-002
      1.1383449817989296e-002 -1.9993216278037598e-002
      -3.2901076646644975e-002 2.7673873804709664e-003
      8.2480587558621948e-003 2.6254544629534124e-002
      4.2587196527671062e-003 1.0718754946028395e-002
      3.8883574483103117e-002 4.2062919707271718e-002
      3.1158887841075465e-003 5.1580575439054629e-002
      3.4578460210487660e-002 -1.2056941405079911e-003
      -4.0536268042474215e-003 -4.5003054917852787e-002
      -2.6459818630443620e-002 2.1110136685535482e-003
      -3.6107251218700939e-002 -2.3853620462373024e-002
      3.7977112325752141e-002 -3.5265039529446492e-002
      8.8337303406864961e-003 -1.9808985284088462e-002
      1.1622429216053380e-002 2.3467700113650399e-002
      6.9011755015161447e-001 2.7164657513834553e-002
      1.6421448019152303e-002 3.3500625380748307e-002
      -2.9744533281747788e-003 -8.1456314003545936e-003
      -5.6519841325081512e-004 -6.1167520046011914e-003
      -5.5153682994947849e-002 -6.5543564947136937e-004
      -1.1842036296170620e-002 -2.6677473974543734e-002
      -2.6372470723038447e-002 1.9682987031988296e-002
      -3.5599015251824490e-002 6.9694626048017891e-002
      -7.6694229540743120e-002 8.3527727987955103e-002
      6.3562555994145661e-004 4.1674655210843459e-002
      1.0891302708215721e-002 -1.2533198829397935e-002
      -2.4801377750293830e-002 6.7746445928569710e-002
      3.2814897669060261e-002 -2.3483754605290192e-002
      5.4143623874485331e-003 -3.9754999579636921e-002
      1.7164669218263012e-002 -2.1528988243728040e-002
      1.5189319646054307e-002 -4.5481525471148553e-002
      -3.0985887323398383e-003 -1.4130602636912544e-002
      1.0021224473459284e-002 -7.9822970729922657e-002
      -3.5784588243015468e-002 1.4866170256316695e-002
      8.3604380508760859e-002 -2.1948115511671873e-004
      -2.5279457199004634e-002 -2.0347335502229835e-002
      -7.2970603641596128e-004 5.0440220979717336e-002
      -3.8277107091643385e-002 2.2820665643602338e-002
      -1.9238830344570058e-002 -8.3909736143500616e-003
      1.2685061265835951e-002 6.2224461763931635e-002
      -6.6568460769143108e-004 6.9558428367410361e-003
      3.9926031591083549e-003 5.5471074000529065e-002
      2.7858427057002668e-002 1.4660889480372074e-002
      -1.1797701133883043e-002 1.2083794571658184e-002
      1.2507619363221827e-002 -1.9988485736374406e-003
      8.6340227716053281e-003 -4.0831272050357248e-002
      1.8294067673070971e-002 7.3820247616178504e-003
      -1.6495039585461717e-002 3.6407802027023803e-002
      -8.0843638868125456e-002 -2.2681780752579128e-003
      2.5401552750833934e-002 2.5538391183170216e-002
      1.7009135063298965e-002 8.7638284752990681e-001
      1.3870038030863166e-002 1.5595534929929147e-002
      4.2587291327051698e-002 -3.7078046863859154e-002
      6.4311017387570103e-003 3.0450758155571737e-002
      -1.9328852690899526e-002 -6.0583180689869107e-002
      -7.9758320381321419e-003 -4.8064889073698974e-003
      -2.1846862018064770e-002 2.9283378524747244e-002
      4.3128981056417770e-002 -1.5279284747319205e-003
      6.1150858578234574e-002 -5.8294198220610653e-002
      9.3020158501430625e-002 1.0761766288888842e-002
      4.9145358832005132e-002 9.1793606149667938e-003
      -4.2777050331692015e-003 -1.7938232272983058e-002
      7.1524361087644081e-002 4.6752110579385726e-002
      -7.4405006154276846e-003 5.8119016265438618e-002
      -5.4075674227189063e-002 3.2256343934515694e-002
      -3.7553811495566303e-002 1.4968415839917159e-002
      -3.2826394464936383e-002 2.0645886170819208e-002
      -4.1522533337819925e-002 2.4487650270027868e-002
      -6.7865041190309602e-002 5.3774641130483513e-003
      2.4712995624360155e-002 3.6401840784051682e-002
      9.6063437914956464e-004 2.3734589765201677e-002
      1.8506869087821044e-002 -2.9725003480896031e-002
      6.5542618300453506e-002 -4.7659121609375021e-002
      -6.5538437323735504e-004 -1.6233124946504755e-002
      -2.3384654913514401e-002 -2.8060291405247965e-003
      9.0857082950894993e-002 -2.9035913757906897e-002
      -1.2081338697398778e-002 6.4774109298523248e-003
      2.2179568867033626e-002 5.3005552453480520e-003
      -8.7708456435181049e-004 -3.9029160673229889e-002
      4.0745088876542414e-002 2.0568524910533126e-002
      5.6694364499083761e-003 3.8138717124793831e-003
      -2.7673830321145895e-002 -2.7449183440647749e-002
      -4.4665080986478574e-003 2.6977185800825410e-003
      2.1199825188414338e-002 -1.0051463532357888e-001
      -1.6794862137244574e-002 3.0028663239841998e-002
      4.5825201846015427e-002 4.3250207181964928e-002
      9.0566102315399710e-001 1.5854194405097395e-002
      4.7001691024269009e-003 1.0087256284810926e-001
      -2.9549747939870870e-002 -2.9744817440980530e-002
      3.5528121410186027e-002 -4.1669450592949957e-002
      -6.8781896844857568e-002 -2.9329306948090755e-002
      2.6538116761229426e-003 -3.8994400434311995e-002
      7.1550907744567419e-002 7.6549233575601533e-002
      3.5490917874298943e-002 4.6034348998783378e-002
      -3.6840881801649371e-002 1.2102878385089046e-001
      2.3561678746078799e-002 4.1302116180450932e-002
      -3.1569223043800887e-002 6.0706870819586837e-003
      -5.0215300390391272e-002 3.0899744802531513e-002
      6.7020387847302285e-002 -5.1932365299175012e-002
      1.0968384321476707e-001 -7.5348730064898256e-002
      1.9661829882855274e-002 -4.8916379189374373e-002
      -5.3333384385980164e-003 -6.3725612924901684e-002
      4.5375034066603148e-002 -2.5897513770373099e-002
      6.7806233348979544e-003 -8.3130431803062690e-002
      6.0838564754532372e-002 5.6002839093702746e-002
      -8.0183306126261709e-003 1.2755293331188316e-002
      2.2611237311681957e-002 2.7904979566266953e-002
      -5.8639282799240834e-002 7.3494801031113874e-002
      -9.5185709392910559e-002 8.1420372179468251e-004
      -1.0853139148567207e-002 -4.5304201376326573e-003
      -8.4886954085473410e-003 1.2128347275288598e-001
      -8.7063231128474111e-002 3.5881145744031820e-003
      -3.8254378246036003e-002 -4.1356797264574790e-003
      2.3548473228936311e-002 3.6340165264641081e-002
      -5.2722138858418498e-002 9.9801486055709765e-002
      2.9167953320576895e-002 -3.2069794644029100e-002
      1.9555302719252356e-002 -4.0210953430728065e-002
      -1.8464226571692213e-003 8.5867947331570564e-004
      7.1860677773870146e-002 2.2979110695284383e-002
      -7.0519980200340462e-002 7.7613464902360806e-003
      3.3296079847025692e-002 1.3484886245698593e-002
      8.4194854696809068e-002 1.0447023390050469e+000
      2.2557996348802636e-002 1.1761389132497738e-001
      4.1638186311220911e-002 2.5526944388612527e-002
      6.6453408847686621e-002 -1.0863399921976652e-002
      -4.2262855391526362e-002 -7.6848707861422769e-002
      4.8537918383091738e-002 1.6337545218948400e-002
      1.1388067044731802e-002 1.2478856401746516e-002
      4.7988476707310213e-002 8.8765583024598554e-003
      3.1355786667415383e-002 1.7836270218255460e-002
      2.5837308585700852e-002 5.2749357583742509e-002
      5.3789622732801348e-003 6.3513928701240965e-002
      2.8134726850232418e-002 -7.8748633960469300e-002
      -3.1037674762741482e-002 -6.2816813011840099e-003
      -4.1025885332530945e-002 -2.0378696921334736e-002
      -1.4801610688120970e-002 -3.3127490570453125e-002
      -4.2478203160799276e-002 2.6795758322921973e-002
      -4.9004142417700292e-002 1.2367212152866469e-003
      -8.2142948203830266e-002 -5.9583145659146255e-002
      -1.1875390086128404e-001 -6.9243924849422050e-003
      1.1784009226622930e-002 5.5938804715467390e-003
      4.4917391955138330e-002 2.8565222300877442e-002
      -3.4905350433105990e-002 -4.5059833565111243e-002
      -8.4691339177355557e-004 -5.6403820584045326e-002
      -6.5310889190703741e-002 -9.4569530805714720e-003
      -3.3541510341994221e-002 1.4081194879677448e-004
      4.4993440678656557e-002 -2.4197610377886383e-002
      4.3715147382457267e-003 5.5308756718613884e-002
      5.5262352784850637e-002 4.5711803562101597e-002
      6.8395808083014820e-002 -1.8181767120232586e-002
      -1.8545451696866791e-002 7.5000972254844053e-003
      1.5084311389293815e-002 7.0105427830139504e-003
      -7.5393776106979851e-002 1.4233228282026783e-002
      1.9375093335777929e-002 2.3181529931222397e-002
      2.1264408872844307e-003 -6.7023711873298586e-002
      -3.7319141121495803e-005 2.6270937584896160e-002
      9.8994053079165447e-003 1.2373221481109154e-002
      1.3239679143347987e+000 -7.2503274118438696e-002
      1.0155841439121539e-001 8.3771347352157147e-002
      -6.2126476749112579e-003 -8.0081319188000238e-003
      -3.4078507214155875e-002 -5.7868054883199148e-002
      -9.7120415078641428e-002 5.4565975804641481e-002
      2.8167593858759624e-002 -7.4353843439654618e-003
      -2.3926113467685608e-002 1.2438570395573044e-001
      4.4090675989983980e-002 3.1928457316535478e-003
      -2.1852824453810430e-002 1.1111464231613399e-001
      1.0745896585542604e-001 6.8680892744146044e-002
      2.4006908781625338e-002 -3.6033086662030540e-002
      -1.0588687615057771e-002 2.5505638908691997e-002
      3.4310176078686298e-002 -1.3998427799189617e-001
      2.1978481578302417e-002 -8.3907268384374539e-002
      3.0162955667124215e-002 6.5312017781326453e-004
      2.0489060594356444e-003 2.8652470570276280e-002
      -1.6084401170180708e-002 1.0702076919218817e-002
      -3.9533736126305799e-002 -1.7765766332630117e-001
      6.5507757522461296e-002 5.3155294876986427e-002
      -4.4691114397804932e-002 3.2197623357362648e-002
      -9.0522101016486198e-003 -1.2037281950236086e-002
      3.8080671281355866e-002 1.4804432229311026e-002
      -7.9828102338020106e-003 -8.6131997229757798e-002
      1.5303872650126766e-002 -1.1626612508778484e-002
      4.5959575644667557e-004 7.7566514396489331e-002
      -1.0506106779942483e-001 4.1553460878120820e-002
      -7.3120134641891057e-002 2.2332950794060235e-002
      6.2052546530492719e-002 6.6577201765047028e-002
      -2.3639563927892474e-002 6.4616611514341574e-002
      5.3421101762926609e-002 -1.6859871803297854e-002
      -2.1510022713424531e-002 -2.7274550867425789e-002
      1.9703134632523593e-002 -1.3561520230260277e-002
      7.4645625823604150e-002 7.0853912086381587e-002
      -5.3655948713666413e-002 -4.0246799061711060e-002
      3.7184430293395507e-002 -1.2505560173173351e-002
      -9.3396072131697351e-003 1.2770911429124887e+000
      -2.3779731870090925e-002 9.1314006728802438e-002
      -2.4308039572207021e-002 -3.0966666004280333e-003
      2.0868003411519977e-002 -8.1410657833147215e-002
      -7.8058898875948579e-002 -5.3128608786287114e-003
      4.1965232622817018e-002 8.2236066351956558e-002
      -7.5046992966803952e-004 -9.5520406660064394e-002
      2.7395529062769135e-002 -4.0679701328503064e-002
      5.0803797104079049e-002 1.8384799616795570e-002
      7.5931932769730988e-003 6.7696201660534319e-002
      1.5957617344089284e-004 5.2707642804703081e-002
      -2.7553765436915779e-002 -2.4315792381142953e-002
      1.0983339004453753e-003 3.8408688671516672e-002
      -8.6155425406571187e-002 -2.0739375610793403e-002
      6.1978365089663104e-002 1.9535340014302432e-002
      7.6620785499243602e-002 -9.5031757488398417e-003
      3.0277582180822896e-002 -1.8308336052573884e-002
      -2.9797078558189689e-003 1.6019691210763781e-002
      1.9910680052843549e-002 -1.7789322450591023e-002
      1.8877480560060583e-002 -4.7973632169855535e-003
      -1.5553888088551588e-003 -7.1822504306418913e-002
      2.4708057194457476e-002 3.9516512698288382e-002
      -1.6013611997960289e-001 7.5132644740009372e-002
      -1.1864944602045728e-002 2.7807509000846206e-002
      7.5546364553162283e-003 6.3800536771842650e-002
      -7.9954715424482181e-002 -1.0457608471334089e-001
      -2.3158170242637124e-002 -6.1050382065325273e-003
      2.2351392261650131e-003 5.6457388065125711e-003
      5.1206431104548852e-002 2.6102022836947916e-002
      -6.1052692459841046e-003 5.8379771500314981e-002
      -6.4147746236260753e-002 -4.9746582413338951e-002
      2.9086626671760818e-002 -6.6897788549331611e-003
      2.8403236465552786e-002 -3.6136730417649698e-002
      3.8342977551993979e-002 -4.1732700354341103e-002
      -1.0810628292868385e-002 -1.9073831468551045e-002
      1.4800984614909606e-002 -1.2338802533411308e-002
      1.2347097166552130e+000 -7.3864446245511681e-002
      5.8270775972619177e-002 -9.7819209623213943e-002
      1.6631455976723372e-003 8.9438156184701353e-003
      -7.6926622621272076e-002 -2.9107369279136142e-002
      -1.8205427225834844e-002 9.2269154457229122e-002
      6.7187784046370005e-002 -1.0931407796150577e-002
      -7.2119868456557976e-002 -1.5361538335364455e-001
      -6.9724466034756849e-002 8.3152558077594831e-003
      -3.6971042221274245e-002 -1.3666555946701237e-001
      6.2807410020625690e-002 -7.2294878933412646e-002
      4.7862629819281195e-002 1.2832100900490343e-002
      1.2410199977137605e-002 -5.1403113244050183e-002
      7.1663264082224122e-003 -1.7163577763988792e-002
      -7.5694524404851110e-002 1.4315724988660344e-001
      4.5007779099357166e-002 7.0704720814841013e-002
      -2.7782051875428801e-002 -2.8379536485960339e-003
      -1.1115489862980627e-002 -5.1160818275535869e-002
      1.9182939461286557e-002 1.0423745301408939e-001
      -2.8905725733543941e-002 7.8991522379708613e-003
      4.9857473159849265e-002 -3.6181943848006708e-002
      -5.1458590205826729e-002 1.7261668111219455e-002
      6.5332429532242338e-003 -1.9761373763955234e-001
      7.1474480970744117e-002 7.2032725350777089e-003
      3.4280230657923037e-002 -1.1987590798938295e-002
      8.5336897185884802e-002 -6.6862744999287918e-002
      -6.2245107207497277e-002 -1.0745630614495170e-001
      2.4156633769155774e-002 8.4345452728351894e-002
      -1.6296255647740388e-002 4.3567368950358468e-002
      4.5800722585139474e-002 -1.5782372470580140e-002
      1.5641496193858240e-002 -8.2169016569511102e-002
      3.4835764143093410e-002 1.6892831393211943e-002
      6.4265349323627971e-002 -1.0229974411496859e-001
      -7.3163688501055271e-002 2.6282552060562934e-002
      -4.7921683325024840e-002 1.5874428751848434e-002
      1.6676252711761000e-002 -7.1850254687444173e-002
      -2.4843737011621327e-002 8.1419457146810414e-001
      2.8157400711978690e-002 2.2593813060975486e-002
      2.4898975435442231e-002 1.5429014500446441e-002
      -1.4045899694315083e-002 -6.2591884796373062e-003
      -3.7790093574459643e-002 -2.9967046094037296e-002
      2.2517005162272580e-002 -4.4934066691075379e-002
      5.7249689756946866e-002 3.7767183231296228e-002
      2.4071210157103451e-002 -2.6355337431882646e-003
      -1.7662434849362751e-002 -2.4010950715468864e-002
      -5.2274206989082837e-003 3.6044386193310969e-002
      3.6226180429958309e-002 -2.8381480814202481e-003
      -6.9303965609493770e-002 -5.3429611131520782e-002
      3.8148574582821906e-002 1.5041244425269735e-002
      -1.6771777472149738e-002 1.9329519372244277e-002
      6.7068320518800378e-004 2.3729695477884304e-002
      3.5285919365162365e-002 5.5842327333860728e-002
      2.8564953981246401e-002 1.5851925103790677e-002
      2.3697747438541188e-002 -1.5177019167974806e-002
      -9.7187469109301216e-003 -2.8271690512021025e-002
      4.7378858207628846e-003 -2.8978568052212682e-002
      5.9548617437782227e-003 2.6097007665307443e-002
      4.0747335426885745e-002 -4.3800674024458072e-002
      -7.5266102748688460e-002 3.6231379237771068e-002
      -8.8729151972312629e-003 1.9263509922347339e-002
      -8.0800995833868634e-003 1.0891928628370229e-003
      1.9880173479726655e-002 -1.2798877784524912e-002
      -2.5846806202773052e-002 -6.2266780252626820e-003
      1.6847705341254345e-002 -2.8325125161174008e-002
      2.5060397447151814e-002 8.6580565738237740e-003
      -6.5388959609302397e-002 6.6384080360875021e-003
      -1.1470309020243496e-002 9.4874278077484615e-003
      2.7466495033512717e-002 5.9061711782464152e-002
      7.2296509574289430e-004 -2.2756153498239604e-002
      -2.1471233261138860e-002 -5.8745738908110766e-002
      -6.6577201287557636e-003 1.1851676747233385e-002
      -7.6692572075955411e-003 -8.4694371203852172e-003
      9.5588836415168776e-001 -2.5507253440375488e-004
      5.5048395841382013e-002 -7.2489208621030251e-003
      -8.8738145766773163e-002 -9.2719777635749418e-003
      2.4759105478437616e-002 1.8210412767687496e-002
      -2.6125932582078921e-002 -2.4320703744605557e-002
      -1.4472926483766246e-002 6.9668201866009610e-002
      2.5992362982704267e-002 -8.7037357140447094e-002
      -7.6616375638229262e-002 1.2930990595620580e-002
      -5.4490779638229181e-002 -7.1414126435900518e-002
      -6.0990513923839619e-002 7.6896175180864848e-002
      -1.5751289301834542e-002 -8.8959023930359329e-002
      -4.5491543736949296e-002 7.1654790108356070e-002
      -8.2134034815767601e-002 6.9655712364852990e-002
      -6.0441429600063934e-002 -1.6085719965716522e-002
      -4.0721893612923173e-002 -1.1328578115117928e-002
      4.8368098966630781e-002 8.9299042581726149e-002
      1.4118429909888455e-002 -2.6167556363847433e-002
      3.1566876899174902e-002 1.0378516652337755e-001
      -9.0866179059944846e-002 -5.7442815548722471e-002
      -2.8956025073032427e-002 5.9853282112030434e-002
      4.2265012132463274e-002 1.7177706388688041e-002
      7.9245429626253430e-002 1.0852279991210609e-001
      1.3926160127412197e-002 4.2021095606359561e-002
      2.8263252529516086e-002 2.5570249206277630e-002
      -9.8439768841667753e-003 -2.5749627541268427e-002
      3.9770845503502390e-003 6.6245931924238987e-003
      -1.8267228444938489e-002 -4.1738257009818300e-002
      1.1321606756733897e-002 3.3768859669662317e-002
      2.2457258641453651e-002 -9.2609477665467579e-002
      8.2471178368980685e-002 2.0564341916298010e-002
      2.5575946342280338e-002 4.1342494786721716e-002
      -3.3610092974008389e-002 -1.7858182136979553e-002
      -9.8349262247183281e-002 -6.3010435775211537e-002
      -8.1633492117120413e-002 -2.1005649513903601e-002
      5.3202186153271096e-002 -3.6008976004494764e-002
      -3.0005986184374230e-002 -2.7527957467701158e-001
      1.9063047392122409e-001 -2.3190661214884387e-001
      -2.0000161162646890e-001 2.4713328653521788e-002
      1.6780997584978402e-001 2.8948473543602055e-002
      -1.4047357771945870e-001 1.2849686682638120e-001
      5.2124442400073731e-002 -7.9904802938615391e-002
      2.2652277006065296e-002 5.9312272964850837e-003
      -3.6976568894264966e-001 -1.3492226410682936e-001
      -4.1454126226633657e-002 4.4256961060080480e-002
      -5.4655258773118087e-001 -1.0263739239126361e-001
      -7.2466009871380105e-002 4.1070381746155939e-002
      1.0886654841252713e-001 -1.3145482433525493e-001
      -2.3457606073070822e-001 -3.5868869698386352e-001
      3.6352773649120385e-001 -5.4105631753652052e-002
      3.4832511335424821e-001 -1.0245461406032984e-001
      -7.0052448238181644e-002 -5.7936135883318196e-002
      -2.9080770071205173e-002 -1.2971510680101786e-001
      3.1551859219355889e-002 -2.8158656367913620e-002
      4.4600318763160191e-001 -2.4668357302296778e-001
      -3.1701989897307287e-001 2.2203856756566764e-001
      1.4477368642839689e-002 5.2325344018761107e-002
      -8.5035715602514245e-002 -8.4116086139466219e-003
      3.1581236814238828e-002 9.4395068257691964e-002
      2.9783711004365002e-002 -4.1881119351316283e-002
      -8.6062649794849139e-003 -6.0145853208916675e-002
      -2.3215290538007843e-001 1.5462821730887955e-001
      -1.5974971623741427e-001 1.0924929346921923e-001
      -1.7275930805280719e-002 -5.6541611278980129e-002
      -3.1580353602425587e-002 2.5252928968676558e-001
      -3.8787735399407058e-001 -6.3104835622502270e-002
      1.8261226994203319e-002 3.7762947248303994e-002
      7.1446776123677141e-002 4.2422934474641509e-002
      -4.8583402564151945e-002 -2.1443281843454928e-001
      -2.8512187742626000e-002 -8.1335944261495940e-003
      2.0509998585544284e-001 7.1805160978228005e-002
      -9.7863913585588158e-002 -9.1870632774691943e-002
      4.5125203730636759e-001 1.5904015689808126e-001
      -2.0834301488857770e-001 -1.2930489419091154e-001
      -3.2158262214265321e-002 1.1811574977902535e-001
      2.8626099926972761e-002 -1.1994618418575759e-001
      7.3560141467488183e-002 9.9027669319861414e-002
      -5.6945302562024590e-002 4.7155790314376375e-002
      -4.7619329490651618e-002 -2.5576913898616932e-001
      -1.1254293781216784e-001 -4.1816895511357956e-003
      -1.4587002012707108e-002 -3.8357440518620711e-001
      -3.4701841961946048e-002 -4.3004383732402167e-002
      5.2926636075930643e-002 3.5030843702115406e-002
      -4.0134302299289534e-002 -1.6585888631443055e-001
      -2.1484933848924032e-001 2.2522467010239899e-001
      3.2871337801872104e-002 2.2771483914540833e-001
      -9.4185145394516140e-002 -1.9729044778118373e-002
      6.4567138534676570e-003 2.8936659124245336e-002
      -1.0458962122790758e-001 7.5142590053691061e-002
      -3.1670506500933990e-002 2.4912081012548865e-001
      -9.4504252210568282e-002 -2.4393444808447948e-001
      1.0170721292140615e-001 6.2000330693115745e-003
      6.0421228941749568e-002 2.7795635487247939e-002
      -2.4251380089742650e-002 2.5801023191456642e-002
      9.5444093162022792e-002 3.3149094401138272e-002
      -2.1392616252806033e-002 -3.4574994077423038e-002
      -6.5288524907963524e-002 -1.4112841185035732e-001
      1.2057954289019475e-001 -2.4717148951633253e-002
      2.7166554184394769e-002 -6.3763413014427589e-002
      -7.0627673478933894e-002 -2.7391516589365339e-002
      1.5810242375847833e-001 -2.2462485647669606e-001
      -6.5676096983046522e-002 7.9381274203866856e-002
      3.2745861891830187e-002 7.1585511724085199e-002
      -9.9265087650771428e-003 6.9336678530444798e-002
      -1.0705264429883028e-001 -6.5549877996410696e-002
      -1.4520646339215350e-002 1.4547435350220644e-001
      3.1028747634230198e-002 4.5096938423200526e-003
      -6.4801535220525369e-002 5.4392679530933719e-001
      4.2139131061153433e-002 -8.5668422311463710e-002
      2.3168247968652408e-002 -1.2634548949842095e-002
      7.9337162618792395e-002 5.8395258798892248e-003
      -1.6472558753767805e-001 8.5432873947903706e-002
      8.2940513289138540e-002 -5.3496797015308344e-002
      8.8854162353944388e-002 -8.8176292974280743e-002
      -1.2649627160661098e-001 -5.0367644038791383e-002
      -1.8845451412723837e-002 -1.5300859781227132e-002
      -1.2157632966967603e-001 -2.4032756251378442e-004
      3.5498614191205161e-002 2.7070760210006217e-002
      -3.6566001195865588e-002 5.0423413104407538e-002
      -3.5388923529871955e-002 -1.0847056205631585e-001
      1.8416346342224621e-001 5.7831749063539349e-002
      3.0001482534705000e-003 -4.2904630169496270e-002
      -1.9836615421030126e-002 6.7374730048894091e-002
      5.4683997853669328e-002 -7.4804112185579807e-002
      1.0607216722616107e-001 -2.0268956582027785e-004
      3.9949140830508913e-002 5.2461206264849132e-002
      -2.2751115596307803e-001 8.8625466965951721e-002
      -4.5400760437684052e-003 5.1075365101576335e-002
      6.5164779001403231e-002 -5.6045017832061644e-003
      -1.8020545991720559e-002 1.2904152879952233e-001
      9.7621566646791863e-002 5.5623491515164790e-002
      -2.4941679889389220e-002 -5.6237804062608913e-003
      -7.3148391645075653e-002 5.7312851839554499e-003
      2.8152253645118202e-003 -1.1395459040775725e-002
      -1.4658637247631887e-001 -9.9763059868839848e-002
      5.0778686614007633e-002 7.8208741081825767e-002
      -9.3870761319513454e-002 -6.5070507902306618e-002
      9.6440603986930412e-002 6.6096419852873317e-002
      5.6311503974258256e-002 6.9064509696549051e-002
      -2.0887307932324819e-002 4.9464681480423335e-003
      -8.4222837404856921e-002 -1.1649201611810979e-001
      7.3898294614930485e-002 3.6751216092548843e-003
      -1.2391559422180908e-002 -3.7530222548781138e-003
      2.0687933093593469e-001 8.9813673053376369e-002
      -1.3741497677433215e-001 1.0405610167037264e-001
      -2.2019745714030921e-002 9.5296459908678979e-002
      7.6025029308295786e-002 -1.1529171561171261e-001
      2.9147564790506880e-002 7.5811484274756896e-002
      -3.1480720118705688e-002 1.9500481913583244e-002
      -1.1087257798030442e-002 -6.9969710689534184e-002
      4.7239594952937426e-002 6.2225771367069152e-002
      -4.2343663989853009e-002 -2.6386157830689736e-002
      -4.2931263854244735e-002 -5.1298770574335168e-003
      1.4663406980132701e-002 1.3628734052336939e-002
      -7.8655015411116577e-003 -4.4317155975563058e-003
      -6.5007974058560611e-002 1.7890339988817702e-001
      6.7446794356483385e-003 -2.4547032809254410e-002
      -6.8601848410031613e-002 -6.1147246620632971e-002
      2.7245424475098010e-002 7.2207558222653241e-003
      -4.1099037280326034e-004 2.9833248096945982e-002
      2.5554364298953067e-002 -9.0579094065468643e-002
      1.6047576194210952e-001 -1.1083717079385838e-001
      3.6904985771535483e-002 2.6121735596089379e-003
      1.3133662788310141e-001 7.0871198754189721e-002
      -7.4171739560896233e-002 1.5415186082522677e-002
      5.5184931790015011e-002 1.1252645624829798e-001
      2.5650764468952772e-002 -2.6772063218705271e-002
      -1.1436051831843831e-001 6.8224294700512930e-002
      2.7629749730739419e-002 6.5321538321965147e-002
      -3.5094631420531180e-002 -1.2111544838862262e-001
      -4.7178574874445767e-002 3.4449702956510050e-002
      1.9081971069418715e-003 -1.3442383296536456e-001
      -7.0888560481156729e-002 1.0573381015803683e-001
      8.2962508748123387e-002 -5.4073430603489804e-003
      4.4480219939379971e-002 7.3193398199048548e-002
      5.5760359536297939e-002 -9.1252843061874298e-002
      -1.2781846248461953e-001 1.0094429958532068e-002
      -6.6847302580046071e-003 2.5446519474989649e-002
      5.3351776085831082e-002 1.1482131674709445e-001
      -2.4182485855286841e-002 -1.2473807605296300e-001
      9.4005633614033760e-002 -3.3549132613759493e-003
      2.1599779923900785e-002 1.7081455225468275e-002
      -7.0487962092931164e-002 1.4264110828156609e-002
      3.6667721707612136e-002 -9.5227859059841075e-002
      2.2036815041114953e-002 -3.9166681500262326e-002
      -6.2512672701261887e-002 4.3547715955782364e-002
      9.1813672763923285e-002 -1.8374351714968689e-002
      6.9055703463839088e-002 1.4836175714555878e-002
      5.4501344616181981e-002 1.8376093143556132e-002
      -4.0155513432503384e-002 -4.0540993003337640e-002
      4.9347840934032890e-002 -2.0834518017498593e-002
      4.0065247185687727e-002 8.6102044507537433e-004
      -1.2337533162541218e-002 -6.3697757554112916e-002
      -8.2288249015713924e-002 -7.0940029252804953e-004
      1.6939911922156270e-002 3.8698525925727960e-003
      -5.5209379509932530e-002 -1.6838000694601205e-002
      -5.0602843384112285e-002 1.4703103701692727e-001
      -9.6284506264354627e-002 5.3636262385701912e-002
      3.9440385959344680e-003 1.3603614511330221e-002
      2.9856684378958484e-002 -8.2458657191136944e-002
      4.4687038694238013e-002 -2.1046444437087787e-002
      1.6287328057786533e-002 4.8452352411601264e-002
      -2.5222491424744701e-002 1.5220223097906168e-003
      8.3948861808362682e-002 -4.9456421740533156e-002
      2.8018936117005785e-002 -4.0587264455316158e-002
      -2.6078113740283133e-002 1.6552531375466622e-002
      -3.5024977458825542e-004 1.3271779776557135e-002
      5.2184469496584847e-002 4.1124494004382891e-003
      3.6870193819814753e-002 2.4082761798632085e-002
      5.4233933630431219e-003 6.1564332941292009e-002
      6.8764332692250088e-002 1.0432684729342409e-002
      8.5542133785973615e-003 -1.0284750467470816e-001
      -5.8320762378333280e-004 3.5247659646939690e-002
      2.8871397067165619e-003 5.6649270001123332e-002
      -1.5935685992682513e-001 7.3794778688002674e-002
      -1.3562389152723747e-001 1.0034470463395971e-001
      -9.6207889637307434e-002 1.7600600677745607e-002
      1.3788573536129387e-001 -4.8354466260984642e-002
      -6.3217533053517655e-002 2.2386674071760071e-003
      -9.7232631212984269e-002 -6.3894998430810049e-002
      -1.5256124234368045e-002 -2.9463192098509602e-002
      -2.5571741549067974e-002 9.8598899514002358e-002
      -8.7709967284053558e-002 4.9723724153594884e-002
      2.0704978639038845e-002 1.4578055395676578e-002
      -3.5657777106625814e-002 1.2904039546639205e-002
      -6.6162243241294272e-002 1.2029794422745628e-001
      -7.8237062041911262e-002 5.9597316450747326e-002
      3.6194281857653825e-002 2.0034577157771533e-002
      -6.4440509212739710e-003 -9.8644035941332031e-002
      -3.2400281063181449e-002 -1.7218415485545278e-002
      3.9367504574941405e-002 -8.7214229651485176e-002
      1.5836366795060561e-003 -6.7995893216011266e-002
      6.1654262357837615e-002 -5.7269470463262653e-002
      1.5288116908059193e-002 3.4738120267478100e-002
      4.9395474502738589e-002 -7.4329560785263028e-003
      -1.1851311677815640e-001 9.9574306299462192e-002
      -8.5292073108564487e-002 -2.0342334790983192e-002
      -2.9355852224443674e-002 -4.3994136951453551e-002
      -6.2681080445982404e-002 5.8082494104727420e-002
      -5.8608022867089868e-002 2.6713585622730674e-002
      -9.9329203269541300e-003 -3.6231478303866006e-002
      8.6817109509949864e-002 2.3271322845419520e-002
      -1.6511344532388374e-002 -7.5143891242380862e-005
      -1.4337667901688464e-002 9.9546899714144252e-002
      -1.1468831454442344e-003 -6.9403630758894275e-002
      3.9193523663696959e-002 7.2634712182266345e-002
      4.2597355663229260e-002 1.1976109976906536e-001
      -9.6473361250918641e-002 -7.9107667678543457e-003
      9.7367839410661294e-002 1.2978260500951236e-001
      -7.3037056357579899e-002 -1.6752597207079895e-001
      1.9709086418551541e-004 -8.1167709950679984e-002
      1.2921076764703374e-001 -6.9700654468293335e-002
      -6.0170710533686859e-003 1.4332707013403836e-001
      -8.5248635442041448e-002 -1.1791345659639542e-001
      -2.9977715302141019e-002 -8.6175256068414807e-002
      -9.5261201056390882e-002 -1.7611800624329745e-002
      3.8497257361726858e-003 -6.9296282355148897e-002
      1.1264968620027618e-001 -8.6618155481309300e-002
      6.7218659871628728e-002 4.6404545428826806e-002
      1.6192388402621147e-002 -8.4759136782929984e-002
      -7.1624055647774906e-003 -6.1688210517588861e-002
      6.2148518928577694e-002 -1.0036625176466779e-001
      1.6922448766450007e-002 5.4726541395663811e-002
      -7.4286838689044538e-002 -1.9637846736842969e-002
      -8.7794110776158743e-002 -4.0458266215508625e-002
      -5.4289000741820650e-002 4.2595411995986439e-002
      -5.5593392902789592e-002 -2.2909253135038197e-002
      -8.8667035880673706e-002 1.4924509475105756e-003
      -5.5993550143992973e-002 5.5366378761794940e-002
      3.6846894053076132e-002 5.3091942064039180e-002
      -5.6340991046591481e-002 -6.3528672314132020e-002
      1.2586006140644049e-001 -1.0715627134777544e-001
      -1.8044001402909453e-002 -3.7888498232552886e-002
      -3.8557464220546241e-002 -9.7402347170516441e-003
      4.7523858939906023e-002 -7.6441738217618238e-002
      3.1791300933732711e-002 -5.1683934036679396e-002
      -7.5440542355008997e-003 1.2287773569646962e-001
      2.9553478735894971e-002 2.7685792671852984e-002
      2.9802752240342643e-002 -1.5693063492111255e-002
      8.6197090180386973e-002 -2.9402322521261858e-002
      -7.2653530399817728e-002 2.6867682763574475e-002
      9.9448660923399004e-002 -4.0368114547018767e-002
      1.6287168151466400e-001 -1.0702956970500252e-001
      -6.3693942470352009e-003 7.4185601756954572e-002
      9.9098053412401882e-002 -3.6275373373606791e-002
      -4.7189690649041838e-001 3.6807957635824083e-002
      -3.5510674385599815e-002 9.0688344852681832e-002
      -1.9681978212258592e-002 -4.8662263799615919e-002
      1.6705013720777706e-001 -1.3256436713098885e-001
      -1.3924884306189200e-001 2.5802725761372102e-003
      -3.4988793750579172e-002 -1.2667688346495504e-001
      3.0560587784682694e-002 1.1563407149775672e-001
      -3.8086064545512797e-002 2.7242002937438593e-002
      -3.9050118761198259e-002 1.0396879141728693e-001
      5.5110426775736340e-002 3.6842636817184367e-002
      -7.5229139468842521e-002 -3.1063050162237191e-002
      -1.1311330604173865e-001 7.3001757691541991e-002
      -1.8074857993888088e-001 7.6692059843601551e-004
      4.3785974731686224e-002 -4.4330410965233165e-002
      2.3553828075203797e-002 -1.0387754953889191e-002
      -4.8546041345163195e-002 -3.9375252768094837e-002
      -1.3791362774363583e-002 -1.7790259405911743e-001
      -1.2325923111083511e-003 1.7075406580539933e-002
      2.8153852505042796e-002 5.3158931593640463e-002
      2.2458595851209642e-002 5.2503655120317544e-002
      -7.6333141027927362e-002 -8.8402844445499687e-002
      -1.0092332234418271e-001 9.8753496648092645e-002
      -1.3099126433222053e-001 -8.6516075684516386e-002
      -2.6300893513241684e-002 -9.6678632218144739e-002
      -5.1952209639484340e-002 -9.6184795341928905e-003
      -4.9892785302005298e-002 2.8468936355557164e-002
      -7.7390338197826328e-002 3.9832473242093727e-002
      1.1547883242180487e-001 8.7104463214025055e-003
      7.2053401468627210e-002 6.2709133616430407e-002
      2.6895733853423597e-002 5.1495647247804997e-002
      -7.1831685034360437e-002 -5.4531362268693470e-002
      6.1138916459635248e-002 1.0422249650251408e-001
      8.0436114249812743e-002 1.1691812316680608e-001
      -2.5143760092347072e-002 -8.2499021336107925e-002
      9.8645131265342398e-002 5.3919259209579268e-002
      -3.9075746756260042e-002 -3.5467460926374739e-001
      3.9803266910043239e-002 -6.2124668391983655e-002
      1.1701224354125490e-001 -1.2600033605378130e-001
      2.9358655304676705e-002 1.4377377081066117e-001
      -5.4326184524169610e-002 -1.5187791536003259e-001
      -6.8256707970429389e-002 -3.5636598368706186e-003
      -1.3063889525379410e-001 6.3568990148756818e-002
      1.8275637255732061e-001 4.6783575191970947e-002
      -6.3574272121694544e-004 1.0975292092012998e-001
      5.9945955347555056e-002 5.4784337026226010e-002
      3.4366664030950927e-002 -1.2783328512551387e-001
      -7.7077246853177947e-002 -1.4553705672217682e-001
      8.1175744082262913e-002 -2.4246503230309313e-001
      -6.6779630579502213e-003 9.6682343918633340e-002
      -5.2698271959118699e-002 8.0333447077342066e-002
      3.8748550567424149e-002 -5.3277035300560972e-002
      -4.6449723810500316e-003 3.9062383517444392e-002
      -1.6904323737570609e-001 5.0113085506156646e-002
      2.3347897082263831e-002 -1.2359664618329347e-002
      7.8751963465948770e-003 3.5497533429042327e-002
      1.3195175198765779e-001 -7.5453628051265723e-002
      -1.9733816861107345e-001 -9.0761877705335919e-002
      1.5019047100468841e-001 -8.5541528618684609e-002
      -1.6144910082984523e-001 -2.7917022878023282e-002
      -1.2127942841665955e-001 -8.0803182597286721e-002
      -1.0659476211086132e-002 -6.4896375325377745e-002
      4.4061257256374144e-002 -8.9634255918530442e-002
      -6.5170035052035002e-002 1.7135082667750817e-001
      -2.1342074979163631e-002 -5.2604447698390688e-003
      1.4841312333423298e-001 2.4136730755720096e-002
      3.9320681411549249e-002 -2.1598938549754566e-002
      -6.7230341444397108e-004 4.0164673232182500e-002
      1.3861254698975106e-001 1.7114876187622163e-001
      9.9496223651121277e-002 -5.6599285504717219e-002
      -1.3430447432206588e-001 1.1462773889856935e-001
      5.8098395715655109e-002 -1.7644288334710916e-003
      -3.5657049863086177e-001 4.5594118998411523e-002
      -6.3868487681626285e-002 1.1493902041964116e-001
      -1.1855944684387533e-001 2.6609641450119351e-002
      1.4509582563536866e-001 -6.0756073378509370e-002
      -1.4492382560174749e-001 -6.5227119463133351e-002
      -4.7797652497564820e-003 -1.2619781958938617e-001
      5.7109439244134516e-002 1.8555521299715791e-001
      4.7118568855895604e-002 -4.5141470078217160e-003
      1.1313462191681492e-001 6.0776640864104857e-002
      5.2548449232824111e-002 4.1486665375887903e-002
      -1.1919677671018725e-001 -7.3232301110808307e-002
      -1.3611350745397099e-001 8.5087500467116148e-002
      -2.3830650538241524e-001 -8.0778016430295887e-003
      9.7810811935525044e-002 -5.2006617724881937e-002
      8.4922203106585534e-002 3.8106407302793938e-002
      -5.3073608038123159e-002 -1.1337494791475900e-002
      3.7485376082624845e-002 -1.6788000819392646e-001
      4.6678010630292165e-002 2.9440464983659403e-002
      -1.0470046323419340e-002 8.0146802556588966e-003
      4.0655031443669658e-002 1.3472098994868989e-001
      -7.9534277275610923e-002 -1.9595456330507902e-001
      -8.8502323355406518e-002 1.4605315633138954e-001
      -7.9412860148290326e-002 -1.7109660660216755e-001
      -3.3945041530225616e-002 -1.2283187618044758e-001
      -8.6647117263540505e-002 -3.7571086227973310e-003
      -7.0065502905028554e-002 4.0302102967644499e-002
      -9.2253386799332884e-002 -6.6490243448588296e-002
      1.7807504821105044e-001 -2.3888496577952962e-002
      -1.2145522237323722e-002 1.5004350527662200e-001
      2.1522571989354308e-002 3.8148460013382783e-002
      -2.5568191534211256e-002 8.1795697040790202e-003
      4.3900440958732613e-002 1.3888195497297032e-001
      1.7820220545397278e-001 1.0234097729686159e-001
      -5.5397867569602910e-002 -1.3622883947986481e-001
      1.1326159493268757e-001 5.8075338769519730e-002
      -8.8795993127370760e-003 -3.9959741706904045e-001
      1.6361564141357445e-002 -2.9473072687010840e-002
      9.3257873489355950e-002 -2.7544527020784793e-002
      -5.2379092996065281e-002 1.5026672397783977e-001
      -1.2992086105994125e-001 -1.2332131990410426e-001
      -7.7743736612087616e-003 -2.6756906569824275e-002
      -1.2120987028076807e-001 4.3116775747981693e-002
      1.2439286489716696e-001 -1.3964537720766277e-002
      2.4632600721995863e-003 -2.6238063693909158e-002
      9.4605207949167755e-002 6.0759134739381632e-002
      4.7821293592182436e-002 -9.0483921245584853e-002
      -3.5898951020246449e-002 -1.1949159245081530e-001
      7.3399038984468742e-002 -1.9545338304987223e-001
      2.2832647540532772e-002 4.2409579851753754e-002
      -2.6993454483531191e-002 4.0506998637852037e-002
      -6.9602193353401854e-003 -4.2478699180941736e-002
      -2.7692683597615272e-002 1.2531935767327727e-002
      -1.3942511628137935e-001 9.4362029296037769e-004
      3.5338378077970712e-003 5.6005567223919840e-002
      3.7272267549094060e-002 3.0661911076269307e-002
      5.5193790002424956e-002 -6.4249539541519643e-002
      -9.5476868353120609e-002 -1.2601058839937446e-001
      8.6775488410555934e-002 -1.1819342826905879e-001
      -9.4394968839860899e-002 -8.6353347468925475e-003
      -1.1299664282361468e-001 -5.5852979964048838e-002
      -1.9755660904808771e-002 -7.3166493114634440e-002
      1.6787491015173420e-002 -5.6248755282814443e-002
      1.9496729087524922e-002 1.0490685508634358e-001
      -9.5762122079072112e-003 6.2306200468605875e-002
      9.5735138529132763e-002 3.1521383025432066e-002
      2.2621311021376239e-002 -8.8356099797113910e-002
      -6.6362399050891335e-002 6.8103064116596126e-002
      8.5885254539166941e-002 9.2882477338262340e-002
      1.2195672331003155e-001 -4.7046314751402724e-002
      -7.4945711575934937e-002 1.1010048025945783e-001
      5.8532190379649358e-002 -1.7245376253541854e-002
      9.2345809811412397e-002 -1.6841196690653797e-002
      -1.0883894388102187e-001 8.5847884754434015e-002
      -3.7063020799708635e-002 -1.8544910616754964e-002
      9.3217817938105643e-002 -8.2319046891404388e-002
      -1.1376655437648694e-001 -5.5301515700524315e-002
      -1.2349135432911590e-001 -9.7095941052897011e-002
      -3.5006898075963640e-002 1.8707161762499009e-003
      -5.4772085394676581e-002 6.2296764693655714e-002
      -1.2038284161117062e-001 4.8275079720939605e-002
      8.4287464745589180e-002 5.4190022381455025e-002
      -9.2056758634065150e-002 -1.8696344547755362e-002
      -1.0862569823015368e-001 5.4233816866738838e-002
      -8.4065884058574056e-002 1.4850731067451019e-002
      6.9178284344386123e-002 -1.9436385347002105e-002
      2.1841133405722801e-002 -1.0175818232243350e-001
      -5.1525887872922192e-002 -5.1390010544787347e-002
      2.1470279610343253e-002 -7.4189804569826587e-002
      -1.7000170234882376e-002 -7.6597928636628468e-002
      6.4172810360008242e-003 -5.0366797520757990e-002
      1.4024838715053614e-001 5.5820754250321403e-002
      1.7059550722791573e-002 -1.3916307403468101e-001
      -6.2747059479829725e-002 1.4510671279260304e-001
      -1.3462351675020198e-001 -8.9740836135996302e-002
      -6.0045809135094531e-002 -6.6659650614208490e-002
      -6.6587339094584825e-003 4.6569457882013256e-002
      -9.9866032158546170e-002 2.7990385527000890e-002
      -7.8553097905829025e-002 7.4031350659679836e-003
      8.0203022029880722e-002 -2.1250349730573673e-002
      -1.8001911558834123e-003 4.9468409232181716e-002
      3.3933937193931021e-002 5.0529276569855910e-002
      4.1622497477657616e-002 -4.2443468833327391e-002
      6.3519894522001102e-002 9.0002655545150467e-002
      -2.0544928240771991e-003 1.9024149834671300e-001
      -9.2853326751217644e-002 -8.3630545838261506e-003
      1.2449631846193333e-001 6.0799331303477359e-002
      -2.5066506665536385e-002 3.5011426885192864e-001
      7.0605708964544725e-002 -1.0560139143652165e-001
      7.5899304961544997e-002 -7.2395746147152704e-002
      2.5674359573436979e-002 5.6224816596362095e-002
      -8.8346433916058592e-002 -9.5710111085739777e-002
      -8.2949954994653557e-003 -1.0666713059016990e-001
      -1.0626744550010436e-001 4.4565281999520090e-002
      -5.8959390521019089e-002 -6.3376250096602596e-002
      4.2121070679055433e-002 -9.4552627110719392e-002
      6.6407753886702447e-002 8.0286320635752376e-002
      4.6120135739723789e-002 -1.4244207395892732e-002
      9.6377525205451290e-003 -1.4639736918281199e-001
      5.5692834543116000e-002 -3.2225564339463122e-002
      4.9024696915632125e-002 4.0321302072399673e-002
      1.4008420491165574e-002 3.4884049547939545e-003
      -6.1391153219479098e-002 -8.3613932446734790e-002
      -5.5135689448112708e-002 6.5757330294289026e-002
      -1.0842381964502452e-001 -3.4074613707382705e-002
      -7.4942960530375136e-002 -2.9434614750847000e-002
      -2.0417003225255088e-002 1.0818324769243697e-001
      6.6729499494283556e-002 4.3650176138843103e-002
      -3.4164085592188732e-002 -1.1542279195187291e-001
      1.1539574378830508e-001 -1.0244591216865724e-001
      -1.3077942181055416e-001 -1.0399297605492558e-001
      -6.1772005015640528e-002 -8.2721475097270805e-003
      3.4366224921697337e-002 -1.0646910426562149e-001
      6.8651792041426699e-002 -5.2748876153430435e-002
      -6.5579915663251387e-003 1.5519677511902774e-002
      1.0979360791696195e-003 -9.9107349113784198e-003
      7.2214318915037106e-003 7.7561337737417704e-002
      3.2370353638459033e-002 6.9228825433843316e-002
      -9.8109554191559284e-002 8.1216373007047732e-002
      1.8968707058314727e-001 5.2254002476624017e-003
      9.1577095471305450e-002 -5.6024082236217514e-002
      -4.1360548880198515e-002 1.4431095721078291e-001
      9.5590496907525802e-002 4.1071062610820365e-002
      4.7949851870175747e-001 6.6598050455449975e-002
      -4.1463208694311547e-002 1.7626974621481134e-002
      -5.2107804362758206e-002 3.4937545519174551e-002
      3.1746261949607710e-002 -9.3221836915306958e-002
      -2.0397096649928982e-002 -2.2802708648293102e-003
      -7.6141593225552431e-002 -1.9150628508470054e-002
      5.4793536759329669e-003 -7.1615284667344806e-002
      -2.5502297107899252e-002 9.9054961564924160e-002
      -3.6651392154342485e-003 2.5146314312899237e-002
      3.1113128977609317e-002 -1.8317979853765130e-002
      3.9957468051499634e-002 -5.7841836150185500e-003
      -1.3780906526997427e-001 8.6798371095092603e-003
      7.9487701020576375e-003 1.8328167727753943e-002
      3.9399779136851145e-004 5.5037671147903824e-002
      7.4759392922390654e-003 -8.4201844973760820e-002
      -2.7460381455092144e-002 -2.5929479934136627e-002
      6.3452026797600508e-002 -1.1212227768522391e-001
      -8.5188168258321179e-002 2.7905476153409908e-002
      -6.9180793397376674e-003 2.6448039214288729e-002
      7.0720636564833628e-002 3.3977901308224256e-002
      -2.8156047953055638e-003 -1.4064572218469512e-002
      -1.2664962991803058e-001 1.9938070053438593e-002
      -9.5482595524438427e-002 -9.7351615431193389e-002
      -1.0391376452622586e-002 -9.1013239899344789e-002
      -6.0100210133283774e-002 8.7034151072262322e-003
      -6.3513480046819476e-002 -1.9802562858467050e-002
      -1.8182257796832309e-002 2.3545679561505224e-002
      2.9838943247827161e-002 -6.2417322126674850e-003
      3.6663985562292015e-002 -1.9506771904786554e-002
      3.8545370133113217e-002 -3.9191154037481961e-002
      9.3726074781903271e-002 -6.9573209919380277e-003
      1.0761562536743156e-001 4.8973703495755446e-003
      -1.2659020658087080e-002 6.7974132819834054e-002
      -4.0256574752331076e-002 -5.0138924517462338e-002
      3.8443549645091980e-002 -1.4027454045026205e-002
      4.9445274553304802e-002 8.7628493267887753e-001
      -1.1159594352593080e-001 -9.3555742637312297e-003
      4.4823794941428505e-002 -2.7204191310534805e-002
      -5.6904962311095592e-003 -4.9053205503722511e-002
      -7.6961984674457792e-002 -4.5819588341001923e-002
      1.6614414756140762e-002 7.4825627267088198e-003
      1.9662052830423608e-002 4.3130156275786556e-002
      3.7718247894724749e-002 9.0721088191412936e-003
      1.8144062075421078e-002 -5.8655080420879087e-002
      9.2266771486676329e-003 9.2371846777699662e-002
      -1.9391972553206824e-002 3.3646765431746016e-002
      -1.2246486603763751e-001 -1.0706659361731316e-001
      1.4917535480751599e-002 6.0018818853116690e-002
      2.1270653597377891e-002 2.6980075694218515e-002
      8.6623749402580594e-002 -1.0839391575689953e-002
      6.0608886601389848e-002 1.1336765918208581e-002
      5.0043342713119103e-002 1.4856388062042751e-002
      -6.7322764662556933e-002 -4.2750662429402002e-002
      -7.6077797893424268e-002 4.9115843710848005e-002
      4.5656321727364495e-002 3.3407225541177643e-002
      4.4282817894720237e-002 -2.5069139551008295e-002
      6.0139831516427086e-002 -1.1233759603542059e-001
      -3.7101316513895310e-002 5.3448376889740539e-003
      -8.7270062417179550e-002 -3.7263655336445101e-002
      -1.2192722886819446e-001 1.5917856231243810e-002
      9.5488406442751639e-003 -1.1575653988653505e-001
      7.6594606784050709e-002 -6.6670906762729618e-002
      2.5053933512505781e-002 -1.5970718287653316e-002
      3.2082883125315056e-002 -1.3061905603896895e-002
      1.5413350623862654e-001 9.6933494942048670e-002
      -6.1673054174397349e-002 5.8068909058576874e-002
      4.1878321197252400e-003 4.6511226602064248e-002
      7.9210188387444397e-002 -2.6485673248834399e-002
      6.3320712646438293e-002 -5.9178494202210101e-002
      -1.1455750014584568e-001 1.4098776622715742e-002
      -1.2398871620065280e-001 2.4789978937048520e-003
      1.1447284632247297e+000 -1.4393514006131616e-001
      4.2766141517838051e-002 3.5683412783014397e-003
      -8.8783509325497806e-002 -3.3368295269786297e-002
      -3.1380486357803869e-002 -9.2297728044734739e-002
      -1.1779259653664398e-001 -1.4004009556191374e-002
      1.1652237363729593e-002 -1.6301807197134668e-002
      -3.5709387533164180e-003 -8.4714550888860367e-003
      -2.6377903050284739e-002 -1.8474624724337179e-002
      -1.1765793060658137e-002 -2.9704272969457948e-002
      1.9425007932027091e-001 1.7611752589752817e-002
      8.9077128839834249e-002 -9.7612303266915529e-002
      -1.4894952528970282e-001 6.0007821310386594e-002
      1.1128879135422387e-001 -1.8492416906596608e-002
      -1.9894872619476084e-003 6.8751859090126516e-002
      5.2105430315654497e-002 9.5669366445236562e-002
      -5.2079108757140703e-003 5.1582408703627652e-002
      -7.7509743136446865e-003 -1.7569403090050312e-002
      -3.4376212760554158e-002 -8.0881496298955427e-002
      -8.0860206872103210e-003 -7.3281026265307010e-003
      -1.1007959378990352e-002 1.5517505717293486e-002
      -4.8383381361367432e-002 1.7035226091493649e-003
      -5.2516800706472709e-002 5.7532507582838963e-003
      5.1369603582174871e-002 -1.6855283363454315e-001
      -2.7265817465605989e-002 -1.0091681817325865e-001
      9.6261595811784839e-002 -8.9953949084063331e-002
      -1.7771224307071046e-001 -2.9226492401655063e-002
      -1.1318610435089234e-001 1.3639609296980881e-001
      -4.1168519494219201e-002 2.9179843434346354e-002
      1.1793741691529766e-002 2.0120874092758612e-001
      1.2232691516373598e-001 -1.2467607151490716e-001
      -1.1513041214686607e-002 1.2961735368027696e-001
      -1.6575373490934305e-002 5.3252546736164252e-002
      -4.9878164457363053e-002 5.0442587045763342e-002
      -9.1850624344679291e-002 1.4325984924004161e-002
      4.6062877255926636e-002 -1.2304191060479232e-001
      3.9079234657734573e-002 1.0732789064826980e+000
      1.0902963103899387e-002 1.1077601279424286e-001
      -3.6429059800504246e-002 -4.8649085148235217e-002
      6.1955197914504920e-002 -1.0064349570692311e-002
      -3.6402050825139358e-002 -7.5040884292878640e-002
      1.2039006514408992e-001 3.8538154250026213e-002
      -8.2595198375417442e-002 -2.8031067573961593e-002
      -1.4223575766349783e-001 -7.2498822622591177e-002
      7.2737294215769873e-003 -9.2279136223281134e-003
      -1.3020186558039307e-001 7.6515864471425610e-002
      -4.9708819820868354e-002 9.2570157711931528e-002
      -4.1542438039476798e-002 -5.9042980565635679e-002
      -2.0653673337507662e-002 -8.1892734095933770e-002
      4.3817632710528243e-002 -6.1383072760832116e-002
      1.6569438555631358e-001 -5.8359302042321502e-002
      5.9611109182793359e-002 -3.5517357283278587e-002
      -2.0990781903102700e-003 -7.1366138961663564e-002
      -2.2219778549258752e-002 1.5666665745808792e-003
      2.5277758498360656e-002 -5.2069863362189522e-002
      1.0913037117805752e-002 5.4280392020679413e-002
      6.4025562831365110e-003 2.7943430827924297e-002
      -6.0708359919464272e-002 -7.2912132547152363e-003
      -3.2225293738418967e-002 6.5287348765035946e-002
      -8.8554878207015839e-002 -2.8739765626973800e-002
      -1.0788576606784679e-001 -6.2435385397439175e-002
      -2.6382515254883603e-002 -6.8996947107815912e-002
      -4.4080354551458846e-002 -7.1244712663349918e-002
      1.0532625057582513e-001 6.9560513207295560e-002
      1.9533491060040060e-002 3.6660314940703688e-002
      -2.0177945290076115e-002 2.5122986063368755e-002
      -7.3999289565409146e-002 -3.9610634235911137e-002
      8.9624975071370586e-002 -2.8356797761380826e-002
      3.5870543281032778e-002 -6.5770522679412649e-002
      -6.3531883323963992e-002 -9.0899711688558593e-002
      4.8988489061980466e-002 -1.0666589379097764e-002
      -1.5610517512138583e-001 4.9666206636844151e-002
      8.0029323782756367e-001 -2.0093164317584683e-001
      1.8065265834196126e-001 -5.4725996649561695e-002
      -2.4956643528760432e-002 4.4470420916347293e-003
      -1.2573219552380041e-001 -5.8617771057199473e-002
      -9.9521965241175556e-002 2.8807695566681790e-002
      6.7444574380511851e-002 -5.7791817883376007e-002
      -1.2111177670554626e-001 5.2029580855830967e-002
      -5.2984518432554112e-002 4.2197318590183476e-002
      -4.5845976398294290e-002 -9.5008432652741365e-002
      1.8862464747115074e-001 -2.8762677062652571e-002
      1.0132260394512030e-001 -7.8311708335120037e-002
      -5.5153162027995591e-002 3.4690738620084899e-002
      1.0268089160253023e-001 -2.5065264865234325e-002
      4.7805244421574924e-002 4.1172951591141739e-002
      6.7837012696516971e-002 1.6817898990642285e-001
      -1.5630610684498954e-002 5.8683716712818190e-003
      -6.5776538597877160e-002 -6.3889252814532421e-002
      -2.7884833859500892e-002 -7.7289398002087411e-003
      8.6574382788909249e-002 2.9596373394588642e-002
      5.4350862199876220e-002 -2.5030311879770083e-002
      -3.2095802504984283e-002 -6.3862606131276168e-003
      -9.7634957339628424e-003 -8.6243033377458686e-002
      5.6111353533376665e-002 -1.0990797110842998e-001
      -2.7111098495632164e-002 5.1896460834165242e-002
      7.3666054270631956e-002 -4.8614447413567602e-003
      -2.2716254904741476e-001 -3.5993445108538108e-002
      -4.4209466947136976e-002 6.6180058037698955e-002
      -4.8518294929504558e-003 -9.9577749581927274e-003
      -6.4830607759635228e-002 1.6264606277298252e-001
      1.2686380971812306e-001 -1.2711580245339404e-001
      -2.2331962176019727e-002 1.2364263275801857e-001
      4.4979351042362557e-003 -5.7592083824829672e-002
      -3.7322853590893955e-002 -2.7473653482645521e-002
      -1.5094765874387672e-001 -2.5050794280484963e-002
      -1.7575200166657999e-002 -1.1349643834797386e-001
