<?xml version="1.0"?>
<opencv_storage>
<OCRMLP type_id="opencv-ml-ann-mlp">
  <layer_sizes type_id="opencv-matrix">
    <rows>1</rows>
    <cols>3</cols>
    <dt>i</dt>
    <data>
      400 36 28</data></layer_sizes>
  <activation_function>SIGMOID_SYM</activation_function>
  <f_param1>5.9999999999999998e-001</f_param1>
  <f_param2>1.</f_param2>
  <min_val>-9.4999999999999996e-001</min_val>
  <max_val>9.4999999999999996e-001</max_val>
  <min_val1>-9.7999999999999998e-001</min_val1>
  <max_val1>9.7999999999999998e-001</max_val1>
  <training_params>
    <train_method>BACKPROP</train_method>
    <dw_scale>1.0000000000000000e-002</dw_scale>
    <moment_scale>1.0000000000000000e-002</moment_scale>
    <term_criteria><epsilon>1.0000000000000001e-005</epsilon>
      <iterations>1000</iterations></term_criteria></training_params>
  <input_scale>
    1. -1. 1. -1. 6.0400627563904585e+000 -5.8696961874813631e+000
    2.6303047130962960e+000 -2.1693336727416987e+000
    2.5417932157950682e+000 -2.0552295652348236e+000
    2.4857415918446946e+000 -1.9809275792098187e+000
    2.5398907798899217e+000 -2.0527360985270562e+000
    2.5999745897841633e+000 -2.1306297973447506e+000
    2.3662353007591430e+000 -1.8153892491721142e+000
    2.2665151528621905e+000 -1.6664299074259430e+000
    2.2654866073334960e+000 -1.6648216738358974e+000
    2.3649059812757236e+000 -1.8134799909068071e+000
    2.5304766388957440e+000 -2.0403692793503105e+000
    2.5978666901556804e+000 -2.1279254047232312e+000
    2.6529475717438227e+000 -2.1979855210799704e+000
    2.6959200137176405e+000 -2.2518384168735914e+000
    2.7801915861966533e+000 -2.3556869664163442e+000
    3.8451121430418786e+000 -3.5645736865732345e+000
    4.1333592550363134e+000 -3.8753157663804174e+000 1. -1. 1. -1.
    2.0513104161605797e+000 -7.9768896965402003e-001
    2.0755772713020835e+000 -7.6029043333893542e-001
    2.2030468709233140e+000 -6.3962097944821306e-001
    2.1531853784945523e+000 -6.7777967724706289e-001
    2.0751284561460954e+000 -7.6090644781588679e-001
    2.0296716460312205e+000 -8.4194352221603463e-001
    2.0145500314456308e+000 -8.8643231921451227e-001
    2.0299401512365187e+000 -8.4129148050494307e-001
    2.0668931512799258e+000 -7.7265580758640329e-001
    2.0668931512799258e+000 -7.7265580758640329e-001
    2.0299401512365187e+000 -8.4129148050494307e-001
    2.0026599298474341e+000 -9.4973831197352931e-001
    2.0006352136101255e+000 -9.7511216127819578e-001
    2.0104689102422775e+000 -9.0278295555820953e-001
    2.0430539618588486e+000 -8.1291880092014357e-001
    2.0660581631746751e+000 -7.7389767977509449e-001
    2.0086851841966915e+000 -1.0976380491304223e+000
    2.0283484205987978e+000 -1.1831396767012921e+000 1. -1. 1. -1.
    2.0535004363903200e+000 -7.9390690056760016e-001
    2.0848842969888723e+000 -7.4801790873538332e-001
    2.3702480498812113e+000 -5.4910597921279658e-001
    2.3125988757387645e+000 -5.7575797508050475e-001
    2.2055873657768958e+000 -6.3787013323897435e-001
    2.0509503642311349e+000 -7.9832028092486829e-001
    2.0101598041796809e+000 -9.0415612102252663e-001
    2.0111013555721020e+000 -9.0004159952267815e-001
    2.0270572302374705e+000 -8.4848239836566552e-001
    2.0275698736002483e+000 -8.4717191785252943e-001
    2.0120857067813507e+000 -8.9594188673528363e-001
    2.0019389483831347e+000 -9.5692531154380001e-001
    2.0068181722738179e+000 -9.2076651755323724e-001
    2.0565002879996936e+000 -7.8887938840153726e-001
    2.1947387143017321e+000 -6.4546283361562784e-001
    2.2331941112925926e+000 -6.1981844833920008e-001
    2.0273129140621720e+000 -8.4782698775371756e-001
    2.0098554338566643e+000 -9.0553095515618043e-001 1. -1. 1. -1.
    2.0873110677705662e+000 -7.4496359658302647e-001
    2.1221197841534307e+000 -7.0630914214959983e-001
    2.3729440345877628e+000 -5.4794570787397001e-001
    2.3137682944478475e+000 -5.7517895548327458e-001
    2.2090097483799505e+000 -6.3553683998144495e-001
    2.0407949687213756e+000 -8.1739249405350312e-001
    2.0050714995096408e+000 -9.3127615716224377e-001
    2.0013321113290692e+000 -9.6416187838004419e-001
    2.0063268161964292e+000 -9.2355924145333934e-001
    2.0071989356959978e+000 -9.1867660953066166e-001
    2.0010713976714096e+000 -9.6779910395089608e-001
    2.0002864716535607e+000 -1.0170693154101593e+000
    2.0022136242805875e+000 -9.5404462653760969e-001
    2.0592008044069621e+000 -7.8449432676353981e-001
    2.1827265862478988e+000 -6.5424335811943413e-001
    2.2213100609022232e+000 -6.2738016387272266e-001
    2.0430539618588486e+000 -8.1291880092014357e-001
    2.0243285108876425e+000 -8.5571464694912003e-001 1. -1. 1. -1.
    2.1300893383068371e+000 -6.9854753779750356e-001
    2.1545802898578295e+000 -6.7659817300913405e-001
    2.2943583627546844e+000 -5.8502255357189770e-001
    2.2369431161997428e+000 -6.1749388766100455e-001
    2.1191388700661675e+000 -7.0930184067652835e-001
    2.0058540839956489e+000 -1.0794949959374853e+000
    2.0963878199023522e+000 -1.3623761386954736e+000
    2.1294649108648174e+000 -1.4303212977828370e+000
    2.1076705944544951e+000 -1.3863542195189589e+000
    2.1332403313878814e+000 -1.4376708062606556e+000
    2.1882661431174300e+000 -1.5381231370765238e+000
    2.2378872842473418e+000 -1.6209743924258668e+000
    2.1043690555967105e+000 -1.3794340969932555e+000
    2.0000510607463489e+000 -9.9287980450740143e-001
    2.0414336141322695e+000 -8.1611279872982412e-001
    2.0592008044069621e+000 -7.8449432676353981e-001
    2.0034067107206375e+000 -9.4331147116293268e-001
    2.0003974152204478e+000 -9.8026244153149433e-001 1. -1. 1. -1.
    2.0953526215739178e+000 -7.3522527112766656e-001
    2.1121715462975033e+000 -7.1650196869512894e-001
    2.2204145806020534e+000 -6.2796230335191583e-001
    2.1538817887666881e+000 -6.7718885874725498e-001
    2.0313020591867641e+000 -8.3803623878446043e-001
    2.1383830478288992e+000 -1.4475703219601423e+000
    2.3825131896082574e+000 -1.8386299605401066e+000
    2.3544179153607656e+000 -1.7983538119961318e+000
    2.2866488514201309e+000 -1.6975723327203227e+000
    2.4037386448062406e+000 -1.8685700559663405e+000
    2.5379949215548803e+000 -2.0502493762692300e+000
    2.7773904613382303e+000 -2.3522690180269632e+000
    2.5671381417264429e+000 -2.0882737121302353e+000
    2.0681569174641812e+000 -1.2973620678188245e+000
    2.0004279845489270e+000 -9.7952509811308874e-001
    2.0059705232251472e+000 -9.2565845505726041e-001
    2.0051798202735842e+000 -1.0746074629145761e+000
    2.0115881697711377e+000 -1.1135982647247518e+000 1. -1. 1. -1.
    2.1005964461552185e+000 -7.2916529514902839e-001
    2.1133146461202625e+000 -7.1530018108621152e-001
    2.2204145806020534e+000 -6.2796230335191583e-001
    2.1675169189919465e+000 -6.6598771072449059e-001
    2.0358791324414249e+000 -8.2767406625392270e-001
    2.1251472491088736e+000 -1.4218266100656962e+000
    2.3557148253170395e+000 -1.8002303591742099e+000
    2.3091116781364249e+000 -1.7316166552102410e+000
    2.2426500528918023e+000 -1.6286413133260886e+000
    2.3391614113228467e+000 -1.7761439975407398e+000
    2.4772372093457853e+000 -1.9694920874603197e+000
    2.7473201292185836e+000 -2.3154360321845977e+000
    2.6347662078286853e+000 -2.1749950455750144e+000
    2.1307156835456467e+000 -1.4327640624970350e+000
    2.0075902157069696e+000 -1.0909995719054422e+000
    2.0000884040450022e+000 -1.0094466484499409e+000
    2.0197564731550819e+000 -1.1507826464196875e+000
    2.0291385001268814e+000 -1.1858898943953267e+000 1. -1. 1. -1.
    2.0979532933495246e+000 -7.3219280038674650e-001
    2.1110356218016890e+000 -7.1770447615973176e-001
    2.2090097483799505e+000 -6.3553683998144495e-001
    2.1773004181649465e+000 -6.5834882895999136e-001
    2.0430539618588486e+000 -8.1291880092014357e-001
    2.0338353762906918e+000 -1.2016379752360575e+000
    2.0724681043034985e+000 -1.3078606540132645e+000
    2.0733487086003266e+000 -1.3099758670359340e+000
    2.0565002879996936e+000 -1.2676208995981564e+000
    2.0742354852643072e+000 -1.3120963092194677e+000
    2.1410017060689679e+000 -1.4525637750088070e+000
    2.2142193865676814e+000 -1.5821800806613744e+000
    2.1955585666645172e+000 -1.5506803265122087e+000
    2.0440425191849947e+000 -1.2330365553865106e+000
    2.0024316294122220e+000 -1.0505423554080668e+000
    2.0006352136101255e+000 -1.0255230523319296e+000
    2.0313020591867641e+000 -1.1932658204023037e+000
    2.0398471270224432e+000 -1.2205328240288480e+000 1. -1. 1. -1.
    2.0892818153785924e+000 -7.4252399982428352e-001
    2.0979532933495246e+000 -7.3219280038674650e-001
    2.1972055323573230e+000 -6.4370933046496970e-001
    2.1734928323106342e+000 -6.6128458117311140e-001
    2.0520347556426000e+000 -7.9642717857208090e-001
    2.0053999365294541e+000 -9.2916612328104087e-001
    2.0045472471490604e+000 -9.3480202574833959e-001
    2.0084043991542337e+000 -9.1243043030399185e-001
    2.0147350764287877e+000 -8.8575603773796641e-001
    2.0168505204003098e+000 -8.7834257338230870e-001
    2.0092608750692373e+000 -9.0828566071200567e-001
    2.0003679794138098e+000 -9.8100031784716357e-001
    2.0000318241057649e+000 -9.9437460378631848e-001
    2.0051798202735842e+000 -9.3057235735900823e-001
    2.0106252411938046e+000 -9.0209699614298944e-001
    2.0068181722738179e+000 -9.2076651755323724e-001
    2.0193265923546870e+000 -1.1490188545440545e+000
    2.0498786545835279e+000 -1.2496627676118461e+000 1. -1. 1. -1.
    2.0694342858604307e+000 -7.6893609418206299e-001
    2.0796870028011267e+000 -7.5475665953482041e-001
    2.2258271657516793e+000 -6.2447050231318257e-001
    2.1963808370907705e+000 -6.4429373934968071e-001
    2.0648169145416562e+000 -7.7576235337612431e-001
    2.0136428926563656e+000 -8.8981963101588180e-001
    2.0164549615928014e+000 -8.7968700844213976e-001
    2.0265496841420041e+000 -8.4979424513664326e-001
    2.0382942758964706e+000 -8.2252341407932039e-001
    2.0553645929096480e+000 -7.9076268467339972e-001
    2.0568817332058709e+000 -7.8825215725339692e-001
    2.0204105580771925e+000 -8.6697572274015666e-001
    2.0094077439866238e+000 -9.0759635221058110e-001
    2.0154873463712657e+000 -8.8305481704495092e-001
    2.0474270035927731e+000 -8.0464882239731017e-001
    2.0565002879996936e+000 -7.8887938840153726e-001
    2.0001540427906703e+000 -1.0124886579903130e+000
    2.0023578176186860e+000 -1.0497505820836586e+000 1. -1. 1. -1.
    2.0588106620818722e+000 -7.8511997418240642e-001
    2.0677341541383738e+000 -7.7141492324380090e-001
    2.2313360913055154e+000 -6.2098108595941381e-001
    2.1827265862478988e+000 -6.5424335811943413e-001
    2.0516718792628050e+000 -7.9705793579483919e-001
    2.0047534799827851e+000 -9.3339030019506875e-001
    2.0045472471490604e+000 -9.3480202574833959e-001
    2.0302099465794483e+000 -8.4063977103571741e-001
    2.0495242264996456e+000 -8.0084831565743952e-001
    2.0652291696221408e+000 -7.7514054580026193e-001
    2.0815545686309922e+000 -7.5230309908024950e-001
    2.0376825042814297e+000 -8.2380921102013416e-001
    2.0162590084198904e+000 -8.8035980021643190e-001
    2.0152974633976966e+000 -8.8372953829323586e-001
    2.0538704110873738e+000 -7.9327751492543541e-001
    2.0892818153785924e+000 -7.4252399982428352e-001
    2.0004596875550709e+000 -1.0216714011657715e+000
    2.0030633378524523e+000 -1.0569002869526101e+000 1. -1. 1. -1.
    2.0437116333310041e+000 -8.1164328123262142e-001
    2.0513104161605797e+000 -7.9768896965402003e-001
    2.1602442005461202e+000 -6.7187738016233223e-001
    2.1251472491088736e+000 -7.0332063904317743e-001
    2.0168505204003098e+000 -8.7834257338230870e-001
    2.0028178549324722e+000 -1.0545110932325916e+000
    2.0132884594646758e+000 -1.1221111308486835e+000
    2.0000510607463489e+000 -1.0071712562389472e+000
    2.0031474592441363e+000 -9.4544944014719479e-001
    2.0098554338566643e+000 -9.0553095515618043e-001
    2.0158707493262908e+000 -8.8170653684335321e-001
    2.0014443629311605e+000 -9.6271054538885070e-001
    2.0000318241057649e+000 -9.9437460378631848e-001
    2.0010713976714096e+000 -9.6779910395089608e-001
    2.0245702524416958e+000 -8.5505543192629718e-001
    2.0420776771775402e+000 -8.1483430443225657e-001
    2.0051798202735842e+000 -1.0746074629145761e+000
    2.0329791887431452e+000 -1.1988384234483835e+000 1. -1. 1. -1.
    2.0474270035927731e+000 -8.0464882239731017e-001
    2.0611734261407522e+000 -7.8136999381341787e-001
    2.1874677536771032e+000 -6.5072846677645302e-001
    2.1087851761863998e+000 -7.2011167355293382e-001
    2.0025826851394508e+000 -9.5045481333057047e-001
    2.0858501385314221e+000 -1.3390546019079117e+000
    2.2038912128436916e+000 -1.5648539337528733e+000
    2.1133146461202625e+000 -1.3980144650340509e+000
    2.0580347408629658e+000 -1.2716626849333781e+000
    2.0414336141322695e+000 -1.2253208154024453e+000
    2.0404776730963903e+000 -1.2224448789930611e+000
    2.0958693779298474e+000 -1.3612510025140452e+000
    2.0907771176771299e+000 -1.3500805983646604e+000
    2.0119186682465906e+000 -1.1152945156056693e+000
    2.0043456334870000e+000 -9.3621559864266790e-001
    2.0253030469551812e+000 -8.5307988438879379e-001
    2.0037684664653574e+000 -1.0633009801363742e+000
    2.0092608750692369e+000 -1.1009752143572313e+000 1. -1. 1. -1.
    2.1082270016960929e+000 -7.2071393175695686e-001
    2.1443199742692802e+000 -6.8547272588525321e-001
    2.3033691424111282e+000 -5.8039011862183376e-001
    2.1559835854327885e+000 -6.7541719694077207e-001
    2.0005978396755144e+000 -9.7584633247805264e-001
    2.2484587693288187e+000 -1.6379332967995193e+000
    2.4493506554729012e+000 -1.9316616489381999e+000
    2.1939212732581188e+000 -1.5478737527763184e+000
    2.1082270016960929e+000 -1.3875130699391360e+000
    2.0652291696221408e+000 -1.2900886238218787e+000
    2.0953526215739178e+000 -1.3601273504462512e+000
    2.3091116781364249e+000 -1.7316166552102410e+000
    2.2706599469036308e+000 -1.6728931312464133e+000
    2.0318558953628965e+000 -1.1951194510521135e+000
    2.0046497859059622e+000 -9.3409593258273305e-001
    2.0193265923546866e+000 -8.7030773781063220e-001
    2.0001936555052056e+000 -1.0140131807525450e+000
    2.0034067107206375e+000 -1.0600952395577048e+000 1. -1. 1. -1.
    2.1245380069338435e+000 -7.0391800831467322e-001
    2.1624033086125958e+000 -6.7010918627182348e-001
    2.3232518002605267e+000 -5.7054660608128016e-001
    2.1931062368217358e+000 -6.4663230149238093e-001
    2.0038617811789909e+000 -9.3975766872139965e-001
    2.2614027400926684e+000 -1.6584187074767593e+000
    2.4874595334425500e+000 -1.9832321214359556e+000
    2.2142193865676814e+000 -1.5821800806613744e+000
    2.1251472491088736e+000 -1.4218266100656962e+000
    2.0724681043034985e+000 -1.3078606540132645e+000
    2.1005964461552180e+000 -1.3714311510061896e+000
    2.3729440345877628e+000 -1.8249983267137926e+000
    2.3429231605625445e+000 -1.7816437121690354e+000
    2.0329791887431452e+000 -1.1988384234483835e+000
    2.0064479076634041e+000 -9.2286039528858332e-001
    2.0189016414326941e+000 -8.7164313063735721e-001
    2.0000035359367327e+000 -1.0018821774605973e+000
    2.0020059044002010e+000 -1.0458015047806990e+000 1. -1. 1. -1.
    2.0953526215739178e+000 -7.3522527112766656e-001
    2.1396884040753821e+000 -6.8962503282910959e-001
    2.3208593865458660e+000 -5.7170473794191135e-001
    2.2072935250901842e+000 -6.3670332220540482e-001
    2.0224398098832008e+000 -8.6100107739292331e-001
    2.0778447556390511e+000 -1.3206309278036841e+000
    2.1890668910721858e+000 -1.5395092464479079e+000
    2.0603799860644649e+000 -1.2777610368635963e+000
    2.0210757876048104e+000 -1.1560948751210667e+000
    2.0127658101324548e+000 -1.1195489406490788e+000
    2.0262978190978571e+000 -1.1758471360917613e+000
    2.1300893383068371e+000 -1.4315418005093337e+000
    2.1127421973621030e+000 -1.3968412120957416e+000
    2.0011722704358772e+000 -1.0348295870061419e+000
    2.0283484205987978e+000 -8.4520874389750578e-001
    2.0460566556009767e+000 -8.0718820298060345e-001
    2.0073281929639184e+000 -9.1798085093799353e-001
    2.0015611700020433e+000 -9.6126123132478725e-001 1. -1. 1. -1.
    2.0792240746244999e+000 -7.5537061154090512e-001
    2.1167873089626443e+000 -7.1169908018525907e-001
    2.3149412436019081e+000 -5.7459993259769060e-001
    2.2133447195825093e+000 -6.3262203342711809e-001
    2.0443747743005964e+000 -8.1036894024551653e-001
    2.0085442039253594e+000 -1.0968056352386695e+000
    2.0127658101324548e+000 -1.1195489406490788e+000
    2.0097050226040558e+000 -9.0621900041454040e-001
    2.0417549675395352e+000 -8.1547340185294703e-001
    2.0433821148490225e+000 -8.1228089334163855e-001
    2.0210757876048104e+000 -8.6498091248374365e-001
    2.0016825349302785e+000 -1.0418686078764592e+000
    2.0015611700020437e+000 -1.0402999386772562e+000
    2.0326964088926669e+000 -8.3478919838690946e-001
    2.1307156835456467e+000 -6.9795162104861164e-001
    2.1531853784945523e+000 -6.7777967724706289e-001
    2.0453797742547843e+000 -8.0845962494989787e-001
    2.0253030469551812e+000 -8.5307988438879379e-001 1. -1. 1. -1.
    2.0411136151313021e+000 -8.1675249586299570e-001
    2.0702934560731090e+000 -7.6769813752842631e-001
    2.3102705799299046e+000 -5.7691600792533160e-001
    2.2064391910493919e+000 -6.3728668624517981e-001
    2.0404776730963907e+000 -8.1803279410332919e-001
    2.0074586194084838e+000 -1.0901730900435693e+000
    2.0071989356959978e+000 -1.0885223261653361e+000
    2.0204105580771925e+000 -8.6697572274015666e-001
    2.0664749066500803e+000 -7.7327661982581042e-001
    2.0681569174641812e+000 -7.7079484964535672e-001
    2.0321347637595659e+000 -8.3608703706392062e-001
    2.0005616002846103e+000 -1.0239805708865568e+000
    2.0001936555052056e+000 -1.0140131807525450e+000
    2.0288738564948003e+000 -8.4390164922273381e-001
    2.1326062704515123e+000 -6.9616481487473203e-001
    2.1704871358757556e+000 -6.6363521679841642e-001
    2.0222093570072786e+000 -8.6166348307230034e-001
    2.0082657691552592e+000 -9.1312272091339164e-001 1. -1. 1. -1.
    2.0000318241057653e+000 -1.0056572203194465e+000
    2.0026599298474341e+000 -9.4973831197352931e-001
    2.1065630668195996e+000 -7.2252181908216428e-001
    2.0481205017718449e+000 -8.0338085120272074e-001
    2.0038617811789909e+000 -9.3975766872139965e-001
    2.0103137648415865e+000 -1.1068444346476429e+000
    2.0035852889098895e+000 -1.0616967551989600e+000
    2.0509503642311349e+000 -7.9832028092486829e-001
    2.1403440594837990e+000 -6.8903140839343058e-001
    2.1390347350983117e+000 -6.9021880508249400e-001
    2.0364749461069898e+000 -8.2638453059399841e-001
    2.0014443629311605e+000 -1.0387338175423098e+000
    2.0018084601984154e+000 -1.0434398367186928e+000
    2.0129388277468760e+000 -8.9253662200585437e-001
    2.0457175255019995e+000 -8.0782376900229380e-001
    2.0815545686309922e+000 -7.5230309908024950e-001
    2.0003679794138098e+000 -1.0193676615666460e+000
    2.0088273407026809e+000 -1.0984712122533653e+000 1. -1. 1. -1.
    2.6716831968895987e+000 -2.2215462761650628e+000
    2.5812736069585411e+000 -2.1065677800300993e+000
    2.2204145806020534e+000 -1.5924522772501375e+000
    2.2593788587337502e+000 -1.6552350570941503e+000
    2.3492699514722246e+000 -1.7908876237811957e+000
    2.4445885583051270e+000 -1.9251479658108070e+000
    2.4290449840092125e+000 -1.9037719995017670e+000
    2.2022050092514966e+000 -1.5620002434931637e+000
    2.1060119390193992e+000 -1.3828871175358672e+000
    2.1071159507329411e+000 -1.3851969469278607e+000
    2.2195217288871731e+000 -1.5909772152158526e+000
    2.4430114788113886e+000 -1.9229872226973435e+000
    2.4139931214544350e+000 -1.8828964775842414e+000
    2.3033691424111282e+000 -1.7229790237892944e+000
    2.2407365252088334e+000 -1.6255662869980592e+000
    2.2504179569654625e+000 -1.6410531848649987e+000
    2.5592164227496497e+000 -2.0779797881596442e+000
    2.6552587209483018e+000 -2.2008989172508677e+000 1. -1.</input_scale>
  <output_scale>
    1.0526315789473684e+000 0. 1.0526315789473684e+000 0.
    1.0526315789473684e+000 0. 1.0526315789473684e+000 0.
    1.0526315789473684e+000 0. 1.0526315789473684e+000 0.
    1.0526315789473684e+000 0. 1.0526315789473684e+000 0.
    1.0526315789473684e+000 0. 1.0526315789473684e+000 0.
    1.0526315789473684e+000 0. 1.0526315789473684e+000 0.
    1.0526315789473684e+000 0. 1.0526315789473684e+000 0.
    1.0526315789473684e+000 0. 1.0526315789473684e+000 0.
    1.0526315789473684e+000 0. 1.0526315789473684e+000 0.
    1.0526315789473684e+000 0. 1.0526315789473684e+000 0.
    1.0526315789473684e+000 0. 1.0526315789473684e+000 0.
    1.0526315789473684e+000 0. 1.0526315789473684e+000 0.
    1.0526315789473684e+000 0. 1.0526315789473684e+000 0.
    1.0526315789473684e+000 0. 1.0526315789473684e+000 0.</output_scale>
  <inv_output_scale>
    9.4999999999999996e-001 0. 9.4999999999999996e-001 0.
    9.4999999999999996e-001 0. 9.4999999999999996e-001 0.
    9.4999999999999996e-001 0. 9.4999999999999996e-001 0.
    9.4999999999999996e-001 0. 9.4999999999999996e-001 0.
    9.4999999999999996e-001 0. 9.4999999999999996e-001 0.
    9.4999999999999996e-001 0. 9.4999999999999996e-001 0.
    9.4999999999999996e-001 0. 9.4999999999999996e-001 0.
    9.4999999999999996e-001 0. 9.4999999999999996e-001 0.
    9.4999999999999996e-001 0. 9.4999999999999996e-001 0.
    9.4999999999999996e-001 0. 9.4999999999999996e-001 0.
    9.4999999999999996e-001 0. 9.4999999999999996e-001 0.
    9.4999999999999996e-001 0. 9.4999999999999996e-001 0.
    9.4999999999999996e-001 0. 9.4999999999999996e-001 0.
    9.4999999999999996e-001 0. 9.4999999999999996e-001 0.</inv_output_scale>
  <weights>
    <_>
      -4.6222180089869102e-003 -3.0386965129628293e-003
      4.1951311306622193e-003 1.2393182417243767e-003
      3.9910867379776820e-003 -3.6096718242828603e-003
      2.7212430466679316e-003 -4.3222094542688183e-003
      4.2447361673685078e-003 -2.9648579954383437e-003
      1.8223902578679845e-003 2.2345350336514091e-003
      -2.8510467270295809e-003 3.2893528653748744e-003
      6.6332868772747005e-004 2.3070695693070183e-003
      4.4132864887138209e-003 2.4871913685018442e-003
      6.6752844171497007e-004 4.5411576321843479e-003
      2.6542105002752810e-003 1.3940396294657149e-003
      3.9125175763899530e-003 3.0413716111723937e-003
      -1.3362404417424599e-003 -2.2059426488131306e-003
      1.5680867236652495e-003 2.6706976345374977e-003
      -3.8907308630967393e-003 -1.4327270612453627e-003
      -1.1536972816925295e-003 -4.6264017750555914e-003
      2.3060224160819263e-003 1.3092783029316777e-003
      -1.8383566451348704e-003 3.9834846521900739e-004
      3.9465962783385364e-003 1.9445897513581125e-003
      -2.0512523005369746e-003 1.3795432742528333e-003
      1.5883914200944711e-003 1.6319220725004501e-003
      -2.3643416429982751e-003 1.8106297601928724e-003
      -4.7374210554400140e-003 5.6880728248780491e-004
      -3.6725714549732877e-003 -2.5920662679817202e-003
      2.8725399787440486e-004 8.3635052721691306e-004
      -2.8678647515879736e-003 1.4719575907745769e-003
      -3.0976136310436409e-003 3.9642033701190382e-003
      4.5363844566419630e-003 4.2988454258555504e-003
      -4.8108213563682499e-003 -4.2817316452198684e-003
      2.0251181385126668e-004 1.4318919384391968e-003
      -1.8672345114128803e-003 -1.7333742334773134e-003
      -3.9045569749589469e-003 5.6491604324825887e-004
      7.8036035827621177e-006 4.1099302360720937e-003
      -2.0927461498505182e-003 -2.6279956628809118e-003
      4.1391044263893858e-003 -1.8829944215139963e-003
      4.4589804284261535e-003 6.0622435323023807e-004
      -1.1268819104835464e+000 -6.9217036137657298e-002
      3.5363412428606883e-002 1.4326760473536655e-002
      4.3726715676326522e-002 2.6289156350807152e-002
      -1.1933878668036191e-001 3.4735613785083996e-002
      -7.9923625825900485e-003 1.2558535507413563e-002
      -1.5225082049885050e-001 7.7202658014788858e-002
      -1.0742426582249191e-001 1.7592585502332689e-001
      -3.3391682495876943e-002 8.5345923425365604e-003
      1.7157811204657990e-002 -7.5958172803447382e-002
      -8.9226352566973116e-002 1.3787267075475756e-001
      -3.7285554813530825e-002 -3.0854618174459350e-002
      -3.3149340186929056e-003 9.0775199901125328e-003
      -3.8170768197596017e-002 4.3509525900696143e-002
      1.7646073760038924e-001 5.9810879560715541e-002
      4.6063289350007371e-002 -8.1920052649115324e-002
      6.0015502677555684e-002 9.2882889060033488e-002
      7.6376735573030541e-002 8.4964779997036194e-002
      2.2030968421464622e-002 8.1954772636313716e-003
      9.3598378566582174e-001 -4.6304678010340196e-002
      2.0167390734417038e-002 -1.1905089509852250e-002
      -2.0258801939044369e-001 3.2308237256302677e-002
      -6.8119510827459465e-003 -9.8732303522992490e-002
      3.9029961353146221e-003 -4.3406686585122770e-002
      -2.0054008579444164e-002 -9.1614470177149437e-002
      -4.3701867626633938e-002 1.1592979177682039e-001
      -3.5520631993384739e-003 5.1681826216064758e-003
      6.4882012767245922e-002 2.4456477570176188e-002
      7.2916963675038499e-002 3.7248395738105906e-002
      8.2240984217479288e-002 -8.2642144266381959e-002
      3.5388363676791545e-002 2.8409576019323268e-002
      -5.8729105562753854e-002 -1.5440015739087831e-002
      2.2546461351935443e-001 -3.1943493992026825e-002
      1.3831966168415102e-002 -4.1117705895121162e-002
      5.7020161189158924e-002 1.8018928502948880e-001
      -5.3150112064438426e-002 8.9667235568420909e-003
      -2.2259939714819690e-001 5.5623703128862625e-002
      6.9696051326526731e-001 -4.0327402643606305e-002
      6.0618444079940124e-002 -2.9962420938078611e-002
      -2.1365798221329402e-001 4.4049190984556431e-003
      3.2628935949547688e-002 -6.2536966259146579e-002
      1.2512937388676247e-002 -5.2737476503113966e-002
      2.9529266379365895e-002 3.4288637352519746e-002
      -7.4392316162587629e-003 1.9208759779477245e-002
      -2.2363372670074804e-002 1.9037780490695868e-003
      3.6473372989292305e-002 2.8877367348553343e-002
      3.6520088376240906e-002 -3.3623535126048799e-002
      1.6922513964467919e-002 4.8620801529114348e-002
      -1.0214090167434331e-001 7.4988088691824967e-002
      -6.7694115168245861e-002 6.6866838047175423e-003
      4.2452796998927256e-003 4.7746916702346147e-002
      -2.9797962653952794e-003 2.7291343329905439e-002
      5.7704684624360278e-003 -3.3905797159146746e-002
      -5.8549551962610857e-002 -4.3818956511422140e-002
      -5.2877522749530233e-002 -6.8913918533953317e-002
      5.3464298069902150e-001 1.5420899564994411e-002
      1.1636784966305631e-001 1.0461611324886887e-002
      -1.9743693115018494e-002 -2.4281447188941124e-002
      -5.0733197318411638e-004 7.1042661523859337e-004
      6.6978605297688912e-002 -3.0834039453170391e-002
      4.6683886185045480e-002 4.1833882104060069e-002
      1.8092682810597782e-002 1.8764642466931675e-002
      3.7005444700910578e-002 -2.3539929016757354e-002
      5.4207644700343012e-002 -1.1091301634589462e-002
      9.4118859810067377e-003 2.6407595960156621e-003
      3.1387048635052872e-003 -1.5175239831737313e-002
      4.9353146968125899e-003 -6.2502623936213433e-002
      -1.4289210805215041e-002 5.7875444251009822e-002
      -5.7407649020625028e-002 1.6046302693739460e-002
      -4.2976698850405878e-002 -5.7592114730629806e-002
      -1.0375914191341267e-002 2.9699770825941271e-002
      -1.9072292336660294e-002 -2.7548614821142382e-002
      -5.1118027070360353e-002 -7.7007228657241619e-002
      5.4165545209285770e-001 5.6055606539281197e-002
      7.5228621670156426e-002 8.9235018052281290e-002
      -2.1245223832325839e-003 -8.0369029378112803e-003
      2.5644479852020174e-002 -5.2500055211239280e-002
      -1.7422894572665958e-002 -1.3648905687577255e-002
      5.3635237286454196e-002 4.0634205514726754e-002
      5.2261516051020938e-002 4.5478091618674825e-002
      -5.3973339690829097e-002 4.1432701736866563e-002
      7.4011604800954603e-002 2.5697745007688025e-002
      -5.4295811702888629e-002 4.2547726509638735e-002
      1.3447886270882040e-001 -5.2141994112873832e-002
      -2.0663737433869993e-002 -8.3531855532708782e-002
      -2.0161674176239132e-002 1.4205332420124143e-002
      -3.1215768069671249e-002 2.0046496733908358e-002
      1.3898665512608831e-002 -3.4281741886415792e-002
      -2.0118063821600432e-002 2.2142193235225616e-004
      3.0714162894251627e-002 -5.0097532963469561e-002
      3.2889971173329931e-002 -6.2934441237884775e-002
      5.6273405709164315e-001 7.7781845951733944e-002
      6.7136859713612149e-002 1.4012689157449540e-002
      -3.5999008500475209e-002 -2.2800706403320447e-002
      7.4637197509888412e-003 -5.2133982058116028e-002
      -2.2061367230345113e-002 -3.2780635524345528e-002
      -3.4025507049975756e-002 2.5787340263286149e-002
      9.7861543809158777e-002 -5.1231234411630029e-002
      -3.8536580353041167e-002 7.8066954995967747e-002
      6.0916719586209284e-002 2.4324432620297532e-002
      4.6172681419102046e-004 3.4740129125607221e-002
      6.1872381201688274e-003 -5.9850439467981700e-002
      1.5632513815515527e-002 -4.4460663510538498e-002
      -8.2411185534022914e-003 9.3183099939850300e-002
      -9.7521960561637672e-002 -2.7136321563999050e-002
      -1.0038112772873002e-002 1.7072215025946778e-002
      8.1827487873619639e-002 5.1594856346774784e-002
      2.5095075781215757e-002 -1.0920864962371354e-001
      -2.9621559736630651e-002 -6.0940581237427960e-002
      9.1711527125808073e-002 5.6705912087239081e-002
      4.5011088768793402e-002 1.8731262950638386e-002
      1.8968105802116952e-002 -4.8321911896749163e-002
      -4.0633595887583071e-002 3.6538104708623731e-002
      1.9473405486835318e-002 -2.0673361514862688e-002
      5.4465543513315930e-002 -1.6647288701864001e-002
      8.9298628560694232e-002 -6.8466919697764653e-002
      4.1444948258463198e-002 5.9226954489174227e-002
      3.3005695823452967e-002 4.7041723696818069e-002
      -4.8184723505494922e-002 -1.0400634331739711e-002
      -3.8251572452437377e-003 6.5732443220042430e-002
      -5.3679138823342160e-002 -1.9377199723414711e-003
      3.8481565909335130e-002 -7.7557799767520280e-002
      -6.7410202487490051e-002 1.7876347052047817e-003
      7.4613342816482169e-003 -1.3380763396327258e-002
      2.1240351830704905e-002 1.2120370823249370e-002
      2.5824866999245525e-002 1.6150241830294523e-002
      9.2486778877476555e-002 -7.6936553078765388e-002
      -1.2493944488656303e-001 4.3350279536384498e-002
      -3.4602628665696120e-003 3.5875984632006780e-002
      -2.0655967665288211e-002 -1.8741785967181266e-002
      -9.3439855311346562e-003 1.0013964642127265e-002
      5.1324828550625118e-002 -6.9506444515792076e-002
      1.0092089146586701e-001 -3.4023812054108475e-002
      2.8080387095917193e-002 9.6313951231117058e-003
      -6.4727366014033172e-002 3.3908887903986988e-002
      5.0731160868871042e-002 1.0923680315000646e-001
      -3.9526372555936169e-002 -1.4239484656781178e-002
      -4.4783853088621983e-002 4.7813014908391578e-002
      -1.1594689163214456e-001 -3.5644428861298275e-002
      3.1122367263945849e-002 -6.8143157068917951e-002
      8.9560669756895694e-003 -4.0320395128592944e-003
      1.2262311353936092e-003 -2.2101656337651550e-002
      -6.2839803452185497e-003 1.8965996726830071e-002
      7.0166670571714551e-002 1.1969118783718399e-001
      2.1420657205725649e-001 -1.2679335066689173e-002
      -1.0677459771031202e-001 4.0294560106925705e-002
      4.9634601219911579e-003 2.9553643824175538e-002
      -1.9782395082865566e-002 -2.4851631513173444e-002
      -1.1929202976569275e-002 6.8936028790349537e-003
      4.9223173665514097e-002 -6.4992930396015725e-002
      9.1269013345287170e-002 -2.5129480478986527e-002
      2.7184695294077646e-002 4.2953486789955343e-003
      -6.6797585774756515e-002 3.4460549469510479e-002
      4.4905744886144121e-002 1.0210873920765647e-001
      -3.6925319333153316e-002 -1.2728490900925902e-002
      -4.9513034576354531e-002 4.6202584621999172e-002
      -1.1313937200662413e-001 -2.9197357398714017e-002
      3.4789472134409270e-002 -6.2501082445285586e-002
      6.7105919921218154e-003 -7.7123053856872495e-003
      -1.6795574707465023e-003 -2.4369533399114324e-002
      -1.4390232021239060e-002 2.6000829551554548e-002
      6.7702752426168300e-002 1.0583301213574062e-001
      2.0940966151218221e-001 -9.9355692815508000e-003
      2.8205154942694510e-001 1.3615346985101697e-002
      3.0458542195003825e-003 6.7207968227363898e-002
      5.5850530706838073e-003 -3.6736547563369505e-002
      -1.1081696183438901e-002 3.8713206285885225e-002
      8.3940533619914562e-002 -2.8936930900617146e-002
      1.6533496821590288e-001 -4.4767501937001360e-002
      9.7024891198884841e-002 -8.9762663591240563e-002
      5.6103354657570333e-002 4.2086659665084104e-002
      3.1424784501620305e-002 5.2442149197491135e-002
      -3.8117975208032603e-002 -3.0916775692790301e-002
      -5.8497825471853587e-002 2.2413957985808536e-001
      -1.1687938764611409e-001 5.3751039507181006e-002
      5.1400649543462233e-002 -1.6474117437378316e-001
      -1.5815642080804609e-001 4.4827532344257341e-002
      -2.4526376354902443e-002 -2.3584514409786282e-002
      -1.0604495939436466e-002 -2.2156324843071704e-002
      7.1860061770008199e-002 6.3618292925871428e-002
      1.8386374331548203e-001 -7.6165129834389680e-002
      4.6582905883412656e-001 5.2871739780047125e-002
      4.9324531635186152e-002 6.1232201438842851e-002
      6.6429681441697768e-003 -5.8602995289412485e-002
      3.6892702803228004e-002 5.2403261793440230e-002
      -1.1943399648659073e-002 5.3458563443898703e-003
      1.3013624624410861e-001 -3.0737615471451631e-002
      8.1458273923990007e-002 -1.5390234138409881e-001
      3.8279932831440024e-002 7.6048656605582562e-002
      -1.6698553655447063e-002 -2.9140235881109085e-003
      -1.5121257123315565e-002 -4.7505223909363049e-002
      2.4113182710202675e-002 7.4714829091345608e-002
      -5.1894232846425352e-002 -2.6594593486768202e-002
      2.9268682331579001e-002 -3.5373454167505279e-002
      -1.5542092362274892e-001 -2.3444928696128645e-002
      -4.4258364620899569e-002 -1.6221075437031062e-002
      7.4531779617633600e-003 -2.1925762584730307e-002
      5.0136924867486540e-002 -2.0633195298106997e-002
      5.1515504471117753e-002 -1.8715385527335072e-002
      3.9150618565566475e-001 3.3949326843123975e-002
      2.7592169029930735e-002 7.3794072722318485e-002
      1.5996860146347582e-002 -5.1700755908459115e-002
      2.6856852579140049e-002 1.8419305353695927e-002
      -4.0699184593091797e-002 -1.2038675407219972e-002
      1.3531864378723882e-001 1.5624217814039422e-002
      8.8731471366988487e-002 -1.4786248538479529e-001
      -2.8660239869122944e-002 1.2556860257153907e-001
      1.7637809118624542e-002 4.8305932656327964e-003
      -2.1969715849576403e-002 -3.5768250043634632e-002
      5.7115584712370125e-002 4.9062536261827668e-002
      -6.2675119866097320e-002 -6.9983358947936128e-002
      6.3822708954863134e-003 -1.2295720750539455e-002
      -1.3539220830996732e-001 -6.7423737298485994e-003
      -7.1653038158811438e-002 -4.2186544866304482e-003
      1.3204177020699407e-002 -3.9305884220632331e-002
      1.4616019519326267e-002 -1.7869068076577524e-002
      1.0446531194116221e-001 -4.6935802225130878e-002
      3.5057067745399156e-001 5.6577839260892084e-002
      2.5985217326881540e-003 4.1184621534106979e-002
      5.5372629308979529e-002 -3.8353632449950152e-002
      -2.1390595082546641e-002 6.7817257924838836e-002
      2.0365927474276211e-002 -2.0778828373926205e-002
      1.0901037078719764e-001 7.3434066842561249e-002
      4.1664713951923199e-002 -1.2153972633828242e-001
      -3.2148685764840832e-003 1.2601830797103589e-001
      7.3691254486323507e-002 5.5497269557283884e-003
      -1.2114491961856544e-002 -4.0928321390809687e-002
      -1.6724550985443305e-002 1.2628965076127679e-001
      -3.6256163869303453e-003 -1.4660727974570212e-001
      4.7513541398475918e-002 -2.7748631635988873e-003
      -1.6541993479661621e-001 -2.4841452472382054e-002
      -2.0143583790640207e-001 -7.4053707286377939e-003
      2.6243912635312887e-002 2.4751658126685387e-002
      4.3214085643110016e-002 -3.9183233906521918e-002
      1.3951901972106887e-001 -8.4579004709894531e-002
      -2.3464676269242538e-001 1.0676985865191653e-001
      -3.5956893542643732e-002 -6.2803992937788045e-002
      -4.5813880946851356e-002 -2.8089669228580746e-002
      -2.3623994632158993e-001 4.0185474722742809e-002
      -1.1249492401560234e-001 -4.0413495489769816e-003
      -8.7516796561879592e-002 -2.6381657814130953e-002
      -1.1275246642412631e-002 1.6885274037741616e-001
      -5.4247997623975697e-002 -1.0895003755251571e-001
      3.8622749490265791e-002 5.8557669520298934e-003
      -1.6268732682377759e-002 6.7946507636243991e-003
      1.0153071091867792e-001 -8.7992212205740786e-002
      1.1652061600716836e-001 -6.6265598627062536e-002
      -6.7680879844478681e-002 -1.8969488153878618e-002
      -1.0045481237903938e-002 6.8141725500112937e-002
      2.8509795161955967e-002 -1.4979056246265150e-002
      5.3076357530766755e-002 7.8796744313122724e-002
      2.0008192307804380e-002 4.6859446890378118e-002
      -1.0148585765576167e-001 3.7084170464115086e-002
      -1.9858407539038178e-001 6.7725110385273318e-002
      -1.0482429359976635e-001 -1.1359742717663266e-002
      2.8227664346701913e-003 -2.9190544801168793e-002
      -2.1352450663052439e-001 2.6787999678508107e-002
      -6.7475926552845691e-002 6.2956612215939012e-002
      1.4213511883365512e-001 -3.3883355304243808e-002
      1.9074578896420224e-003 -1.4235083547037169e-001
      -3.9765462880052581e-002 -9.2284591357203044e-002
      3.8674967253281359e-002 -8.1150425521922642e-002
      5.5536714997290034e-003 -6.3241548526764696e-002
      -2.8198783114549264e-002 1.6278993854119957e-002
      -1.4481210206078756e-003 -1.0635640826244053e-001
      -1.2098383536660817e-001 -1.2820031471015252e-002
      -3.5613362078398228e-002 -5.1694993406494515e-003
      -7.5423243567170270e-002 -7.2464810224580095e-002
      1.1219452646927755e-001 1.0280340524526754e-001
      2.2825112605452422e-002 4.7894243594864584e-002
      6.2888035921797786e-002 -1.9276331514919596e-003
      -5.9143515006719449e-001 5.1535030718131434e-003
      -4.5346409765656008e-002 -3.7196897303659701e-002
      5.5472953448351542e-002 -7.5738422956477341e-002
      -4.9786626809680878e-002 8.1625843852642072e-002
      -1.9983046549667195e-002 3.9156836310610947e-002
      -3.4521184508317593e-002 2.6478360983012941e-002
      -3.1978679344768633e-002 4.1921237716566105e-002
      4.7293301046975808e-003 3.9099959928462741e-002
      -9.4074472654429253e-002 -7.9238778649147898e-002
      6.0675296762591924e-002 -1.1812798253629964e-001
      -7.7942270132502614e-002 -2.4595974935404469e-002
      1.8031399256583442e-002 8.9289454172086752e-002
      2.5821009889177283e-002 -4.7027089936887451e-002
      7.4749415286991985e-002 2.4101768811861959e-002
      6.3767520583473652e-002 1.6740044918397595e-001
      -2.1876433639831185e-002 -1.9978803418559971e-001
      -8.6914215646073014e-003 -1.1732409421043996e-001
      1.5042974713856362e-002 6.0202967044470992e-002
      -2.7755217839003049e-001 -1.9300100784307616e-002
      -9.1381199313961603e-002 -1.7336300005292408e-002
      7.1239046999351782e-002 -7.4434878096713161e-002
      -7.1413804504799741e-002 4.4821616678344105e-002
      -3.2599716906518618e-002 3.7444312063831052e-002
      -2.3923705196976675e-001 -2.3104001076781081e-002
      -5.5458957334296941e-002 1.4494992834277742e-002
      4.2652420401019665e-002 -1.3958343363546746e-002
      -8.2519855006655221e-002 -3.7955708740824656e-002
      4.8615689958967548e-002 -9.4255032149558285e-002
      -3.0126620424139965e-003 -1.5148283385291128e-001
      1.3473154897551737e-001 1.3397053048143664e-001
      1.1203043226396948e-001 1.2788811261371857e-001
      2.1009229267181712e-001 -8.8322372203972294e-002
      1.3162393953821758e-001 1.3233036253980487e-001
      -1.4772117580085162e-002 -1.2712375803904183e-001
      6.4803986558707213e-002 -1.7637382828702725e-001
      -1.8323291934502228e-001 1.4038447979205196e-001
      -4.6789493697921621e-003 -4.4294990888884824e-003
      2.7137525926839360e-003 -7.8663643944641373e-005
      -4.6836504848198068e-003 -3.4498204770849906e-003
      1.2180863294188823e-003 -4.2906359919444295e-003
      -1.9449909752313917e-003 2.9909704882622547e-004
      1.7768484712696012e-003 3.9951902542655028e-003
      1.1874384443957414e-003 3.3425340597871046e-004
      3.0630592397158430e-003 1.1239385831826195e-003
      -2.9405788540911868e-003 -3.2177526068619768e-003
      3.7767380277239546e-003 -3.4675452741078131e-003
      -8.9219784239875455e-004 -5.7023583401520390e-004
      -2.3245408346488127e-003 7.8861987990807984e-004
      -2.6117477508819918e-003 4.4356991975370123e-003
      -3.5855366667424528e-003 2.4216811053808522e-003
      2.4287684686802964e-003 2.7077570236381881e-003
      4.8927980192230418e-003 -5.0627460253129214e-004
      -8.2243414458874661e-004 2.5728529540919236e-003
      1.8187054090596007e-003 2.3956193096730220e-004
      4.0542044688994441e-003 -2.2050087471490033e-003
      -3.8082310452576267e-003 -1.3242387019078762e-003
      -8.5703240788172620e-005 4.1790232745207305e-004
      -4.3859117789445184e-003 -9.7886432217794654e-005
      3.8096315466101534e-003 1.3166832152260739e-003
      3.9001798040830911e-003 -8.7691322855022106e-004
      -2.2334106748155705e-003 2.1387270353332272e-003
      9.4741477303509898e-004 3.2776809843691524e-003
      2.5597349874420259e-003 4.7629358835966406e-003
      4.6522053134242366e-003 2.1436730477212740e-003
      1.3837672011595039e-003 3.9629123883329681e-003
      -3.4570566913050115e-003 -7.3036556521611780e-004
      1.8337400409721544e-003 3.0219425674972073e-003
      -1.5074255485661866e-003 1.7534316582259201e-003
      3.9830719100564715e-003 -4.5698646951901822e-003
      -6.9498440742623939e-004 9.0902932686618668e-004
      -2.9508905783461525e-003 9.8938735833807253e-004
      2.5705384226829189e-003 -1.8384329511515489e-003
      1.2942693146639564e-001 -6.9783683801799945e-002
      1.8988379395482977e-001 -3.9978229634136227e-002
      -1.3987860594199253e-001 3.2654316202201756e-003
      -2.6110901972319755e-003 -2.2886366355134968e-001
      -2.8638569224460363e-002 -5.9074520457130408e-002
      -3.8498600029181151e-001 -6.5611235484655847e-002
      -1.4548759738054448e-001 2.4807225315040565e-001
      -4.4668235279035962e-002 -3.0148368138270321e-002
      -2.1083793637312047e-002 -3.8530910447229887e-002
      3.8247578538448464e-002 9.8427253907082374e-002
      1.2995183115986339e-001 -2.8470082813689357e-001
      3.4394360303266136e-001 2.5837257320133724e-002
      2.3852204903674640e-001 1.3732799449270016e-002
      4.3349859237183358e-001 2.8486474422785690e-002
      2.8336304226112169e-001 -6.4715125282676589e-002
      6.1324104976704666e-002 4.8781401892374077e-001
      -5.0400041478771862e-002 -1.8542138816475989e-001
      -2.7302952018084847e-001 3.1172417023967069e-001
      -1.3633810454977754e-001 1.3198907491192076e-003
      1.7178627379698877e-001 -8.5036569254973604e-002
      -1.5017367034847101e-001 6.4394131163298838e-003
      1.3689838039510989e-002 -2.2240385311956842e-001
      4.7300976309477889e-002 -2.8128705335928827e-002
      -3.5095261736091038e-001 -1.0952520897643496e-001
      -1.2289690532194278e-001 2.4136715113347351e-001
      -7.4604856313325474e-002 -8.0273176570605634e-002
      -1.9218598960776604e-002 -5.1143958154658282e-002
      3.4486277951793848e-002 8.3809790524837599e-002
      1.2391521496166986e-001 -2.9609181258881906e-001
      2.7615006271660258e-001 7.4530475379743402e-002
      2.0992295908050373e-001 8.2803028760935996e-002
      3.9842796076032133e-001 -6.8678953856719974e-002
      2.6710712376940293e-001 3.7928272337601092e-002
      9.8215149797310029e-003 3.0286653373996253e-001
      1.2333978957866414e-002 -2.5336409569348850e-001
      -3.4680405136358872e-001 2.9371509169084203e-001
      -6.7875990760305660e-001 -1.8587956981366244e-001
      1.2156292827928654e-001 -1.4354857087517620e-001
      -5.6602408894586308e-002 5.1018980973345188e-002
      3.5278531248149385e-002 -2.6927923954617899e-001
      -4.7156785656987540e-002 5.4240674941878217e-002
      -1.1799935554904262e-001 -4.5871979289298315e-002
      -1.8618521486916562e-001 1.8057565199601819e-001
      1.1188451835899860e-001 7.1401194034921706e-002
      -1.5652945319358891e-001 -1.4928567417911279e-001
      -3.5140763653932573e-002 5.8736110185928961e-002
      4.5328199250791117e-002 -2.1298233856343757e-001
      -5.7861139770399049e-002 2.0361464792192641e-001
      -1.0164765043526912e-002 5.2756189190322898e-002
      4.2919157789318135e-001 -3.2526509569408744e-002
      1.6604159443007779e-001 9.9813774516622156e-002
      -4.6907782699590036e-003 1.5885341231177671e-001
      6.6557045092391964e-002 1.1389380595724616e-001
      -9.3061705572739614e-002 2.0418982105903591e-001
      3.8525558334507916e-002 -8.5635313712971676e-003
      1.2892291882572665e-001 1.8142092169263931e-002
      -1.7304157237224946e-001 3.9111840096269848e-002
      -2.8143830343215406e-002 -1.7748483063456980e-001
      -3.4413998714004156e-002 6.3369581694153423e-002
      -8.5328313392508161e-003 4.5433195438012011e-002
      -7.6978380707624760e-003 3.6529658778666502e-001
      -9.7112584227093166e-002 -1.6985967569665410e-002
      5.3712831019146548e-002 -1.4262638971664651e-001
      4.8685510691058607e-002 1.4151228822930248e-001
      7.9852127411971022e-002 -2.2365535454068979e-002
      -2.4411983189319923e-002 2.1068845125284453e-003
      -1.1295766504769475e-001 3.3589900838700754e-002
      1.6146031452551540e-001 1.2805388505659476e-001
      -9.3450418125457554e-002 -2.2275334298062768e-001
      -1.3860466875401194e-002 -8.2767028644054313e-003
      7.4559601434491252e-002 1.2287293239458508e-001
      5.9988635090600623e-002 3.8578786567106671e-002
      1.9815026361297223e+000 -1.7533091797847344e-002
      6.8006414351492683e-002 -6.9266515121668051e-002
      -1.1561401665687766e-001 5.5975223092589378e-002
      -1.4495381682178207e-001 -1.9947348388622482e-001
      -7.7435197620757124e-002 1.1077206727445377e-002
      -2.8460118243357386e-002 -6.7528862176994747e-002
      -4.7796942290265536e-002 6.3955860856326430e-002
      -5.4470389601705485e-002 3.9216058775818984e-002
      3.7760443905319706e-002 -4.4036191089542841e-002
      3.1018955277700364e-002 9.9832338157485427e-003
      -7.5488238058940532e-002 1.1088460331676070e-001
      2.7514527453683362e-002 -2.8377179916741515e-002
      -8.3768536663827248e-002 -9.3849135843186576e-003
      1.5177942215325307e-001 -4.1725159916265943e-002
      -3.9937791654409388e-002 -4.6932781476649719e-002
      -1.8672048884756719e-003 4.2667778349360447e-002
      2.7319833752144061e-002 7.4654819675348830e-002
      -1.6461447860981596e-001 -2.6756621534505656e-002
      2.2381730724797504e+000 1.8765258728630327e-001
      1.6441383174294488e-001 2.8975908102630257e-002
      -1.5068339412710138e-001 3.7292358430698579e-002
      -5.8621279488993171e-002 -1.3065393691553384e-001
      -1.1706038645938237e-001 8.9318463265909663e-003
      1.8417119038360230e-001 3.4473302699994483e-003
      2.0615196976612609e-002 2.0285480732256869e-001
      -8.8665419703414794e-002 1.5911972057836118e-002
      1.0210661367529071e-001 -3.2436875006354400e-002
      -6.8663253234851618e-002 9.5516045845455574e-002
      1.1896308202040642e-001 -1.0306995139615430e-001
      -8.3210780082565050e-002 -2.1333418738280782e-001
      -3.2133655981847414e-001 -1.3944816653780320e-001
      2.2936433427513035e-002 3.7257135033682547e-002
      1.4678070489843714e-002 -7.3322306701565407e-002
      2.2322802172195028e-002 1.1306246818356172e-001
      3.2003507023994342e-002 -4.6907486123413195e-002
      -3.8461946469158334e-002 -6.7497294836979860e-002
      2.6330445328244556e+000 2.2725432627396300e-001
      1.0259052012128426e-001 -1.6682826235976386e-002
      -2.2482301153402670e-001 1.4724455927726261e-002
      3.9479160377741664e-002 -1.1843388459511689e-001
      -6.1595785022651041e-002 3.4697626017708150e-003
      7.9974075305657741e-002 -1.7941808235833096e-002
      6.3194299638798870e-002 -7.8594398443594476e-002
      -9.2819414126565997e-002 4.8886224299228918e-002
      3.0236213044378214e-002 -1.8062359799305584e-002
      1.0203312570263964e-002 9.7143879150634369e-002
      -2.8046494100545889e-002 -2.7162202037875546e-002
      -1.8573828981578878e-002 -1.0104788419172014e-001
      -3.2122229554149162e-001 -8.1561237406366019e-002
      -1.7790649383050400e-001 -8.8608176242506900e-002
      -3.8169284033268643e-002 -4.5456447414946267e-003
      8.0808813820980777e-002 2.6898148639850722e-001
      3.5574044143873046e-004 -4.2167562771692146e-002
      -1.5041336220983365e-001 -1.1499528318955098e-001
      2.8122922598051687e+000 3.1588613808513449e-001
      -6.0026537654196771e-002 -1.6919080284661714e-002
      -3.1045928075772661e-001 -3.4066876664640630e-002
      -3.3144453991667065e-002 -7.0689999028317699e-002
      3.2116856525759047e-002 1.1827973324241006e-003
      8.4782392522508757e-002 6.3591969347452128e-003
      9.5945262975804385e-002 -1.4224822908083637e-001
      -2.6843136398669859e-001 9.4584018613222548e-002
      1.6831014613864689e-001 -1.9367040222519512e-002
      -3.8070586808682028e-002 1.0578746765318865e-001
      -1.0540952571406960e-003 1.0070653266357981e-002
      -3.2610060955884868e-002 -2.3063744961988822e-001
      -2.0994892742648646e-001 -1.2533356093581846e-001
      -2.9187311489068385e-001 -1.5203873484415634e-001
      -4.5999064482704397e-002 4.9728702255641112e-002
      1.3064597874119890e-001 3.0021342345345747e-001
      3.7274265881156690e-002 -1.3340358072788716e-001
      -4.1648240685551494e-002 -1.7650266591187624e-001
      2.6797502716052928e+000 3.0225963473669570e-001
      -1.9839626200086832e-001 6.1643241698623487e-003
      -3.5622933168421705e-001 -2.6099461153758333e-002
      -3.7769350990431411e-002 -9.2135355367323105e-002
      3.0916153474641918e-002 -1.0351502936733745e-002
      2.0333152018881498e-001 -7.2030995509045223e-002
      1.4164891934712706e-003 -9.3228505365502104e-002
      -5.5309582749485198e-001 9.6184445316635059e-002
      2.2125965237770451e-001 4.2305489756169670e-002
      -4.9285350207783985e-003 1.2501938543196225e-001
      -1.8656122377936946e-002 -8.1528561437392719e-002
      -7.6069838898785297e-002 -3.5722419403678901e-001
      -1.1680956431178496e-001 -1.0661813998482948e-001
      -2.2156570325621844e-001 -1.4098747052389007e-001
      -3.5929716760816181e-002 1.6762179578606169e-002
      7.5709948187646481e-002 3.6054313350797795e-001
      2.8149380082597038e-002 -9.4739778336131855e-002
      1.5083879446193207e-001 -7.1232657582364162e-002
      2.6784527023447446e+000 3.0929585394137110e-001
      -2.0015447249256038e-001 4.4869752128928846e-003
      -3.4961346000244992e-001 -2.7672677260761499e-002
      -3.6493289842602306e-002 -9.8454157609900603e-002
      3.7778525041143998e-002 -7.4096821304709621e-003
      2.0197772097919361e-001 -6.7513999106413078e-002
      -3.8011818654137899e-003 -9.1540419554475491e-002
      -5.5305305601782351e-001 9.3758298929055128e-002
      2.2477457267622492e-001 4.2909481969147442e-002
      -7.5761978452147166e-003 1.3194098822968373e-001
      -1.0064387307897684e-002 -7.6164235892336493e-002
      -6.6842374434641555e-002 -3.5360016864148364e-001
      -1.1242329774872994e-001 -1.0836350715089894e-001
      -2.2030225670850956e-001 -1.4081979586259999e-001
      -3.0688914687489115e-002 1.5779536131075137e-002
      7.5459241198437943e-002 3.5298836975395720e-001
      2.7336001768652713e-002 -9.2968407348030094e-002
      1.4783238105942656e-001 -6.4337812392201654e-002
      2.7712087081569781e+000 2.6463469183114335e-001
      -1.1516595094053154e-001 -1.2426121516434701e-003
      -2.9681633888477527e-001 -5.5556073263505291e-002
      -3.8949951905035279e-002 -1.1635972348493825e-001
      -3.6634634243706832e-002 4.0469372204385741e-002
      8.7503953258118355e-002 2.7714964448417471e-002
      6.7029503615128980e-002 -1.2927220921165700e-001
      -3.1141679334679628e-001 1.3076484019541346e-001
      1.3552654929259844e-001 -3.2825000952422488e-002
      -2.9352814156108830e-003 1.0999982615905407e-001
      -2.2275556419619660e-002 -2.2478760360339065e-002
      -1.3965147453301728e-002 -2.8544757678867727e-001
      -1.9331418656639779e-001 -1.0264852808341611e-001
      -2.7370595217098476e-001 -1.1580514054649792e-001
      2.9842994580428998e-002 3.9114435234784389e-002
      9.4712530542186896e-002 3.1467996830092237e-001
      1.8789245107411239e-002 -1.4458894742828488e-001
      -4.1980033140299772e-002 -1.9036168780078436e-001
      2.6752465714788083e+000 2.0970343784585338e-001
      3.4169929011057698e-002 -6.9557093309625690e-003
      -2.6534857935830564e-001 -1.2502272648093490e-002
      6.0303101184508878e-002 -9.7051261011433049e-002
      -1.2470472197611783e-001 -1.0944517548408828e-002
      -3.3371924637402441e-002 -5.3488118253389259e-003
      9.9068641824514275e-002 -6.0840437975724380e-002
      -1.1316688482063367e-001 9.4073356018926760e-002
      4.3214364989741620e-002 -1.0313801505871072e-003
      7.1663741441788983e-002 1.1536552913968846e-001
      4.7268728893481932e-003 -7.5050319288724368e-002
      3.9543140239524301e-002 -1.6762775636398417e-001
      -2.3430218579001122e-001 -2.6576203677865926e-002
      -1.9902178923255437e-001 -9.7452470145820314e-002
      -3.3698256264989609e-002 -2.3929198273710092e-002
      9.5954658550753191e-002 2.8831113141682768e-001
      3.3343111156967663e-002 -1.6475565981889098e-001
      -1.9732139007257099e-001 -1.3803191835355683e-001
      2.3925719317772907e+000 2.0478035428672017e-001
      2.6099102558927077e-002 -4.1227657729488179e-002
      -3.0425911806366102e-001 -2.9946328036227897e-002
      -5.4499506446254613e-002 -7.4904931796169083e-002
      -1.5824348742741234e-001 -4.4366013196719407e-002
      -3.7670907206942821e-002 7.5793223965342743e-002
      5.6927030553181483e-002 -1.3158660254012866e-001
      -5.3546824959800877e-002 -2.7585600788272688e-002
      1.9009198548782083e-001 1.9234277766643028e-002
      1.3026304105966746e-001 5.0115592823516547e-002
      3.1532533364541596e-003 -3.8069662397773834e-003
      -2.0908483937547778e-002 -1.9205907822767149e-001
      -2.0930952421666460e-001 1.3906612143758651e-001
      -1.1207425136152631e-001 -1.1309496586815383e-001
      -1.4952362483857354e-001 -7.9829226913879781e-002
      6.5514321552692059e-002 8.2316078587969577e-002
      2.8148093113457673e-002 -1.4766669292667078e-001
      -1.5597613714239184e-001 -2.4287453803691017e-001
      1.5765716053893557e+000 7.1985839323567544e-002
      -6.5002551926652358e-002 5.1378164774463029e-003
      -1.2502514892942868e-001 -1.1357807929173628e-002
      -7.7041545479893558e-002 -1.7529040972919060e-002
      -1.6785133187208073e-001 -6.6494232091272545e-002
      5.0221292017957171e-002 -1.1875352323581155e-002
      -5.9752169404938882e-002 -3.1014061940662960e-002
      -5.7999364802397684e-003 1.1194012146561436e-001
      1.0147571293398792e-001 5.5804209086925696e-002
      8.4834314192553689e-002 -4.2972006098914640e-002
      2.8079545136328592e-002 -9.9546572516521062e-002
      -2.0247474591486847e-002 -1.7226421920382945e-001
      3.2259818986029115e-002 -1.7582960245355200e-002
      2.4859711102991237e-002 -4.1977707353935134e-002
      -1.5053565986718173e-001 6.0884734845582371e-002
      1.7796927362439966e-003 -7.1969813555452358e-002
      1.7265013674360348e-002 -7.5241527727770791e-002
      -1.6298543735113488e-001 -1.5300890549025847e-002
      -7.0344192778941750e-001 -2.6667534281197326e-002
      -1.5390855765263861e-001 5.6494969921533564e-002
      -1.3712281538137802e-001 -8.7712635643425907e-002
      1.0071524393712671e-001 7.6646888702932930e-002
      2.1387531886284221e-002 -3.3126322685717732e-002
      1.4238033145214177e-001 2.3911037843051069e-003
      -9.4318702497432585e-002 -1.5008029678828574e-002
      2.0259520474916214e-002 7.2597871135334821e-002
      2.4475061516812120e-002 7.8596808215651431e-003
      1.3977982920879276e-001 -5.3864163476128275e-002
      -1.2956417180552635e-001 -3.6557094949189864e-002
      -1.0195098810352388e-001 -2.8319288853387713e-002
      -4.5109746299505454e-002 -5.4838367157239436e-002
      -1.1677983205641412e-001 -3.4726522420418654e-002
      -7.4981772211171180e-002 6.4907323032223962e-002
      5.2831826771395935e-003 -2.3412278287971375e-001
      2.8936352810430121e-003 1.5474118756397273e-002
      -6.5964182921327955e-002 2.6358232409789970e-003
      -1.3548507616973247e+000 -3.0530139860436942e-002
      -1.9759361230271544e-001 -8.7588152412764499e-003
      -1.1111674930178764e-001 -7.6650849525617112e-002
      9.1928406564634302e-002 3.2400775451303550e-002
      2.4400623995818344e-002 -1.6976720540170888e-002
      -9.3907490694915968e-002 8.9145162813323381e-002
      -2.8719631249263428e-001 -2.5144820771658066e-001
      -9.8176619885996779e-004 -1.2171390426358106e-001
      1.2259630412040234e-002 -7.6216085376685727e-002
      2.1866112733300715e-002 -3.0080305467910745e-001
      -2.6503710511072776e-001 2.0988630480798556e-001
      -2.0833528728861589e-003 -1.1838231314417910e-001
      -7.0724995213295089e-002 2.5536802582852197e-001
      9.2820973629880021e-003 -2.8584420112570208e-001
      -5.5031851323970760e-002 1.5773001521332689e-001
      -1.2371196715682074e-001 -2.9329358834208924e-001
      1.9752575852816350e-002 9.6913978911933978e-003
      -1.3760268643938173e-001 -4.6015587272631352e-002
      -2.2494805378726461e+000 -4.7540070814400183e-002
      -2.1110347353028314e-001 3.0851008755122420e-003
      3.6598351651399380e-002 -1.2223750509109170e-001
      4.8489435513673164e-002 -7.3833363973832181e-002
      -1.1902344244153686e-002 7.5681310772554397e-002
      -6.0762435181119186e-002 4.2161037551492732e-002
      -1.9616150814247646e-001 -7.2873050510116652e-002
      -3.9593861426047768e-002 -1.1539224693877090e-001
      4.8058997942368759e-002 -8.6594332143758210e-002
      -2.3786326627832154e-002 -1.2796423465007295e-001
      -9.5875091060614134e-002 1.0965411620249094e-001
      2.1271586789057800e-001 -7.0162155673257218e-002
      -3.5073493048657541e-002 1.2984140372696829e-001
      4.9167482549240728e-002 -1.5323144666084232e-001
      9.3547980593254101e-002 4.7935774945806982e-002
      -6.2264054503543595e-002 -1.1427921769001732e-001
      5.4111149498873010e-002 -1.6378686407917414e-001
      -1.2358887072976117e-002 3.9265403692279238e-002
      -2.0995865004889134e+000 -1.3409948635924332e-001
      -2.1063539807242035e-001 -2.3551465970046523e-002
      5.6199707937162599e-002 -1.4963812272510590e-001
      2.8276755399946150e-002 -2.0186129340367603e-001
      2.2510704963848181e-002 8.0240147331909331e-002
      -2.0076936063270000e-002 7.8538077514812232e-002
      -1.8374292247299551e-001 -2.3832155943178357e-001
      -8.2182233709155783e-002 1.5554997594897308e-002
      7.9151840372447668e-003 -8.1837862322156202e-002
      2.5558434503025668e-002 -1.8771518176779292e-001
      -1.2298033709566583e-001 1.2392716277963169e-001
      1.1430837176499298e-001 6.6154323599220161e-002
      1.5529249075352644e-001 3.9728848875744883e-002
      -7.7429572722611126e-002 -1.2648289952267369e-001
      1.7073972696529445e-002 1.0678781866535199e-001
      1.1485988869566789e-002 -1.7276257800611577e-001
      -1.8066622485274669e-002 -1.9214293838519189e-001
      1.4061453684095307e-001 -1.6943911910748188e-002
      -1.7539321922879505e-003 -3.4635344423030786e-003
      3.1350962297579115e-003 -1.2685192622885204e-003
      3.4127855102790931e-003 3.7262906856386393e-003
      3.8387974867066339e-003 -6.8446600548566292e-004
      -1.7017383343780807e-003 1.0933893825237741e-003
      -5.0769724157731882e-005 -3.3830093635666449e-003
      3.0559439401566125e-003 1.9797527947827851e-003
      1.1368185792216814e-003 -2.5328976291776762e-003
      3.0914463092867124e-003 2.8963006874189868e-003
      -2.3425318066443179e-003 1.6666312855845408e-003
      3.3702764647711623e-003 1.0126568311895833e-003
      4.0464834477974207e-003 3.8949917857341691e-003
      -3.0987817178481192e-003 1.3927949201488447e-004
      7.5974954433451235e-004 2.3434780708560029e-003
      2.0425997637354581e-003 -9.0755468992997392e-004
      -1.0364792342909708e-003 -4.6615524069678962e-003
      4.2341289121952995e-003 1.7747823180023332e-003
      -3.2449415867533238e-003 2.6551059744635260e-003
      -2.5302752373876055e-003 1.4590412678682015e-003
      3.2122333286868604e-003 1.1061994906542731e-003
      5.0613038257430638e-003 -2.1174209150231606e-003
      1.8501080251932041e-004 -4.3034012895009780e-003
      1.3195441196353042e-003 -3.8716296954018278e-003
      -2.2033281888973288e-003 -3.5936353197301494e-003
      -4.7392112259839374e-003 -9.2562346769048680e-004
      3.7904233817787609e-005 3.9862224803989439e-003
      2.2869263167429148e-003 -3.1639375516332854e-003
      3.4399829872048780e-003 -3.9803858927475507e-003
      -4.9205556326454812e-003 -2.7354363632136162e-003
      2.0518547072424778e-004 2.2983664101444007e-003
      -9.4663643104329919e-004 -1.7833889805240692e-003
      -2.9704271654344468e-003 2.3080269615436831e-003
      -1.5325043802801195e-003 -5.0474648594055968e-003
      2.6001866743163198e-003 -1.9280658201928811e-003
      3.0971159810741253e-003 2.0099201755330929e-003
      4.2458693805161561e-003 4.4602490853842503e-003
      2.0818219424307030e-001 -6.4042889824380070e-002
      1.4715028573303976e-001 -4.2802415318666492e-002
      -1.5066262782838197e-001 9.3525053570284143e-003
      6.9090863169209366e-003 -2.5322295727007171e-001
      2.9288232135163194e-002 -4.8549301294630726e-002
      -3.8977512538055054e-001 -9.1515233694114476e-002
      -1.5403639832168972e-001 2.0800887381484759e-001
      -1.1493528218164425e-001 -1.2271782802310852e-002
      -3.3139022335810890e-002 -4.0926726172011867e-002
      7.8835245152641939e-002 9.0782319776238268e-002
      1.1879997082275937e-001 -3.1115390947870120e-001
      3.1236486126645607e-001 5.2684729071535562e-002
      2.9021606228343577e-001 4.9458421242021301e-002
      4.2751319112572667e-001 -3.1119018916789105e-002
      2.5779669143041206e-001 1.9882976790388963e-002
      2.5648457138442948e-002 4.0316670935254040e-001
      -1.5468718657103654e-002 -2.3968351630653356e-001
      -3.3318824209267517e-001 2.8085933403101876e-001
      -2.8510887711975869e-001 4.8823193030240179e-002
      1.4361812658287545e-001 -1.5941831342312768e-002
      -1.4822457715770068e-001 2.1161628456165833e-002
      8.1125983262239937e-002 -1.9170542702681062e-001
      2.2548011894322057e-002 -2.9930207280919836e-002
      -2.1518425111512532e-001 -3.8156628787657104e-002
      -4.3401515011006100e-002 1.2085315998199925e-001
      -4.5761543559938674e-002 -1.3390258101025809e-001
      -6.6365704522069441e-002 -7.7497191180874142e-002
      2.6128486851855433e-002 -9.8895101776059896e-003
      3.1911368311816526e-002 -8.0169204327649776e-002
      1.1907507064752598e-001 1.2557800167957470e-001
      1.3982328937330835e-001 3.5940247179278441e-002
      2.3790519918823991e-001 -1.0983327235202168e-002
      1.6795732940794367e-001 2.8835225635878606e-002
      -2.6541816269369065e-002 7.8730264994328988e-002
      2.4312256098298644e-002 -2.5348453334968896e-001
      -1.7348957195590481e-001 1.8841372856724975e-001
      -1.5302946948058780e+000 -9.9199592075332826e-002
      4.0391879453571977e-002 2.9079005529309629e-002
      2.1507213870400419e-002 -2.3102818919592551e-003
      6.7884486851850237e-002 -2.3665191424392101e-001
      -1.3479865585168230e-001 9.8168891107206460e-002
      -1.2965227640710036e-001 2.4842341133939541e-001
      -8.1840211840520996e-002 5.6255303350947411e-003
      3.7128954975370325e-002 -1.7869793107000174e-002
      -2.8799392227865789e-001 -2.2166401348860584e-001
      -4.5013076346629106e-002 -1.4089896432933344e-001
      -6.8313267642796174e-002 1.8979545442628584e-001
      -1.9421556480569718e-001 1.4027888696478022e-001
      2.1158660201570758e-003 -5.8000170098137176e-002
      1.1819117517681460e-001 8.0210264663451644e-002
      3.0446921050629402e-002 1.3020445826100041e-001
      -5.0518057882676069e-002 -2.3737517102034872e-001
      1.0595989124940504e-001 -1.2797778627034800e-003
      3.0797435186301364e-001 1.9532459780550446e-001
      -1.0769220629083707e+000 -5.1196403926623481e-002
      1.2249519652512043e-001 -3.0198050719580333e-002
      -4.4098193554571063e-004 6.6978360387984024e-003
      1.6732254242879471e-001 -1.9144529006843142e-001
      -8.3952600379068099e-002 7.7178247099107158e-002
      -5.1988704052567246e-002 2.3600575895856835e-001
      -6.2925765939134987e-002 4.8397367950422619e-002
      -5.2125256041795943e-003 9.2311038770223914e-003
      -2.4952622059226903e-001 -1.6470809213866958e-001
      -5.3972057624315652e-002 -3.5273595748947909e-002
      3.8911848104805622e-003 6.5640105006836563e-002
      -9.6367894977020530e-002 8.5544795160648932e-002
      -1.2188168180212042e-001 -5.2016035643401577e-002
      6.6878286097289533e-002 5.0602175588735511e-002
      -1.2007992383168327e-001 4.5411367312829902e-002
      1.0445109231901367e-002 -2.0660140814049152e-001
      1.5117694755537109e-001 7.8904595495194445e-003
      2.4220462935665890e-001 3.1449391193124593e-002
      1.1850855179926638e-001 1.8994291155311389e-002
      9.4397284412317525e-002 6.5869795728860245e-002
      -9.6826377407005476e-002 3.5829396466418417e-002
      1.3356105672794072e-001 -2.3975141617736706e-001
      -1.6651146222354438e-001 1.0819061747975060e-001
      1.7552026527789968e-001 1.4413071155131185e-001
      -4.6231785612541494e-002 4.2410239017747660e-002
      -9.0422641205006968e-002 1.1887254071121429e-001
      -3.7104378294970160e-002 -9.0759981259661740e-002
      -5.1524203622827495e-002 1.7296903812468481e-001
      4.7880793806626160e-002 5.3369896897085805e-003
      -1.7903771558626491e-001 -1.5629661658797428e-001
      -1.0480192727384074e-001 -1.7058949892821876e-001
      -4.1116958078925417e-002 1.9628018752800869e-001
      -8.5654326547247084e-002 -9.6411415445543484e-003
      -7.7701173466650009e-002 -4.3848734058709572e-002
      2.4693603129231700e-002 -5.6635640490943061e-003
      9.6427369458646744e-002 2.5556743023501883e-003
      2.3786749858501088e+000 4.8239876864887628e-002
      1.9641178630015302e-001 7.3757039167298644e-002
      -1.2216343545409517e-001 4.6411216501312531e-002
      7.2399163600980157e-002 -2.6286469252738204e-001
      -9.4675646453169435e-002 1.7231917166682695e-002
      7.8589442196699805e-002 1.7409574621580777e-002
      3.8058699849336373e-002 1.5937711579055899e-001
      -1.1768836810457829e-001 4.5167903562249867e-002
      9.2427994142977067e-003 1.3105439557378157e-003
      -4.0156647107679203e-002 1.1714447013333594e-001
      1.2214245647504138e-001 -7.6461294740686386e-002
      7.4353221988786924e-002 -1.5159854374874204e-001
      -1.0532299258835098e-001 -1.7526491956042830e-002
      4.3784686341408884e-002 5.0944243502624921e-002
      5.3332851178675485e-002 -7.9849018715434802e-002
      -5.0226857213358121e-003 1.9273985328129309e-001
      6.0287915140674109e-002 -9.1898109383999116e-002
      -1.7199896462738923e-002 -2.6479436210545301e-003
      1.8348582948290741e+000 6.9756569678557492e-002
      1.0788259177092238e-001 6.2361499718401941e-003
      -1.2826899326577398e-001 2.5246308129432921e-002
      2.5722200949255869e-002 -1.2032729059290947e-001
      4.8862469283213666e-002 1.7111187463941902e-002
      -1.6519968835355035e-002 5.0337171352828426e-002
      -8.7297471631766210e-003 1.4955030524055668e-001
      -2.9634185070384744e-002 1.5368712509617158e-001
      -7.1441960929040843e-002 -5.5207671828427327e-002
      -4.6771755751620001e-002 6.5905151134265086e-003
      -4.0830561029541301e-002 -1.8115478329461848e-002
      1.3781531713690369e-002 6.9483596603154736e-003
      -1.7321862234583954e-001 -1.2640312663584454e-002
      2.2793929347984191e-002 -6.9848133930733705e-002
      6.5289134146315556e-002 1.2115557406414992e-001
      2.0761967625144512e-002 -8.6024549772435288e-004
      3.7783778711131928e-002 2.0360170668348864e-003
      -1.2919487802542826e-001 -1.5737029070255334e-001
      1.9612081360108995e+000 1.2986650933778138e-001
      -2.4251799950848640e-002 5.6236819395066542e-002
      -8.8467212162104542e-002 -4.3249178067183494e-002
      -4.1184856594397995e-002 -1.4355839565655562e-001
      2.8930384834706439e-002 1.9537538040572636e-002
      -1.4786295913542158e-001 4.7047831168908821e-003
      4.9688896216554347e-002 1.4444113559078617e-001
      -1.3278317186775751e-001 1.1393714769191919e-001
      4.7003674130893160e-002 -4.7164309095453029e-002
      -7.1373855477228826e-002 8.9484303224463324e-002
      4.9411558593696933e-002 -1.2698126426403455e-001
      4.4118944945168964e-002 -4.4615341764992510e-002
      3.4051716584380378e-004 2.6311279426889645e-004
      5.5159678973031784e-002 -1.9420311622856970e-002
      1.0904895978857597e-001 9.0152292431900510e-002
      3.0319787503108788e-002 7.4364891586439774e-002
      1.4952874904986929e-002 -5.0628426086563198e-002
      -1.1005202960458903e-001 -4.4912090190921634e-002
      1.8617574071738050e+000 1.0862071316866793e-001
      -1.2577418922455214e-001 6.9509374774072832e-002
      -1.3035023821759931e-001 -5.1988543746505425e-003
      -6.5036653638665010e-002 -1.2012663564952665e-001
      4.8511584771078489e-002 1.1933410141361483e-003
      -7.5998219919595919e-002 -1.2708651854106498e-001
      -5.2625021352535530e-002 1.4662921030899731e-001
      -3.0075883593943015e-001 5.9871561398576773e-002
      6.4130167687575970e-002 2.1420262526112444e-002
      -4.9221598167712363e-002 1.0384532009258463e-001
      -3.8164419462657424e-002 -1.3990994019106867e-001
      1.7839464420122474e-002 -5.5768648449639656e-002
      7.6396445518850081e-002 4.3108317510158763e-002
      1.4035001320223808e-001 -2.0593538722901393e-002
      8.8219884107378993e-002 8.1804595561101784e-002
      -2.8161015808859137e-002 1.9303168719091324e-001
      1.2922253091505386e-002 4.7596786476634290e-002
      4.5403104917125610e-003 8.6887831704226606e-002
      1.7650241895400252e+000 1.2220289348538453e-001
      -1.0854859808352982e-001 -1.3371444928318198e-003
      -1.3296652098488673e-001 -1.8915059732585351e-002
      -7.6638496369345485e-002 -5.7573370531331949e-002
      5.0815685809070803e-002 1.0581678561918845e-002
      -1.1164597548910604e-001 -8.9199798634510441e-002
      -5.2176021863949200e-002 9.4315889362977648e-002
      -2.4172530330289332e-001 3.9385077037103179e-002
      9.3679267438907435e-002 6.2611087897516049e-003
      -5.4012666679966487e-002 8.8818774368562850e-002
      -5.0922181469094954e-002 -1.4353988228524867e-001
      2.6401848493848096e-002 -5.0497455213378867e-002
      1.1598378321053671e-001 5.9855441225102862e-002
      1.4187158322919480e-001 -2.7384640026715933e-002
      -2.2019078386353017e-003 8.1564670201254408e-002
      -7.4427335899596228e-003 1.6455649599712219e-001
      1.6568621559839777e-002 5.4927065070566730e-002
      1.6919740214368734e-002 7.6946141669832949e-002
      2.1533305246431902e+000 1.3459234198062742e-001
      -3.5408369481653115e-002 -6.1165650667598409e-002
      -1.1379316905359345e-001 -9.0923687899574973e-002
      -7.1792263672169440e-002 -1.0952229033720137e-002
      -6.0443763397465794e-002 5.5675306382672776e-002
      -2.0512420258812042e-001 6.8775320458021802e-002
      4.1066366283931413e-002 -2.5233410437811639e-002
      7.5991220394517767e-003 -5.2901392107575381e-004
      1.0270144229848198e-001 -5.9059669072994363e-002
      1.6532053048901572e-002 2.8805207841137985e-002
      -5.5546879224977086e-002 -5.6547604353181916e-002
      6.0093980029065075e-002 8.5714526416551876e-003
      4.7865605969439964e-002 1.2557702396613998e-001
      5.2020601524360902e-002 -2.6791964671160878e-002
      -1.7407720342601903e-002 5.6137888365307739e-002
      4.7113244791538007e-002 -2.8214297623375181e-004
      -9.7713028528935535e-003 -4.1491045870811441e-002
      -1.0460416785316053e-001 -1.6246852309552201e-001
      2.5586968188084147e+000 1.0282305035095399e-001
      8.8975846787454266e-002 -1.4764489293823302e-001
      -1.1258380833243956e-001 -6.8050004892272573e-002
      9.8570499823843583e-002 1.4310963473086065e-002
      -1.2103458886005683e-001 3.7110921361025874e-002
      -2.5669767640454100e-001 1.2156380198664668e-001
      3.0139799572960441e-002 -8.6546467165777172e-002
      8.0343120709593374e-002 4.7933744873394024e-002
      -6.2097288922963498e-002 -6.5169499323846317e-002
      6.7287213341795743e-002 -1.0595660971348796e-002
      -1.4134361256211320e-001 3.3045065203698702e-002
      -1.7821498657859272e-004 1.9005019138375712e-002
      -1.7894760399708487e-001 1.2690799878932074e-001
      -5.1649403212483708e-002 -6.6938934074093737e-002
      -1.0088711983339861e-002 1.8150100239831778e-002
      7.9325520587615772e-002 -4.5797580774591752e-004
      -9.7014648694264405e-003 -1.0979676225029247e-001
      -1.8785514318285085e-001 -2.6921500342801347e-001
      1.5923759073415378e+000 1.2301993340689989e-001
      9.5468170310104669e-002 -1.1947645763177134e-001
      -1.6046993754677943e-001 -7.5022210569491876e-002
      2.4606836740028632e-002 4.7994314711978528e-002
      -4.9499402890502898e-002 -8.9788327073212822e-003
      -1.4901627319501115e-001 4.4913419260589178e-002
      4.9741296479000767e-002 -1.0554337208650488e-001
      1.9565543987282559e-002 -6.7459171891076933e-002
      -2.4255998776123368e-002 -3.2417324609743101e-002
      8.6419014659202986e-002 -6.1854938185985087e-003
      -3.8490951389591327e-002 5.6945568537576756e-002
      1.2515381812291271e-002 2.4773209343161705e-002
      -6.9302046378100862e-002 1.6973629310980504e-001
      -5.2784890111004859e-002 -2.8252010664377363e-002
      -1.2750243332937669e-001 -3.6213334602864286e-002
      1.6644201561090866e-002 -4.7423275829246315e-003
      -5.7556892179017105e-002 -8.2619130660334578e-002
      -1.4529979440596538e-001 -1.8428085056301494e-001
      -6.9913953690056407e-001 8.0630191615838037e-002
      -1.0612790237500073e-001 3.5463308045861959e-002
      -1.9217048007494128e-001 -4.5402760103439514e-002
      3.4071616032285298e-002 -1.2474768735155085e-001
      -1.2148635583234804e-001 -1.6653820321017320e-002
      3.3105316155242960e-002 1.3331201167188614e-001
      -1.3103002877195180e-001 -1.1758594424350952e-001
      -7.6587403229392614e-002 8.6296193106420324e-002
      8.9022321829742540e-002 -2.6295435079399909e-002
      5.9942894541262885e-002 -2.1888105999896493e-002
      1.1805113713914695e-002 4.7384951498213111e-002
      -7.3852525207528968e-002 -1.4715881075280454e-001
      -7.4186402702858020e-002 1.7505931532264610e-001
      -5.3366055354071278e-003 -2.0861718995520331e-002
      -2.4780953336660116e-001 2.8578111584977727e-003
      -6.6902865866897698e-002 -4.4206039883992736e-002
      -2.4840723076325691e-002 -6.5702219680293583e-003
      8.0291342641667540e-002 -4.8534492846603071e-002
      -1.3325328543492971e+000 -8.6311568831832983e-002
      -1.9116426691291366e-001 8.2781368208677999e-002
      -4.2001016897930191e-002 -3.4615805164964403e-002
      2.8588573461429252e-002 -1.0860603590719843e-001
      3.0329009221598435e-002 -5.2253011098370022e-002
      -5.3512891212185401e-002 1.6080603147185690e-001
      -2.8292558291296571e-001 -7.6345689432709599e-002
      -2.1729438627342407e-002 1.1322597320837227e-001
      -1.2043780752582821e-001 -4.1806083094777574e-003
      1.1896877137863501e-001 -1.2559236460699247e-001
      -1.5383749711960573e-001 1.0973268767235753e-001
      -1.0885337605152898e-002 3.3150587298114292e-002
      -1.0248571999147479e-001 8.6687601221681870e-002
      -5.4157359968201119e-002 -1.3174197370306670e-001
      -3.8969124840533421e-002 2.4373727829319433e-001
      -1.2708003087190903e-001 -1.4199727437550044e-001
      4.1540873332659337e-002 6.2284805809363589e-002
      -8.2888493888062919e-003 -5.5303111976877879e-002
      -1.3439548956674148e+000 -9.7283484541497683e-002
      -8.4524173807341146e-002 -1.4868375541549662e-002
      -4.0437366798044994e-002 -8.2340360636978083e-002
      -3.3455230623606579e-002 -9.8169763012468464e-002
      1.0857015089209286e-001 -1.5290584080974867e-002
      -1.5738653309003600e-001 1.6183079548864479e-001
      -3.2574385745812845e-001 -2.9860022053296303e-001
      -4.9927514189656026e-002 -3.9548104564502149e-003
      -2.3112920695245082e-001 -8.6956653263366615e-002
      5.2407257890970164e-002 -2.0949584350337097e-001
      -1.8700851745088323e-001 8.9740837644771532e-002
      1.1695945303091174e-001 1.1069087651756002e-002
      -1.4668516237005082e-002 2.7480893980974663e-001
      3.4468054569696122e-002 -3.0804628736764184e-001
      -8.2787384935354161e-002 1.9363174187034185e-001
      -1.4244431167340790e-001 -1.0433471245556011e-001
      -2.2090738407936718e-002 2.0202781829074742e-002
      -2.1466514697739858e-001 -2.4577139430448161e-003
      -1.6719842091995201e+000 -5.5999136354976690e-003
      -3.6467528979143737e-002 4.9187535990660551e-002
      -4.1701599167246264e-003 -6.1323931737889602e-002
      7.6068489369121084e-002 -6.0642983434483357e-002
      -2.6075868881169237e-002 2.3887985030830745e-002
      -9.0911434798500099e-002 5.6689986948400432e-002
      -9.4094910483634372e-002 -4.4227913134860762e-002
      -2.7032306431830400e-002 -2.3860382073356148e-001
      -1.4278377587965863e-001 -5.8204740929149484e-002
      5.9448414950447068e-003 -5.5010281344420625e-002
      -1.7767486153463040e-002 1.0393767421165107e-001
      1.9802759458777575e-001 1.8565562093239127e-003
      1.3005863522475873e-002 6.2750418569674157e-002
      5.7272147635657545e-003 -4.7912313049458373e-002
      8.4934044182323490e-002 -6.7869463650334735e-002
      2.3043982602003788e-002 6.7413990438572852e-002
      1.9320473955503396e-002 -9.1310015312795589e-002
      -6.0734081538537460e-002 1.2694526258617075e-001
      -1.6490876260839331e+000 -3.3747809476651541e-002
      -9.5209129868652140e-003 4.3873827103577748e-002
      3.3023165846688849e-003 -9.2217803290802008e-002
      2.3233145978748589e-002 -1.5896233020311060e-001
      -9.1278645441576101e-002 -1.6734131778349474e-002
      -1.4832786402915768e-001 1.1328690102582564e-001
      -1.1212071307363028e-001 -7.4817742124984765e-002
      6.5187634864934197e-003 -2.2424193079157373e-001
      -6.0262750672043536e-002 -2.3052285254595614e-002
      -1.7791981716112522e-002 -8.5702683672101432e-002
      -2.5972460712954143e-002 1.6879444549707706e-001
      2.2791312192226237e-001 -3.8160710871397517e-002
      -9.2674844000919989e-003 1.0349022691082414e-001
      9.7175966134356501e-002 3.2612355446029376e-002
      6.3350451648901934e-002 -1.6212822558707757e-001
      2.6922141980302076e-002 6.4012131446881504e-002
      -7.4051001851668810e-002 -4.4047179353549688e-002
      3.3121382505856480e-002 8.1633164165562683e-002
      -1.0737521685498172e-004 -1.3590141060583092e-003
      -1.9219916326408501e-003 4.8265153582863936e-003
      -4.7147669085393839e-003 -4.4496748278894140e-003
      3.8235207512976837e-003 -1.0005366947195081e-003
      6.1729700110774860e-004 4.9550421744450302e-003
      -3.8716042003635682e-004 -4.8791348758471164e-003
      -7.5099405757820484e-004 -2.8722620703964482e-003
      3.0947754225400265e-003 1.4177017050389081e-003
      -3.9916555531720795e-003 -2.6717661306202415e-003
      -3.6805896686595944e-003 -3.1984481520685357e-003
      4.3840929576024479e-003 4.4962354406250134e-003
      -1.8040744094960923e-003 1.3502407191533802e-003
      -4.0242262126731883e-004 4.6268087786952442e-003
      4.4468896909035374e-003 -1.3648593213832177e-003
      4.3791899813599148e-004 -1.9502239590888574e-003
      4.3905158998200694e-003 7.8192798707220714e-004
      3.0383010724789241e-003 -2.7217818320574550e-003
      -2.7569710018828463e-004 4.9181031920011347e-003
      -3.0350387577676810e-003 3.1392938573274421e-003
      3.4140029767950066e-003 -4.6332075712113058e-004
      -2.2400278694444087e-003 -2.1477871458406971e-003
      1.7764960338862920e-003 -2.2894355391506228e-003
      -3.1378581383985937e-003 -5.4152520599074568e-004
      -2.8046316756282625e-004 -4.2739439901155188e-003
      1.7955272719993406e-004 -2.5257895960682560e-003
      -2.3651537008371527e-003 -4.3305352957915215e-004
      3.7381865619991535e-003 8.4382307076977551e-004
      -1.7894026182475188e-003 1.5479990563379950e-003
      -1.2647167274293354e-003 -4.2160587186504247e-003
      2.0220177590738104e-003 -2.5302578808156006e-004
      -4.4940918541265251e-003 -1.9864003484857812e-003
      4.3903216092457502e-003 3.1725731977946233e-003
      -4.9756323854394978e-003 -1.1027041381687225e-003
      3.4753154326685556e-003 2.5715815091178810e-003
      -3.7529229079061153e-005 1.9438542210375648e-003
      2.8573122563878544e-003 -1.5813600684705077e-003
      -1.3989922316010650e-001 6.5021558445226460e-002
      9.4384643797260637e-002 1.6861608546540217e-003
      -1.4978853036414519e-001 1.2207213563424539e-002
      6.5445312169108955e-002 -1.6938685680807575e-001
      -1.9118900119819736e-004 -6.9980772005481797e-003
      -1.7304337263498498e-001 -4.8415211924116595e-002
      -2.4480529872291285e-002 3.7314982833353216e-002
      -5.4495377739390068e-002 -1.2159555481369536e-001
      -5.1514419876388468e-002 -1.0347000216305291e-001
      -4.0854415904864182e-002 -4.1246693084807093e-002
      6.3844772717140466e-002 -1.1156811100198266e-001
      1.2819462127173284e-001 1.1952337619687232e-001
      1.2828667200241273e-001 2.7795659781811099e-002
      2.2555240402816645e-001 1.9045179425560010e-002
      1.4388883695231211e-001 1.9134800356136520e-002
      -1.1029519259322875e-002 6.3835839451138188e-002
      3.5521995338301790e-002 -2.1193130051104747e-001
      -1.4886322473786237e-001 1.4729587881227785e-001
      -4.8727291475205925e-001 6.3791084575491139e-002
      4.8073476429444900e-002 6.1759742162726415e-002
      -1.8075477002094989e-001 5.9185300888607729e-003
      3.4413834477965151e-002 -1.8923148010858087e-001
      8.0558316562858098e-002 -5.7632023685719029e-004
      -1.0835780814859239e-001 -4.6856828202721919e-002
      -4.6121388517885033e-002 7.9718201072976863e-002
      -2.9453595944800289e-002 -1.4896691601673406e-001
      -4.2269027271689005e-002 -1.1334244596849657e-001
      2.6082140973320248e-002 -8.8586965851146476e-002
      1.2441747200740687e-002 4.4644813707239044e-002
      1.0396176137490989e-002 1.8624376550476943e-001
      1.1479844200294587e-001 5.1657732871638077e-003
      1.4141332998821404e-001 -2.1028267157121518e-003
      1.5583835317888850e-001 6.7605766378015825e-002
      -8.2809823024430874e-004 -1.5428438449637962e-004
      7.5180296094304030e-002 -2.4848542044437807e-001
      -3.8363340253352439e-002 1.8841935312963798e-001
      -1.5371916859731938e+000 -9.3747692671478297e-002
      3.0627554019271603e-002 2.5247060084348530e-002
      -1.5881095269069029e-002 1.2018009392323250e-002
      7.1192158110889359e-002 -2.5076461245377712e-001
      -1.2930722722682006e-001 9.3928504868241627e-002
      -1.0139084338524153e-001 2.5778159409626150e-001
      -7.1298993186546200e-002 4.0995608939674863e-003
      3.1426684146031808e-002 -1.1669193688512828e-002
      -2.8468677553246158e-001 -2.1951254419399802e-001
      -4.4247791079465776e-002 -1.6273582482285773e-001
      -9.1274194402447564e-002 2.4536782190830284e-001
      -2.4663115495443635e-001 1.5506991301220885e-001
      -1.6021332685740956e-002 -8.7002359015499936e-002
      9.7583328532780109e-002 9.3472910838143144e-002
      1.8806901270034673e-002 1.4086930865467270e-001
      -3.9210534936084444e-002 -2.8483058636817971e-001
      1.0025144791744300e-001 -7.5098603928557116e-003
      3.3785969378512432e-001 1.6542678927192148e-001
      -1.0432935950387230e+000 -5.7998987232999510e-002
      1.1700945172854857e-001 -3.5026773454063846e-002
      -1.0483274934411828e-002 3.9619144948345349e-003
      1.6537064966193238e-001 -2.0702259759426245e-001
      -7.6935156979583433e-002 7.7111655125052220e-002
      -5.5705661013480845e-002 2.3667471293984932e-001
      -6.9636612553445235e-002 4.1143912636780605e-002
      9.5610455015299989e-005 1.2787337987301764e-002
      -2.5008335087997730e-001 -1.6960699698298667e-001
      -5.1397670708283161e-002 -3.4482010874508841e-002
      -1.3621426560603880e-002 7.9748587475656704e-002
      -9.4769370837271050e-002 8.4919626416074936e-002
      -1.1370324853074436e-001 -4.2006750517882337e-002
      6.6232402455651207e-002 5.2545681169872301e-002
      -1.1895708031894620e-001 4.2500096834431914e-002
      6.2394008044179821e-004 -2.0656793916050020e-001
      1.4628506629802468e-001 8.5604186760955773e-003
      2.4132800937827539e-001 3.3488659046233257e-002
      -3.3615241287489755e-001 9.2732665200857076e-003
      9.7653605193969761e-002 8.7165020033385235e-002
      -1.0568309582461433e-001 3.3459120322551397e-002
      1.5990009040906575e-001 -2.4583529807158805e-001
      -5.5686351141293403e-002 1.1879176389997588e-001
      8.3665192818130577e-002 6.6302376468669308e-002
      -1.1477260866727550e-002 3.8192227500974868e-002
      -1.0663622992950621e-001 2.0901008463808129e-002
      -7.4987389297410972e-002 -1.1001519667330492e-001
      1.4591415546192659e-002 1.5278140836707921e-001
      1.0231901552562966e-001 -2.9447313798440355e-002
      -6.9499724065622409e-002 -5.6103279101864890e-002
      -1.3638641481132610e-001 -7.3440681343018316e-002
      2.8526428616803615e-002 1.3061140368458979e-001
      -4.6613258758694494e-002 -1.0343886163186494e-001
      -6.1331456162596540e-002 4.2506691866589466e-002
      6.6415082931625166e-002 -9.5559941206590712e-003
      6.0692548687449985e-002 6.1273219049538759e-002
      1.4867348983256750e+000 8.2610341842858662e-002
      2.3431259199755042e-001 1.2163139139526910e-001
      -7.5755669428286654e-002 2.1396450998703485e-002
      1.4764431571980835e-001 -1.8998897656027042e-001
      1.0844995408510828e-001 -6.3210488880024538e-003
      9.3850232848113002e-002 1.5396928344856863e-002
      1.1671657163837776e-001 1.6470674669277551e-002
      -3.6630062603620811e-002 6.2812679206021918e-002
      -4.0955773965629168e-002 3.5678588543352020e-002
      7.9403173317088821e-002 4.7781415485697760e-002
      3.7276628991040561e-002 -2.9262390602276547e-002
      8.8564081549483559e-002 -9.7151535259114380e-002
      -3.5531701797899613e-002 1.2105754718458503e-002
      -3.2296170592013583e-002 7.1404928694852390e-003
      6.9858421564764819e-003 -3.6616676481129366e-002
      4.4274438500137688e-002 1.6196468583867787e-001
      8.8932805835466588e-003 -6.1295230370523812e-002
      -3.5676045143370562e-002 4.0324515441661948e-002
      1.2073066555302912e+000 9.3548754526185884e-002
      1.6861727673229310e-001 7.1052475711257557e-002
      -4.4225187127552239e-002 3.2398595753122990e-002
      1.0058989279184320e-001 -1.0826200200425840e-003
      1.8647203277412541e-001 -1.4258449133918643e-002
      2.7235330953389304e-002 4.2833678749134033e-002
      -2.5811963549320048e-002 9.0054828071887166e-002
      4.4249396293781690e-002 1.4372956112819341e-001
      -9.4159751823669507e-002 -1.0132953406084154e-002
      -2.1949896472360130e-002 -7.0816919735059297e-002
      3.6933514534755817e-002 5.9961934607399486e-002
      1.2079593454245989e-001 -3.5226194833879537e-002
      -4.9560957755259392e-002 -9.5122771541128456e-002
      -8.6052857506053199e-003 -5.8430060532586113e-002
      4.6858228661545473e-002 1.7032859698196365e-001
      1.4937608364582629e-002 7.6754239032630672e-004
      1.6201253328130830e-002 2.1626750486126563e-002
      -4.7829119712968042e-002 -2.4101190409087862e-002
      2.3246933002562686e+000 5.8281692121053032e-002
      -2.7614378485544062e-002 4.9381139933225397e-002
      -5.1915301559280487e-002 -3.6770143136637491e-002
      -2.3345903370595397e-001 -1.8780837817430143e-001
      -6.6491442033830256e-002 -2.1722261499210020e-002
      2.2136317417499321e-003 -4.0396650666023319e-002
      -3.6397811053752178e-002 1.6233081584767714e-001
      -4.5220826793536647e-003 -1.0203036035228831e-001
      6.4151627910399689e-002 1.0403299339684766e-002
      -1.1764280120683833e-001 3.4724661584252879e-002
      8.8233497403978275e-002 -3.6516835626793573e-002
      6.3167019346446890e-002 -1.4909602520260506e-001
      -2.6540963496644934e-002 -1.1842716956364045e-001
      4.7538850288626706e-002 7.0317652937481476e-002
      1.3271630821383265e-001 -1.2668974513452647e-001
      3.7826169009341506e-002 8.9429621124805528e-002
      -1.5070565701680652e-002 -4.9429108958962513e-002
      5.8285842156609096e-003 1.4114500841991579e-002
      2.1944054287178525e+000 5.2981694577692820e-002
      -1.3299241829012151e-001 1.6023075314125040e-002
      -1.1766305528720544e-001 -1.4787436326642129e-003
      -2.6047310757804798e-001 -1.4499099494880041e-001
      -8.1894537846332854e-002 -3.7035658129436488e-002
      2.9877515372533072e-003 -1.4417462389582728e-001
      -1.0595847591251312e-001 1.2748879216250569e-001
      -1.2002523045609473e-001 -1.8173507647050754e-001
      9.2576021629221530e-002 5.5016847954471239e-002
      -9.4046407101653198e-002 4.8778684274939713e-002
      -4.5446540502990657e-003 -4.3545492599069653e-002
      1.7678231420458018e-002 -1.4188939882371870e-001
      5.9995041592868587e-002 -6.6075710981208222e-002
      1.5385067778534828e-001 7.4953470860374488e-002
      5.2254540231959329e-002 -1.2314066418676917e-001
      9.7191399264691149e-003 1.8716736510887491e-001
      1.6030039492799308e-002 8.2444681076195875e-002
      1.3175080264996278e-001 1.6558526141411184e-001
      2.3214950249293316e+000 6.2366835902167322e-002
      -8.9201068151459589e-002 -5.9318247926126118e-002
      -1.5917741876955832e-001 -2.4008995351214923e-002
      -2.3700054413156263e-001 -1.0344785015145601e-001
      -1.0079260320112597e-001 -4.0444116450043040e-002
      -1.9953251075389079e-002 -1.2112934973635778e-001
      -8.1724428516962433e-002 9.1836663595711215e-002
      -7.2879697099316867e-002 -2.6779760104761446e-001
      1.3357762983914220e-001 4.0541304853313920e-002
      -8.9605079395619583e-002 -1.0839070140830524e-002
      -1.0222330849401011e-002 -1.6107920174446472e-002
      1.7550134808590481e-002 -1.0930512101608665e-001
      8.3381961286859221e-003 -2.1276518281145844e-002
      1.6972827892641498e-001 7.0267573643038123e-002
      -9.2491478259953026e-003 -1.6091210082777638e-001
      3.2956619556113433e-002 1.2751370139355225e-001
      -1.5113277241664166e-002 8.5547692116845958e-002
      1.3891868297449331e-001 1.2085961053941165e-001
      2.6676128750873791e+000 7.5125816243229906e-002
      -3.2799028962985560e-002 -9.7889091454688104e-002
      -1.0815324556217426e-001 -8.7086093480466933e-002
      -2.5671078107749401e-001 -5.8358228351134425e-002
      -1.9283761651492695e-001 1.4251129725916552e-002
      -1.2580323810195229e-001 3.9374232624960932e-002
      3.6860027940526494e-003 -3.9589459658886605e-002
      1.4390800880170931e-001 -2.6790836795885226e-001
      1.5070330269910451e-001 -1.3421121593542071e-002
      -2.1183035820874392e-002 -5.6381212542784921e-002
      -9.8939499391735696e-003 6.2382915759046718e-002
      6.2825847951762867e-002 -5.5800599712096458e-002
      1.3988962608151224e-002 1.0253144599523150e-002
      3.8352997521114450e-002 7.6222308238776695e-002
      -2.0767723968686209e-002 -1.6770123857296082e-001
      1.1206099518991278e-001 1.3847451071922343e-002
      -4.6482694689164869e-002 -5.1758463608229638e-002
      2.4598348213668016e-002 -9.0997601150125507e-002
      1.7807923344065408e+000 1.1164039393939651e-001
      1.1621541383306992e-001 -1.2926214809893402e-002
      -7.5437732057550430e-002 -5.6309097231003434e-002
      1.4798860711590428e-001 1.3698038770434395e-001
      6.8083972207255941e-002 -1.8584468397595155e-002
      2.4174588894137768e-002 9.4635508784770228e-002
      4.5492731282237688e-003 -1.8115663741186147e-001
      1.6878518946863325e-001 5.5693075612129508e-002
      -7.7115397993767237e-002 -5.1770298230582905e-003
      1.0763361459327705e-001 -1.1324458245588462e-001
      -7.5800445502089711e-002 1.9292849948935867e-001
      -2.8096041929843222e-002 6.3162651712649870e-002
      -6.7389776738496651e-002 1.4370700280075814e-003
      -1.6933785998790568e-001 -5.0103764950611869e-002
      -6.9612400879736885e-002 6.2788925333609441e-002
      2.6569572471924846e-002 -7.6621956804731675e-002
      -8.6598384026646078e-003 -1.2745868236026700e-001
      3.8296808939174136e-002 -1.8711552786343286e-001
      4.6893100567162016e-001 1.2942754358579037e-001
      1.2657537188151424e-001 -4.8876378670090854e-003
      -5.9073912156298911e-002 -6.4259995726716909e-002
      2.1764096977261602e-002 1.1840218857362927e-001
      9.3434796156355415e-002 -5.0572111836435854e-002
      -1.0780938311261376e-001 5.5092205447277630e-002
      6.5347908754635545e-002 6.2224082954763955e-002
      4.0883394624234910e-002 2.7260770289140920e-002
      -1.0997568887947066e-002 1.9026334016180462e-002
      1.3182986699433014e-001 -4.4947380995525810e-002
      -5.3187296279684992e-002 -1.2135203605954065e-002
      9.1319073561142924e-002 4.7366966519290718e-002
      -4.0995050127756269e-002 2.2792733807297746e-001
      -1.4512914218804452e-002 -3.5969728695050981e-002
      -1.7166079277190830e-002 -1.3636235063743116e-003
      2.1678972992934552e-002 1.0766191934776582e-001
      -8.9750204190809854e-002 -1.0071727656227102e-001
      -5.4177310429079750e-002 -9.6249429101455550e-002
      -7.5082222506415031e-001 2.8455109340391690e-002
      -6.7598870041218187e-002 3.2888478422335859e-002
      -9.6649841017058244e-002 -5.6101850735374353e-002
      5.6306386615780871e-002 -9.7780875501139272e-002
      -1.2936736883135841e-001 1.8458195661379103e-003
      -5.4623469122340361e-002 1.1176517297630574e-001
      -1.0954804891981899e-001 -9.3715830551492685e-002
      1.8553168517664160e-002 1.0914233503479055e-001
      8.3097578193429195e-002 -3.9287296227938587e-003
      8.2713015207230137e-002 1.5892920051709516e-002
      1.1613597992255109e-002 3.8380666928219537e-002
      -7.5178955188566557e-003 -1.6953297814373811e-001
      -1.3145528658618072e-001 1.5982864873657712e-001
      6.7849277424330418e-002 9.5654285106771819e-003
      -1.5945134373688222e-001 -1.2455636185536889e-001
      -9.0162795282548967e-003 5.6235050168075812e-002
      -4.1250493726367021e-002 5.5322690966690520e-002
      3.0827941813499519e-002 -7.3806655668650373e-003
      -1.4435923906888586e+000 -9.9453541635237605e-002
      -1.2023012581353400e-001 3.5499221152439683e-002
      1.6725135882450119e-002 -2.8528610064766261e-002
      1.3509984250108730e-002 -7.5049275292528958e-002
      9.2869522138700582e-003 -5.1592655188770875e-002
      -2.0295473454661078e-002 2.0390398358573678e-001
      -2.6444272919182821e-001 -7.9764494605811240e-002
      2.9773807772457205e-002 1.3259831864742530e-001
      -1.1643201007068674e-001 1.0989739847572138e-002
      6.5506660497750474e-002 -9.1650728522998631e-002
      -7.9633417336064716e-002 1.0930955862391503e-001
      7.2116882669896647e-003 -6.8932785765217573e-004
      -1.3712395606309602e-001 -1.0833821932912175e-002
      -4.7126025157962791e-002 -6.2364706276395322e-002
      -2.1037583467023165e-002 1.9403662363330804e-001
      -5.4159109053090418e-002 -1.1585017046521705e-001
      1.2533174861835195e-002 9.4394167332445558e-002
      6.7947957485915270e-002 -4.1402175857592996e-002
      -1.4535916682231980e+000 -1.0472069631236543e-001
      -4.3823614038118130e-002 -6.4871169994427338e-002
      -3.0989906965374421e-003 -7.9299283118466943e-002
      -4.6298467121742001e-002 -7.4899350169758017e-002
      8.2800692747816956e-002 -1.3054055932004342e-002
      -8.5558179831271022e-002 2.0881022542600919e-001
      -2.9827753137836693e-001 -3.4091177833456643e-001
      2.0440102692574298e-002 1.2512703712406184e-002
      -2.1438615993034021e-001 -6.4795574183771479e-002
      -8.6157408939151574e-003 -1.8851811407920574e-001
      -1.4042954015192299e-001 1.4616684392681442e-001
      8.4709868681385428e-002 -7.9076505714963403e-003
      -6.4763195329599607e-002 1.5097112825419606e-001
      -1.1897204666710008e-002 -2.1507106861065120e-001
      -8.0444583647340875e-002 1.5125095447859618e-001
      -6.0968832529246446e-002 -1.2353470864770277e-001
      -5.5301710359215231e-002 6.5408282661030673e-002
      -9.7759830095878533e-002 1.6553807755839024e-003
      -2.0019506602221595e+000 5.9663428843365181e-002
      -7.9553764082736692e-002 5.7705508816330825e-002
      -1.5131601635124768e-002 -6.9320799040595488e-002
      1.6410523650922781e-001 -9.2455042265252325e-003
      6.9545347057234155e-002 4.2075519009838691e-002
      -9.1399907965492386e-003 8.9534976087447177e-002
      -1.0265288666983663e-001 -9.3468633511370386e-002
      -6.4520769351147358e-003 3.0517464357848727e-002
      -7.8738317449648473e-002 -3.5049951856192821e-002
      -2.4747793485735758e-002 -1.6116152299739220e-001
      -1.2988800057626326e-002 1.1875593999823161e-001
      5.1514450718434079e-002 7.5727598234245269e-002
      6.5669814239517940e-002 4.1011935059269158e-002
      -3.6779830196245700e-002 -1.3916120973848642e-001
      6.9232490912765163e-002 1.3233757953798767e-001
      2.8063785557773949e-002 -7.9049044098413235e-002
      7.2112251806432257e-002 -1.4562161425151732e-001
      5.8614800302131211e-002 4.5306339724773007e-002
      -1.7489528074468879e+000 4.9363015223820049e-002
      -7.8098406661284842e-002 3.0630352172871272e-002
      -7.5388942021795483e-002 -4.6899043114146742e-002
      6.2763065064368212e-002 -1.1981804445160338e-001
      7.2551120849650527e-002 -5.4163139647518850e-003
      -5.1819785601423182e-002 8.0885952638878073e-002
      -5.4394212060743803e-002 -1.8005290464237371e-002
      -4.7192767275635331e-002 -4.4331878819355922e-002
      -3.1388827521527156e-002 -3.0332346234862909e-003
      1.8313768866428277e-002 -1.8088802050540292e-001
      -7.7601590035437151e-002 1.9492437089186293e-001
      -1.4346633508698753e-003 3.0394534431833582e-003
      -4.4725691758234635e-003 9.8445416497165306e-003
      4.8977579254762524e-002 -8.8960917785940202e-002
      4.5708832172990467e-002 1.0171982951175514e-001
