<?xml version="1.0"?>
<opencv_storage>
<OCRMLP type_id="opencv-ml-ann-mlp">
  <layer_sizes type_id="opencv-matrix">
    <rows>1</rows>
    <cols>3</cols>
    <dt>i</dt>
    <data>
      400 32 36</data></layer_sizes>
  <activation_function>SIGMOID_SYM</activation_function>
  <f_param1>5.9999999999999998e-001</f_param1>
  <f_param2>1.</f_param2>
  <min_val>-9.4999999999999996e-001</min_val>
  <max_val>9.4999999999999996e-001</max_val>
  <min_val1>-9.7999999999999998e-001</min_val1>
  <max_val1>9.7999999999999998e-001</max_val1>
  <training_params>
    <train_method>BACKPROP</train_method>
    <dw_scale>1.0000000000000001e-001</dw_scale>
    <moment_scale>1.0000000000000001e-001</moment_scale>
    <term_criteria><epsilon>9.9999999999999995e-007</epsilon>
      <iterations>10000</iterations></term_criteria></training_params>
  <input_scale>
    2.1301324901467384e+000 -1.4316260715610605e+000
    2.0274823202926173e+000 -8.4739471511430908e-001
    2.0409249292959650e+000 -8.1713110514966314e-001
    2.0045215085410990e+000 -9.3498059708456693e-001
    2.0008591650689711e+000 -9.7111491708994813e-001
    2.0018648701154702e+000 -9.5773822768443906e-001
    2.0027877198333375e+000 -9.4857660252095732e-001
    2.0045215085410990e+000 -9.3498059708456693e-001
    2.0207035199248367e+000 -8.6609269141157752e-001
    2.0357040527114032e+000 -8.2805543113753666e-001
    2.0387025963490104e+000 -8.2167209064359426e-001
    2.0255172910275143e+000 -8.5250860943619400e-001
    2.0113359469042633e+000 -8.9904680844575224e-001
    2.0075842310662262e+000 -9.1662210230354602e-001
    2.0022016763169583e+000 -9.5416590275200808e-001
    2.0077725819876724e+000 -1.0921341535479026e+000
    2.0416048225366508e+000 -1.2258330500792782e+000
    2.0467788583445263e+000 -1.2409346514630106e+000
    2.0465364344671313e+000 -1.2402425115643909e+000
    2.2486844202652319e+000 -1.6382929913226982e+000
    2.0432150705797349e+000 -8.1260524783578691e-001
    2.0896896843972703e+000 -7.4202353471005889e-001
    2.3903822475007557e+000 -5.4060589454665464e-001
    2.4234343914449510e+000 -5.2742298822869593e-001
    2.1223117768127393e+000 -7.0611811647285860e-001
    2.0253424723629441e+000 -8.5297454683159679e-001
    2.0074909366004663e+000 -9.1711426645439520e-001
    2.0249947384661424e+000 -8.5390694485666041e-001
    2.0324362579303159e+000 -8.3538869099266844e-001
    2.0868979786597972e+000 -7.4547953899381669e-001
    2.0918181104205495e+000 -7.3943597030582564e-001
    2.0462947047257170e+000 -8.0674378342942488e-001
    2.0320396062081922e+000 -8.3630825561844879e-001
    2.0147883381315532e+000 -8.8556226902425750e-001
    2.0172582547067384e+000 -8.7697535207282806e-001
    2.0434478391110584e+000 -8.1215348320556713e-001
    2.2035947130489610e+000 -6.3924204648649929e-001
    2.2066019442481251e+000 -6.3717541490808938e-001
    2.0000726666415223e+000 -1.0085608838445395e+000
    2.0344588573404390e+000 -1.2036582637594873e+000
    2.1585077766281944e+000 -6.7331182909739362e-001
    2.5703358996565533e+000 -4.7791541234956686e-001
    2.6115580404963397e+000 -4.6610119529369937e-001
    2.5549211543067991e+000 -4.8253572147136931e-001
    2.2425120491190746e+000 -6.1409227130911248e-001
    2.0376166601949195e+000 -8.2394834581137133e-001
    2.0194680995776495e+000 -8.6986678663214145e-001
    2.0165523441034718e+000 -8.7935433865140733e-001
    2.0265795572500984e+000 -8.4971662842612006e-001
    2.0746576479243868e+000 -7.6155520480548877e-001
    2.0794886404881905e+000 -7.5501945044896202e-001
    2.0326355647990635e+000 -8.3492915314868288e-001
    2.0308653076503300e+000 -8.3907088230305327e-001
    2.0147883381315532e+000 -8.8556226902425750e-001
    2.0098925966916354e+000 -9.0536184896258798e-001
    2.0879387123671358e+000 -7.4418273765243137e-001
    2.2913799393650573e+000 -5.8657861527166222e-001
    2.3577476477732242e+000 -5.5457942807239136e-001
    2.2628237200199224e+000 -6.0217392016513116e-001
    2.0070332645430362e+000 -9.1957837373841822e-001
    2.1719733160844785e+000 -6.6246921867787101e-001
    2.4375595586030463e+000 -5.2205590972745042e-001
    2.4624447172268140e+000 -5.1295465340206936e-001
    2.4004574287863281e+000 -5.3649008597542069e-001
    2.1206152826892244e+000 -7.0781325232008474e-001
    2.0085495152939621e+000 -1.0968371087780027e+000
    2.1746484066532759e+000 -1.5142597056450886e+000
    2.4004574287863276e+000 -1.8639673428109069e+000
    2.5576925252623792e+000 -2.0759960374199440e+000
    2.3718446604676764e+000 -1.8234266622561837e+000
    2.3747201843917076e+000 -1.8275350593254243e+000
    2.4825647994430700e+000 -1.9766612108511816e+000
    2.4234343914449505e+000 -1.8960114032162545e+000
    2.2905987811514268e+000 -1.7036099619005816e+000
    2.0584181512771442e+000 -1.2726660972600563e+000
    2.0029017404287588e+000 -9.4756352983523584e-001
    2.0818039783305191e+000 -7.5197820847527530e-001
    2.1029149185620124e+000 -7.2655318310466965e-001
    2.0855217626526286e+000 -7.4721011474901045e-001
    2.0012002977534546e+000 -9.6594963759436858e-001
    2.2164382572420656e+000 -6.3056900871990562e-001
    2.2984852897347596e+000 -5.8288705269778673e-001
    2.3795551749340884e+000 -5.4512984828005218e-001
    2.2606649073308605e+000 -6.0340603013998984e-001
    2.0043786398053687e+000 -9.3598182087874560e-001
    2.3737595655541135e+000 -1.8261634590624078e+000
    2.7785918791836335e+000 -2.3537352626009467e+000
    2.7089530156710473e+000 -2.2680445733228822e+000
    2.9331705749051853e+000 -2.5393725009168491e+000
    2.5920537810603461e+000 -2.1204574218530428e+000
    2.5760472215466481e+000 -2.0998147304029682e+000
    2.9065994012956522e+000 -2.5078517476815709e+000
    2.9683913217120690e+000 -2.5809348092882769e+000
    3.1087920882881854e+000 -2.7444158179507316e+000
    2.5731843889062134e+000 -2.0961102454116145e+000
    2.0227960859036811e+000 -1.1628113887533680e+000
    2.0416048225366508e+000 -8.1577177245737231e-001
    2.0652248790640182e+000 -7.7514700442227003e-001
    2.0470219770574363e+000 -8.0539463508626352e-001
    2.0079632838685768e+000 -9.1465562477764151e-001
    2.3114571642156481e+000 -5.7632496156255897e-001
    2.3785839043858332e+000 -5.4554095409595160e-001
    2.4181118010451783e+000 -5.2948532244516155e-001
    2.2937333558383806e+000 -5.8534804339189361e-001
    2.0082537490985941e+000 -1.0950707044232344e+000
    2.2730797612069864e+000 -1.6766536650991331e+000
    2.5789244991512050e+000 -2.1035340480556712e+000
    2.4718132499423513e+000 -1.9621746097038375e+000
    2.4149470238386752e+000 -1.8842247823184548e+000
    2.4299017294326282e+000 -1.9049549253383655e+000
    2.4288177018043613e+000 -1.9034580923570674e+000
    2.6115580404963392e+000 -2.1454568452026397e+000
    2.6333078990931553e+000 -2.1731454105995192e+000
    2.7865722694348363e+000 -2.3634645993288541e+000
    2.5266317242183858e+000 -2.0353048305904098e+000
    2.1550070422775089e+000 -1.4787688175031599e+000
    2.0284010958430425e+000 -8.4507706816689354e-001
    2.0818039783305191e+000 -7.5197820847527530e-001
    2.0649327310339203e+000 -7.7558741362755124e-001
    2.0207035199248367e+000 -8.6609269141157752e-001
    2.3197921387898961e+000 -5.7222363359601591e-001
    2.3708903626566600e+000 -5.4882890920315330e-001
    2.3953917556089581e+000 -5.3854838618379341e-001
    2.2253179996558652e+000 -6.2479626308931313e-001
    2.0059117861781339e+000 -1.0799008310777858e+000
    2.1762669898451783e+000 -1.5171259223294702e+000
    2.4014773736980684e+000 -1.8653990468043598e+000
    2.3805285935435290e+000 -1.8358098770134565e+000
    2.3568241920270290e+000 -1.8018341585289219e+000
    2.3504160401821150e+000 -1.7925522437510375e+000
    2.4647704854149737e+000 -1.9526444921747819e+000
    2.5332358666810149e+000 -2.0439987853427795e+000
    2.5876440331815203e+000 -2.1147820708047158e+000
    2.5803685868410051e+000 -2.1053993024757585e+000
    2.4997503259646709e+000 -1.9996670828108434e+000
    2.2775684003623367e+000 -1.6836047711788715e+000
    2.0059117861781339e+000 -1.0799008310777858e+000
    2.0046666944685683e+000 -9.3398030064611770e-001
    2.0030770850882806e+000 -9.4604573038399620e-001
    2.0016850060989948e+000 -1.0418999738725188e+000
    2.3240269820612838e+000 -5.7017284242899369e-001
    2.3467978028759493e+000 -5.5950560297655150e-001
    2.3747201843917081e+000 -5.4718512506628325e-001
    2.1682751006743328e+000 -6.6538436760171316e-001
    2.0013137630296334e+000 -1.0369087024753960e+000
    2.0727744668415999e+000 -1.3085976255766094e+000
    2.1156146086326593e+000 -1.4027077146741311e+000
    2.2170639759025161e+000 -1.5869075394912255e+000
    2.2202121865931161e+000 -1.5921180624157349e+000
    2.2214806768426163e+000 -1.5942112262690484e+000
    2.3008840274831535e+000 -1.7192274099867462e+000
    2.3248794122599392e+000 -1.7551167432990589e+000
    2.3994397625900366e+000 -1.8625379510355262e+000
    2.3189505994334834e+000 -1.7463168206175963e+000
    2.2929472227051941e+000 -1.7071889950615389e+000
    2.1415139242572399e+000 -1.4535368883877056e+000
    2.0174012736772600e+000 -1.1409011465148702e+000
    2.0022016763169583e+000 -1.0480357735649501e+000
    2.0063314396818206e+000 -1.0827990135309986e+000
    2.0232940153605457e+000 -1.1647145357469737e+000
    2.2984852897347596e+000 -5.8288705269778673e-001
    2.3441046608837075e+000 -5.6073681019541000e-001
    2.3522369871781006e+000 -5.5704280277073293e-001
    2.1625726412864736e+000 -6.6997122584341195e-001
    2.0004099889709472e+000 -9.7995577243408949e-001
    2.0554394218263830e+000 -1.2648015621787276e+000
    2.0455736733585121e+000 -1.2374794385181622e+000
    2.0794886404881900e+000 -1.3244691900392280e+000
    2.0936146828112401e+000 -1.3563321546608780e+000
    2.0609208508187402e+000 -1.2791543906253766e+000
    2.0727744668415999e+000 -1.3085976255766094e+000
    2.2090303823937756e+000 -1.5735075233140530e+000
    2.1959209959069139e+000 -1.5513006076572018e+000
    2.1462406114478441e+000 -1.4624623026328143e+000
    2.1206152826892244e+000 -1.4128020303691398e+000
    2.0631955299141325e+000 -1.2849630125037939e+000
    2.0066776729908082e+000 -1.0851240479944968e+000
    2.0007099743667300e+000 -9.7370727841449545e-001
    2.0003886883218467e+000 -9.8047820631651506e-001
    2.0047401568475549e+000 -1.0712596576015436e+000
    2.2570968948734671e+000 -6.0545992891251499e-001
    2.3441046608837075e+000 -5.6073681019541000e-001
    2.3291691273372868e+000 -5.6771170791518832e-001
    2.1762669898451783e+000 -6.5914106751570789e-001
    2.0030770850882806e+000 -9.4604573038399620e-001
    2.0123942617784936e+000 -1.1176989972850717e+000
    2.0145260652568893e+000 -1.1280058042541239e+000
    2.0097857307564402e+000 -1.1039366480606765e+000
    2.0185675321241914e+000 -1.1458623897060873e+000
    2.0028444426454528e+000 -1.0547744973654929e+000
    2.0010919692221494e+000 -1.0335954524032360e+000
    2.0310593963569281e+000 -1.1924493632313984e+000
    2.0140087828704614e+000 -1.1255701722062406e+000
    2.0072145742700322e+000 -1.0886225021880089e+000
    2.0142662144226700e+000 -1.1267871737580200e+000
    2.0109939336944040e+000 -1.1104929207641181e+000
    2.0045938117625797e+000 -9.3448033313386092e-001
    2.0184195969207672e+000 -8.7317885599342726e-001
    2.0060778973704978e+000 -9.2501887063088206e-001
    2.0036342167761609e+000 -1.0621289534854981e+000
    2.1867576955364649e+000 -6.5125069355614484e-001
    2.2221169057321930e+000 -6.2685716653446777e-001
    2.3114571642156481e+000 -5.7632496156255897e-001
    2.1918743630691973e+000 -6.4751962403935526e-001
    2.0015985064972774e+000 -9.6080993838787787e-001
    2.0022520837516971e+000 -1.0485955238827480e+000
    2.0023030646341113e+000 -1.0491556015277830e+000
    2.0003091719101582e+000 -1.0177385504391054e+000
    2.0027877198333375e+000 -1.0542111173123800e+000
    2.0044497846171692e+000 -9.3548109287407566e-001
    2.0114511450581993e+000 -8.9856248541891315e-001
    2.0001635110828326e+000 -9.8729434897082813e-001
    2.0016850060989948e+000 -9.5978503222647582e-001
    2.0010919692221494e+000 -1.0335954524032360e+000
    2.0043080739218064e+000 -1.0678252924463538e+000
    2.0072145742700322e+000 -1.0886225021880089e+000
    2.0258688341767344e+000 -8.5157725634813175e-001
    2.0581437292038371e+000 -7.8619555345719294e-001
    2.0376166601949195e+000 -8.2394834581137133e-001
    2.0055865568829980e+000 -1.0775887280855105e+000
    2.1845143270316343e+000 -6.5291024904887940e-001
    2.1845143270316343e+000 -6.5291024904887940e-001
    2.2285526019198447e+000 -6.2273619590141627e-001
    2.1486421173483370e+000 -6.8168160941978395e-001
    2.0026209997717208e+000 -1.0525229708443273e+000
    2.0223038058006639e+000 -1.1609122806341052e+000
    2.0453347132142947e+000 -1.2367900370262250e+000
    2.0470219770574363e+000 -1.2416273419711727e+000
    2.0801461836955801e+000 -1.3259962220520838e+000
    2.0172582547067384e+000 -1.1402829026339101e+000
    2.0059945502175580e+000 -1.0804797497442469e+000
    2.0155897169974422e+000 -1.1328967242580188e+000
    2.0078676389344285e+000 -1.0927207209224927e+000
    2.0357040527114032e+000 -1.2076486215738667e+000
    2.0477555092412381e+000 -1.2437087269765643e+000
    2.0434478391110584e+000 -1.2312943559054912e+000
    2.0063314396818206e+000 -9.2353242615082209e-001
    2.0297144031183398e+000 -8.4183945808610949e-001
    2.0017291138311442e+000 -9.5927295572249027e-001
    2.0052706405005440e+000 -1.0752823120212027e+000
    2.1845143270316343e+000 -6.5291024904887940e-001
    2.1947587777305926e+000 -6.4544850575774482e-001
    2.2851766617194018e+000 -5.8986046489240807e-001
    2.1056154635685043e+000 -7.2355992221720034e-001
    2.0280316601079367e+000 -1.1820280427054248e+000
    2.1913010835723812e+000 -1.5433670924255130e+000
    2.2246751115647379e+000 -1.5994667357786967e+000
    2.1936013989709338e+000 -1.5473245882991562e+000
    2.2012113832399942e+000 -1.5603152612684137e+000
    2.1029149185620124e+000 -1.3763617354573427e+000
    2.0678880390054668e+000 -1.2966991059719948e+000
    2.0562431167134707e+000 -1.2669393524129615e+000
    2.0494915357901284e+000 -1.2485847475631389e+000
    2.0730863937180928e+000 -1.3093467872950446e+000
    2.1486421173483370e+000 -1.4669605079285528e+000
    2.0844981339654014e+000 -1.3359889478744686e+000
    2.0003886883218467e+000 -9.8047820631651506e-001
    2.0208607422558722e+000 -8.6562175640581840e-001
    2.0084503371394757e+000 -9.1220240405508946e-001
    2.0000343453551803e+000 -1.0058776888733565e+000
    2.2127111820511973e+000 -6.3304523428955406e-001
    2.2657233356910771e+000 -6.0053135828785864e-001
    2.3633309400073501e+000 -5.5211540606991105e-001
    2.1172667910926846e+000 -7.1120762481829392e-001
    2.0530671389337214e+000 -1.2584196821221345e+000
    2.4972601241122621e+000 -1.9963446010817525e+000
    2.5891102159104178e+000 -2.1166700193471155e+000
    2.5111047634341594e+000 -2.0147702577154205e+000
    2.3441046608837071e+000 -1.7833678506882971e+000
    2.3147697987230242e+000 -1.7400853415014315e+000
    2.2041936558671966e+000 -1.5653650203894369e+000
    2.1918743630691973e+000 -1.5443547390298418e+000
    2.2542692486034097e+000 -1.6471658361532104e+000
    2.2984852897347596e+000 -1.7155982370369729e+000
    2.4589762895493870e+000 -1.9447790633117019e+000
    2.2208457713891163e+000 -1.5931640016917661e+000
    2.0000820344021117e+000 -9.9098363984760995e-001
    2.0502460731133940e+000 -7.9956319953063637e-001
    2.0200808468171378e+000 -8.6797826476186546e-001
    2.0019582363768302e+000 -9.5671632287161257e-001
    2.3577476477732242e+000 -5.5457942807239136e-001
    2.4898602220395634e+000 -5.0341073748748766e-001
    2.6039793592196143e+000 -4.6821685334929131e-001
    2.1768087851125206e+000 -6.5872530098237170e-001
    2.0950670239480615e+000 -1.3595053996636861e+000
    2.8007649881999304e+000 -2.3807248474549754e+000
    2.8451610637501772e+000 -2.4343786192769228e+000
    2.6270125396632245e+000 -2.1651509850074628e+000
    2.4636062474433045e+000 -1.9510658960172997e+000
    2.3317651777737360e+000 -1.7652841329869360e+000
    2.2493774279065977e+000 -1.6393970811807275e+000
    2.2331380228729052e+000 -1.6132845812550130e+000
    2.3164367578458500e+000 -1.7425725637071605e+000
    2.4419908329404509e+000 -1.9215878850575629e+000
    2.7381735593978136e+000 -2.3041796148475475e+000
    2.2445566334136702e+000 -1.6316982026067941e+000
    2.0013527267361795e+000 -9.6389071122509651e-001
    2.0402511386485993e+000 -8.1849179936195804e-001
    2.0227960859036811e+000 -8.5998469715031300e-001
    2.0040998480245982e+000 -9.3798706259435771e-001
    2.3864145502151306e+000 -5.4225136156992704e-001
    2.6009750475894839e+000 -4.6906236207194474e-001
    2.6624729516486534e+000 -4.5249273925195543e-001
    2.2445566334136702e+000 -6.1285843080687585e-001
    2.0361244181511626e+000 -1.2089827725250242e+000
    2.8343346437971202e+000 -2.4213402244691964e+000
    3.1560429563340975e+000 -2.7987392119435830e+000
    2.6460987014067245e+000 -2.1893400550264479e+000
    2.4935469872619564e+000 -1.9913835556236934e+000
    2.3008840274831535e+000 -1.7192274099867462e+000
    2.2913799393650578e+000 -1.7048013240933955e+000
    2.2968945922472321e+000 -1.7131872291668220e+000
    2.3231763785496780e+000 -1.7525933681546850e+000
    2.6146169734394338e+000 -2.1493628076808982e+000
    2.7325944316937592e+000 -2.2973010192928882e+000
    2.1364303827499938e+000 -1.4438262869037650e+000
    2.0062463418839247e+000 -9.2402768383519063e-001
    2.0472657913078351e+000 -8.0494520723771024e-001
    2.0332374160974176e+000 -8.3355151395149851e-001
    2.0094686898590282e+000 -9.0731204829809609e-001
    2.4045509460238548e+000 -5.3484284494670176e-001
    2.6896031160360114e+000 -4.4564015401555651e-001
    2.6444850588465445e+000 -4.5718455066366737e-001
    2.2937333558383806e+000 -5.8534804339189361e-001
    2.0013137630296334e+000 -9.6440506055423725e-001
    2.3467978028759497e+000 -1.7872921998993980e+000
    3.1057339935071200e+000 -2.7408888440301244e+000
    2.8152543797700802e+000 -2.3982907582591144e+000
    2.5703358996565528e+000 -2.0924204873069856e+000
    2.3291691273372868e+000 -1.7614574194220982e+000
    2.3361293794010667e+000 -1.7716996119219064e+000
    2.5279461279461275e+000 -2.0370370370370363e+000
    2.4299017294326282e+000 -1.9049549253383655e+000
    2.7609711580654861e+000 -2.3321895424149326e+000
    2.4487145486920765e+000 -1.9307925050955104e+000
    2.0135011667159599e+000 -1.1231410343908417e+000
    2.0205469196369670e+000 -8.6656380943407485e-001
    2.0557065989573249e+000 -7.9019302671694713e-001
    2.0462947047257170e+000 -8.0674378342942488e-001
    2.0136271657295981e+000 -8.8987945336851437e-001
    2.3164367578458500e+000 -5.7386419413868950e-001
    2.6983260549584722e+000 -4.4349152261837432e-001
    2.6444850588465445e+000 -4.5718455066366737e-001
    2.3317651777737360e+000 -5.6648104478679995e-001
    2.0330361433248618e+000 -8.3401056492282544e-001
    2.0136271657295985e+000 -1.1237477123610840e+000
    2.0814708224846221e+000 -1.3290584873456683e+000
    2.0778586468822149e+000 -1.3206634873364316e+000
    2.0497423445652818e+000 -1.2492835600333949e+000
    2.0153201611741656e+000 -1.1316715236428185e+000
    2.0151862948714645e+000 -1.1310595426995673e+000
    2.0492414297077755e+000 -1.2478864966201317e+000
    2.0634832003002086e+000 -1.2856918501604122e+000
    2.0389217964057984e+000 -1.2177044932183803e+000
    2.0073982291399548e+000 -1.0897915799113553e+000
    2.0176891515174198e+000 -8.7555024715553453e-001
    2.0957982481728807e+000 -7.3470178332325808e-001
    2.1550070422775089e+000 -6.7623822477434881e-001
    2.1310205395128183e+000 -6.9766229170518212e-001
    2.0262229216258545e+000 -8.5064659682534538e-001
    2.0439154326265281e+000 -8.1125039813892552e-001
    2.3680400192787960e+000 -5.5006150687562871e-001
    2.6254489523281936e+000 -4.6228603023146936e-001
    2.2708565886907812e+000 -5.9765751455154281e-001
    2.0143958372577728e+000 -8.8699955220753812e-001
    2.0001635110828326e+000 -9.8729434897082813e-001
    2.0000070960027436e+000 -9.9733971329705273e-001
    2.0088505894081297e+000 -9.1024370074140337e-001
    2.0675891146822565e+000 -7.7162822314060764e-001
    2.1515579159545832e+000 -6.7916785572887084e-001
    2.1535225631880599e+000 -6.7749337962842260e-001
    2.0661058227956257e+000 -7.7382652819676334e-001
    2.0115669405915906e+000 -8.9807836772283056e-001
    2.0046666944685683e+000 -9.3398030064611770e-001
    2.0158617061719930e+000 -8.8173812507576244e-001
    2.0338451751912268e+000 -8.3217533007291533e-001
    2.1953392806950531e+000 -6.4503442370981456e-001
    2.3291691273372868e+000 -5.6771170791518832e-001
    2.1784410035232158e+000 -6.5747833164406055e-001
    2.0011275081398159e+000 -9.6698063392797706e-001
    2.0093641942727665e+000 -9.0780012612855931e-001
    2.0434478391110584e+000 -8.1215348320556713e-001
    2.1959209959069139e+000 -6.4462038824971202e-001
    2.1006340690956624e+000 -7.2912258711551625e-001
    2.0027315718464211e+000 -9.4908350194853042e-001
    2.0000002838386597e+000 -1.0005329070455522e+000
    2.0001135451082988e+000 -1.0107126784950564e+000
    2.0011636176194094e+000 -9.6646500765689647e-001
    2.0600800201022631e+000 -7.8309381691154212e-001
    2.1328082366330365e+000 -6.9597498398387581e-001
    2.1387261781638185e+000 -6.9049976769700261e-001
    2.0551729648077348e+000 -7.9108282742332892e-001
    2.0025665753994550e+000 -9.5060565726207480e-001
    2.0000102182678785e+000 -1.0032017157694231e+000
    2.0067656929722788e+000 -9.2105948028535867e-001
    2.0157254072353772e+000 -8.8221546193066724e-001
    2.0848385330083579e+000 -7.4807605326645121e-001
    2.1180983809539025e+000 -7.1035851401730499e-001
    2.0006272944659211e+000 -9.7526583614081919e-001
    2.0256927448056112e+000 -1.1736498987619084e+000</input_scale>
  <output_scale>
    1.0526315789473684e+000 0. 1.0526315789473684e+000 0.
    1.0526315789473684e+000 0. 1.0526315789473684e+000 0.
    1.0526315789473684e+000 0. 1.0526315789473684e+000 0.
    1.0526315789473684e+000 0. 1.0526315789473684e+000 0.
    1.0526315789473684e+000 0. 1.0526315789473684e+000 0.
    1.0526315789473684e+000 0. 1.0526315789473684e+000 0.
    1.0526315789473684e+000 0. 1.0526315789473684e+000 0.
    1.0526315789473684e+000 0. 1.0526315789473684e+000 0.
    1.0526315789473684e+000 0. 1.0526315789473684e+000 0.
    1.0526315789473684e+000 0. 1.0526315789473684e+000 0.
    1.0526315789473684e+000 0. 1.0526315789473684e+000 0.
    1.0526315789473684e+000 0. 1.0526315789473684e+000 0.
    1.0526315789473684e+000 0. 1.0526315789473684e+000 0.
    1.0526315789473684e+000 0. 1.0526315789473684e+000 0.
    1.0526315789473684e+000 0. 1.0526315789473684e+000 0.
    1.0526315789473684e+000 0. 1.0526315789473684e+000 0.
    1.0526315789473684e+000 0. 1.0526315789473684e+000 0.
    1.0526315789473684e+000 0. 1.0526315789473684e+000 0.</output_scale>
  <inv_output_scale>
    9.4999999999999996e-001 0. 9.4999999999999996e-001 0.
    9.4999999999999996e-001 0. 9.4999999999999996e-001 0.
    9.4999999999999996e-001 0. 9.4999999999999996e-001 0.
    9.4999999999999996e-001 0. 9.4999999999999996e-001 0.
    9.4999999999999996e-001 0. 9.4999999999999996e-001 0.
    9.4999999999999996e-001 0. 9.4999999999999996e-001 0.
    9.4999999999999996e-001 0. 9.4999999999999996e-001 0.
    9.4999999999999996e-001 0. 9.4999999999999996e-001 0.
    9.4999999999999996e-001 0. 9.4999999999999996e-001 0.
    9.4999999999999996e-001 0. 9.4999999999999996e-001 0.
    9.4999999999999996e-001 0. 9.4999999999999996e-001 0.
    9.4999999999999996e-001 0. 9.4999999999999996e-001 0.
    9.4999999999999996e-001 0. 9.4999999999999996e-001 0.
    9.4999999999999996e-001 0. 9.4999999999999996e-001 0.
    9.4999999999999996e-001 0. 9.4999999999999996e-001 0.
    9.4999999999999996e-001 0. 9.4999999999999996e-001 0.
    9.4999999999999996e-001 0. 9.4999999999999996e-001 0.
    9.4999999999999996e-001 0. 9.4999999999999996e-001 0.</inv_output_scale>
  <weights>
    <_>
      -2.3405850828941506e+000 -1.1265874486346132e-001
      8.8797275179209323e-002 -1.6346832588307197e-001
      3.3192138245559374e-002 4.6507558315206553e-002
      9.6689126068788711e-002 -1.3585677124996084e-001
      1.9356727487986222e-001 1.7756708010533115e-001
      -2.5489486467534343e-002 8.3012082893385089e-003
      8.3743334436955953e-003 -3.1000956271027189e-003
      2.1733665600082858e-002 2.2516134162745526e-002
      -7.6202290480676380e-002 -1.5730932470855292e-002
      7.2097948279393267e-002 1.2597417185842844e-002
      1.9653720142296164e-002 -6.4956163423830968e-002
      -2.2105182269859344e-001 3.6058500842469129e-002
      -3.1326874258058163e-002 2.7541631201533693e-002
      1.4658939704087257e-001 -8.4412487064405489e-002
      1.5759558015988578e-001 4.1415630324498256e-004
      5.7910892124529628e-002 -5.2298383759962645e-002
      -2.4729760796329714e+000 -1.7418025230821407e-002
      3.9859143687255440e-002 -1.8835093858043420e-001
      9.3429861922060237e-002 5.7907167851962420e-002
      7.5281143233138753e-002 -5.4997657729718936e-002
      5.7909155134118984e-001 7.3514019822076837e-002
      -8.9576826390417807e-002 -9.2818586569920494e-002
      8.2170006702483173e-003 -1.4819801903044579e-002
      -2.9483013838829817e-002 -5.7703765194989887e-001
      -1.3435357542926366e-002 -3.3996499951794393e-002
      2.3292685888577591e-001 2.8757156751018803e-001
      6.4997386488732123e-001 -5.1065628335609958e-001
      -1.4428186995883521e-001 -2.2291477282181844e-002
      3.1761890383749360e-002 1.5358927390028906e-001
      2.2436025763375042e-002 -2.4495154582900588e-001
      2.3076395439228983e-001 3.4903263188933880e-003
      -5.6724154164517460e-001 -1.8661488622243271e-003
      -3.1589704294785853e-001 3.0353826129960952e-002
      7.4132934703667969e-002 -3.2421618066093444e-001
      1.8310672442936327e-002 -3.7579901237015996e-002
      2.7281444940110956e-002 -1.5615466011954890e-002
      4.9797719860130174e-001 1.7213309259209577e-002
      -5.7717301862502762e-002 -9.7828209478679914e-002
      -1.0418436380944668e-001 2.6537291703787311e-002
      -3.2288307416920042e-002 -6.3265407220404157e-001
      3.7628881411431343e-002 -7.5941355153154616e-002
      1.7994659744008978e-001 1.6165856057884051e-001
      3.9731174406833070e-001 -2.6114260996741218e-001
      6.0096120882508285e-002 2.7153486365545969e-002
      1.1584853426450912e-003 1.9377500188895463e-001
      -6.0530737206705446e-002 -2.9989280857651962e-001
      2.3813249360155070e-001 1.9843260589825114e-002
      -3.9430863684112211e-001 1.9668644033395097e-001
      1.9933788366140972e+000 1.5246647648891473e-001
      1.4759033931083693e-001 -2.0024868031011922e-001
      8.7111456135293905e-003 -3.9242706156468465e-002
      -5.9048580054362740e-002 1.4020105414429371e-001
      2.4498914702312183e-001 -1.1966226523831164e-001
      4.3283625666432991e-002 -1.5053411385925605e-002
      1.1051157114582595e-001 -6.2609025045998164e-003
      -7.0299162639259796e-002 -2.1520097297422724e-001
      1.0423133417867123e-001 6.4919750981169370e-003
      6.9596208637494203e-002 2.0485635783179276e-001
      1.0070956609219087e-001 -8.2754708523101739e-002
      1.0788275970739605e-001 5.8010518119854422e-003
      2.6642569590557288e-002 2.1416438521734818e-001
      -1.1323236030142371e-001 -1.0860366355773714e-001
      1.1133127198784870e-001 1.3084530314008377e-001
      -2.2308387087999032e-001 7.3166408252177295e-002
      4.4738884031835475e+000 -5.4734694718351344e-002
      9.5335481382310017e-002 -2.0404753500732042e-001
      -8.6489248007407940e-002 2.8570418700090319e-002
      6.3822236666791245e-003 1.7993193111699890e-001
      1.0180912627535797e-001 -1.0518671250104365e-002
      5.8087797826817889e-002 6.2676239734633628e-003
      -1.9955327240893778e-001 -6.4530813178006574e-002
      -6.6976701083171428e-002 4.3143633881766882e-002
      -6.5772273171497656e-002 1.6317862453154219e-001
      1.0512412652691615e-002 1.0782780194260005e-001
      2.0134575080702929e-001 1.4823066859322515e-002
      4.2296516442138402e-002 -2.4917831170603871e-001
      1.6598440222221358e-001 1.0095756206863357e-002
      9.2146427248973747e-002 6.5626334017650625e-002
      2.2143136525907575e-001 6.2439448111406289e-002
      -3.1993263996348054e-002 -7.6468408443528160e-002
      5.8779264328384917e+000 2.7709765534953988e-002
      5.8575801844171658e-003 -1.0100324521532988e-001
      3.9245391689289076e-003 -4.0835640441800651e-002
      1.8276376267943199e-002 2.9945830363592657e-001
      1.5670283926519524e-002 -3.9014283502082928e-002
      1.3340287624123517e-001 1.5271295653166400e-001
      -3.0375785327304267e-001 -2.5450952650166403e-001
      -4.4676578064758471e-001 -2.0226866921042409e-002
      1.1881420816225398e-002 1.6236590160281764e-001
      -2.1240309039400627e-002 8.2046606587201920e-002
      -5.5786679813961244e-002 -2.7669262947367035e-001
      1.1672048897727870e-001 1.9209388290719132e-001
      -2.2172737217760283e-002 -3.8390311979262905e-003
      -1.2840005952819100e-001 9.3086652266605202e-002
      2.2951639663364776e-001 8.0048990115710608e-002
      -4.8330280122288405e-002 -1.1182406081100012e-001
      4.9277782949779478e+000 -3.0538639437027648e-003
      1.4208424539108500e-001 -7.0776213966318280e-002
      5.2410974615935191e-002 2.9304439118499153e-002
      5.2877369082316314e-002 6.1801854721929150e-001
      -4.4719109335951399e-002 8.4383857524581565e-002
      3.4634863365479263e-001 2.9203957985993623e-001
      -2.2647705904510501e-001 -2.8273115283823164e-001
      -3.2530119634761950e-001 1.4352763295900428e-001
      -9.1790763163770630e-003 1.3552047763141384e-001
      2.1076741335548173e-003 -1.4219020988727435e-001
      -1.5876425919900833e-001 -3.3729802368302253e-001
      -6.7365687502041610e-002 6.4215082044479066e-001
      -1.4547268373948005e-001 -3.5525092421935666e-003
      -2.6698223141197134e-003 2.1906529082176177e-002
      2.9643035073430557e-001 2.5010274747229000e-001
      4.3412420604121052e-002 -9.3148026297463132e-002
      1.5346015722820716e+000 5.6377773380598345e-003
      2.3788081045834286e-001 -3.0235245110599385e-002
      3.3727088323579756e-002 1.2378046258810665e-001
      -3.0630985264567773e-003 7.4992206063032818e-001
      -1.0769602304927689e-001 1.1542558264371344e-001
      1.2360034846566334e-001 4.0081690836930367e-001
      2.3166578824278217e-001 -2.4532680333204265e-001
      -3.7501227444728386e-001 1.3552874816053539e-001
      -1.1438603522500389e-002 1.2115954906599587e-001
      -8.0035856043735934e-003 -1.0140874418625098e-001
      -2.9285076719590498e-002 -5.5408135555962290e-001
      -2.6176046116536894e-001 8.0157321599338782e-001
      -1.3518031848004164e-001 -1.8168827920925879e-001
      2.8482184309833715e-002 -7.2823812804898969e-002
      1.2226500737946935e-001 9.3571727777334621e-002
      -2.9261369444839782e-002 7.9107644677075782e-003
      -4.4684028240015321e+000 1.2573890421038536e-001
      2.8413770713792907e-001 -1.0056113242024779e-001
      -5.7064077484294248e-002 4.7773239317327874e-002
      -6.1913886857818581e-002 5.2334189679304077e-001
      -1.8855961982910968e-001 2.2901166432805223e-001
      -1.1694323851043986e-001 1.0415441365080920e-001
      2.7312507613955184e-001 -2.6081956902209036e-001
      -2.8346744741691621e-001 9.2916740296948172e-002
      5.9373956091087129e-002 3.2634734424366076e-002
      -1.4413091656758170e-001 6.0494316296687133e-002
      1.5262982848181711e-001 -3.0493255866592472e-001
      -8.7223302284625895e-002 8.1528609030994392e-001
      -2.1766980739861852e-001 -2.9991148954090857e-001
      8.3848049580324928e-003 -3.3872668830555130e-001
      4.1842594289645395e-002 5.1541226631327498e-003
      2.4817878589829742e-002 -1.0319995266651805e-002
      -1.3223129471084074e+000 1.3151608635954642e-001
      1.2560610839535280e-001 -1.3945667672203965e-001
      -9.0929554236498858e-002 -3.8399860096582921e-003
      -7.8581211645643217e-002 3.5447665872183613e-002
      -2.3153613876394205e-001 1.9453448931207115e-001
      -2.1956938813668298e-002 2.1794940748882691e-002
      4.9096074929305927e-002 -2.6475160169784390e-001
      -2.2982743650455581e-001 5.2791693781793728e-002
      9.2681500218866245e-002 1.8998930847239876e-002
      -1.6958562719340622e-001 8.9113504626808171e-002
      1.8559629106632025e-001 -1.4041103251689149e-001
      -6.9444841421532663e-002 6.6739212330302722e-001
      -2.5924987338420452e-001 -3.6090754483337023e-001
      1.9819347245836717e-002 -3.6694489186898704e-001
      -4.7761321668817764e-003 -9.8643401078883544e-002
      -1.6911957626873886e-001 2.6707040855954836e-002
      -6.3056269310615665e-001 1.5938885794402402e-001
      1.1533274856848956e-001 -7.8219255861117373e-002
      -1.2300699101533036e-001 -7.2860012012791325e-002
      -1.3714116381060526e-001 -9.6708134234777282e-002
      -2.5443333225034676e-001 7.6558326430118048e-002
      7.1783563460520325e-002 -1.3661424675291201e-001
      5.7187273504692569e-002 -3.1657683953591470e-001
      1.0391595315625046e-001 9.3624990552882620e-002
      1.4871315940483687e-001 -9.2027034322559372e-003
      -2.3671013734029725e-001 2.3108913564808367e-001
      1.0889157330966956e-001 5.1958880346341407e-001
      -1.4609309795996324e-002 -9.4344095550723983e-002
      -2.8942862878325670e-001 -4.4365000902111484e-001
      5.4041594928808626e-002 -4.0995603896649108e-001
      3.0891504643674381e-002 -3.3582527459010247e-002
      -1.4893306652314753e-001 1.0295079743319235e-001
      -2.0766738656843109e+000 1.5471294698155563e-001
      2.1818403582871732e-001 -1.2162766135808288e-001
      -9.4728460148252980e-002 -4.2520536692745456e-002
      -1.3087725409892806e-001 -1.6671283064708939e-001
      -2.0897514578143420e-001 -1.2306133597906721e-003
      7.3274415213460883e-002 -1.3397356421874074e-001
      1.8212708329714775e-001 -3.0853245432350701e-001
      3.1829803865530520e-001 2.9449267328761269e-001
      1.2682312878643828e-001 2.2841372649930605e-002
      -2.3426860883451731e-001 2.5157871094251472e-001
      9.2954307557730667e-002 5.9327889854963123e-001
      -1.4736455153607556e-002 -1.9499637594097308e-001
      -2.3648868451998500e-001 -2.9645950425724593e-001
      1.2959675241617549e-001 -3.0245138790590254e-001
      1.2623843171838872e-002 7.3345704007961490e-002
      1.9174267135077937e-002 9.3655852485699062e-002
      5.1207015558030999e+000 9.3044888126374764e-002
      2.1113001974908779e-001 8.9022205396512549e-003
      3.6953998647771623e-002 2.8659096870097021e-002
      -7.1037807405293710e-002 -2.3421342644467391e-001
      -1.0975864771003704e-001 -8.1415111756992273e-002
      3.5771470725761617e-001 4.5687378147043788e-002
      2.0710420620882847e-001 -3.1667590004315965e-001
      4.8149466589252227e-001 3.9850337118636597e-001
      6.2170716915823009e-002 1.2183367308721453e-001
      -1.4965417212683721e-001 1.8214137449345130e-001
      1.3906637156927812e-002 6.7547328299267728e-001
      3.1419442678714604e-002 -3.0659049485730644e-001
      -1.9443192975545073e-001 -2.9806743153703219e-001
      1.9732356690887498e-001 -8.3620862981415023e-002
      1.4957044256963031e-001 1.3458366882275477e-001
      1.0961637451019923e-002 1.8475711365105358e-002
      9.1868658410452184e+000 2.5506956155163431e-002
      7.8131275349809334e-002 -5.0483692066498040e-002
      4.4014596916635416e-002 -4.9896726853564291e-002
      -2.2642026439673089e-002 4.4747188201934962e-002
      -1.0872224952747288e-001 -3.2542974210765373e-002
      5.5094765072399576e-001 1.6330877997963958e-001
      -1.2873107042179807e-001 -3.3390279000549788e-001
      5.2773055879398245e-001 3.2549157798447487e-001
      4.9219280889021291e-002 1.6013711014406043e-001
      -7.8095225139208510e-002 1.0863751631515660e-001
      -1.7864326607478542e-001 3.9295339684279390e-001
      9.4950934603750883e-002 -5.7149777475052677e-001
      -1.9896671893235124e-001 -2.8483833341620007e-001
      2.6894821611420550e-001 1.7167313497977996e-002
      1.3506455593063788e-001 3.2909032289493351e-001
      2.2200633663306141e-001 -5.5107737175074230e-002
      1.0068838871559192e+001 3.3751956155625984e-002
      2.7482078600355973e-002 -1.7341984191180143e-001
      5.8989998405123839e-002 -6.6016010217142956e-002
      -3.4882227744487675e-002 -1.1917527149848720e-001
      -1.2281978234846856e-001 -3.4341998103637189e-001
      3.1896489873058520e-001 -6.4572581203603291e-002
      -2.0891548598662804e-001 -3.5277449545978629e-001
      3.5825330339104233e-001 2.6272118774086406e-001
      7.0146421416592705e-002 1.5273156490246875e-001
      -9.0723622565294940e-002 8.2712124528643627e-002
      -2.0750419347466195e-001 2.0356087501773082e-001
      7.9585428331325786e-004 -7.7843683560542298e-001
      -1.6634751209331830e-001 -1.0313112108213297e-001
      -9.4884212747232983e-003 1.2502867209615828e-001
      1.3076253570590962e-001 1.3661499151534043e-001
      1.2706667778930261e-001 -8.6047746894569302e-002
      8.5583702467811911e+000 5.0119035543152550e-002
      -1.0451077299110722e-002 -1.6549428579064007e-001
      1.2018623783434114e-001 1.3264350769115499e-001
      1.0801960412052541e-001 -1.3790439575724883e-001
      -7.2370714226919694e-002 -1.6405135915331484e-001
      4.3474015369521689e-002 -1.5825770497458536e-002
      -1.8356556248437383e-001 -3.0126819484143275e-001
      9.3315351809555219e-002 1.7072191008676763e-001
      -2.3144003972303623e-002 6.8005269593257407e-003
      -2.8925959192860385e-002 1.0958159641052687e-001
      -1.4654277860601153e-001 7.8066677686648669e-002
      4.9593313075624243e-002 -5.6060013883446606e-002
      -7.4542886130174138e-002 -6.1347523986979090e-002
      -7.8574064207198285e-002 1.1133014511521222e-001
      -1.5899600902348744e-002 -6.5580242372904711e-003
      8.3802954324681780e-002 -2.0348913558445622e-001
      4.6079728656217194e+000 4.9704059913512427e-002
      -4.1497564917810830e-003 -8.4036327334797212e-002
      1.3016534548951864e-001 1.0881520625876800e-001
      7.6765206113796766e-002 -4.5252679788589219e-002
      -4.4640951459985700e-002 -7.9272521942324401e-003
      -7.6402319851032088e-002 3.9771196062194328e-002
      1.5883274445407292e-001 -1.0869622558882111e-001
      -2.7782737724474097e-002 3.4114389868768258e-001
      -1.5696584274992748e-001 -2.5354909074185594e-002
      -1.1243297484427588e-001 -7.0917800529799166e-002
      -1.9279960940845327e-002 1.4233750271947232e-001
      -7.2572061441345840e-003 1.7857959174862589e-002
      -1.3066435154680692e-001 -5.5582982602906748e-002
      -4.1146028058409072e-003 8.2533359009299562e-002
      -2.1427635339727974e-001 1.6812176044252145e-002
      1.0633368230067997e-001 -1.3495925558593638e-001
      1.3347756675983002e+000 1.8316929298314155e-001
      -1.3044001159204877e-001 -2.2002413176521397e-002
      9.4330650959197244e-003 1.4480868545844813e-001
      4.5888720041159355e-002 8.9178392502244491e-003
      -1.3343039758858183e-001 1.0694360747122055e-002
      -1.9569244658297749e-002 6.8397339671802712e-002
      7.8931074244650429e-002 -7.2444328683465425e-002
      -7.5625069425749869e-002 6.3179651888987787e-001
      -1.6835915556293937e-001 4.9316492473887572e-002
      -5.7221721951023805e-002 -1.9811514244231154e-001
      -7.9680688098550348e-002 1.7069956978027687e-001
      -3.8138420600077522e-002 -1.4220778032286209e-003
      -3.4894745958523432e-001 -1.9748210743995750e-001
      -8.0915305072147808e-002 9.1511795135551799e-002
      -7.4511849959047430e-002 -1.0491852335073427e-002
      1.9056727578832622e-001 -7.1774141930448482e-002
      -1.1597905059616731e+000 1.4895802829208007e-001
      -4.7043274184572031e-001 9.1595499205694736e-002
      -6.9600160903202410e-002 1.2916415235274345e-001
      2.3890116456425403e-001 -5.8549744646035108e-002
      -4.8742649392303238e-002 -2.7659072932395348e-003
      -1.2784667537776739e-001 -1.6888718734616670e-001
      -7.7588229237203566e-003 -1.0418092475166831e-001
      -5.0610410330892606e-002 4.0896096732097703e-001
      -9.9114940753372904e-002 -2.8928827720764654e-002
      1.2185215654791741e-001 -3.0876262850157699e-001
      -4.3620926207837973e-004 2.9202640023053288e-003
      -2.3487263818266160e-001 -6.8022087931633524e-003
      -3.7290332004823196e-001 3.7365896661325212e-002
      -1.0272588188396217e-001 -1.6127948478409840e-001
      1.4977920040728554e-001 -2.1999993271424775e-001
      -2.5292066877527319e-001 4.9050773900248486e-002
      -1.8395260480076199e+000 5.7602499187811178e-002
      -1.9637762984704324e-001 9.1005945368056160e-002
      -2.2375377008901792e-001 -1.9231846223740166e-002
      4.0821295987539377e-002 4.6597820483596317e-003
      -1.6051104207845673e-001 -1.2394495587552176e-001
      8.3598542176156806e-003 -3.4836685232716803e-002
      -1.3849562067576029e-002 -2.8518945996582189e-002
      -6.3848498719045174e-002 3.9580874395850618e-001
      -9.1737635365357173e-002 8.8987905686217506e-002
      2.0710034827404025e-001 -4.1939749815335207e-002
      -2.7097799978555194e-003 3.9938001555437919e-003
      -5.0093931562707072e-001 -2.8273419595407981e-002
      -4.1255573345448077e-001 -1.1911917251579295e-001
      -1.1519272282037488e-001 -8.4864433007695070e-002
      2.6830705208988986e-001 -1.0199392908747669e-001
      2.6046888032636460e-002 9.4825159726527941e-002
      -1.1813020879534060e+000 3.4150050402774849e-003
      -2.1893363243881102e-002 -1.5444736332905326e-001
      1.1675180599034342e-001 -1.1044544265748961e-002
      -1.7551957682807550e-002 -1.2295682377287419e-001
      4.7836469801668319e-001 7.3466107028932415e-002
      -1.6940148254763474e-001 -9.4868669298202549e-002
      2.2613333034793820e-002 1.1512501616121275e-003
      -1.5590679668010265e-002 -6.1200649878174673e-001
      4.4679564252051857e-003 -8.4023490786314155e-003
      2.0444083959999593e-001 1.5359644688919413e-001
      4.3900078783937180e-001 -2.5294377154442099e-001
      -1.9781658570898727e-001 -5.1062484476872720e-002
      1.0425256811578321e-001 1.3451038372287857e-001
      2.9506352534629965e-002 -2.8084081915437464e-001
      2.8796694557610902e-001 -1.2275899350700697e-001
      -9.4490672700300038e-001 2.6160261484588321e-002
      7.8733241222263078e-002 5.3744570847877983e-003
      -1.2041092280641785e-001 -1.1957251594376414e-001
      5.4471810273822321e-002 2.2514336182080355e-001
      7.1947366312520133e-002 -1.2900142227368083e-001
      4.1241316131779776e-001 3.7571868059808701e-002
      -2.1878455988682219e-001 -1.2645254802424163e-001
      -2.4397412076390772e-002 -2.4930350299817879e-002
      -3.7637635386421973e-002 -7.6583596297691570e-001
      -4.8547274049870297e-003 -1.1382238920028659e-001
      9.3070224408232191e-002 2.2537873256865848e-001
      3.1803470816813562e-001 -2.0457741907574917e-001
      -1.5624458964837692e-001 -2.9840640400733492e-001
      1.3706865085304676e-001 2.5683840979257920e-003
      -1.0811696992945439e-002 -2.7755783697134562e-001
      4.0714202091731871e-001 -7.0329317774442868e-001
      -9.3045708305079422e-001 1.5149646983166587e-001
      -1.7214991142837690e+000 -1.5192061228658783e-002
      -2.0627087150660871e-002 -2.6477665345487017e-001
      -6.9531328510801349e-002 2.0601139368915736e-001
      -3.9669437758127424e-002 -3.5295675844769656e-002
      5.6445289194894062e-002 9.9891648555648013e-002
      -9.4172629467766375e-002 1.1087851399299031e-001
      1.1589350518469652e-001 -8.5266034277569694e-003
      2.5356353343368400e-003 1.3863912127465490e-002
      5.2711639662134276e-002 -2.0438118771172725e-001
      -1.0292184503773250e-003 -1.0634348040403435e-001
      1.6933948494189474e-001 -2.2547319620704279e-002
      -1.4229030253493252e-001 -9.7800447906539287e-002
      -9.1352800265833339e-002 3.1139995688205923e-002
      6.9872191673070773e-003 -2.6405505259997730e-001
      1.2280678660710534e-001 -3.2522339332871658e-002
      -7.7340506343402171e-002 1.5546978199669631e-001
      -1.5899178095846067e+000 2.0262341329555378e-001
      -5.5889017056140806e-002 -1.0094515800859802e-001
      -1.1207168570102349e-001 1.8492315617406563e-001
      1.3230172628984412e-002 -2.0022779242908662e-001
      -1.4001876639641236e-001 7.6139021149021921e-002
      -1.1689297782384921e-003 -3.0367888067184722e-002
      -1.6653541485292064e-002 -1.4506661413452132e-001
      9.8779366017153369e-002 7.4325968142839358e-002
      6.1561801255821539e-003 -5.1161276972247129e-002
      6.5003310762442354e-002 3.8894013859696918e-003
      -7.7648906327340450e-002 1.2967798192283034e-001
      -9.8291286616414120e-002 4.6326787859806484e-002
      4.6117453924946469e-002 5.9865441385539364e-003
      7.9319112069369778e-003 -1.8366469505022603e-001
      1.8192612097385585e-001 5.8849850235214954e-002
      -1.0813237037304842e-001 4.0917855034860340e-002
      4.5263403717469997e-001 5.4624875007618201e-002
      2.6157323262225202e-001 -2.3114889979308312e-001
      -1.2264203763157691e-001 -1.3490375847033179e-002
      -8.2879803357663331e-002 3.5648291142376332e-001
      -6.5810170424033129e-002 7.7581629482131140e-002
      1.7674475324815048e-001 6.1647923336211755e-003
      -1.1069433244541727e-001 -1.5310893233145595e-001
      1.0316627711200857e-001 1.1773354201809216e-001
      6.4971710669564323e-002 1.7264818860958087e-001
      1.4020064808612986e-001 6.0637127271639273e-002
      1.0922405841553837e-001 1.2533330349562249e-001
      3.5658902004359183e-001 -9.1866870026918925e-003
      -6.4757205131288506e-002 -1.7043848225048597e-001
      2.2065392189337471e-001 -1.0197203281432390e-001
      1.3870839398067304e-002 -3.3784884719227463e-002
      -4.5150091943842591e-003 -2.6167226156047465e-002
      3.8636895677749754e+000 -4.4522122556293800e-002
      1.9072648948835150e-001 -2.3095160090094599e-001
      -4.1112517349582524e-002 1.1704011514209443e-002
      -5.7886015146994360e-002 9.8448472090570183e-001
      -1.6190969459938333e-002 2.9421520919377481e-001
      4.2335428077826603e-001 5.5251974632511414e-002
      -2.1383292164921391e-001 -2.0783471338203394e-001
      -2.9113832848194043e-001 2.1632385622789241e-001
      7.4750845110777980e-003 1.3371929621412626e-001
      1.0174120556828956e-001 -8.0639259694819818e-002
      1.5512259976277687e-001 -3.6496177069596580e-001
      6.4239797125712084e-001 3.6262076428033874e-001
      -6.4577206371907309e-002 -1.4278573072497638e-001
      1.5256365851193004e-001 -5.6621716067640354e-002
      2.9524380464874866e-001 -1.6732536915311827e-001
      6.6454255832757297e-002 -6.6153813800325936e-002
      3.8401866958033053e+000 1.3496085297605485e-002
      2.7958229733366968e-001 -1.3998292286962588e-001
      8.2487194513606935e-003 -8.7924019391710781e-002
      2.3794221014735530e-003 1.0330376497201235e+000
      -3.4425784817073160e-002 2.6830939809649623e-001
      2.6279485838250966e-001 2.3802444740854198e-001
      -1.9368283082331728e-001 -2.7446062966512319e-001
      -3.2102859878776174e-001 1.0795440493598329e-001
      4.4714933948213992e-002 7.5570441174675457e-002
      4.0497789320410045e-002 -1.2726664492568987e-001
      6.2997061937508911e-002 -3.8692567090432012e-001
      -1.5335005730309405e-002 4.8363275283935542e-001
      -1.5921143063114274e-001 -2.1160564958192341e-001
      1.4237432321970311e-001 -7.3467156789471022e-002
      1.5331823507489001e-001 4.6231728280596261e-002
      -2.7216938153008692e-002 -2.8488397092883030e-002
      -1.4061249809925573e+000 6.2592037455590721e-002
      1.6614410351710496e-001 -1.6973550068415705e-001
      -1.3422851456972928e-002 -8.1546283095599012e-002
      -7.9461361715506107e-002 5.2792322688433913e-001
      -1.3575499658604204e-001 1.5670367409278591e-001
      1.2051680542292698e-001 1.5236742054070002e-001
      2.5965248027921089e-002 -2.6949150227141089e-001
      -3.7543433701192036e-001 1.2303956655504057e-001
      6.8659711409439536e-002 7.8476148460262019e-002
      -8.6036590528116130e-002 -3.1950592413957715e-002
      1.1189532320697027e-001 -5.1052365696696023e-001
      -7.1551507391161312e-002 6.6522899336437114e-001
      -2.3294411684451374e-001 -2.3250822930077050e-001
      2.4779628473506243e-003 -1.6096146599629380e-001
      7.0654154026283361e-002 6.5867766184801266e-002
      -2.8164072812448055e-002 5.1758247034642699e-002
      -3.0932300003856046e+000 1.2069652171326657e-001
      2.3402152017805183e-001 -1.7360720542185115e-001
      -6.6713172311642574e-002 -1.0844125639118990e-002
      -5.4444800808465137e-002 4.6662866783842971e-001
      -2.1718704591892707e-001 8.5741867127809054e-002
      -3.7461650410562333e-002 1.3569282829410037e-001
      2.2945632842393401e-001 -2.7242078476776788e-001
      -2.8744767098625545e-001 9.3745952562521120e-002
      8.2796625154194448e-002 6.2331720772860401e-002
      -1.9625689176188313e-001 7.3083403283425039e-002
      6.0607640590957162e-002 -3.0766335487176405e-001
      -1.8541856751075222e-001 6.0287665858810713e-001
      -1.7817756618722239e-001 -2.0437508979388661e-001
      -1.3721980305402307e-001 -3.2907793265178731e-001
      1.7514889388685609e-001 1.8648687947565107e-002
      -5.0513969361228143e-003 2.1057440206766767e-002
      -1.0152372642684797e+000 1.4421953111381583e-001
      1.1133580920223587e-001 -2.9972463205489164e-001
      -2.3041780178122164e-002 -6.3346671919466260e-002
      -1.0744856569995807e-001 -1.7572158490432345e-002
      -2.2943171006238505e-001 -3.2915892805240522e-002
      5.7845714535001381e-003 7.5092836094902485e-002
      1.4105924890187380e-001 -2.7389464709987871e-001
      -8.7281810651599762e-002 5.3615155616390242e-002
      1.3200639830485836e-001 7.6796440096225937e-002
      -2.7114758781659482e-001 1.7492526081051030e-001
      5.1361919880234308e-002 -2.8980383971016533e-002
      -3.6148076842323534e-001 4.0413516677396943e-001
      -2.6805646844349862e-001 -2.1005326502408569e-001
      -2.4796904106364898e-002 -3.2844796944954946e-001
      -2.5292984610911718e-002 -5.0946394385494087e-001
      2.3864669684105402e-001 2.0900029288737532e-003
      -6.7696025096642298e-001 1.5654112450269311e-001
      8.8144530752357578e-002 -2.9964043875732621e-001
      -2.0156715147894900e-002 -6.8658828528541979e-002
      -1.1668436661132968e-001 -7.3498722325547397e-002
      -2.2569608159091040e-001 -1.2442015421920145e-001
      3.8995714839365467e-002 7.6471220884858873e-002
      1.6740007803090304e-001 -2.7216215452778636e-001
      -5.1091794598452110e-002 6.9391503307663166e-002
      1.4339447219760573e-001 8.4860166713654150e-002
      -3.0196679952318678e-001 2.6582895650784388e-001
      1.9786769742764453e-002 6.6410972085100550e-002
      -3.7564411279421273e-001 3.7434317990868232e-001
      -2.6758091921455412e-001 -2.1250846122276179e-001
      -1.2691357676607848e-001 -3.3581641622542047e-001
      -1.2134693832877805e-002 -5.0339143982740453e-001
      1.8487549875937917e-001 -3.6767209542538420e-005
      -4.3567382649864073e-001 3.8403548225341387e-002
      2.4792799012590924e-001 -1.1326021219697165e-001
      4.1463135633802412e-002 4.2735199620680717e-002
      -9.4232152580685555e-002 3.8108158474557972e-002
      -1.4179169443494988e-001 -1.5563837267867389e-001
      2.1931332008332690e-002 -1.7504456027258031e-001
      1.6617901593849738e-001 -2.3624658084895009e-001
      6.5087952897951801e-002 1.8659830590775167e-001
      5.6305195328437800e-002 1.6771590664127214e-001
      -2.0599877986422566e-001 3.6534318153345563e-001
      -5.3559588150302651e-002 3.3284047128579630e-001
      -2.6011384627432932e-001 -1.9174645395058909e-001
      -1.5132610699369892e-001 -2.0678471923456576e-001
      -2.5654008138136838e-002 -1.9295988404571240e-001
      1.8176656995875679e-001 2.1071031734688098e-001
      -1.5284287249692509e-002 -5.0203428714894118e-004
      2.5390335890690707e+000 7.4102830378011325e-002
      1.2817601117170935e-001 -2.2110637478259369e-002
      3.4843324151825263e-002 -9.4084018161367577e-002
      -1.2415818305866534e-001 -1.0986031798108148e-001
      -9.3357247812213953e-002 -5.4190370543790875e-002
      2.9966600645799335e-001 -2.3904932105960182e-002
      9.1197540940917268e-002 -2.9396952319148800e-001
      3.3234243642168088e-001 2.0406127928791312e-001
      1.0162131018566269e-001 1.1276313713700369e-001
      -1.6800139217210683e-001 1.6528260892375937e-001
      1.0427011884740443e-001 4.4050609102384419e-001
      -8.1038769775149386e-002 -4.3548536344388672e-001
      -2.5078253790483290e-001 -2.2845192381654794e-001
      9.9202151425815385e-002 -1.1944789867748612e-001
      -2.2236537610646277e-002 6.6171697188074557e-002
      -3.5852513442193153e-002 3.2855805689309119e-002
      9.4731006956906310e+000 2.9715696248306086e-003
      1.6821287072081495e-001 -1.4145984476071813e-001
      1.5844060938327334e-001 1.0236893436306928e-001
      7.1262512426458646e-002 -1.7408842847386429e-003
      5.2175000348120691e-002 5.8530590117848232e-002
      6.2622984046087915e-001 1.9987318214314884e-001
      -1.3781818675681176e-001 -3.2554348165214353e-001
      4.2701022141967543e-001 3.5351526895855478e-001
      -6.0814771636775497e-002 6.4422080440621962e-002
      -4.9151993089956637e-002 2.3830860597009584e-001
      1.7602429568388193e-002 6.6650486088831062e-001
      -2.5500335022449326e-002 -3.0501223535079741e-001
      -1.3427332860316502e-001 -2.7762188621575740e-001
      2.8709884622598503e-001 8.7580617080225812e-002
      5.3738077755598877e-002 2.1298131533619014e-001
      -1.5498053156720554e-001 -1.1871884921714822e-001
      1.0052611647226756e+001 -2.9518738007036430e-002
      1.8184289324439284e-001 -1.0145694021407793e-001
      1.7260559931783179e-001 1.6156956205330756e-002
      6.7857677313723774e-002 3.0354933966899492e-002
      7.5125364292356112e-002 1.1947754131431487e-001
      6.7759459454178073e-001 2.4164934236410562e-001
      -1.8639722030093539e-001 -3.4443385041244134e-001
      4.1983169952109733e-001 2.7278143698658219e-001
      -5.0230626409092052e-002 4.7674441008724163e-003
      -5.2540141949959485e-002 2.6118309558953090e-001
      7.9002860440710740e-002 6.5096414901189958e-001
      -1.1394629705326323e-001 -5.1395059620175854e-001
      -1.8934339456029733e-001 -3.1173139456456506e-001
      2.7067662227879397e-001 1.0201943336674330e-001
      1.1491923224775194e-001 3.1702349876779806e-001
      -2.5265304124162241e-001 -1.1039636312318862e-001
      5.2469656441877675e+000 8.7211109299273254e-002
      7.1715908486520416e-002 7.9426960447077463e-002
      1.2752021718908180e-001 5.8414402001162595e-002
      1.0975384867697864e-001 2.7507537972891111e-001
      5.8519962120747032e-002 2.3874682740458092e-001
      1.6919638665843167e-001 1.7822251661639832e-001
      -1.0326959015547445e-001 -3.4918440373158827e-001
      2.2982663601222664e-001 2.4694286608733224e-001
      -7.3717217910157229e-002 -7.3340871390945514e-002
      8.7643698056066754e-002 1.1742026671461729e-001
      5.8524034325125193e-002 2.0326982056162557e-001
      1.7420123620911118e-001 -1.9035797402835095e-001
      -2.6606065715677563e-001 -7.8389459686348639e-002
      1.7312883022323625e-001 1.5593204686490978e-002
      -2.9490486752347122e-002 9.0411319543262536e-002
      4.2922619762800727e-002 -1.1335340596138764e-001
      -7.5173116109508187e-001 9.6926930669581218e-002
      -9.3268789564328547e-002 -2.8946066972002228e-002
      -1.6932824943788317e-002 1.8511153553562593e-001
      2.3512106887888413e-002 3.1243681731085293e-001
      -1.2829586758815245e-001 1.0022982203244443e-001
      3.5923627735915516e-002 -2.4882344137333836e-002
      -1.5573984307299529e-001 -2.2794963737300825e-001
      5.9209718657951181e-002 2.4950891734969410e-001
      -5.1139516674176405e-002 -1.7220535083559985e-001
      -8.6346155548009007e-002 3.4678620156675333e-002
      4.4128236981241284e-002 -9.2527261493851265e-002
      -2.0129861829557916e-001 -7.1106711493448257e-002
      -4.0357351179050521e-001 -5.5681930406442703e-002
      1.4066125057298958e-002 1.7624401711499899e-002
      1.9810060169306077e-002 -7.3237208046603802e-002
      -1.5667339472251177e-001 -1.2470553507868843e-002
      -6.7720719165623622e-001 8.3671714297488486e-002
      -1.0486006772568654e-001 -4.9712447296935629e-002
      -7.2633583524362444e-002 2.8603073319536360e-001
      8.1363112840495050e-002 2.3148019687426778e-002
      1.0603948724497747e-001 2.9745637396974330e-002
      -7.6639395036909766e-002 -9.0396699744335382e-002
      2.4668543850745239e-002 -1.6146957490571698e-001
      -4.6130303673429414e-002 -9.6935516062474511e-002
      1.9198295082363179e-002 -1.6408121419661015e-001
      2.5054112010825216e-002 8.3293129173514988e-002
      1.8979493731299213e-001 -6.0489520533440859e-002
      1.5427299166316565e-002 6.4053850457638534e-002
      -3.9177292514240203e-001 -3.1906221586037557e-002
      -5.4351282888920070e-002 -2.5515391169058561e-002
      7.9917795097612140e-002 -1.8213739750064323e-001
      -5.5110527583257726e-002 -3.5852974396060784e-002
      -4.9337928368805989e-001 3.2604355473460342e-002
      -6.0333518641223174e-002 1.3508099645509336e-001
      -1.5752574220693750e-002 2.7913688332140818e-001
      1.0799560135130920e-001 -1.2744409887468536e-001
      -3.2644349811243707e-002 4.6629498452520228e-002
      -8.2786257375618885e-002 -7.8339874949007501e-002
      -6.9211148972030730e-003 -1.1142800244778087e-001
      -6.1338613307432073e-002 6.0091719824733092e-001
      -1.1338069507574224e-001 -6.8518254791293198e-002
      -1.0993164245074058e-001 -2.9308864678746466e-001
      -2.4758847169458809e-002 1.5274618538247305e-002
      -2.2992269451755409e-001 -1.3808539209579451e-002
      -3.1693263541952083e-001 6.3264389232798326e-002
      -6.2930738684597254e-002 4.6633810993060975e-003
      1.2709886844618581e-001 -9.9316008921254653e-002
      -4.0166867899807879e-001 -2.9346664560714168e-002
      -1.1505870039348804e+000 1.3336870568423420e-001
      -3.5720820529411268e-001 1.2580420765844371e-002
      -1.9522091833552691e-001 6.3956425837257580e-002
      9.1094169851152651e-002 -1.0123706723342517e-001
      -1.1532394623022602e-001 -6.3237101108487001e-002
      -2.6578499774939124e-001 -1.1583639096191853e-001
      -3.8741581201275806e-002 -6.9868165278485314e-002
      -7.0899615631149155e-003 5.6025223376238098e-001
      -5.2487032940432832e-002 1.1922591541934406e-001
      6.4641980804485605e-002 -4.9241714154223781e-001
      -5.6569236841558429e-002 -5.9159452623844602e-002
      -1.6155544964027818e-001 4.8625261994568368e-002
      -2.9666176312527981e-001 7.3910820042673653e-003
      -1.1255629470134493e-001 -1.9465013324849414e-001
      2.9032555630553059e-001 -3.6403944828319207e-001
      -1.9452488135751139e-001 7.8272192474364066e-002
      2.0189298871502430e+000 5.0070510228084203e-002
      -5.1293736188378021e-002 -2.9752282493109938e-001
      3.9079965180955127e-002 -7.0971437134220203e-002
      -1.0422709646407815e-002 -8.0198044170463542e-002
      1.4466992785924923e-001 -1.5145896004312616e-003
      -2.3545304503916001e-001 -2.1332794705270799e-002
      2.1547363087452895e-001 -6.1834920548548736e-002
      -6.5893880439151051e-002 -5.0222515532865986e-001
      5.4157051220349382e-002 -1.6271332299916480e-001
      -5.4153984377237750e-002 6.2215894839259989e-002
      4.5953103046285360e-001 -8.7103787865377175e-002
      -8.5389218532181010e-002 -2.1916630034843321e-001
      -6.3450806228707829e-002 7.5840152149120627e-002
      -3.1941629090939415e-002 -3.0103650200482840e-001
      3.5825887813683827e-001 -1.8371207533422382e-001
      -5.1386417210919877e-001 1.3800503947823745e-001
      -1.2911166785815402e+000 -5.6763431439242930e-002
      -2.0510515222347470e-002 -1.9248844483824401e-001
      2.0053405431090153e-002 1.6866413211506148e-001
      -5.8034268234693008e-002 -1.5862370774339549e-001
      5.4905412588239163e-004 1.7724312053790087e-001
      -2.4926972872150230e-001 1.3118480337555935e-001
      3.7296186242083862e-001 -2.1137321571148476e-001
      5.8182474108672506e-002 3.2253567486805573e-001
      -1.4136292214702426e-001 -1.8574788562879821e-002
      -2.2196373028983706e-002 -6.5593823222607470e-002
      1.6392984930581489e-001 5.4351646003192637e-002
      -4.7376658619380257e-002 1.0359079121519907e-001
      -2.8555089159672181e-002 -1.7440144353115916e-002
      1.4320125739979864e-001 -1.4055749695906339e-001
      2.4226632887348534e-001 -4.7635951898147533e-001
      -6.4270958850035448e-002 -3.0895199437247577e-002
      -3.0616195168842228e+000 -8.4172369514169988e-003
      -1.6536031365463882e-001 -3.2702060307915087e-001
      6.1161411189312887e-003 5.0633394881798177e-001
      -6.7551189891428276e-002 -4.2835302128787223e-001
      -4.4203378823334222e-002 1.7019112051860208e-001
      -1.6306122521901734e-001 1.6867725504140113e-001
      5.1507057424161484e-001 -1.7960318574149636e-001
      5.9097274509081227e-002 5.7121822337100026e-001
      -1.2513268741606198e-001 -4.7318061465147193e-002
      1.0432625918472463e-001 -1.9642395593745872e-002
      1.3856688831030450e-001 -7.7266276987399962e-002
      3.7467916557063531e-002 2.2436802822415586e-001
      -1.1961137313553930e-001 4.8214658086247669e-002
      1.3766395073305163e-001 -1.1232385960716897e-001
      1.0707304076845417e-001 -8.5632444071116698e-001
      -1.2826491643407214e-002 1.2021798426689680e-002
      -2.3660385816610354e+000 9.5042507512823633e-003
      -1.0602687200150747e-001 -3.0316289083459957e-001
      -9.6630747873461653e-002 2.9152009274950408e-001
      -4.1025502945540887e-002 -1.7293969378775798e-001
      -1.1955683882765426e-001 3.8011346967166876e-001
      -1.0539414186516043e-001 1.3879248290026860e-001
      2.4511952438782295e-001 -1.9383026901604103e-001
      1.9705247498198974e-001 2.7666652032660310e-001
      -7.2843455667117002e-002 -9.0274783556291566e-002
      9.4153678669157997e-002 -6.4420300865031352e-002
      1.0374204096793155e-001 1.5351059558140176e-001
      9.0736218824369580e-002 1.4817127489515147e-001
      -1.3809797159706735e-001 -1.6988072859756659e-001
      2.7414767725311928e-001 -2.6887025569638529e-001
      1.6661804326780633e-001 -1.2405055912895094e-001
      -6.3112665565365142e-002 8.7708092954977501e-002
      -1.3466302837048065e+000 9.3674467428522271e-002
      1.5639666777022918e-001 -1.9266882198136961e-002
      -1.9697326768061202e-001 9.2743182385866832e-002
      -7.9294241282588829e-002 3.9685340226377275e-001
      -2.0505373201760788e-001 2.4910036347315678e-001
      5.2665871498852421e-002 1.2401310717477272e-001
      -5.9034599205764517e-004 -1.1040748381017979e-001
      1.3037334239101017e-001 2.2815810263336608e-001
      7.2643446544662260e-002 1.2778323862499838e-001
      6.5413030328399305e-002 1.8184904075563224e-002
      1.2081086010985220e-001 2.8667982182084539e-001
      -5.1193232853322661e-002 -2.2503826213109351e-002
      -9.6758443252458762e-002 -4.0177189810362146e-001
      3.4957390266831156e-001 -2.4358970838051325e-001
      1.6596032208706746e-001 -5.4039957338200467e-002
      7.0969397657546271e-002 1.6297474801564224e-001
      1.2051212265414395e+000 -3.4541110827794104e-002
      4.7159171561222638e-002 -2.1006816357908067e-001
      -1.4011702213164037e-001 2.0183869450943676e-001
      1.1067177106531288e-002 2.5875653642048019e-001
      -7.0196568750396302e-002 2.5850652918740608e-001
      1.6868876945289993e-001 2.4451560530667493e-001
      6.4850525282458521e-002 -1.2994461670044030e-001
      6.7198714348335326e-002 1.7086401533409817e-001
      4.1034443009823854e-002 1.3065684437060823e-001
      8.9457996261423145e-002 9.2954201510695389e-002
      2.5760608308267330e-001 2.6590096759977011e-001
      1.8141904838783945e-001 1.4597631336220640e-001
      1.8302628363898135e-002 -1.4528472117713925e-001
      3.4981950691366964e-001 -9.3317833894605975e-002
      1.6097229540915226e-001 -1.2554151233777297e-001
      -2.7441353625627218e-002 -1.6528083089055477e-002
      1.3263122720475653e+000 -6.1057624549381434e-002
      8.2001575971456270e-002 -8.5281193242216724e-002
      -8.7759376540823594e-002 9.6785603088235361e-002
      -7.9452678213771985e-002 7.7409527441363687e-002
      -4.6351581401533962e-002 2.4078119848827231e-001
      4.4455293752348156e-002 8.2369412581193735e-002
      1.1937315670372362e-001 -1.7524605495864576e-001
      3.6181647997936675e-002 2.0394788091668523e-001
      2.2292228729251973e-003 1.1433965548643581e-001
      1.0043207172135568e-001 -5.4212198941035608e-003
      1.9695940181935778e-001 2.9746955323818119e-001
      -9.9140377060814109e-003 -4.0640546212376239e-003
      -4.2027684094506024e-002 -7.6569884475928440e-002
      3.4896748377380576e-001 -1.1310059993975236e-001
      2.2867216609883537e-001 1.0744779361833404e-001
      -5.3291211564649263e-002 1.1384998465299232e-002
      -3.8804525596887083e+000 6.6347973459748966e-002
      9.2159995775895412e-002 -2.4550948826034591e-001
      -8.5697971973889522e-002 -1.0695115356013274e-001
      -6.1463579333846267e-002 1.4279691958871057e-001
      -2.0462668830925587e-001 1.5802187346531676e-001
      -8.4802488332356568e-002 -1.3906371416437657e-001
      1.8659654832880784e-001 -2.2993277880607033e-001
      6.8204325091019438e-002 1.9127150698058429e-001
      9.6273254029172306e-002 3.1979958996353190e-002
      -8.7688494435489706e-002 1.9280853052642224e-001
      2.0186997249656816e-001 1.3191300861534189e-001
      1.4464268232287192e-001 3.0122258379647597e-002
      -1.1106503735118277e-001 -7.5009753572687979e-002
      1.2967988802721864e-001 -2.0100034998009650e-001
      1.1536856998775966e-001 1.3039103039964181e-001
      -5.7471983921911732e-002 6.9061777648400158e-002
      -1.6067484924348332e+000 6.2628386991602489e-002
      9.5904706846102472e-002 -1.1038664190802301e-001
      1.1195112350864010e-002 -5.5017528163923905e-002
      -3.7688899972442055e-002 -6.0245501810348512e-003
      -1.9105694172558046e-001 1.1595858342105414e-001
      7.0104392178825914e-002 -7.4082579979081381e-002
      1.4612517667026467e-001 -2.4073429151218462e-001
      9.6103473427521818e-002 2.1433764194956947e-001
      6.6745400295225424e-002 1.1784695349039266e-001
      -9.7252250346538116e-002 1.8580946544478305e-001
      1.0593185019271972e-001 4.6389065792537293e-002
      -5.5437028467847455e-002 -5.0695424258852997e-002
      -5.7426802276136370e-002 2.1069332928377264e-002
      1.3903524881485702e-001 -9.2924151315315714e-002
      1.8155695061943336e-001 1.8454714493243138e-001
      -6.5888568029206909e-002 -5.8088535205233813e-002
      -7.1126773651752262e-001 8.3890534372846604e-002
      2.2428191704677230e-002 -4.2083934944750112e-001
      -1.1889643856810211e-002 -1.3595607409922478e-001
      -1.2154566885968804e-001 -8.8047205185992600e-002
      -2.2765396766918333e-001 -1.8552830834340034e-001
      -3.8887322070392694e-002 8.7093702418902241e-002
      9.6881303744474109e-002 -1.8441645407092946e-001
      -1.1383847966275380e-001 1.2114296813221451e-001
      1.1525109301663056e-001 9.3943047636699084e-002
      -1.4363239464669511e-001 1.7182721608951443e-001
      7.6324763451458985e-002 -3.8475707220365328e-002
      -3.2265903753147995e-001 2.7801052709213347e-002
      -1.1518070571921742e-001 3.2233647406368089e-002
      -1.0272142597447695e-001 -1.3116443113936344e-001
      8.4465487804970263e-002 -6.8476144811365147e-001
      2.2228401850279500e-001 -5.2004608137571151e-003
      -5.3694826451449107e-001 9.1086988481065140e-002
      1.9375810030779740e-002 -4.0463895117701337e-001
      -1.1733224075405401e-002 -1.3781042583609882e-001
      -1.2889792888382276e-001 -5.4462661828416588e-002
      -2.4133560042425653e-001 -3.4934783204722203e-001
      -5.9594063227797589e-002 1.6271351388930247e-001
      6.5184295424146735e-002 -1.8437915956711740e-001
      -1.8691515657672275e-001 5.5385666465069941e-002
      1.1746884433390481e-001 1.0614578742574549e-001
      -1.6881192297400666e-001 1.7644182278514398e-001
      -9.0385032918131741e-002 -1.7020601065288307e-001
      -3.5691196060620134e-001 5.8905057962556776e-003
      -1.1640869940943847e-001 9.3856543170492704e-002
      -2.6255801573496435e-001 -1.0288980521146757e-001
      8.6745184652452123e-002 -6.7608591969691556e-001
      1.8433686264516855e-001 -8.8771227420441593e-004
      -1.1476448916172206e+000 2.6657668756267343e-002
      7.6904827262027173e-002 -1.6257366205785090e-001
      3.7525117514741135e-002 -3.4479607348916246e-002
      -8.6840493238865529e-002 -6.3705691331855926e-002
      -1.8759964259795794e-001 -1.7490115934474593e-001
      -8.4456623289937166e-002 6.7277487078522052e-003
      1.5936391752706636e-001 -1.9308494230142031e-001
      -1.4497482291100230e-001 1.7150241010012099e-001
      5.2419593575317308e-002 1.3455678697891149e-001
      -1.1005778060035842e-001 2.3218216797629271e-001
      -4.8507471140878770e-003 -1.7606107612260724e-001
      -2.2169762823747899e-001 -4.2648877235991374e-002
      -5.4229030791541153e-003 7.4369136943394087e-002
      -1.1173719963382339e-001 -4.3443155665478676e-002
      1.6227126154621771e-001 2.8664954157011091e-001
      -7.7802612044765684e-002 -6.3337749732902668e-002
      -1.0076677562236940e+000 1.4510729267757554e-002
      1.2773074133777335e-001 -2.8369631605219486e-001
      1.1471012628937979e-001 5.8093011493844847e-002
      -2.0440288192001776e-002 -2.2879516455999863e-001
      -5.8041953677386612e-002 -5.5780138505916746e-002
      -1.2978921474315275e-002 -7.7433125902152136e-002
      2.3817678662030628e-001 -1.7687021899023672e-001
      -6.6227890580942902e-002 2.7656212428132765e-001
      -3.3094098543786463e-002 -1.8418151471382243e-002
      -1.0013366475044541e-001 3.0631314777252833e-001
      8.4979124718269322e-002 3.1036464571958661e-002
      -9.9733129737913262e-002 -7.6038862406954968e-002
      -1.0058202293722278e-001 4.6083721597181687e-002
      -8.0026145001001719e-002 -2.3187986599209173e-002
      3.5379962129375133e-004 2.9266589658548831e-001
      -1.0957722970989241e-001 -3.1414700394956849e-002
      1.6665404357399263e+000 -9.5900896115598856e-003
      4.3271559376821013e-002 -2.0161103120915311e-001
      4.9605427317449088e-002 1.4633974551858518e-002
      1.0383367728217785e-001 4.7176767822160758e-002
      -4.1307844923362279e-002 2.7335393528242746e-001
      1.3909461576901908e-001 5.4092315182991679e-002
      6.9112112703682671e-002 -2.5842747726942983e-001
      7.2304151641098491e-002 1.7015050476365601e-001
      -4.6541097725803886e-002 -5.1620358923959615e-002
      -4.2157841092536265e-002 -4.7332694220996452e-002
      2.6450026214501210e-001 1.5995399288577625e-001
      -2.7586017826086974e-002 3.5397846399142716e-002
      -3.8881731463390391e-002 -2.2291224966162260e-001
      1.7105769466974502e-001 -1.0212840621136525e-001
      8.0711491694225146e-002 3.0678532756247157e-001
      -2.6183741708088959e-001 -2.4853322309792314e-002
      4.3525416174844223e+000 -6.4440969904631495e-002
      7.4487086426158214e-002 -9.8654873389392661e-002
      9.5235179012172877e-002 1.7001761458929401e-001
      1.2622649556547388e-001 4.0589933812294582e-001
      1.7949713891162320e-002 4.1485845179837938e-001
      2.5194279440196243e-001 1.9714914605011433e-001
      1.7980432306057666e-002 -2.5506022290241492e-001
      1.1903155676246999e-001 7.0888569916195951e-002
      -1.0081446968722811e-001 -1.6186335577152648e-002
      1.0260048262818579e-001 1.2360850455426983e-001
      3.0596284838269588e-001 1.8729549053574859e-001
      -8.2278735092897130e-003 -1.2611339781908848e-003
      -4.0119797938357238e-002 -1.9761423212606666e-001
      3.6543975823472230e-001 -8.4651423376644695e-003
      3.9269621697861169e-002 5.3121049762365935e-001
      -2.8135298663414882e-001 -7.3596562256879244e-002
      8.8602484372150336e-001 1.0253363017100282e-001
      1.0364253589625189e-002 1.2184150566000428e-001
      -2.6879301860152173e-002 4.9317006874142852e-002
      3.6120294422743213e-002 4.5928003914625737e-001
      -1.3463840313153128e-001 3.7420813325371682e-001
      8.0822379365440247e-002 1.1870711323218891e-001
      -3.6925605311505197e-002 -1.8670729368036909e-001
      1.3129671962839640e-001 1.6500675587654623e-001
      -6.6678471598671393e-002 -1.1238778779423864e-001
      4.0873983910086299e-003 5.7355072916886018e-002
      4.0718212475082993e-001 1.1699241478477440e-001
      -8.4259080550974294e-002 9.2857203607557601e-002
      -1.5652129907558243e-001 -1.0186623572139338e-001
      2.3021160298251503e-001 -5.9064647271188049e-002
      6.0264333179523580e-002 -8.6856421649028886e-003
      -7.8090909457655233e-002 -1.1705995575731046e-002
      -9.9204104946545202e-001 6.8939956617593695e-002
      -2.1502979314641019e-001 -2.3574001550077352e-002
      -3.3843410216583027e-002 2.3625527423345935e-001
      5.7348526754996396e-002 9.3386850382410597e-002
      -8.0767835195231508e-002 2.9228036846028688e-001
      -3.5358029262971616e-002 -6.1893035195837463e-002
      1.3498155305140960e-001 -1.4184112060747933e-001
      1.0549251439864098e-001 3.1095494314191424e-001
      -1.1988108514597613e-001 -1.4417334481704000e-001
      -3.1841082067143700e-002 -2.0565765022531696e-001
      1.3979099075572909e-001 1.5557681146875577e-001
      -3.6356727427274714e-002 1.7738891625357597e-001
      -1.9206694780720901e-001 -4.0149572492259034e-002
      1.7479674787205332e-001 -4.3140483701755904e-002
      4.1677554259194664e-002 -2.7980326470126959e-001
      -2.2148478009565384e-001 2.5669502538061838e-002
      -1.1982546286926572e+000 8.0360903654812920e-003
      -2.8372335774759028e-001 1.6652503095968108e-001
      -9.3312528845387654e-002 3.2980579923940195e-001
      1.0856852972605843e-001 -1.7248442082343704e-001
      -5.3517371884666522e-002 6.3041098249866923e-002
      -2.0285503181223793e-001 2.9829954761210663e-002
      1.0952045840486059e-001 -2.1021582663067906e-001
      5.4017203313300559e-003 3.4210017829626804e-001
      -7.3590576545153066e-002 -8.0741191510842261e-002
      -1.0906313049919798e-002 -1.8695238241963749e-001
      -1.7355975435144602e-001 7.8767504406252978e-002
      -1.6763814677598951e-002 8.3194754128016871e-002
      -1.6900133233642564e-001 2.7196188078509104e-001
      -2.1979788479130442e-003 3.2321565291896344e-002
      2.0393340344915517e-001 -2.0628710619310683e-001
      -4.5790658705321996e-001 1.8526720045345585e-002
      2.8740878640133671e-001 5.6063631028988509e-002
      3.9338029088955652e-002 8.0451288407349539e-002
      -7.2515567310467793e-002 5.1041031717489103e-002
      3.1778579046067866e-002 -2.0305842276119632e-001
      -1.9920989352363791e-001 -3.8580484410509396e-002
      -1.9866628042762016e-001 -4.9501385828445189e-002
      1.5207919935483694e-001 -1.9541209795208692e-001
      -2.0166640568284606e-002 3.8220180763951189e-001
      1.0772446798676698e-001 -5.5894683632962697e-002
      1.9526452986647281e-002 -9.6232243742391740e-002
      -1.1178073375245945e-001 1.1536339538146910e-001
      -9.4209778099525618e-002 4.5988828026530371e-002
      -1.2792925190948490e-001 -1.6345595050294221e-002
      -2.8090045203618200e-002 -8.5006086157388194e-002
      3.0913545953513721e-001 -2.8654124099125128e-002
      -7.1095939612875067e-002 1.0231865887173018e-001
      5.4931236234289284e-002 -4.2406381898852999e-003
      2.6690528479618433e-002 -6.8390403350843870e-002
      -1.2856000740157619e-001 3.3532547653428967e-002
      9.4348954492155246e-002 -1.2996141410286021e-002
      -2.7746833783606276e-002 -4.9245772939094434e-002
      -2.4349526152561474e-001 4.8824090029428672e-003
      5.7832594523299169e-002 -5.5648841455080540e-002
      -9.5214339564686223e-003 1.9069085003945005e-001
      7.4170180227064036e-002 -5.6250711294381014e-002
      -7.7314788464034417e-002 5.0450689213483009e-002
      3.6629764077710188e-002 1.3131147825937047e-002
      -9.7710543361163540e-002 -8.9985764817385114e-002
      -4.7023227082053524e-002 9.8001872591134635e-003
      -3.5310608818952711e-002 1.8115560735195223e-002
      1.8774677982316582e-001 -6.0566885995604735e-003
      -3.0060977818249401e-001 3.6254170955485061e-002
      -1.1226483159386746e-002 -1.1473066630051920e-001
      -1.0946159567269904e-001 -3.8956984167778669e-001
      1.7477960934905468e-001 2.0481971879414096e-001
      -1.5374517932675810e-001 -1.5229373694396098e-001
      5.7187475483233371e-002 2.2106044465137323e-001
      -1.0984416399363868e-001 -6.7910449419322491e-002
      9.3619544522026060e-002 -1.5505767412563914e-001
      1.2599469393207605e-001 -2.2410125924292063e-001
      -7.9517191554839467e-002 5.4511114818205286e-003
      -3.5251490175556489e-002 -1.5975349597712488e-001
      1.2831411276157875e-001 4.7740325333873894e-002
      2.4186215915253190e-002 3.4727795789753012e-002
      -7.1294435085193592e-002 1.6608423458440800e-002
      1.8787475951128971e-001 3.8020327814865716e-002
      1.8047098358826569e-001 -4.0252449785065335e-002
      -1.3334704279188109e-001 -1.1896374850261041e-001
      -3.0932988934504420e+000 -8.9174359254551097e-002
      -8.7119931253287389e-002 -1.5357706803660345e-001
      6.4911228207643140e-002 2.3421789462225326e-001
      -1.7612106814197895e-001 -3.6520675444153683e-001
      -2.8608916711345512e-002 2.1306539259437446e-001
      -2.8726200671923573e-002 1.7110011756662155e-001
      2.7261334642958983e-002 -2.3963748141544167e-001
      1.0339794621309720e-001 2.9305158739632398e-001
      -1.5158242154250026e-001 2.0583788412433499e-002
      9.2571832174671284e-002 -1.4187969355115362e-001
      1.7691593887920209e-001 -7.2193604391838570e-002
      -1.0518846684338437e-001 9.6683879598778916e-002
      1.8467959293622004e-002 5.2230320257373515e-002
      1.7448862256253300e-001 -4.5445899524154919e-002
      2.0066574806934945e-001 -3.4548244430336617e-001
      1.2119863797906184e-001 -6.1566075580717784e-002
      -4.2452970523159399e+000 -7.4840100265701939e-002
      3.3622201845110444e-003 -1.4195788357228215e-001
      5.2870408906291695e-002 2.5063875537686597e-001
      -1.7815237725758509e-001 -3.2918803454663115e-001
      -2.6282746969008172e-002 2.1052334631927921e-001
      -1.3012950632748956e-002 2.0728606737439775e-001
      7.3397495286755071e-002 -2.3214884014327553e-001
      1.0091758936560020e-001 2.7226272248340494e-001
      -1.6577389032718501e-001 1.1422989002445998e-002
      1.3361666142839215e-001 -1.4043661733373328e-001
      1.2490992228371940e-001 -8.9334321822756399e-002
      -7.2540574957539683e-002 8.4202704172588141e-002
      -1.4076142696536670e-003 9.0736328332253396e-002
      1.8029479733083156e-001 -4.5387471162544712e-002
      1.4437801847169068e-001 -3.1062259132449954e-001
      1.1634565712706429e-001 -5.1035325458495102e-002
      -4.1762232707802998e+000 -1.7935742207595973e-002
      -1.8695405086730198e-002 -1.7463331447099975e-001
      -1.2421138461511454e-001 2.2786909360869784e-001
      -1.9299446665274664e-001 -1.1518125459155636e-001
      -1.3706368208058547e-001 1.4738760381800695e-001
      -2.0290281861909735e-002 1.6848591080960995e-001
      2.5125094421896622e-002 -8.7378959054321817e-002
      1.4640706970833101e-001 -2.4522788507265077e-002
      -3.2497075274942777e-002 -7.9367138906705201e-002
      9.2720704094576320e-002 2.0041308041946339e-002
      -7.3855159176780304e-003 2.5281102096651690e-002
      -4.1491841668629688e-002 -1.3019880469745834e-001
      -9.7593445870413811e-002 -7.7120194018104077e-002
      9.8457205132582090e-002 -1.1477794013663101e-001
      4.2755218298705225e-002 1.9632236773265543e-003
      1.8964364334285458e-001 1.0924390563177584e-001
      -3.4541390872148843e+000 1.1799524505329541e-001
      1.1591759973132600e-001 -1.7262156595773936e-001
      -2.4528144654199646e-001 -3.3767064131794443e-002
      -1.6789303311912734e-001 -8.6472965126632771e-004
      -1.7582320818185496e-001 1.6566751197804308e-001
      1.1052191540948600e-001 2.1883504091402828e-002
      -1.2378286463413109e-002 -3.0398121368560491e-002
      1.7427709654180845e-001 2.9001300766397159e-001
      2.0257461979868788e-002 1.8056328847813724e-001
      2.3147600183091638e-001 4.2517832698152703e-003
      5.8821207205672320e-002 1.3931497323399158e-001
      3.5841361984469744e-002 2.8889051647703601e-002
      -6.2114476538816403e-002 -2.1114345718566344e-001
      2.1253070704007401e-001 -9.1248368336173891e-002
      2.2926932691787416e-002 -1.8912620709704203e-001
      3.5099537994913044e-001 1.0563789042803690e-001
      -1.8330310595296486e+000 3.2059608132316453e-002
      5.1733839944045672e-002 -1.0248307805473154e-001
      -1.5439938585276283e-001 -2.1905370309573888e-003
      -1.8254029725056736e-001 -4.1068575238508216e-002
      -3.5850751948807375e-004 -5.3277282653090091e-002
      -9.0803462355317249e-002 2.2550954413639527e-002
      -3.4482136349370043e-002 -6.7217645038457605e-002
      4.8154601536235894e-002 8.6515131566897149e-002
      1.2916805220174946e-001 1.0264069179359281e-001
      1.0613029845110059e-001 2.6946739352773634e-002
      1.0868260043146817e-001 -3.3748176574667693e-002
      9.3927997050129969e-002 1.6659285849155905e-001
      -2.1909195871926435e-001 7.9657627429774697e-002
      -4.9269535719098402e-002 -8.0855661668753367e-002
      -1.1297436374773087e-002 -5.6187751590371940e-002
      -1.3858992070012485e-001 -7.4751862161369878e-002
      -4.9589206957809946e+000 -9.1133906874181297e-002
      -4.8689317881251963e-002 4.0706046991760940e-002
      -3.0512935051769923e-002 1.1131476792469001e-001
      -4.1749101481402186e-002 -1.4172069909231838e-001
      5.6625360622566791e-003 5.0188265108150568e-002
      -1.8069500458717337e-002 -4.1252691145713109e-002
      3.9438788947602311e-004 -7.0412352753179197e-002
      7.3328635530592309e-002 1.0635976310112298e-001
      -5.8071472659472462e-002 1.2607015645080238e-001
      9.9654211348726179e-002 7.5640076075013450e-005
      -7.1853787753149993e-004 1.1782841114426092e-002
      1.6091543820277121e-001 7.9489326623258000e-002
      4.8145571342656117e-002 3.1127728857426169e-002
      4.4464728485944204e-002 8.1302368709595910e-002
      1.9208736751400590e-001 -5.7887289849224678e-002
      2.4288086691448169e-001 -1.6768665424567680e-001
      -3.7653757023029053e+000 8.1269388795126379e-002
      -5.9978361427669616e-002 -1.9313570692417990e-002
      -2.8384767081772518e-002 -6.2395894272818636e-002
      -1.7524922273111276e-001 5.2947866103408521e-002
      -1.9956602782117048e-003 -9.9168249172494449e-002
      -6.9062594577175937e-002 1.7568281286653428e-002
      3.3624633353170043e-002 9.2559088757719534e-003
      -1.2394782310767160e-002 -2.6192158403996971e-002
      8.1064792290415230e-002 -4.9765643406800598e-002
      1.7168520364264115e-002 -6.6317052612220005e-003
      3.9346146500745936e-002 -1.8280835450273050e-002
      9.5431620957375160e-002 -3.4005498249666359e-002
      -5.8861255068462022e-002 -1.2746913476783230e-002
      -1.0633602148403747e-001 -8.8462292553247820e-002
      1.0235639397753285e-001 -5.1619911750686538e-002
      5.6347763661647454e-002 1.7063877467788119e-002
      -2.3400394010261709e+000 -6.3157151360468842e-003
      2.8872375452564058e-002 9.2926486623528801e-002
      2.2777244877474314e-002 -1.0167979036157102e-001
      -1.1500184767733276e-001 -4.1637103897038716e-002
      -5.4344472425718215e-002 -1.0568053054513719e-001
      -1.0529696324117527e-001 -1.7597559938548189e-002
      3.9822935888622700e-002 1.2627907618653171e-002
      1.0757775520584405e-001 -4.4982089846579650e-002
      4.8953769202733734e-002 7.3926976696000818e-002
      -1.3594593993838976e-003 -2.0300075691945012e-002
      2.4171862287042125e-002 6.7782639441303612e-003
      -4.3933380359489335e-002 -1.7201523778798966e-001
      1.1621374383368322e-002 -2.4817256700239692e-002
      -2.3376226216604575e-002 -9.8818518312134285e-003
      1.1373959573290621e-001 2.0585131264470341e-001
      -9.2693973041336947e-002 1.3025304412150801e-002
      -1.5374284734291908e+000 5.0770959694814925e-002
      4.3292475943072270e-002 -1.6828107076840881e-001
      -2.6648466148205419e-002 -1.9896705064858763e-001
      -1.4830756808521553e-001 -6.4299970875544205e-002
      -6.2453247995636507e-002 -1.9579208999858927e-001
      8.1296520095496247e-002 -5.3553971677529545e-002
      -7.5143111458238529e-002 1.5109140625556929e-002
      7.4907117806580034e-002 -1.7895234189716308e-001
      8.8801132678228104e-002 6.2587861167158226e-002
      -1.7707563136832336e-002 -8.0748445887952498e-003
      5.9772719101740786e-003 6.6620755606758800e-002
      -1.0277349969882872e-001 -3.7234983170004060e-001
      -1.1869501410693539e-001 -1.1746440580513587e-002
      -8.2050568044794478e-002 -9.5023253324899012e-002
      2.6935869317895291e-002 -5.1802652372349356e-001
      8.9620917917904011e-002 7.3660901206347135e-002
      -1.9587960424864481e+000 4.8477149783254722e-002
      5.7180464801216753e-002 -1.6938060293727264e-001
      1.7990918394120701e-003 -1.9266325121930983e-001
      -1.4895128771715949e-001 9.1005019671623041e-002
      -6.4802104847037703e-002 -1.6229588513423171e-001
      2.9875800116823871e-002 1.1875486899845475e-002
      -2.7886442392291575e-002 1.9576920152455837e-002
      -2.4880014200936763e-002 -1.5056361589871242e-001
      9.6065321974967421e-002 2.5584117226028366e-002
      3.2976583926096394e-003 -3.1135929667786832e-002
      1.3273157157298125e-002 -2.3811429542163993e-002
      -2.5340856869455841e-001 -5.9127233342414529e-002
      -1.1423557336534074e-001 -1.4520685678885996e-002
      -1.0419876968186752e-001 -1.4354599768398535e-001
      1.3394323522327545e-002 -5.5602222072972829e-001
      7.5893532891543602e-002 6.8333091830325335e-002
      -1.3109017296719376e+000 -8.5132490698027155e-002
      -1.4867174063541195e-002 4.0856785727429144e-002
      1.5513743663696075e-001 -2.9209469691896209e-002
      1.2120254371885054e-001 9.3480492215944535e-003
      5.1919444121402161e-002 -2.9734255151733944e-003
      -8.3994128410241620e-002 -1.7397835241097299e-002
      6.9904872498821963e-002 8.9565335846174932e-002
      -1.3881891850938155e-001 -1.6899898509486772e-002
      -1.4439168467262239e-001 -2.3731064392159044e-003
      3.5397506431735878e-002 4.6958864648810390e-002
      2.7052686697053765e-002 -6.3370436322327223e-002
      -2.3823230382575353e-001 6.0737673900526777e-002
      1.9706351649304102e-001 -1.8501596215234985e-002
      -1.5971307343245350e-001 -3.4270430243267640e-003
      1.3439234875598161e-001 2.6494889347139533e-001
      -1.3410543501782982e-001 -3.6451392973730269e-002
      -2.2709972620665466e+000 4.4762879889079836e-002
      1.1111048037139394e-002 -1.3195851068068426e-001
      1.3916401648843177e-001 6.3556830464077934e-003
      2.3318242353699350e-002 -7.4349140678731801e-002
      2.8475303338843214e-002 6.0732296558198639e-005
      -3.8599263268178298e-004 -4.0072186482703429e-002
      6.8486547845767983e-004 4.2124575171261731e-002
      -1.1983057069847201e-001 1.9203883026355179e-001
      -4.7316459788526430e-002 -1.1379035734906455e-001
      1.6511164795286078e-002 5.1318081328936942e-002
      -8.5722546187518955e-002 1.4426380859922011e-001
      -1.8335567272596440e-001 -2.5980278097868553e-002
      -5.0707233685744001e-002 3.7265374942675268e-002
      -9.3210055051381899e-002 -1.3535162935764717e-002
      2.5014587996291190e-002 1.2593504017293428e-001
      -1.0457391907690715e-001 -7.0212388506001363e-003
      -3.0361543046435342e+000 3.8360419148397044e-002
      7.9243561171601098e-002 6.8877937850511356e-002
      1.2921722354195572e-001 1.7573332126250236e-002
      -5.1410036693214046e-004 -1.1901943694040450e-002
      2.3662523844829697e-002 -2.8282572925785485e-002
      2.3778325642234609e-002 2.8092753302979504e-003
      -5.0084934632918252e-003 2.2268646706157389e-002
      -1.7320593375884835e-001 1.2219394081111680e-002
      -2.9750393316121285e-002 -1.3740368645256693e-001
      -6.7891261127237160e-002 -9.1503742782928135e-003
      5.8921053089711212e-002 1.5585411180520717e-002
      -8.4035915399591765e-002 2.8432099126110437e-002
      -9.4411752894229831e-002 -4.0201879106220383e-002
      -1.0645715995063877e-001 -8.8842213408728318e-002
      -6.9400368511312654e-003 -8.4623020020490575e-002
      -8.4639020498756809e-002 5.7342617302772077e-002
      3.9761262665665553e-001 9.5996731065794358e-002
      -1.8897264921125317e-003 -3.3690608636642055e-002
      -5.1696375830125887e-002 5.5395163754385961e-002
      -1.1069842352848604e-002 7.5592001433136852e-002
      -5.7514660023309273e-002 -3.7068875262093806e-002
      -5.5564208142338437e-002 8.4684325087522841e-002
      7.0100002049107796e-002 -4.9288271687696658e-002
      -1.0083705650282905e-001 8.7933011062563765e-002
      5.7629006846970303e-002 -2.4167068983059278e-001
      -1.0919591568434345e-001 -1.1693096830579038e-001
      -3.7960304882287875e-002 2.5641777722972905e-002
      4.2846566462565135e-002 1.8452177735133916e-002
      -2.1518253514434119e-001 -1.3517038532156861e-001
      -1.0888080554968335e-001 -8.3310294707578170e-002
      -1.2369508957091044e-001 3.3569373597227718e-002
      -1.9187742029588800e-001 8.8105462276972329e-002
      -1.4529617052261219e+000 5.2133906018385204e-002
      1.4188173052961323e-001 1.7929864327798234e-001
      -1.0743348880387922e-001 9.7777966033211261e-002
      -8.1267446616842168e-002 2.3589032506890464e-001
      -1.4505587053132254e-001 2.8917613220498389e-002
      -7.6977601746391908e-003 3.0366612601739912e-001
      -1.0334607807035130e-001 -4.0023607880967146e-003
      -2.6875863904547066e-002 7.0863668681010267e-002
      4.2922079742021807e-002 -2.9382685338362774e-001
      -1.9240578529011040e-001 3.4587242515634234e-002
      4.6473876523859904e-002 7.7035309146342018e-002
      -2.1905788807154722e-001 -1.3758666301337694e-001
      -2.0933083203926015e-001 -2.3362240360474351e-001
      2.8617764383204913e-002 7.1822261132254817e-002
      -1.6606457268183092e-001 -4.6959263265699998e-002
      -5.6235991105276134e-002 6.9156673177109676e-002
      -2.8212764581042209e+000 3.7175564458129646e-003
      -7.6938935332625039e-002 1.8129400730353509e-001
      -3.4826197880977475e-002 2.9561257181090472e-001
      -2.2566327923441137e-002 1.0366725565518053e-001
      -2.8239360174425448e-002 6.3489261399844302e-002
      2.2365052495976291e-002 1.6068325864245228e-001
      2.1992742332346618e-002 -7.6239722992457681e-002
      -2.8843629235448871e-002 7.2755637154414105e-002
      -6.6153762862500493e-002 -2.0978835743608579e-001
      -1.6533858464142942e-001 8.2494956630181443e-002
      -5.0180561220140932e-002 7.3347291070020318e-002
      -1.3914663932582125e-002 4.1098413484639711e-002
      -5.9834030153038884e-002 1.1132298513695002e-002
      6.6553419312380735e-002 9.2861717698544705e-002
      -1.3586750569614545e-001 2.1318634250675041e-003
      -1.9892238974219018e-001 5.6367772528520044e-002
      -3.7425886448323284e+000 -2.1404871715198233e-002
      -1.2625506569600251e-001 4.4162549119303596e-001
      -1.4477201725843622e-001 2.5657608303928259e-001
      -4.8525377105528421e-002 4.0624310438586379e-002
      -8.9024211925767066e-002 5.9234151289491322e-003
      -1.5456652312708200e-001 1.5386570608841998e-001
      -3.8002114600657763e-002 -1.2913941624964093e-001
      4.1473874572703802e-002 4.2948448711224725e-002
      8.3774634101227013e-002 -1.0501214258169962e-001
      -1.3628196913456553e-001 1.9453989517484224e-002
      -2.3372752153859741e-001 2.2405458837500924e-001
      1.5430433024258332e-002 2.1525858903380612e-002
      -5.2462676178546943e-003 1.2814498919275250e-001
      6.8495221074568069e-002 5.4759065821043819e-002
      8.0297633294345222e-002 -2.5771867405345723e-002
      -4.3179768865499141e-001 1.2193345816844266e-001
      -2.1730077133825829e+000 -1.4506032398117083e-002
      5.3173949916237246e-003 3.6228545904858950e-001
      -1.6266232177221734e-001 2.5633388312693889e-001
      -4.2375520341132990e-002 -4.7841813176984702e-002
      -1.0039696167410424e-001 -9.8621838076847022e-003
      -2.0576831631387343e-001 2.0313798682648129e-001
      -3.5482803595570239e-002 -1.3424157737574877e-001
      -1.1865990733149983e-002 2.1407516136983801e-001
      4.5300033738143612e-002 -9.3804355884264126e-002
      -1.8644663846491416e-001 6.6695263463466506e-002
      -1.7140761429415172e-001 8.5986502571083048e-002
      -6.1687957240221927e-002 1.0477136406282640e-001
      -1.1900647962178166e-002 2.9116648966399972e-001
      8.3547367809270495e-002 2.1252258024022259e-002
      2.1618116117549194e-001 -3.8268272610588849e-002
      -2.8276266416520240e-001 1.0095663272509767e-001
      -1.1455635678290091e-001 -3.4624507194375764e-002
      5.5754332074268768e-002 1.1756752616655632e-001
      -9.8223878018345971e-003 1.0908627568508650e-001
      9.0396096605068563e-003 -3.2536731276392922e-002
      3.9851485197037531e-003 -7.9055564360720233e-003
      -1.3963781092732711e-001 -7.2291473224043085e-002
      6.2913096825391868e-002 -9.8691200785405969e-002
      8.5722470359011430e-003 3.9939846938748885e-002
      1.1573255015814886e-001 -1.5123861856045542e-001
      2.5126532859110609e-002 1.1535155686488918e-001
      -9.4845270745284233e-002 -3.8477885993782102e-002
      1.9961851219264105e-003 -5.2244690957368436e-003
      -6.1242856323369371e-002 1.0231130709482456e-001
      5.6926388801566634e-002 1.7074618594149594e-002
      -5.4110165286563983e-002 -3.6982233133867441e-002
      -2.5494230776961085e-001 4.2939369056164085e-002
      -9.2955009846639125e-001 -1.4300794042249998e-001
      -6.2536308489336515e-002 -2.4433442118838722e-001
      1.2785182986180957e-001 3.8276080612858887e-001
      -1.0403545726880392e-001 -1.0449318061476327e-001
      7.4432591807594928e-002 2.3226617090808646e-001
      1.4225816496799574e-002 -1.6778361391986976e-002
      3.2967100253921694e-001 -2.0563565495486860e-001
      2.2180483569036372e-001 -1.3086090204126591e-002
      -2.2203087151869597e-001 1.0566728175507632e-001
      6.4700872096938914e-004 -4.2865149657151394e-002
      2.0002595957012159e-001 -1.1928129803189445e-001
      1.8297904939875373e-001 -1.5162290724547800e-003
      7.1381614631765219e-003 7.0151801408532746e-003
      1.8825129413285399e-001 1.5968807203928262e-001
      1.6938581432038322e-001 -6.8134212845075856e-002
      -1.0430401726613893e-001 -1.7055200296502704e-001
      -1.1579855836320470e+000 -1.3983470215621105e-001
      9.4101746490779015e-002 -1.9438794533375703e-001
      9.6611321002426545e-002 3.9886781745368516e-001
      -1.0252612452109584e-001 -1.5927667693872491e-001
      5.6230373670523207e-002 3.5640921172792916e-001
      1.2042841005139622e-001 6.3309269478919725e-002
      2.3647326775939401e-001 -2.4720468354251104e-001
      2.2921937827091160e-001 1.9926464231196594e-001
      -2.7416876199398499e-001 1.6783967725341639e-001
      1.8336177571934315e-001 -7.2776931275034804e-002
      3.3256021308138328e-001 -1.8360521170824914e-001
      3.9762951790724373e-002 8.2203623029039233e-002
      6.3807624037702265e-002 5.3868814738188539e-002
      2.8943651087141031e-001 1.2514668950916150e-001
      1.9703240126664584e-001 -2.3972420029720060e-001
      1.6501300160521248e-001 -1.9892511626995343e-001
      -4.5608558056092052e+000 -1.0773935148859722e-001
      1.5742110781146545e-001 4.4206762590145105e-003
      7.7263065079783186e-002 4.3947816521982735e-001
      -1.3324744501940583e-001 -1.9330686879989348e-002
      2.3620530224775508e-002 3.0552076363734709e-001
      1.0209134302537339e-001 1.9569205570726525e-001
      4.6889472171897123e-002 -2.6111030984201355e-001
      2.4761043941494626e-001 2.1640659774662685e-001
      -2.4808785198486699e-001 1.5075259977963007e-001
      1.6064246026513584e-001 -9.6851044861612806e-002
      3.0520751898949861e-001 -6.1948920374095474e-002
      -1.9720165308098211e-001 1.6071299826758551e-002
      4.5127287411820642e-002 4.1676261618051477e-002
      2.5002873385093305e-001 3.8672405848479391e-002
      2.8466068901723418e-001 -1.4732208862946561e-001
      1.4307602128008379e-001 -1.5781015000506093e-001
      -2.7001639249325509e+000 4.2380375747129655e-002
      -6.3986714304805417e-002 -5.6769562298568138e-002
      -6.5202143376596564e-002 1.6439914052679486e-001
      -2.1952412084788858e-001 1.4174783238954408e-001
      -4.3332144885899086e-002 1.5009247288709698e-001
      1.0100468876877601e-001 1.5966243494827637e-001
      8.0992929436127042e-002 -1.0656143199275217e-001
      1.1167094940644080e-001 -5.5205686911417806e-002
      -1.3706999763003355e-001 4.3269734952351854e-002
      8.2567545686960786e-002 4.0974161763075265e-002
      9.5714853935683505e-002 -8.7004126069555529e-002
      -6.6068717954879076e-003 1.9477900362624893e-003
      -8.7718212033838741e-002 -3.2154932495988477e-002
      7.4926623298791434e-002 -4.9850302498404393e-002
      8.0347992192619996e-002 3.9143126276694152e-003
      8.1393392390826033e-002 3.7130079364400395e-002
      -9.4033120929772995e-001 1.1519716373714135e-001
      3.3889592724632635e-002 -2.1968972825395238e-002
      -1.7523267073619478e-001 6.7056480035015773e-003
      -9.0352296362841963e-002 1.2251297562289298e-001
      -7.4914257956817075e-003 6.6635404476912047e-002
      8.3664757176947602e-002 -2.3213065725271282e-002
      -1.7247803357766975e-001 -1.6377393358879666e-002
      1.6633342748021163e-001 1.7581099613483437e-002
      -3.1447495200806613e-002 1.2582249504772988e-001
      4.1065667959149676e-002 -7.5312496629439517e-003
      1.5650292030936777e-001 -4.5328795628580269e-002
      4.8015895826590778e-002 4.0492636724751188e-002
      -1.5969429931990442e-001 -7.3890709583878125e-002
      6.7772636723123544e-002 4.0691658303988923e-002
      7.9111675787542898e-002 1.1637881223136742e-001
      5.4134735050329334e-002 -4.5067318603990436e-002
      -4.2944205587267055e+000 4.2956890663301016e-002
      -7.9427548062055736e-002 1.8942434398785374e-002
      -2.1009225731417402e-001 -9.7673410490524259e-003
      -1.6171085309174965e-003 6.9062348790735514e-002
      -6.1774508102004452e-002 5.1742421139867878e-002
      -3.7843417973468393e-002 1.3259573346435216e-001
      -9.1475670156153672e-003 -1.3079741957200307e-002
      1.5607608005066159e-001 2.0282785711185056e-001
      -3.4196463953356966e-002 1.4869249316493210e-001
      4.1144752756533627e-002 -9.5019952363705668e-002
      -1.8845808914370796e-002 -5.7662238928891212e-002
      9.6481307151017291e-003 3.4794659137232682e-002
      -1.3786348893467795e-001 -1.0522843103655767e-002
      9.9151334034280530e-002 8.8431886487764094e-003
      8.8772377000663052e-002 -1.7203670077409491e-003
      -1.1720572119137175e-001 -4.3387387988151484e-002
      -1.1742025516366292e+001 -4.9447670925890232e-002
