<?xml version="1.0"?>
<opencv_storage>
<OCRMLP type_id="opencv-ml-ann-mlp">
  <layer_sizes type_id="opencv-matrix">
    <rows>1</rows>
    <cols>3</cols>
    <dt>i</dt>
    <data>
      400 71 12</data></layer_sizes>
  <activation_function>SIGMOID_SYM</activation_function>
  <f_param1>6.5000000000000002e-001</f_param1>
  <f_param2>1.</f_param2>
  <min_val>-9.4999999999999996e-001</min_val>
  <max_val>9.4999999999999996e-001</max_val>
  <min_val1>-9.7999999999999998e-001</min_val1>
  <max_val1>9.7999999999999998e-001</max_val1>
  <training_params>
    <train_method>BACKPROP</train_method>
    <dw_scale>1.0000000000000000e-002</dw_scale>
    <moment_scale>1.0000000000000000e-002</moment_scale>
    <term_criteria><epsilon>1.0000000000000001e-005</epsilon>
      <iterations>1000</iterations></term_criteria></training_params>
  <input_scale>
    1. -1. 1.0970799857537857e+001 -1.0878878618681235e+001
    4.2895438417563172e+000 -4.0421507951643108e+000
    2.5729340119188020e+000 -2.0957860761796359e+000
    2.3849432108899200e+000 -1.8420780476793952e+000
    2.2255116398935391e+000 -1.6008393320893197e+000
    2.1834297966383005e+000 -1.5297119522042109e+000
    2.1571275338607245e+000 -1.4826674656699463e+000
    2.1313468507101390e+000 -1.4339937336575128e+000
    2.0958666313054986e+000 -1.3612450359170329e+000
    2.0546764745510786e+000 -1.2627609502163519e+000
    2.0335279824905874e+000 -1.2006362672769451e+000
    2.0329993383131879e+000 -1.1989046509840235e+000
    2.0411702234579452e+000 -1.2245311101766978e+000
    2.0605340369940288e+000 -1.2781583846288893e+000
    2.1521907391945017e+000 -1.4735639148541604e+000
    2.3692315796784609e+000 -1.8196863131170973e+000
    3.3294108150265544e+000 -2.9955863540310137e+000
    4.6570175193074963e+000 -4.4313527966151769e+000 1. -1. 1. -1.
    2.2221541734058952e+000 -1.5953211290992468e+000
    2.0362391409506300e+000 -1.2093457710463662e+000
    2.0000725664635106e+000 -9.9151761080093048e-001
    2.0051518466798979e+000 -9.3075334986230707e-001
    2.0254212708875814e+000 -8.5276429712694568e-001
    2.0572067835496317e+000 -7.8771973194987988e-001
    2.1126359159835890e+000 -7.1601275912472706e-001
    2.1542566765704030e+000 -6.7687159925756279e-001
    2.2789549135039038e+000 -5.9320932254870506e-001
    2.3870119350895131e+000 -5.4200271002032518e-001
    2.4562290326508300e+000 -5.1518726533187365e-001
    2.4586374144244187e+000 -5.1431906812006412e-001
    2.4066125174012547e+000 -5.3401861334319145e-001
    2.3526320480682106e+000 -5.5686514753185545e-001
    2.1990327029041814e+000 -6.4242094881658252e-001
    2.0736052757565622e+000 -7.6301492830869166e-001
    2.0141385804825762e+000 -1.1261850127429458e+000
    2.3195296475457945e+000 -1.7471781760734557e+000 1. -1.
    8.4628601191721700e+001 -8.4616783205240523e+001
    2.1589727932543705e+000 -1.4860462083439174e+000
    2.0000823960141076e+000 -9.9096387949421227e-001
    2.0566389349140661e+000 -7.8865109834855829e-001
    2.0782923786498175e+000 -7.5661335443933442e-001
    2.1313468507101390e+000 -6.9735311705262615e-001
    2.0898346205385501e+000 -7.4184605577558926e-001
    2.0887296639340338e+000 -7.4320390779275503e-001
    2.1235549202394730e+000 -7.0488619542092268e-001
    2.1857727962332478e+000 -6.5197747420111962e-001
    2.2078090562686317e+000 -6.3635217038660186e-001
    2.2265260484723726e+000 -6.2402426746041784e-001
    2.2951583558967434e+000 -5.8460673665069973e-001
    2.3953838769554157e+000 -5.3855160478958508e-001
    2.4910440643191682e+000 -5.0300931671631299e-001
    2.4490736307860494e+000 -5.1779045901551168e-001
    2.2922706673443622e+000 -5.8611193854315424e-001
    2.0420054104908982e+000 -8.1497716285197419e-001
    2.0416463519360866e+000 -1.2259571726470009e+000 1. -1.
    2.6778749007484173e+001 -2.6741353742845877e+001
    2.0152395554891402e+000 -1.1313033114182856e+000
    2.0035650729032666e+000 -9.4204770289977646e-001
    2.0555127761764207e+000 -7.9051559636780655e-001
    2.0962514758714708e+000 -7.3417102380751964e-001
    2.0524809928009327e+000 -7.9565524871043003e-001
    2.0024344140184849e+000 -9.5186241381356262e-001
    2.0085230045830635e+000 -1.0966799256974973e+000
    2.0032701178136598e+000 -1.0588433732613745e+000
    2.0016992210602744e+000 -1.0420799743210032e+000
    2.0014125932744253e+000 -1.0382974143296313e+000
    2.0001279570936075e+000 -1.0113759716011663e+000
    2.0019873802742563e+000 -9.5640257337218693e-001
    2.0523454416814362e+000 -7.9588930198985453e-001
    2.1984160341061312e+000 -6.4285479338335971e-001
    2.3507212669092210e+000 -5.5772593666789083e-001
    2.2306170774023819e+000 -6.2143291012676327e-001
    2.0532984090135811e+000 -7.9425172363742758e-001
    2.0000327816676942e+000 -9.9429083965046650e-001
    1.7302553648449258e+001 -1.7244564360980640e+001
    9.6342464464338491e+000 -9.5293070213784326e+000
    2.0018165347121486e+000 -1.0435387688982616e+000
    2.0235354338814808e+000 -8.5790442358108865e-001
    2.0822696198755870e+000 -7.5137336932809906e-001
    2.0708411971077441e+000 -7.6691395820831409e-001
    2.0034653286937014e+000 -1.0606252005415195e+000
    2.1840136211983165e+000 -1.5307309544469141e+000
    2.3511981454937634e+000 -1.7936873996414506e+000
    2.3235218164185132e+000 -1.7531054844448020e+000
    2.3417629297990534e+000 -1.7799491170082737e+000
    2.3431645759076707e+000 -1.7819961290871631e+000
    2.3667496785902151e+000 -1.8161275637275844e+000
    2.2959875405362702e+000 -1.7118108474965992e+000
    2.0520749255297499e+000 -1.2557174031100913e+000
    2.0316459233180093e+000 -8.3722763855766591e-001
    2.1941369003869933e+000 -6.4589311353383361e-001
    2.1506533280569884e+000 -6.7994402104748253e-001
    2.0530251534508182e+000 -7.9471941423902637e-001
    2.0042299442371112e+000 -9.3704257133163638e-001
    1.4547247768892033e+001 -1.4478178305947985e+001
    8.6952480189125954e+000 -8.5786799683867461e+000
    2.0052328173972294e+000 -9.3023089224879152e-001
    2.0477234876027652e+000 -8.0410535499776237e-001
    2.0776124517557788e+000 -7.5752633871447261e-001
    2.0380341269790745e+000 -8.2306866292745196e-001
    2.0690851557445518e+000 -1.2996432105207365e+000
    2.2837408476663210e+000 -1.6931127161374806e+000
    2.4690050408449196e+000 -1.9583785270212462e+000
    2.4402740855096732e+000 -1.9192324604930149e+000
    2.4402740855096732e+000 -1.9192324604930149e+000
    2.5487698102552834e+000 -2.0643576175786404e+000
    2.6801418555186567e+000 -2.2321416040096733e+000
    2.4142538296303293e+000 -1.8832595855767378e+000
    2.1005465192024859e+000 -1.3713245325054633e+000
    2.0001835083753838e+000 -9.8654491713194459e-001
    2.1235549202394730e+000 -7.0488619542092268e-001
    2.1096906819736061e+000 -7.1913908039346075e-001
    2.0294244232653309e+000 -8.4254696416252328e-001
    2.0000023596021945e+000 -9.9846507967851494e-001
    1.2384195929437361e+001 -1.2302914375368998e+001
    8.6072820155560059e+000 -8.4894892998005957e+000
    2.0000468230892361e+000 -9.9318063160247505e-001
    2.0217259163345203e+000 -8.6306606985541523e-001
    2.0376939881071436e+000 -8.2378495958248577e-001
    2.0116938468404491e+000 -8.9755087846044335e-001
    2.0483692851328770e+000 -1.2454405624170573e+000
    2.1488726434164240e+000 -1.4673910384452329e+000
    2.2142442191212357e+000 -1.5822214312586738e+000
    2.2347620802094865e+000 -1.6159192921833154e+000
    2.3082204019801638e+000 -1.7302788881203073e+000
    2.4242661871566829e+000 -1.8971634845449030e+000
    2.3885698062135363e+000 -1.8472140185463712e+000
    2.1080292870395931e+000 -1.3871015222078709e+000
    2.0138699895237049e+000 -1.1249099229290351e+000
    2.0093222191654392e+000 -9.0799702572536811e-001
    2.1195511217792009e+000 -7.0888492342706133e-001
    2.0836802454831038e+000 -7.4955457511024659e-001
    2.0053554713394250e+000 -9.2944767621499114e-001
    2.0081116743448861e+000 -1.0942119471154512e+000
    1.1156777438186385e+001 -1.1066413928702401e+001
    8.9277757016760191e+000 -8.8143240065423072e+000
    2.0590743567609286e+000 -1.2743775379366618e+000
    2.0046410925902416e+000 -1.0704856218496137e+000
    2.0001039279170789e+000 -9.8985732726408715e-001
    2.0001989574476711e+000 -9.8599390026396860e-001
    2.0284430973707774e+000 -1.1834709203763591e+000
    2.0708411971077441e+000 -1.3039272388994299e+000
    2.1299497419838187e+000 -1.4312691186183684e+000
    2.1558182459368904e+000 -1.4802622979013673e+000
    2.2272041692089433e+000 -1.6036118833181554e+000
    2.2285648615986204e+000 -1.6058364314828768e+000
    2.1175801942486339e+000 -1.4066930573999095e+000
    2.0058604764975927e+000 -1.0795400469797127e+000
    2.0160933189447139e+000 -8.8093227132774887e-001
    2.0772737872420737e+000 -7.5798301997815098e-001
    2.2497054195130768e+000 -6.0978609401967354e-001
    2.1509088493238226e+000 -6.7972444156120804e-001
    2.0018165347121482e+000 -9.5827776581388691e-001
    2.0280555200005530e+000 -1.1821119592909244e+000
    1.1062603169007827e+001 -1.0971457576636446e+001
    9.0767528158271737e+000 -8.9652105385205410e+000
    2.2135943621178655e+000 -1.5811388300841898e+000
    2.1023364845022132e+000 -1.3751353293406461e+000
    2.0306254495381606e+000 -1.1909826683508273e+000
    2.0265333964279018e+000 -1.1766968108291043e+000
    2.0665760446408612e+000 -1.2934497740651223e+000
    2.0782923786498175e+000 -1.3216790242104830e+000
    2.0542609885386862e+000 -1.2616449975692141e+000
    2.0670424492507440e+000 -1.2946076504523931e+000
    2.0843908725946454e+000 -1.3357449677889719e+000
    2.0308281146167375e+000 -1.1916687247059812e+000
    2.0005974799386004e+000 -1.0247439682187942e+000
    2.0302222595692823e+000 -8.4061011026713051e-001
    2.1147693545225597e+000 -7.1378264626183863e-001
    2.1887305822878860e+000 -6.4980327020584350e-001
    2.2955727179508085e+000 -5.8439171412153668e-001
    2.1436134819138837e+000 -6.8610000007633309e-001
    2.0148216932814842e+000 -8.8544112117816376e-001
    2.0281521494834980e+000 -1.1824515045515436e+000
    1.0881269878660614e+001 -1.0788579268047810e+001
    9.2877268174834988e+000 -9.1787798753429293e+000
    2.2593064462278662e+000 -1.6551210189793863e+000
    2.0991675818309417e+000 -1.3683723323539780e+000
    2.0274794460321059e+000 -1.1800774097279454e+000
    2.0357977163531014e+000 -1.2079464455780378e+000
    2.0627614811951474e+000 -1.2838609023441938e+000
    2.0706805065103486e+000 -1.3035368975490367e+000
    2.0673544226759231e+000 -1.2953804349318345e+000
    2.0586403748730384e+000 -1.2732465047217829e+000
    2.0365721274822404e+000 -1.2103967287479982e+000
    2.0032381368932537e+000 -1.0585467267147146e+000
    2.0024068570615969e+000 -9.5212894125048697e-001
    2.0681379934120550e+000 -7.7082255333288296e-001
    2.2278837724789509e+000 -6.2316034021440281e-001
    2.2889977933261672e+000 -5.8783227788392978e-001
    2.2323375606841025e+000 -6.2035354639873819e-001
    2.1461024217522700e+000 -6.8389969647237536e-001
    2.0228371276362349e+000 -8.5986820507257355e-001
    2.0051116008078451e+000 -1.0740969279009767e+000
    1.0625424363049428e+001 -1.0530461765753635e+001
    9.3428493999496833e+000 -9.2345605436173521e+000
    2.2084462681500305e+000 -1.5725272338077092e+000
    2.0700398477593160e+000 -1.3019773040508251e+000
    2.0203980935275516e+000 -1.1533846399023364e+000
    2.0296228159062930e+000 -1.1875603405456454e+000
    2.0459407103323750e+000 -1.2385355368371520e+000
    2.0939563252384308e+000 -1.3570801990548187e+000
    2.1396888611778100e+000 -1.4500642428845010e+000
    2.0842128828244229e+000 -1.3353398556624008e+000
    2.0351410486415635e+000 -1.2058516225926761e+000
    2.0088914259736450e+000 -1.0988448143469860e+000
    2.0000023596021945e+000 -9.9846507967851494e-001
    2.0395272384193595e+000 -8.1996912713438563e-001
    2.1471058326952965e+000 -6.8302012105570253e-001
    2.1890281467913453e+000 -6.4958592541985871e-001
    2.1905208664974225e+000 -6.4849940468852618e-001
    2.1431190357139416e+000 -6.8654029715511544e-001
    2.0456890788882180e+000 -8.0787721199495610e-001
    2.0000360579729355e+000 -9.9401317278671664e-001
    1.0793921142219512e+001 -1.0700467279516312e+001
    8.9766026263163958e+000 -8.8637839925545645e+000
    2.1514207477774474e+000 -1.4721354090363765e+000
    2.0518051901028582e+000 -1.2549792951613628e+000
    2.0121887223882302e+000 -1.1166649885170825e+000
    2.0188780496662200e+000 -1.1471602826549152e+000
    2.0885462966462436e+000 -1.3451159782338327e+000
    2.2185030466626241e+000 -1.5892920862141127e+000
    2.2372052161629932e+000 -1.6198727895273173e+000
    2.1621696132479631e+000 -1.4918698588267261e+000
    2.0905757967604681e+000 -1.3496343958139427e+000
    2.0592194189509323e+000 -1.2747548783981961e+000
    2.0229238113684875e+000 -1.1633012505537539e+000
    2.0000983108318695e+000 -1.0099644591492865e+000
    2.0186436497312492e+000 -8.7246223934062517e-001
    2.0508672518239863e+000 -7.9846640107321243e-001
    2.1471058326952965e+000 -6.8302012105570253e-001
    2.1367914632730574e+000 -6.9227149766701479e-001
    2.0453130571361235e+000 -8.0858556971824691e-001
    2.0049127651715200e+000 -9.3232223265202652e-001
    9.6959202536539948e+000 -9.5916630466254578e+000
    6.6454710482752883e+000 -6.4914215867456564e+000
    2.0417658510893939e+000 -1.2263140518831843e+000
    2.0185658553438857e+000 -1.1458553556727964e+000
    2.0056895815839546e+000 -1.0783277320343840e+000
    2.0203165583217420e+000 -1.1530559661864208e+000
    2.1996507211138492e+000 -1.5576635674861512e+000
    2.3793035048330098e+000 -1.8340672178017337e+000
    2.3389739044374283e+000 -1.7758694481813011e+000
    2.2379066951254960e+000 -1.6210057293137758e+000
    2.2231575675759294e+000 -1.5969728428446559e+000
    2.1863617636923927e+000 -1.5348192411788379e+000
    2.1481137451318895e+000 -1.4659728910011931e+000
    2.0985801428886721e+000 -1.3671102313330059e+000
    2.0647290266464848e+000 -1.2888337870562474e+000
    2.0104447841094508e+000 -1.1075554633866476e+000
    2.0573492437551759e+000 -7.8748698186467503e-001
    2.0950997296431275e+000 -7.3552307224170121e-001
    2.0465731207219395e+000 -8.0622577482985491e-001
    2.0244238956446488e+000 -8.5545408577303539e-001
    8.6952480189125954e+000 -8.5786799683867461e+000
    6.5687020324214416e+000 -6.4127630091688728e+000
    2.0039078611273955e+000 -9.3941051386743002e-001
    2.0099879312943951e+000 -9.0492963140526883e-001
    2.0112694596440162e+000 -8.9932758131268542e-001
    2.0005183184437452e+000 -1.0230272423042865e+000
    2.1978007118991725e+000 -1.5545120242660673e+000
    2.3885698062135363e+000 -1.8472140185463712e+000
    2.3667496785902151e+000 -1.8161275637275844e+000
    2.3217425355294545e+000 -1.7504661289377916e+000
    2.3112329062236707e+000 -1.7347963791303214e+000
    2.2672636603282670e+000 -1.6675991759459547e+000
    2.2471669298048744e+000 -1.6358722531870982e+000
    2.2482524716485717e+000 -1.6376043697973677e+000
    2.1950483509130607e+000 -1.5498065161592562e+000
    2.0673544226759231e+000 -1.2953804349318345e+000
    2.0253297294440307e+000 -8.5300858315922312e-001
    2.0644240735508741e+000 -7.7635721687927717e-001
    2.0560742682375870e+000 -7.8958305231858172e-001
    2.0387193775964425e+000 -8.2163721878834417e-001
    7.0997798517490809e+000 -6.9560194721228257e+000
    6.2870236731434961e+000 -6.1237243569579505e+000
    2.0203980935275516e+000 -8.6701345362521520e-001
    2.0326843149995555e+000 -8.3481700466606512e-001
    2.0383759226798306e+000 -8.2235274970283911e-001
    2.0071762236909265e+000 -9.1879956168954857e-001
    2.1204336917380973e+000 -1.4124380267547443e+000
    2.3752467988199455e+000 -1.8282866017449433e+000
    2.6148208653251950e+000 -2.1496230183171936e+000
    2.3985639021529948e+000 -1.8613070247541115e+000
    2.3293600900473321e+000 -1.7617391771674837e+000
    2.2757993446024889e+000 -1.6808689755065724e+000
    2.3052313522487098e+000 -1.7257848456089002e+000
    2.5201484725248258e+000 -2.0267469701536758e+000
    2.3129649504644032e+000 -1.7373884190124318e+000
    2.0567805984762866e+000 -1.2683623967143252e+000
    2.0224921173983641e+000 -8.6085127410001583e-001
    2.0577778215400553e+000 -7.8678895061816390e-001
    2.0502031244145460e+000 -7.9963934178045337e-001
    2.0248746368301136e+000 -8.5423073283951589e-001
    6.9378331277466607e+000 -6.7905700869119325e+000
    7.8551381211292721e+000 -7.7257000121649853e+000
    2.0086799263629120e+000 -9.1107281117535788e-001
    2.0181794227607832e+000 -8.7395257505672230e-001
    2.0286379462282231e+000 -8.4448676409807755e-001
    2.0107942871301279e+000 -9.0136149444040092e-001
    2.0191929575386838e+000 -1.1484671018091130e+000
    2.2068558437368999e+000 -1.5698538846523906e+000
    2.4659333608289118e+000 -1.9542203355263335e+000
    2.2460849475845794e+000 -1.6341436359329227e+000
    2.1917209389847576e+000 -1.5440905093112838e+000
    2.1659533083431461e+000 -1.4987150737104160e+000
    2.2078090562686317e+000 -1.5714568858820297e+000
    2.3334523779156067e+000 -1.7677669529663687e+000
    2.1035405080028600e+000 -1.3776853766978652e+000
    2.0005183184437452e+000 -1.0230272423042865e+000
    2.0373555036906659e+000 -8.2450164078977084e-001
    2.0602404883438674e+000 -7.8283959904813061e-001
    2.0295235308043504e+000 -8.4230469676728525e-001
    2.0058175126161597e+000 -9.2658069148642042e-001
    9.8884130134214363e+000 -9.7862286030048473e+000
    1.5231688935442831e+001 -1.5165750888103252e+001
    2.0088914259736450e+000 -1.0988448143469860e+000
    2.0000001755073140e+000 -1.0004190236932271e+000
    2.0091594530440653e+000 -9.0876518201504364e-001
    2.0094864489822926e+000 -9.0722939387791535e-001
    2.0013708525279190e+000 -9.6365405662844084e-001
    2.0093222191654387e+000 -1.1013251934400710e+000
    2.0553728983391015e+000 -1.2646240734648906e+000
    2.0035650729032666e+000 -1.0615173700034901e+000
    2.0014763819319534e+000 -1.0391689970706610e+000
    2.0023794578063123e+000 -1.0499839218073874e+000
    2.0033022570463026e+000 -1.0591401124392266e+000
    2.0133407689236695e+000 -1.1223650816287234e+000
    2.0069867049690440e+000 -9.1983387316134646e-001
    2.0395272384193595e+000 -8.1996912713438563e-001
    2.0870874770721013e+000 -7.4524265868920025e-001
    2.0579210802460239e+000 -7.8655634640879313e-001
    2.0026030685917724e+000 -9.5026465955520767e-001
    2.0116938468404491e+000 -1.1141429683800057e+000
    1.8069396272817428e+001 -1.8013883534652091e+001
    4.2323168110305289e+001 -4.2299527184116037e+001
    2.1128481416346876e+000 -1.3970585044882344e+000
    2.0065241705115335e+000 -1.0841002675197768e+000
    2.0098193039679395e+000 -9.0569569807352890e-001
    2.0277666899675046e+000 -8.4667258804675871e-001
    2.0494125618049455e+000 -8.0104814418266190e-001
    2.0347069084196421e+000 -8.3024906945987909e-001
    2.0250561512284322e+000 -8.5374172888683653e-001
    2.1037420152505844e+000 -7.2563088642213991e-001
    2.1292547584953687e+000 -6.9934467141196854e-001
    2.1175801942486339e+000 -7.1088713684872451e-001
    2.1292547584953687e+000 -6.9934467141196854e-001
    2.0815696017666445e+000 -7.5228349802710182e-001
    2.1662258196818573e+000 -6.6701968054719951e-001
    2.1890281467913453e+000 -6.4958592541985871e-001
    2.1706271606716023e+000 -6.6352504604247131e-001
    2.1015385696923352e+000 -7.2809903524740727e-001
    2.0030806061861233e+000 -9.4601572547430091e-001
    2.0718097687715233e+000 -1.3062730213662097e+000
    5.9845637095519791e+001 -5.9828922771516012e+001 1. -1.
    2.5647632649799954e+000 -2.0851908572424986e+000
    2.1932284359003238e+000 -1.5466839270069312e+000
    2.0084710214895307e+000 -1.0963710687058479e+000
    2.0014979588876951e+000 -9.6203825925030673e-001
    2.0286379462282231e+000 -8.4448676409807755e-001
    2.0383759226798306e+000 -8.2235274970283911e-001
    2.0463195849038982e+000 -8.0669741491184255e-001
    2.1697959810255494e+000 -6.6417997352436875e-001
    2.1899227978410769e+000 -6.4893397249249618e-001
    2.1914204281242879e+000 -6.4784765344771922e-001
    2.2030740690079744e+000 -6.3960214906683133e-001
    2.1084431710676657e+000 -7.2048044122365285e-001
    2.1770915957899240e+000 -6.5850864355271255e-001
    2.1678672227950644e+000 -6.6570870310380492e-001
    2.0843908725946454e+000 -7.4864590480567350e-001
    2.0163832638659769e+000 -8.7993264901287227e-001
    2.0532984090135811e+000 -1.2590466853761535e+000
    2.3757518373299784e+000 -1.8290071050412193e+000 1. -1. 1. -1.
    4.4833725169312233e+000 -4.2479657209018784e+000
    3.5637681846802263e+000 -3.2567098171410978e+000
    2.6076275133015745e+000 -2.1404321356216527e+000
    2.3293600900473321e+000 -1.7617391771674837e+000
    2.1542566765704030e+000 -1.4773850773128403e+000
    2.1249080413299724e+000 -1.4213530956529210e+000
    2.1098994568911911e+000 -1.3909838480635823e+000
    2.0237117396815365e+000 -1.1662977726107668e+000
    2.0087853516748564e+000 -1.0982257578281054e+000
    2.0073200540886900e+000 -1.0892955914241935e+000
    2.0225781113828729e+000 -1.1619726784288702e+000
    2.0952911070551412e+000 -1.3599934458305118e+000
    2.0596558118655555e+000 -1.2758878901599782e+000
    2.0689267732368792e+000 -1.2992548106753590e+000
    2.1478613441136227e+000 -1.4655007020442898e+000
    2.3221866062203973e+000 -1.7511252162533368e+000
    2.9599451931819423e+000 -2.5709899597251336e+000
    3.5637681846802263e+000 -3.2567098171410978e+000 1. -1.</input_scale>
  <output_scale>
    1.0526315789473684e+000 0. 1.0526315789473684e+000 0.
    1.0526315789473684e+000 0. 1.0526315789473684e+000 0.
    1.0526315789473684e+000 0. 1.0526315789473684e+000 0.
    1.0526315789473684e+000 0. 1.0526315789473684e+000 0.
    1.0526315789473684e+000 0. 1.0526315789473684e+000 0.
    1.0526315789473684e+000 0. 1.0526315789473684e+000 0.</output_scale>
  <inv_output_scale>
    9.4999999999999996e-001 0. 9.4999999999999996e-001 0.
    9.4999999999999996e-001 0. 9.4999999999999996e-001 0.
    9.4999999999999996e-001 0. 9.4999999999999996e-001 0.
    9.4999999999999996e-001 0. 9.4999999999999996e-001 0.
    9.4999999999999996e-001 0. 9.4999999999999996e-001 0.
    9.4999999999999996e-001 0. 9.4999999999999996e-001 0.</inv_output_scale>
  <weights>
    <_>
      -4.6222180089869102e-003 -3.0386965129628293e-003
      4.1951311306622193e-003 1.2393182417243767e-003
      3.9910867379776820e-003 -3.6096718242828603e-003
      2.7212430466679316e-003 -4.3222094542688183e-003
      4.2447361673685078e-003 -2.9648579954383437e-003
      1.8223902578679845e-003 2.2345350336514091e-003
      -2.8510467270295809e-003 3.2893528653748744e-003
      6.6332868772747005e-004 2.3070695693070183e-003
      4.4132864887138209e-003 2.4871913685018442e-003
      6.6752844171497007e-004 4.5411576321843479e-003
      2.6542105002752810e-003 1.3940396294657149e-003
      3.9125175763899530e-003 3.0413716111723937e-003
      -1.3362404417424599e-003 -2.2059426488131306e-003
      1.5680867236652495e-003 2.6706976345374977e-003
      -3.8907308630967393e-003 -1.4327270612453627e-003
      -1.1536972816925295e-003 -4.6264017750555914e-003
      2.3060224160819263e-003 1.3092783029316777e-003
      -1.8383566451348704e-003 3.9834846521900739e-004
      -2.9908813254164806e-003 4.1617280994612621e-003
      -4.4932590840112627e-003 -4.6598758093927663e-003
      1.2861381847023793e-003 -4.9377651111871367e-004
      -2.9506613804476368e-003 -2.9307322729695330e-003
      2.0694142749792597e-003 3.6126918873206678e-003
      4.8341336313847258e-003 1.6555333764410316e-003
      -1.8915031729696118e-003 6.3986230241183998e-004
      -2.6937071349175212e-003 -2.0456329913700453e-004
      -3.8397497722587183e-003 -2.5998439387365066e-003
      1.2625594265404177e-003 -1.8229237608033452e-003
      -3.5485943055033461e-003 -3.1430571140462818e-003
      -2.4621547577512448e-003 -1.5562364787584315e-003
      1.4445438086689406e-004 1.2770301559855831e-003
      -2.6479797593721962e-003 4.6089118174772199e-003
      6.0508296790771606e-004 -3.5366100449358020e-003
      2.8279673052315117e-003 2.2773199135432201e-003
      2.0550586343381430e-003 4.1439216670294734e-003
      2.7619788321109734e-003 1.2208592133405084e-001
      -4.0013883092667249e-002 2.8231892387683255e-002
      3.6841063383941889e-003 -2.6915392298163070e-002
      -4.9080746398213825e-002 -3.3183632909796257e-002
      -2.3038043440951235e-002 -1.6140968027223861e-002
      2.4415808386116341e-002 3.5087496330224954e-002
      -2.2892349320335736e-002 1.8210287177357717e-002
      1.6061146888985026e-002 4.2577386612471436e-002
      -5.7470129619206830e-003 -3.2854943070196922e-002
      1.0872442416801215e-002 2.1482263809558356e-002
      9.5855853656879025e-003 2.0662511563732278e-002
      4.3311426400700889e-002 -1.4936397175280830e-002
      -3.3962222972214726e-002 -3.0178324487309172e-002
      2.9581103321145320e-002 2.4123038840785115e-003
      3.4007196030427109e-002 1.6534745522826310e-002
      7.5083580110282431e-003 9.0713714235497525e-003
      -6.6774306484244983e-002 4.2586809855605562e-002
      -2.9057342254749412e-002 7.0347925262507641e-003
      4.0486496010304265e-003 1.7213101093299637e-002
      2.4609899572981420e-002 -9.2145086172560776e-003
      -4.4013055787956229e-003 -1.6228409284956783e-002
      7.4392207255182696e-002 -8.2487780900279278e-002
      3.1411008612991738e-002 -2.6719752990865573e-002
      -3.8252315138602590e-002 1.3645352509387951e-002
      -3.1301344731304907e-002 -2.6250200218317404e-002
      -3.1609575360064621e-003 -8.4776977323994182e-003
      4.5377910548714869e-003 -1.6170394996237159e-003
      -1.2052027694336902e-002 1.2220297455005819e-002
      -3.7651034184567691e-004 -2.0994526023053125e-002
      1.7621381637875097e-003 -4.6854769778346538e-002
      2.6043731658554944e-002 -6.7879167471231348e-003
      -5.1109749598105991e-002 3.3921240439220156e-003
      -7.1217377495677997e-002 -1.5920152848203389e-002
      8.3104057140453661e-003 -3.3014167868710954e-002
      -3.2600551013577519e-002 3.2254719158932771e-002
      -6.1774450438775337e-003 -2.3455856920309992e-002
      2.7644992550795135e-002 -1.6412257589370781e-002
      -9.5519748787042009e-003 -6.5278987977037319e-003
      2.3097187380836010e-002 -2.3473799279486219e-002
      -2.6907782585702537e-002 3.7237389405789204e-002
      -1.7750321363468109e-002 -2.4444475376955765e-002
      5.8103976822650822e-003 7.2020198816312633e-003
      -3.2022742040443856e-002 2.0374410370383391e-003
      -1.0012775926622960e-002 -1.6831899334081628e-002
      -1.9349901253547335e-002 3.4106676321588487e-003
      1.6587340823688304e-002 5.2356590950205173e-002
      -1.5061482753158733e-002 -3.2430238778661976e-004
      -1.1765886221411113e-002 8.7796494058458227e-003
      -1.6188021522548432e-002 -2.1848032865150687e-002
      -4.3620220875186945e-002 7.5584347402200347e-004
      -2.4512736662470353e-002 1.4558969433190875e-002
      -1.2601915947622319e-002 2.6226493200071468e-004
      -2.5531958111454259e-002 -3.0047501042151131e-002
      -3.1336591913685999e-002 1.4244390087467642e-002
      -4.8166383246548254e-003 -1.6535696055604700e-002
      4.2818624877097103e-002 1.7665458412701573e-002
      1.2297326322920887e-002 -3.0112098938926593e-002
      -4.7362267701327461e-002 6.7068368707126971e-003
      2.9082152975312679e-003 9.4195519115043824e-003
      2.7348965286672404e-002 -1.9488933404759920e-003
      2.2373338814222689e-002 1.8322435761335639e-003
      -3.6897834736883436e-003 -4.7520004519425165e-003
      5.3991807129914610e-002 4.9740814124635074e-002
      6.1883378008771046e-003 4.2034949631654765e-002
      -6.9972876647296633e-003 4.4953304127318357e-002
      2.7333081161621069e-002 -4.9614508952747126e-002
      8.0694072708375995e-003 3.7388538085455808e-002
      -1.9395315051678352e-002 -3.0989231481850465e-002
      6.0250844538855923e-003 2.3062608967645514e-002
      -3.4553035866227454e-002 4.8655543053134787e-003
      5.6194020684240668e-002 -1.7681927659383975e-002
      4.0084266036111621e-002 -7.0260241554819429e-003
      -1.4370512789638548e-003 -1.9602130482227562e-002
      1.1099471141038502e-002 2.4951665332475014e-002
      -1.6099758700350054e-003 -1.0809762577229393e-002
      8.7744213765275116e-003 -2.9060281507365296e-002
      4.4996291105487772e-002 -1.5037875072585381e-002
      -1.9502686947501961e-002 7.3666593220329483e-003
      -1.9622939524259041e-002 -3.1855652594030039e-002
      4.5308157813069960e-004 -2.0222756849195628e-002
      1.6040264188310706e-002 -8.3076511045124223e-003
      3.2247602146082948e-003 2.1987773407681793e-002
      -2.7200835764677883e-002 1.4797858556711958e-002
      1.1294342088375771e-002 -7.7172898936635854e-003
      -2.7068799142186517e-002 -2.0244772328752689e-002
      -3.1002920927965003e-002 -6.0020749957911741e-002
      -1.3469719439187268e-002 -2.0588905523102094e-002
      1.3930953050395855e-002 -2.1917652951651205e-002
      -1.8838314725523390e-002 -3.1646803548693876e-002
      -2.1145291955113756e-002 -1.1366014892597942e-002
      -2.1204941224296406e-002 1.0950947113681603e-002
      -8.8026360948390611e-003 -4.9717989595750526e-003
      -2.5648812876613455e-002 7.1927033099793685e-003
      -4.4563973162496003e-003 -2.0892247129641071e-002
      5.9905123518993970e-002 5.2304293334518668e-003
      1.2221180967148051e-002 -4.3134838690558090e-003
      1.6092439388267120e-002 2.3730441256211298e-003
      -9.5531220986362145e-003 2.5473538185769116e-002
      3.8193717909687529e-002 4.0384196158258945e-002
      6.5685643694625429e-002 2.9353199828182361e-003
      4.2280686253965409e-002 2.5352629760063760e-002
      -3.0639307950319231e-002 -1.3120700159918838e-003
      1.6150332176699488e-002 -4.5054267625115621e-002
      3.3861729676913428e-002 -1.0245655129241825e-002
      2.7138216198159940e-002 -2.9558580766694122e-002
      -2.4002549768745567e-004 2.4824907110059191e-002
      -2.7681037744898416e-002 2.4993916012615105e-002
      -2.0496354924698996e-002 9.5225180465452110e-003
      2.7201544118991578e-004 -2.9642323481770805e-002
      5.2690494562262769e-003 -6.8813811174432546e-003
      1.3701224706013605e-002 2.4950242914278341e-002
      -7.9182377745521219e-003 4.0062000150918223e-002
      1.2835042277018699e-003 -4.9987008682296961e-002
      -2.8766325597586732e-002 -9.2081771242768576e-003
      -3.8443467652398079e-003 5.7600218369386447e-002
      -3.4541155898072167e-003 -4.4903531257079864e-003
      1.4814490888005053e-002 9.9082570983638537e-003
      3.8455682203407157e-002 -1.5710380628766556e-002
      -5.9328865250693908e-003 3.4519401914549358e-002
      -8.6537388513579297e-003 1.0130922150785827e-005
      -1.9772031883054347e-002 -2.1610195003423822e-002
      -5.1804490598943903e-002 3.4676737701913249e-002
      2.4390589900292775e-002 1.9544645979720741e-002
      -4.7399497310641234e-002 -9.3610694446035290e-003
      -2.6631268630458813e-002 1.1290809338112199e-002
      -1.4887157565110477e-002 -6.6591170052801409e-003
      -1.6571555543044247e-002 -3.1180971566859603e-002
      1.0497329566591919e-002 -1.9396972766273793e-002
      -5.9106337203089429e-003 1.7026315321734799e-002
      9.9881723757772913e-004 3.2739307794223786e-002
      2.8458741608274954e-003 1.4734723801559319e-002
      -4.2803192890961822e-003 3.5989888231399434e-003
      -5.1565804343143987e-003 -1.1419770958462928e-002
      1.2118492480406483e-002 4.2912180023700223e-002
      2.3361112201717433e-003 6.3065960706241195e-002
      -6.1790549443681442e-003 2.0414671825626878e-002
      -2.8076278523328817e-002 -2.9121477714684926e-002
      -3.9753928385110722e-002 -1.7191724533785695e-002
      -8.4481694143935804e-003 4.4010376175146255e-002
      -4.3867045644939519e-002 1.8356710286993365e-002
      -4.8386130212573299e-002 -1.3710752398065013e-002
      7.2497619519932568e-004 9.9790302435414212e-003
      -2.2395756711376842e-003 -5.1219160891731202e-002
      5.2866627561256825e-002 -3.6520730795144181e-002
      -1.8481593333214879e-003 3.0554022055238762e-002
      4.2720071305559860e-002 2.4449928601984128e-002
      -2.9862996966960038e-003 -1.5862524242079550e-002
      3.0626838107295145e-002 -4.4641714043070956e-002
      1.8912419069943309e-003 2.9518498032485303e-002
      -1.9948478092734871e-002 -4.9464643426261688e-002
      2.4499651268132420e-002 2.9840226135819100e-002
      1.3566135759383580e-002 -1.6106017920879640e-002
      -1.5798216577258866e-002 1.8838981928367006e-002
      -1.6258471735710656e-002 -1.6841762434263441e-002
      4.1928603446957265e-002 1.6107256282256387e-003
      -2.0230025216788641e-002 -2.2506391351298453e-002
      -3.2470496973902384e-002 -5.6655555627456597e-002
      2.2937369445347505e-003 -1.9015021873779219e-002
      4.8004806200708537e-002 -5.1552621468293820e-002
      3.4410132970986601e-003 -1.3764100030990883e-002
      4.0411503677178400e-003 -7.1484525124571579e-003
      -3.8054819491273782e-002 3.1150146372553329e-003
      -1.9195428923651892e-002 5.1554747709608363e-002
      -8.8178351998501589e-002 1.4708457670484848e-003
      -6.6108292841576656e-003 1.8412368465713431e-002
      5.4913215717677204e-002 -4.3144106570668507e-002
      3.4059604282862317e-002 2.6768450767483852e-003
      1.3525943472245927e-002 -2.6727907898062158e-002
      -3.6489675845314200e-002 2.8689782373824080e-002
      3.7401499601601100e-002 1.1733805281201550e-002
      4.2292822009057193e-002 -1.6634741458110971e-002
      3.1595648370411747e-002 3.8140178900249316e-002
      -3.4845924442606514e-002 -3.3818436567598635e-002
      2.3533424022854795e-002 -3.9099188321355414e-002
      8.7326904325010821e-002 -4.2270546581664847e-002
      2.6389452304924607e-002 -8.6476946189062050e-003
      1.7271006419481479e-002 2.3813044339867875e-002
      1.5039514957612934e-002 2.8070141939211344e-002
      -2.4747736579943801e-002 3.5354548048946527e-002
      -3.1373449703726727e-002 8.2408503831033486e-003
      1.3328572278007851e-002 1.3104164149027899e-002
      1.8268239342721343e-002 1.4332197177739557e-002
      1.8974465005022591e-003 4.8145460693548907e-002
      -1.7529555411732445e-002 -9.9329407003529852e-003
      4.8792600688820839e-003 3.2605781288086674e-003
      -2.4517779608165563e-002 2.8118319077594604e-002
      1.8401150702050752e-002 2.1356620277203048e-002
      -3.8224424781656193e-004 -2.4853291277501671e-002
      2.8045478880233989e-002 -1.9537885340292022e-002
      -4.1610166757893828e-003 2.8631890576187570e-002
      -2.4674208764520946e-002 -1.9307879811477288e-002
      7.0708105551419128e-003 -3.3203384456150023e-002
      -5.1267163961093501e-002 -1.0078937787602301e-003
      -2.9120423125119834e-003 2.7481984834998842e-002
      -4.9070437519774614e-002 8.3560236244382166e-004
      -9.4282637853526068e-003 1.0184649721294311e-002
      -2.4156014023321785e-002 -4.5532153946862233e-002
      -1.1712763898169424e-002 -1.5296276541533009e-002
      1.3572823345317364e-002 -5.4286647767019240e-002
      -5.4356392067313932e-003 8.8262584325733678e-003
      -9.7185001269687124e-004 5.3525749034128121e-002
      -2.1974990656827811e-002 3.5860755020949264e-002
      -1.3212540336036848e-002 1.0971682308251362e-002
      -9.1811617962895518e-003 -1.5849942793084298e-002
      8.7266436887496832e-003 1.6394361146403334e-002
      -6.8255337393576896e-003 4.6449205313444500e-002
      -1.0175581423548678e-002 1.4478425465784924e-002
      -5.9091884625505796e-003 -1.3780337685009216e-002
      -2.4625833920094101e-002 2.7764960622005654e-002
      -3.0270582427164655e-002 5.9830624551478202e-002
      -1.9992379536133215e-002 3.0024099569037764e-003
      -8.2575433234009180e-003 2.1564962503082524e-002
      -2.2439364348220540e-003 1.9475230875339467e-002
      8.0287307490514298e-003 -6.0013655035786373e-002
      3.6951558385121944e-002 -2.4909629252350893e-002
      1.4749494037625580e-002 2.0486279007591882e-002
      1.0096233843532023e-002 1.4199009492674686e-002
      4.7710683990625992e-004 3.1231090660194150e-003
      5.3045611488712258e-002 -2.1707023991898656e-002
      -5.6510581707990195e-003 3.3110047418910771e-002
      2.0387904048925164e-002 -2.8491395843582450e-002
      1.3934224918474436e-002 2.9039208802685384e-002
      4.1086777547229565e-002 3.9208292381688048e-003
      -2.9682192892984280e-002 2.6918250377895903e-002
      -2.2581939969763723e-002 5.7517195458569410e-003
      2.3348379970790537e-002 -2.8173898327364052e-002
      -1.8178330436161651e-002 -6.6004666172594798e-003
      -2.7224629288642953e-002 -4.3669791589228291e-002
      -1.1955043139358822e-002 -7.7788215522109098e-003
      2.6632136809227967e-002 -4.1074254974698840e-002
      -1.5012748906439528e-003 -1.3251136412193033e-002
      1.2952278959926238e-003 -8.9763105097319731e-003
      -4.7135237274894971e-002 -1.0867491355720271e-002
      -4.7886847135486695e-003 -1.2871662487860334e-003
      -5.4342846647145462e-002 1.5662134268522134e-003
      -3.4552535521014584e-003 1.5779571753348858e-003
      6.3701133464177565e-002 -2.3086423071588022e-002
      3.1992336305519058e-002 -1.5234712633629060e-002
      9.0068630937054240e-003 2.0160319920285558e-003
      -2.4108590640070111e-002 1.6832569841546671e-002
      -7.8305424517479180e-003 3.0490177837715357e-003
      2.8054107959061006e-002 6.5161930389147100e-003
      2.6144051568692359e-002 -1.5549811071958906e-003
      -4.9881350742604002e-003 -2.4405930310529546e-002
      3.1616643912989420e-002 -3.5776019392511210e-002
      6.8530488035079454e-002 -6.4743560729207776e-003
      2.3025993593646164e-003 6.1471597370217988e-003
      2.9115387875792240e-002 -1.7609339023547235e-002
      1.1600581345060815e-002 -5.6236409884344680e-003
      -3.7928093682842723e-002 3.6776843708316513e-002
      -2.3978545863010643e-002 2.7592135220525279e-002
      1.9650643327580250e-002 1.7041961254454834e-002
      -1.5612876385669712e-003 5.5530143142500515e-003
      4.7713769761223235e-003 4.7764292062326977e-002
      -1.4408161438181688e-002 -8.9781944356927164e-003
      2.7664669803264375e-002 1.9644782942728603e-002
      -2.0144235933556760e-002 1.1532178179809564e-002
      1.8686514415636572e-002 4.4851277695351736e-002
      -4.9746438869336621e-004 -4.0154034277261677e-002
      1.9486531736016988e-002 -9.1100215548640152e-003
      9.3308267473857752e-003 -1.0716271028441639e-003
      -3.1938964860922535e-002 -1.6950986831729006e-002
      3.7966756564100593e-003 -4.3098841498634702e-002
      -3.3546306327892933e-002 -1.7187656210367885e-002
      -1.2438707585634735e-002 9.3376395511599441e-003
      -1.4391027350263758e-002 4.5932633319453482e-003
      -7.6196134943859392e-003 -2.6941083745996562e-003
      -1.6939012526962761e-002 -4.8444755505710750e-002
      -1.1433017585916951e-002 -1.4421147729392710e-002
      -8.1355269797910674e-004 -4.0742462572468351e-002
      -7.4156399664251677e-004 3.6125425515826258e-003
      -1.4743747796667744e-002 7.4615258363816481e-002
      -1.6194253606193171e-002 3.6162797810127927e-002
      -1.9323964750477096e-002 2.2103189285150558e-002
      -2.1680965445658711e-003 -5.2876301185951239e-003
      -3.1427118757508710e-003 -2.1791113786084934e-002
      2.0948124815138641e-003 3.5651386205388713e-002
      5.8393612668730293e-003 2.0516506942077739e-002
      -7.4629912409465678e-003 5.9887228607563873e-003
      -1.9722459903203877e-002 1.8977683762361534e-002
      -2.2358010866462143e-002 5.3511210602640587e-002
      8.0018758934983381e-003 -3.4623517526072315e-003
      4.5916199213931639e-003 2.7115161420259475e-002
      -3.1669229346115171e-002 -7.5567281189061431e-003
      -1.8267853618274531e-004 1.8519583924965343e-002
      3.1985696294229184e-002 -2.0062406543457090e-002
      4.6389700367680767e-002 1.3264782727441665e-002
      -4.8657053381694097e-003 8.6153743908878051e-003
      -1.6836918869883283e-002 2.0328894960620215e-002
      3.8141901419048690e-002 -3.1603235425070417e-002
      9.3913393518682432e-003 5.2377726320397007e-002
      5.0816405790844593e-002 -3.5555643911338364e-002
      1.5853568716439642e-002 1.9318707686873906e-002
      6.5841035210851384e-002 1.1394815280389443e-002
      -6.3974078598129272e-002 2.4108496740092270e-003
      -6.0514274930723779e-003 3.7310063989462313e-003
      -1.2609181944661400e-002 -1.9119178000915036e-002
      -1.3870693873502978e-002 2.2918981568684306e-002
      -3.1569320345095811e-002 -1.8697839955121816e-002
      -3.5202851219106527e-003 -7.7745923081315596e-003
      9.1934327572427282e-003 -6.8610282638037236e-003
      -1.0020250912423092e-003 -2.9299670224926517e-003
      6.9563390040099969e-003 -3.8325118725588640e-003
      -3.9069718645000681e-002 -2.0030807968048337e-002
      -2.6454408572392785e-003 -1.4253272894134408e-002
      -1.9205796911954821e-002 -1.6468792670988601e-002
      3.4872320770366672e-003 -4.5144385704701430e-004
      5.0331361456068251e-002 -2.5509118284757264e-002
      3.4462313217940806e-002 -1.2729413203952256e-002
      4.4149303134229257e-003 2.8262889697441758e-004
      -7.8143347968666755e-004 -1.9816256113463587e-002
      -3.9796335818768243e-002 4.0544944230502350e-004
      1.7629461932860462e-002 5.1547214718179780e-003
      2.0711100377088603e-002 1.3596394062890837e-003
      4.0502265354750093e-002 -4.8380905969492936e-003
      1.3195098118490419e-002 -2.5536750414699074e-002
      5.1644717822941451e-002 9.2431159586448507e-003
      -1.0141574675469353e-002 3.8643372917459749e-002
      2.3285571998097904e-002 -4.8696686379904076e-002
      -6.3315833392728563e-003 -1.6938122970850965e-002
      -2.0081492939217793e-002 2.7570278028275153e-002
      -1.5110688236115459e-002 2.7287516818379216e-002
      1.0627278281669542e-002 1.6598096675682829e-002
      8.5872989998737725e-003 3.9173328981819571e-004
      1.3314439199666267e-002 -9.6245589909664010e-003
      -3.1950506616197138e-002 6.4714642287643856e-002
      3.9127157506417175e-002 2.8996081400977126e-002
      -3.5571637673497324e-002 2.0404766231719527e-002
      2.1311068704528167e-002 4.7011721226390628e-002
      6.4450566172053044e-003 -4.1537315578264795e-002
      -5.2613025794752903e-002 -1.0281045184690295e-002
      -1.9474697426305483e-002 1.3407953050675806e-002
      -1.9970509159271923e-002 1.7658947694340877e-003
      2.2746366668106453e-002 -3.7019079181805914e-002
      1.8605731379939670e-002 8.1626592721224748e-003
      -9.9764834354869898e-003 3.1627164098228876e-002
      -7.3787871756957318e-003 -9.7173468252782270e-004
      3.7518527669042109e-002 8.8553531171737428e-003
      -2.9814368890117998e-004 -9.3679428726173176e-003
      -1.0737502561035577e-002 -1.1015889534260845e-002
      -1.4575392186996546e-003 -3.3515236718372317e-002
      -1.8643167047374148e-002 8.6859952915228011e-004
      1.7638252929974743e-003 4.1929796888464814e-002
      -2.3642094849757718e-002 8.9228807942979462e-003
      -7.2801326264897983e-003 5.6389290639725946e-003
      -1.7710389584038044e-002 -9.8782320035352422e-003
      -4.7596644732279345e-003 -1.1351453808336893e-002
      -4.7664824122978467e-003 -1.7147052359880500e-002
      8.0518478117784821e-003 2.5659905230933529e-002
      4.4521220553763435e-003 4.7077123838265645e-003
      -1.3026045495348363e-002 1.4435568795141821e-002
      -7.4014189921307941e-003 5.4504001940703012e-002
      9.8473325119762013e-003 5.3317977911376685e-003
      1.8178334666760540e-002 1.8063201871714760e-002
      -3.8402112603527654e-002 -1.2459794524934920e-002
      -6.6247172054833573e-003 9.8517868876633857e-002
      2.2685958033429852e-002 -9.7434133767948898e-003
      2.3542141371476220e-002 1.3272383346578367e-002
      -1.7768399255997098e-003 1.1266685933095009e-002
      5.5811702959596629e-003 1.3064505212935186e-002
      -2.9010444089549569e-002 -1.8532631331281926e-002
      9.2199142858863145e-002 2.3395750625770519e-002
      3.8595908539952359e-002 -3.9308820637413214e-002
      1.2516718902728980e-002 3.0273684356286361e-004
      2.3975656573904467e-002 1.4978841412003591e-002
      -4.8377899351227854e-002 -8.4154878096672811e-002
      -6.2583777243268171e-003 -3.3066880218593483e-002
      2.7843492792203263e-003 -2.0607966276554448e-002
      4.5603950167418987e-003 2.2698280732349880e-002
      -2.2784301187434748e-002 5.7344053354724131e-002
      3.1125701532020645e-002 -1.1155305068341153e-002
      3.5024673755375865e-002 5.5846529571658048e-003
      -8.0198927284002436e-003 5.6285115462395958e-002
      4.0961553022040983e-003 5.5973725494093858e-003
      2.2974395733002567e-002 -1.2750551440182179e-003
      5.7258799860940828e-003 -1.0062805032796940e-002
      -2.5569093506267786e-002 -1.9131150887309444e-002
      -3.3501340321019173e-003 1.2993454844187716e-002
      1.1470709486601678e-002 -5.3084526887382896e-002
      -7.7951969871885582e-003 -2.1072370981924472e-002
      7.9179520735619437e-003 -1.8756684588546995e-002
      8.6766815018382414e-003 -1.1247571004552512e-002
      9.9467238007779003e-004 1.4976068474093381e-003
      -4.2454896157834550e-002 -9.4846044909747459e-003
      2.3054675495066242e-002 2.4280806306583871e-003
      1.1407046909190404e-002 -6.0818335661904990e-003
      2.0408548558460464e-002 2.0224848315710062e-003
      2.6131199293130052e-002 5.5916920351518290e-003
      7.3337285977709329e-003 2.0473915864085805e-002
      1.3691457657549761e-003 -3.5696922639940322e-002
      -1.0461482327756127e-002 -1.2248041100633912e-002
      7.9732631039699312e-002 1.5508168034510647e-002
      -9.8547141716043511e-003 1.0289555894513153e-002
      8.4826511896376241e-003 4.1436191773357479e-003
      8.8859599681288311e-003 7.3242286164330022e-003
      2.8131309809020398e-003 -4.4177930786278984e-002
      -2.1021641712316484e-002 1.0553645739598114e-001
      2.4184386628737117e-002 1.6693578278143103e-002
      -3.3870688566700953e-002 2.3139791304899147e-002
      -2.7592993995391966e-004 1.7758145742852227e-002
      1.1255451323607524e-002 -3.4428329969578904e-002
      -9.4720850816423924e-002 -8.5169285296892560e-003
      -3.6187839606311278e-002 8.2682351711560048e-003
      -1.3302742062688458e-002 6.0818740763305692e-004
      1.8527916626152562e-002 -2.2131805929979955e-002
      6.4554667608850452e-002 2.9619086757990354e-002
      -7.4834808397257722e-003 2.7417223147844720e-002
      7.4619441022138354e-003 -5.6178512322217818e-003
      6.4359924174236541e-002 8.5115157379784655e-003
      -6.0954900051759147e-003 3.5235303978086947e-002
      3.6697465567741513e-003 -6.9980783188015802e-003
      -6.7304803529349604e-003 -3.4374390578273614e-002
      -2.7357573891211649e-002 1.7871383950527611e-003
      9.7961764445974077e-003 7.6897394124560130e-003
      -4.3629616752248288e-002 -1.2594645909351691e-002
      -1.1349766245433815e-002 9.4918816448020821e-003
      -3.8136583896798699e-002 -1.0593458529998667e-003
      -1.1907337897049652e-002 2.0280143150457140e-002
      -8.3806276494075135e-004 -4.1777614548454717e-002
      -1.5926588608254477e-002 2.4564465317105610e-002
      9.0975870370561939e-003 1.9376965010181070e-003
      -1.2122097141935276e-002 2.0091313569925193e-002
      5.0340063740737795e-003 3.5301753654831750e-002
      3.6140876779470429e-003 1.7109931407775020e-002
      1.4676915264155889e-002 9.5820115750566562e-004
      -2.0273275447755722e-002 -1.2893768991198262e-002
      -5.1542381015456870e-003 1.2745634089616492e-001
      -9.0019727421753598e-003 8.9716313087666207e-003
      4.8577766606152564e-003 -8.3440938814843401e-004
      -1.2868394631223223e-002 7.6775761424541736e-003
      2.8822585033557432e-002 1.9405335187177426e-002
      -3.3170888482449569e-002 -5.7421132119397636e-003
      8.5220346322306517e-002 -2.0001655408323181e-003
      1.3175894536940685e-002 -9.8454052411573543e-003
      3.4267826152893838e-002 -2.1217878589904780e-002
      3.1415290435219101e-003 2.5505071059589931e-002
      -2.2936191416279506e-002 -8.4197403306618748e-002
      -1.6669626996952441e-002 -1.6742579710241325e-002
      4.3718113323547268e-003 -2.4982189588843878e-002
      8.2945609640342789e-003 2.8057924436101056e-002
      -1.3629772593065278e-002 4.8586599811028010e-002
      4.0501302770744395e-002 5.8967830165599011e-003
      1.5501914025273135e-002 1.1148678622309283e-002
      -1.5067962192806234e-002 6.7454063708424231e-002
      2.0018090693179683e-002 -2.0319284594000064e-002
      3.6229833711625720e-002 -1.1501389602796570e-002
      -3.5492269308904853e-003 -2.4946055754511261e-002
      -7.9998805433698118e-003 -3.3247657977440129e-002
      1.9754726828625124e-002 -1.1752910041183208e-002
      -8.3523031308070195e-004 -1.8580232562139486e-002
      -1.9162865084587321e-002 -2.6941090638765663e-002
      5.9894504432320989e-003 -2.0976252763462076e-002
      1.9236751954028963e-002 -2.0194633171279914e-002
      2.4861702733740301e-002 -1.2478397886654275e-002
      -2.5070510881142375e-002 -1.5437769686292093e-002
      9.6383109909769071e-003 -2.8401036642588098e-002
      2.9915698619132156e-003 -7.8533023832149176e-003
      5.9234973633706042e-003 1.3314491755564057e-002
      2.5562867726413779e-002 -6.6269487120708132e-004
      7.0684669790032134e-003 -1.3570249133592679e-003
      -1.3223377606273809e-002 -2.0087812521082757e-002
      -1.2650811602623050e-002 -9.9605918971358565e-003
      1.2185649547473135e-001 -4.4898795762392848e-004
      1.8428930447248717e-002 -1.1297629136125234e-002
      5.2056579863541692e-003 6.9933072038436935e-003
      1.1408245810016284e-002 2.7185881776612742e-003
      9.2123541719264547e-003 -4.0393221933263661e-002
      -1.4145507513150121e-002 7.5040216374467630e-002
      1.1716780371460870e-002 1.6042831107746486e-002
      -2.9657545722439959e-002 4.5472013446555944e-002
      -1.0523574122954257e-002 -1.0473391843342839e-003
      2.5068547856865755e-002 -2.7022422690027643e-002
      -7.5783809894169538e-002 9.3335741063903972e-003
      -4.6010378714547495e-002 1.0042421410063613e-002
      -4.9584646864508719e-003 -7.8530966637611150e-004
      2.1987216335946729e-002 -7.1153633437308758e-003
      3.3759661860587820e-002 5.3905473697282290e-002
      1.0173719941194505e-002 1.6376714941637220e-002
      9.4608238223921858e-003 -1.8966120541994969e-002
      6.3941188280643851e-002 3.0585717670947681e-002
      -1.5366357545217299e-002 3.2836615386611749e-002
      -2.3012182755184130e-003 -1.0430670281897286e-002
      3.0206894697333776e-003 -1.8029578821729182e-002
      -3.6832541710118898e-002 9.0815403026442074e-003
      1.6173558476742234e-002 -2.0262566489673003e-002
      -4.0734778330877804e-002 -9.8430728219423471e-003
      -1.7033228195326301e-002 -7.8054250144836456e-003
      -3.5720340826237575e-002 1.1295494091026974e-002
      -5.2703759046314729e-003 3.7646551154054707e-002
      5.4000671901884153e-004 -2.4815875055887896e-002
      -3.5639231060052456e-002 -1.4761073709641896e-003
      -7.5610943194016822e-003 6.4260426816359882e-004
      -1.8815754988102062e-002 -6.1252129469541823e-003
      7.2944779549801919e-005 4.3631099771682835e-002
      -3.1214917704712419e-002 1.4769464173254343e-002
      1.1996177792394881e-002 -2.7612943836023640e-002
      -3.4682852170985568e-003 5.2949738714769545e-003
      -6.2737746228667445e-003 1.3702097088772830e-001
      -2.2011201853902786e-002 2.9311076012396554e-002
      -1.4280075814186586e-002 -1.9683791453075088e-003
      -6.6467399974111108e-003 1.0894079195187645e-002
      1.1021079617357663e-002 1.1342925844927564e-002
      -3.8233642226310684e-002 1.3273616103856110e-002
      3.4722067994054660e-002 -2.1010049584791985e-002
      2.5910112527047540e-002 -8.3159005524339070e-003
      6.0500028574364560e-002 -4.3809724869333773e-002
      -6.1906352903726425e-003 3.9144126906045379e-002
      -2.6991467543206367e-002 -6.4007713741186606e-002
      -1.2782295516787036e-002 -5.4761084046789912e-003
      -2.1990355176077581e-003 9.2165364732491766e-004
      1.1267093851189457e-004 1.7851099672139194e-002
      -1.3046332255723032e-002 3.9029744009631689e-002
      4.2364396090661956e-002 3.2265101741756869e-002
      -7.9809347161247900e-003 1.9873416303089194e-002
      -3.1208718464001931e-002 4.9481927592341837e-002
      2.6836525494773739e-002 -5.3597565005801991e-003
      4.6260335456346870e-002 -2.3670211296780909e-002
      -2.2809831278825469e-002 -1.3970631726834869e-002
      2.4894272658038757e-002 -4.7822189321462760e-002
      1.3927776804961493e-002 -7.9998585643314864e-003
      -8.7462140244741297e-003 -2.3531029746687230e-003
      -6.5793160551878664e-003 -2.3269469637899155e-002
      7.7946936718901018e-003 -1.6435815254457982e-002
      2.9579810660466554e-002 -2.7260874155236443e-002
      3.5790423805425908e-002 1.6735628740544744e-003
      -1.3485934890858269e-002 -1.9167372379686451e-002
      -1.3056701658687784e-002 -4.6920449598313409e-002
      1.5082033457652567e-002 2.4788133322479313e-003
      -4.0146542045673736e-002 1.9395095457715956e-002
      1.8663417118855233e-002 -2.0505952815589850e-002
      -5.9380927714160453e-004 -7.5918089744143760e-004
      -4.0474406544209966e-002 -2.8825464157346645e-002
      -3.8919462561426382e-003 -1.7888196265421520e-002
      6.7192508644432394e-002 -2.6814726614809124e-002
      1.2195698611209014e-002 1.0159286317759652e-002
      -3.9109208476103205e-003 -8.7088482700634490e-003
      -2.1535062312383047e-002 2.0926877960413497e-004
      -7.8609591573912518e-003 -1.0879959644685818e-002
      -9.7067719235356103e-003 5.7293870007989231e-002
      2.5752495342192469e-002 1.9486329650029392e-002
      3.1162886066612599e-003 4.8999788751756647e-003
      -1.9951150728766479e-002 1.2943899676068238e-002
      9.1216387187848733e-003 -3.1410681580925524e-003
      -4.1716501044809957e-002 -1.7877754136980201e-002
      -9.5910014654637370e-003 -1.8117432610507685e-002
      -1.6551369570195731e-002 -2.3653779996063336e-003
      1.5503423852744535e-002 -1.2949869048109330e-002
      3.5148923266436150e-002 -2.6969148196977540e-003
      -5.6588859931423294e-003 -1.3900955144912736e-002
      2.9987104850789207e-002 -1.1640033518286212e-002
      4.1149730588270407e-002 4.2359837100119447e-003
      1.0913159554084510e-003 1.9309026060920480e-002
      -5.3244919128134695e-003 -9.5122639027501264e-003
      -2.9864589034624477e-002 1.2369951691960850e-002
      -2.6944711123783261e-002 6.2852084289628154e-003
      -2.1678512852905875e-002 1.2495012575469082e-002
      2.5521980771895644e-002 -2.5684297467345706e-002
      -1.6277530398144082e-002 1.6913980738739218e-002
      -2.3320451442765507e-002 1.1432632980482348e-003
      1.6441743736136162e-003 1.1233345800344036e-002
      6.6856778841316898e-003 -1.3449770222072469e-003
      6.5140480808765456e-003 1.8086987398373226e-002
      -4.6572074433498976e-003 8.5160230470833643e-003
      -8.4679237930523326e-003 -2.2168396074416789e-002
      9.0491695734888839e-004 5.9148669174227337e-003
      2.5566545726036664e-002 1.5097872924408430e-002
      -8.5379023032396591e-003 -8.9554267818488936e-003
      6.9572887698014308e-003 -3.3034853570309781e-002
      -8.2491362379617586e-003 4.7375064967186256e-002
      -2.9183048907112017e-002 3.0164897523706297e-002
      5.2525139157441388e-003 -2.0748285836491534e-002
      -4.7547776946894648e-003 -4.0570150455391273e-002
      -2.2947374332065146e-002 1.1293950112935727e-002
      -2.5047093408897488e-002 1.7862902944542791e-002
      2.7485961419283455e-002 3.3228864499949988e-002
      -3.6098389164028954e-004 2.7085299078743459e-003
      3.3228367393486643e-003 1.8529400246363285e-002
      3.4040668882008511e-002 2.4182553263303014e-002
      1.8060241130734296e-002 -6.1988255602302110e-002
      2.8511373685921530e-003 -7.5386450128611887e-003
      -5.4377063224814670e-002 5.2763144080481524e-003
      2.2006778437281365e-002 2.2533474505577793e-002
      2.6452608938858285e-002 4.1400413617557752e-002
      -3.6645386045131408e-002 -2.9500110172751728e-003
      -7.1340947537576402e-003 6.5042374837335243e-002
      -3.2773536008441656e-002 6.2384494531918279e-002
      4.8125711953658327e-002 1.0095435253912009e-002
      3.1185606327180905e-002 -1.4484547039455080e-002
      3.8834284615710678e-003 -3.8545818303298507e-002
      6.1875444020239846e-002 -4.0149093927259308e-002
      -2.8528944672111446e-004 -2.1790365477354735e-002
      -1.5382415853586155e-002 6.0639953049126685e-002
      -3.0874587212885232e-002 -1.0075720362029012e-002
      7.1235703729523913e-003 4.5359978895396051e-003
      2.4729643907468655e-002 2.2906560577850940e-002
      -5.2894994593806019e-002 1.9149186098173683e-002
      -5.2013922661860591e-002 1.9892650437842451e-004
      4.7515261928685951e-003 1.8371218700963657e-002
      2.1202350586521024e-002 1.4045829365435315e-002
      -4.9097958893698411e-002 1.4937654997915498e-002
      -5.3473422138085598e-002 4.4154789474256356e-002
      1.5866710425245199e-002 2.9078608450992218e-002
      -1.4428157311854926e-002 4.5572001545078882e-003
      -6.1840466699917647e-003 -1.3827536594522570e-002
      -8.5760750605156283e-002 -1.6079995863560070e-002
      2.9992932327311258e-002 -6.7887826205523458e-003
      -1.1914836227149152e-002 7.5825280433965525e-002
      -2.7647572315712160e-002 3.4525264139273083e-003
      -1.6994693725174530e-002 -3.2788867961160983e-002
      2.7051918902416108e-002 2.3109149052790028e-002
      9.0564897159565640e-003 -3.6529289358793515e-002
      -2.2147559757491480e-002 -1.0544708525392674e-002
      1.7820099544069233e-003 2.7195733924011423e-002
      5.5297589759960852e-003 3.5354914707892149e-002
      -5.6068539407509166e-002 -2.8801689287333735e-002
      2.3553550857956813e-002 -2.2392335014555658e-002
      -2.8624107550662560e-004 2.9678357853346223e-002
      -1.5382727893968240e-002 1.1540774695677642e-002
      2.8318126395434382e-002 -2.8588732150851087e-002
      -4.2133250624541273e-003 1.3522278822649378e-002
      3.8886509482147252e-002 -2.5541773654864069e-002
      4.7168883843826899e-002 9.3261837489385293e-003
      3.6272489884228855e-002 1.3625571639695846e-002
      1.3039320843165730e-002 -2.7145028754127594e-003
      4.2782250197783995e-003 2.1850543827672476e-002
      -8.5024218613185924e-003 -1.3634491028828648e-002
      8.3376067029803415e-003 8.9932218754898083e-003
      5.3014414261864054e-002 -3.0744141617840923e-002
      3.7641034670769496e-003 2.2944204671492413e-002
      2.1886187181626486e-002 2.1212496674128400e-002
      5.5187453403946762e-002 -3.2031812011525614e-002
      1.5051335239848177e-002 -3.4918625030417795e-002
      1.7432275031687448e-002 1.9508732315981984e-002
      1.7307612838682197e-002 4.7287733201468898e-004
      1.2711620589862941e-002 -3.1825273739149854e-002
      1.1743798400871221e-002 -4.0021254696082045e-002
      1.8767897567332111e-002 2.2995326304081996e-002
      -7.0670758098957181e-003 -3.5054968233617527e-002
      1.2990630308622320e-002 -3.2331483402364802e-002
      -2.2215350639268982e-003 -4.6789493697921621e-003
      -4.4294990888884824e-003 2.7137525926839360e-003
      -7.8663643944641373e-005 -4.6836504848198068e-003
      -3.4498204770849906e-003 1.2180863294188823e-003
      -4.2906359919444295e-003 -1.9449909752313917e-003
      2.9909704882622547e-004 1.7768484712696012e-003
      3.9951902542655028e-003 1.1874384443957414e-003
      3.3425340597871046e-004 3.0630592397158430e-003
      1.1239385831826195e-003 -2.9405788540911868e-003
      -3.2177526068619768e-003 3.7767380277239546e-003
      -3.4675452741078131e-003 -8.9219784239875455e-004
      -5.7023583401520390e-004 -2.3245408346488127e-003
      7.8861987990807984e-004 -2.6117477508819918e-003
      4.4356991975370123e-003 -3.5855366667424528e-003
      2.4216811053808522e-003 2.4287684686802964e-003
      2.7077570236381881e-003 4.8927980192230418e-003
      -5.0627460253129214e-004 -8.2243414458874661e-004
      2.5728529540919236e-003 1.8187054090596007e-003
      2.3956193096730220e-004 -3.8636385632149460e-003
      -4.8682135780117337e-003 -4.1984235093635398e-003
      -1.6803219807217668e-003 -3.4061417460952799e-003
      4.9303575057924555e-003 1.0322625298978313e-004
      2.2275771015580078e-003 -2.5292348987189981e-003
      2.4335818592757185e-003 -4.8476726635895678e-003
      -1.4213231652305465e-004 -1.6844398816169908e-003
      -4.0788173174394958e-004 8.0061329825606268e-004
      4.2907483303621201e-003 -3.8245926103690848e-004
      -2.9161431362819887e-003 1.7391460107321741e-003
      -1.4994083285473103e-004 2.5491722647163068e-003
      -3.3439278421429734e-003 -1.5079500660636924e-003
      2.4652123616214494e-004 -3.3589499216226193e-003
      4.1785198447804881e-003 2.3784550632362369e-004
      -3.3128719365588854e-003 4.1467892886423519e-003
      4.5300244791053922e-003 1.5730352711142497e-003
      4.2464399949260689e-003 6.8564299380608927e-004
      -4.4734233043846102e-003 2.3035674316445368e-003
      4.0542044688994441e-003 -2.2050087471490033e-003
      -3.8082310452576267e-003 -1.3242387019078762e-003
      -8.5703240788172620e-005 4.1790232745207305e-004
      -4.3859117789445184e-003 -9.7886432217794654e-005
      3.8096315466101534e-003 1.3166832152260739e-003
      3.9001798040830911e-003 -8.7691322855022106e-004
      -2.2334106748155705e-003 2.1387270353332272e-003
      9.4741477303509898e-004 3.2776809843691524e-003
      2.5597349874420259e-003 4.7629358835966406e-003
      4.6522053134242366e-003 2.1436730477212740e-003
      1.3837672011595039e-003 3.9629123883329681e-003
      -3.4570566913050115e-003 -7.3036556521611780e-004
      1.8337400409721544e-003 3.0219425674972073e-003
      -1.5074255485661866e-003 1.7534316582259201e-003
      3.9830719100564715e-003 -4.5698646951901822e-003
      -6.9498440742623939e-004 9.0902932686618668e-004
      -2.9508905783461525e-003 9.8938735833807253e-004
      2.5705384226829189e-003 -1.8384329511515489e-003
      2.8037539685193034e-003 -2.3221290729142862e-003
      3.6590683656271641e-003 4.4210986381445945e-003
      -1.9563056610467072e-003 -8.4975820291929469e-004
      -2.1582372773941076e-003 1.6586959104027824e-003
      -2.9541098831063002e-003 3.1393123480079883e-003
      -1.4527274982215194e-003 4.2888376479896214e-003
      9.1682784693748233e-004 4.1888922583394831e-003
      1.1607947752610202e-003 3.6248578324600653e-003
      1.6688871508270067e-003 -1.1319837821455296e-003
      1.4170945042756451e-003 3.7609660191393344e-003
      -2.2091600413880314e-003 3.5484135709873761e-003
      -3.1486441220529905e-003 -2.4051165621599921e-004
      4.2556117191602134e-003 -4.5844282996170055e-003
      -3.5405616062984678e-003 -4.3628375376788212e-003
      1.7787263956908312e-003 -3.0177816311435205e-004
      3.0163448924826496e-003 -1.1833579501520056e-003
      3.6598303789603316e-003 4.0435933906859513e-003
      -2.0736736152141746e-003 1.0241277492315265e-001
      -3.9346089643141589e-002 5.4072690308465683e-002
      -9.4441320984019722e-002 -4.2505504334374528e-002
      -7.4957568307850955e-002 -2.5310881523278650e-002
      3.8263544306163286e-002 -2.4732955555575586e-002
      6.3804204815039012e-002 6.1033006702156403e-002
      -1.2223782713303091e-001 -6.4103470192628784e-002
      -2.7722821862311165e-002 9.1272078407998072e-002
      4.0794965209577677e-002 -6.5183706473809194e-002
      -6.2331248278706411e-002 -2.7842091113930902e-003
      6.9452804313627658e-002 6.9071152422937251e-002
      3.1503658836043870e-002 -1.2556950232316937e-002
      -7.2748467260098180e-003 7.7361599539752619e-003
      3.5585333741661118e-002 -2.7687526149187649e-002
      1.8183649122520244e-002 -4.1359493855912546e-002
      5.8624952885032056e-002 4.6682782599801943e-002
      -8.2364507129036341e-002 -2.4804143773064540e-002
      -1.3081123810832812e-002 -3.4647922225566688e-002
      1.6990905740578419e-002 -3.2514270066943858e-002
      3.7393662736347262e-002 -4.2923805403202571e-002
      -3.8421787081345596e-002 1.2743601962268669e-002
      3.4752921706522208e-002 -1.3957137062242268e-002
      5.7567083499562084e-002 -6.1877183424619280e-002
      -2.8145498518128306e-002 3.1396721156772514e-002
      -2.3692486875127827e-002 -1.3222923448562005e-002
      1.0108543044190441e-002 -4.0098513653254578e-002
      -1.0770111301143090e-002 5.8885504861065495e-002
      5.5755859492946820e-002 -1.6249763154350137e-002
      5.3982892909885435e-002 -3.2439619345064903e-002
      -1.0058486963395220e-002 -4.8139981485506175e-002
      -1.9742266853663478e-002 1.1816368032458337e-002
      -9.6842102759675169e-002 5.4542582354391640e-002
      -9.9943769220245088e-002 -1.5322953700603678e-002
      1.1325133914737461e-002 -1.4978605632781775e-001
      -4.7944567749033697e-002 3.3567506990975451e-002
      9.1284617857216171e-003 2.7850466920234664e-002
      1.3650422574847607e-001 -3.6380946698136650e-002
      3.2912897223308528e-002 -9.8758883618524390e-002
      -4.2849276943120490e-002 -4.9879487144066009e-002
      -1.3961429849142757e-002 3.9167534989088218e-002
      -1.0995370138443289e-002 3.3225163511353663e-002
      4.9319868948875085e-002 -8.2745700429748797e-002
      -6.7163446666201360e-002 -2.7765532509921271e-002
      8.3749931125962476e-002 5.6060984023964436e-002
      -3.0250866920439094e-002 -4.9533944302748663e-002
      4.5489083826028912e-003 6.0460994577493966e-002
      3.1702595655540233e-002 6.2801087846402854e-003
      -1.8506300603199539e-002 -2.7271362218368269e-003
      1.0283402102973611e-002 4.4762935495438368e-002
      -3.0616505125543741e-002 3.3850095119277658e-003
      -4.0990095341562345e-002 6.5611247154433089e-002
      4.6418849039543186e-002 -4.6180612589964261e-002
      -1.1531562010496906e-002 -9.7208394818308983e-003
      -1.3580487339390077e-002 3.0763585379950515e-002
      -4.2384257674614088e-002 1.1702086426844505e-002
      -4.1341882390073394e-002 -4.2400403188287528e-002
      1.6747186272370047e-002 -1.0048088352126092e-002
      -2.7490713162328397e-002 4.6676927183610509e-002
      -4.4281019708895662e-002 -1.5933875341596383e-002
      2.5903439857136619e-002 -2.8158941760603334e-002
      -4.5530491830853455e-003 1.1322688044607988e-002
      -3.0095898268989882e-002 -1.8558435056082671e-004
      3.1407435940959280e-002 6.2535738435411978e-002
      -2.2019250873022454e-002 5.9726779417184545e-002
      -3.4590279481607367e-002 -4.7564320528202891e-005
      -5.7367528898990980e-002 -1.7986096415447295e-002
      2.3307317076374776e-003 -7.2872018409542910e-002
      4.5947478830757608e-002 -6.3024064790519807e-002
      -1.1545088625008717e-002 1.4606228159448908e-002
      -1.3978234610089293e-001 -1.1195606413932056e-002
      3.0997708176564352e-002 1.6535070430938662e-002
      3.1115137039894138e-002 1.7877492231336023e-001
      -1.2506049910864473e-003 -5.3077113831238197e-003
      -3.6952643980241451e-002 -1.1376285478990569e-002
      -6.1453081022305039e-002 4.0530473720368838e-002
      4.1824319035766701e-002 -7.7681861454099686e-003
      8.4144750063798249e-002 2.6419696408563315e-002
      -1.5158050149189217e-001 -4.7403394713055165e-002
      -1.1208280626734565e-002 4.8616423585008992e-002
      2.3467164851631413e-002 -6.5609123759456114e-002
      -4.4265199687497502e-002 1.4736685044757876e-002
      -6.8957288577809464e-003 1.1942592712016159e-001
      2.1498101225321874e-002 -4.4775616894447680e-002
      1.5188886433964459e-002 3.4380451405118229e-003
      -2.2793011442842853e-004 -3.4913573603671047e-002
      -5.2746272585353672e-003 -9.7982756762844875e-002
      9.6558249180485833e-002 1.5525926188544125e-002
      -4.3438329929199826e-002 -3.2362336815048895e-002
      -2.5417982276213384e-002 -8.4423210718680919e-002
      1.2102584817010469e-002 -3.5486406419580778e-002
      -7.8270906217099995e-003 -1.3884461052998754e-002
      -1.7246031703982485e-002 4.8040496427526037e-002
      -2.5553836861214242e-002 -4.7161689385242032e-002
      4.7871675331229518e-002 -2.8755749856821888e-002
      -1.6215200007637411e-002 -3.2384447495067616e-002
      1.1644895434127556e-002 -1.7755517869338450e-002
      9.9719143337559674e-003 -2.2429673262402357e-002
      -1.5163183594100625e-002 3.7043685801087115e-003
      7.8770821354846407e-002 -2.4180334399164841e-002
      1.0974458989056299e-001 -3.2909331475706287e-002
      -3.6207430365214822e-002 -6.8916649099026270e-002
      -3.2625040563403311e-002 3.2620121229802899e-003
      -3.0428320090252644e-002 1.0636202163109461e-002
      -6.7604111231009123e-003 -2.5378798269641671e-002
      -1.3390665911229335e-002 -9.1104936017122828e-002
      4.3304023658644270e-003 5.3683237302657909e-003
      2.6216115402256972e-002 3.0839860897982567e-002
      4.0971163877642207e-002 6.9849494508603602e-003
      9.0081632324460707e-003 -5.1861683059073786e-002
      -2.4643704848821481e-002 -3.1898694207308967e-002
      3.5432015658950683e-002 -2.9348961366036062e-003
      -2.6039624888869670e-002 8.2334540965716671e-002
      2.8437403297498158e-002 -1.2789711486700586e-001
      2.0155293030771357e-003 8.5849230735784380e-003
      2.9844520834215019e-002 4.2335604302532949e-002
      -2.1782842187927382e-002 -3.0937312111175719e-002
      1.1590872784714398e-002 -2.7393632461937289e-003
      1.2578326384295360e-001 1.4398156564276841e-002
      -3.1690847050428392e-002 3.1923713469587028e-002
      1.6052313007008380e-006 1.7441323865223166e-002
      -6.7717940813937214e-002 3.4487377238475079e-003
      -9.5694445090304781e-002 9.1343855284781436e-002
      2.9172903644052450e-002 -1.6909866348901261e-002
      -4.7720852598805749e-002 -2.2488145708496287e-002
      -9.1283634693726357e-002 7.7012775171078230e-003
      9.8989127423267931e-003 9.9077043538217170e-004
      -2.1986701495945733e-002 -4.8758869754992711e-002
      6.1235260567742096e-002 -2.2680675925694668e-002
      -3.9007631617964181e-002 1.0669169544892576e-002
      4.3615411800093928e-003 -2.1105663966097366e-002
      -3.1775252504611246e-002 2.2107591180359570e-002
      -1.1034058704870460e-002 7.9107086603036371e-003
      -5.8776989977329958e-003 -2.5350788741977999e-002
      2.1508723314017451e-002 5.8829847954957472e-002
      4.5686042224749138e-004 7.2627456580703242e-002
      -2.9342929631688285e-002 -1.7515341166878771e-002
      -5.7192482724754266e-002 -1.9197987893968607e-002
      -2.1702526720534888e-002 -4.1579354327287509e-002
      1.8857393198102455e-002 -2.3057900010789535e-002
      -6.4245519600850162e-002 7.2449359319185554e-003
      -8.2452567390072257e-002 -2.0571064361626076e-002
      -7.5164583084154453e-003 3.5236832032448706e-002
      1.6534573526991714e-002 -8.0159112009026603e-002
      -4.5328458588257153e-002 6.2139313694928450e-002
      -4.2077153123441485e-002 -3.3916238733145282e-002
      -7.4278864332119984e-002 -3.3831736349136776e-002
      -2.1944629985870222e-002 -3.2307716959742785e-002
      1.2232241289062103e-001 6.4646696146454768e-002
      -1.0219347478092460e-001 2.3780204523115935e-002
      2.9052083027347988e-002 6.3366244332804397e-002
      2.0306659053921775e-002 1.2264351105996616e-002
      2.0054687254534170e-002 2.8245008016280909e-002
      3.7242637954265467e-002 1.3827438444161855e-001
      -4.3079447175501578e-002 3.9898315023702703e-002
      -1.8440463514157159e-002 -3.4823980763980855e-002
      5.8040974094403543e-002 -7.7173746407835933e-002
      2.9954219503964610e-002 -8.8042843161660445e-002
      1.4703782948664404e-002 3.2835678183742424e-002
      -1.5521380699582440e-002 -3.7798766766379719e-003
      -3.5896153485728943e-002 -9.5767118108190177e-002
      4.9117778296069491e-003 6.0517481772855007e-002
      -1.6932204376055627e-002 -1.6369464343248267e-002
      -2.8613141763461254e-002 -9.9036230228929777e-003
      3.5805158229823150e-002 -4.7020268476969225e-002
      -2.9514121585156976e-003 -7.6435728360138566e-003
      -1.5252811894863601e-002 6.7875974674228207e-002
      -1.1360741934940598e-002 -2.2203364947434353e-002
      8.5476417655044844e-003 6.8648288688314088e-002
      -9.9358887119510644e-003 6.4770566366099513e-002
      -1.5336887502685323e-002 1.8223756649031066e-002
      6.2121450632316992e-002 2.7975183043922165e-002
      2.1580638871037797e-002 -5.4022112365253477e-002
      3.5986015661925212e-002 -2.9970287286289702e-002
      -4.8494049480743789e-002 3.3042008278416191e-002
      -7.0174047200352183e-002 -2.1547555918165935e-002
      2.0830193288180022e-002 -6.7202516069029800e-002
      -3.6021709512590025e-002 -9.7284883126743608e-003
      -3.2831076188517085e-003 -3.7449674989788705e-002
      -4.3137401356372729e-002 -4.3538628246023850e-002
      3.9232146054825646e-002 -2.7668958062577985e-002
      -3.1745659952419930e-002 -5.8230425929952048e-002
      -3.0982965823077184e-002 -1.8950426402259756e-002
      -1.7730364107783506e-002 1.0509011328437837e-001
      4.4197662118317292e-002 -1.0368586766676434e-001
      2.9372124738736027e-002 3.0637728720013972e-002
      5.7127312638686707e-002 2.3486819404759506e-002
      -1.0737513732867268e-003 3.0549420934428976e-002
      3.5429269105371038e-002 2.5228401589940885e-002
      1.1907017233196193e-001 -2.5723985930051221e-002
      3.4674112906176939e-002 -3.0636212844473723e-002
      -2.0307495593833897e-002 4.6516108252165012e-002
      -5.2207568101329718e-002 1.8240022781917293e-002
      -7.6717770656504147e-002 6.3684409499818627e-003
      2.5486602813623454e-002 -2.4977725234301792e-002
      1.1666010959684375e-002 -3.1076892700592711e-002
      -9.9310972480503454e-002 8.6949275491539427e-003
      5.4470526265204856e-002 -2.4925359790701526e-002
      -2.2825402788200850e-002 -3.6575275438348175e-002
      -9.7658549424646801e-003 3.1144861212618447e-002
      -5.8038105024675261e-002 -1.0625407553906186e-002
      -2.9153599059194672e-002 1.2036976406144298e-002
      7.5763562750700050e-002 -8.5427237110146503e-003
      -1.2559428750000457e-002 2.0724308431140120e-002
      4.4781788642718590e-002 -4.3447688520886546e-003
      4.1586169208615020e-002 -2.5763200943249347e-002
      5.6323348447745282e-003 6.7559271426921211e-002
      1.9869052271209688e-002 3.2185486269001432e-002
      -3.2057969590692688e-002 2.6920847205001885e-002
      -3.5269363442537178e-004 -6.9740868435998887e-002
      2.8736502745657273e-002 -7.6118994856501324e-002
      7.1260071323932138e-003 1.8299130388228536e-002
      -4.9371595609554259e-002 -2.1073216588321907e-002
      -1.4012094755858906e-002 -1.8855158677606398e-002
      -1.8107747501788271e-002 -5.7228596854060941e-003
      -2.1561487975813179e-003 -4.8440541886389261e-003
      -8.8514469762240762e-003 1.3409909452671223e-002
      1.7095505331317769e-002 -1.8555898343670378e-002
      2.8620606275124839e-002 4.9725871829991097e-004
      6.4120234620721334e-002 1.9092303946542825e-002
      -1.4888534430303740e-001 -1.6388291231644272e-002
      -1.5025603610285841e-002 -2.9622759085955845e-003
      2.2982234417502252e-002 -4.7815868091266311e-002
      1.0401304272031753e-002 4.4485993394045922e-002
      7.3357771135521702e-003 1.3294164441523440e-001
      -1.3777924359809996e-002 1.2197164344210370e-002
      8.9057452512315973e-005 1.4100522747032797e-002
      -3.0050554399438718e-002 -2.8968316107265725e-002
      -3.2068094773203486e-002 -1.3923856381080976e-001
      1.8478449269656531e-002 1.6311353307388091e-002
      -3.1970977267536706e-002 -1.1404536612122812e-002
      -2.2245108630144755e-002 -9.0901044268255307e-002
      2.2869724129564145e-002 -1.3857243963762913e-002
      -8.5065219074783108e-002 -6.3947116423387160e-003
      -3.0513339097893159e-002 4.2184648635185201e-002
      -1.3505177554283498e-002 -7.4381489155406419e-002
      -1.0002508563981355e-002 -2.8200712046977387e-002
      5.5891476121460108e-002 4.3508675787164316e-002
      3.9024756898308310e-002 -7.4060377042295235e-003
      2.7888107197342506e-002 1.3573063678608367e-002
      5.1120011775407500e-003 2.2670221328410588e-002
      1.7921140779597146e-002 1.6909500469761815e-003
      1.2282250981744364e-001 3.8183948322233342e-003
      -9.7361526616552927e-003 -4.6013180509223411e-003
      -3.8246535759527023e-002 1.4746687956053595e-002
      -4.5526577939516838e-002 -1.4355254563227421e-002
      -1.8425818788390017e-002 -8.2741456392827310e-003
      -1.0145495733559424e-002 -5.7991139241268502e-002
      1.4401137518941739e-003 1.9309328420634025e-002
      -2.2065324941083542e-002 5.2479459505749761e-002
      -1.5012193863725124e-002 -2.2603305124795255e-002
      2.4950111163115345e-002 -2.5054059055987652e-002
      -8.6332941477013109e-003 -2.8412476997973023e-002
      -2.0926753400221695e-002 1.8968366909866575e-002
      -5.0343851509189577e-005 4.2388302349261220e-002
      8.5309804143882222e-003 -8.0116917987106379e-002
      -4.1650638799228196e-003 1.6775211376033938e-002
      1.3017322204909308e-002 2.2494796725071948e-002
      -2.1215626032594231e-002 8.5785968403678785e-003
      5.4188240116121743e-002 2.5937994598371521e-002
      9.8614862065768555e-002 -4.1421992001859670e-002
      -8.1721586731948546e-003 -4.1727690295465403e-003
      4.6525302695260250e-003 -2.6062102400657488e-003
      -1.3780583769692720e-002 5.0836986797245519e-005
      -8.7408221323963420e-002 4.3949051610601315e-002
      2.6760350484040237e-002 -9.8987119881537959e-003
      -1.4459402341082657e-002 -3.7282790425101173e-002
      -6.3211716155660194e-002 4.6552150862832584e-002
      -1.1680876918275393e-002 -5.5061277464348912e-002
      -1.1509020504715025e-002 -1.7074296209475159e-002
      6.4636307429846163e-003 -3.7393877506832741e-003
      -8.3148563552385854e-002 3.5770675227446390e-003
      -1.2362333660808980e-002 3.9556730203928678e-003
      5.5221750709371194e-002 -1.2381722343684156e-003
      6.2177525886568559e-003 -2.0853194951849893e-002
      2.6961019536676338e-002 -6.6527163274900589e-003
      2.2278007100452687e-002 1.1227334554286081e-002
      -1.0572780304599190e-002 8.2169445200244412e-002
      1.1633398724373970e-002 1.2694933092521982e-002
      4.9115469361521828e-003 6.4396763608020186e-003
      -3.2123109176901525e-003 -3.1288593504810919e-002
      8.5683062975032019e-004 -3.2326110464579123e-002
      3.3846140975349478e-003 4.5164379137097440e-003
      -2.6214806322737757e-002 -1.8068768423263026e-004
      1.6229451802827262e-002 -1.6023908116112512e-002
      4.9183367515506400e-003 -1.7955220467392150e-002
      -2.3065037695651120e-002 3.2856064389477337e-002
      -2.4634979161519476e-002 -5.8820751367267424e-003
      -9.1934203382129463e-003 -2.1730586763128289e-002
      2.7577910707778125e-002 -8.9540230174005864e-003
      -5.4061418766012392e-003 1.8975240331755173e-002
      -3.5315171724763186e-002 -2.0356485155627467e-003
      5.7785542265819199e-003 -8.5617237643227165e-003
      2.6939258639410171e-002 -1.6657793255390387e-002
      -1.4720354098512456e-003 6.0764923941324482e-002
      3.5649774291555289e-002 3.7453373979079642e-002
      -3.7657684163715593e-002 -2.7566214227921274e-002
      4.4598940047035681e-003 5.8310203655964647e-003
      -2.6302729022609828e-003 -1.4003297572255513e-002
      7.3195389778658278e-003 -3.4187958613849656e-002
      4.1883608828692249e-002 7.3373918823398951e-003
      5.9989208782902440e-003 -3.4673579198097617e-003
      -5.2649683419029189e-002 -2.6069385444838403e-002
      4.5614366387221529e-002 -1.0383502881791905e-003
      -2.4926182356122661e-002 1.9828522098352857e-003
      2.8455565749849364e-003 1.5047585425056841e-002
      -2.1101789671601905e-002 -1.1685186302586817e-001
      2.4040815040203565e-003 -1.3471795129478301e-002
      5.9531813779672444e-003 6.9506001957320623e-002
      -9.5440300380801452e-003 -7.8426448391528004e-004
      -9.7661041781574431e-003 1.2940933160179474e-002
      -8.2779320382180509e-004 6.2250091876385291e-002
      1.0968357087302875e-002 -1.3196167531844410e-003
      4.0081055527744769e-002 1.9538233020208500e-002
      2.1826474040241697e-002 2.5157245040096868e-002
      -1.0369638926034288e-002 -7.8647146389350716e-003
      -2.6583335357623906e-002 -5.6534518261683276e-003
      -4.5403177486963348e-002 5.2439979781606933e-003
      2.1659784133959088e-002 -4.0765931125307533e-002
      1.4252699690948166e-002 4.5031849244921568e-002
      -2.7683956117943626e-002 1.3209955453797481e-002
      -2.9360400258307155e-002 -1.2451338876744954e-002
      2.5622672689040654e-002 -3.8025078419100480e-002
      1.4554603170217595e-002 1.2494772734231290e-002
      -1.4557587723989327e-002 4.2483523322325266e-002
      1.7340060649632453e-004 -5.2970446371952536e-002
      -5.5005765249047933e-003 3.2230171399882199e-002
      -1.7643693751881361e-002 -1.1016390339338884e-002
      -1.2923957679185843e-002 3.4441611311957353e-002
      -8.6985050983950964e-003 -1.6842897126573015e-002
      6.2791316179352449e-002 6.5358392256561135e-002
      -4.5518631127076875e-003 -2.4200697321215360e-002
      -5.0741340216499398e-002 3.3984591689769937e-002
      2.7236246221327840e-002 -3.4612376592401427e-002
      3.8311761667838623e-003 -3.9217769045399748e-004
      1.5434054305130148e-002 5.8904028559254119e-002
      -8.8689914094669173e-004 -3.7467009930044252e-003
      -2.7710384749150448e-002 -4.4501571916564085e-002
      8.9773088495635200e-003 7.3380589098177740e-002
      -2.5658025638328287e-002 3.9539437978928626e-003
      2.0787860206283568e-002 7.8927452709175606e-003
      2.6124072020360219e-002 -4.5819847119032704e-002
      -1.3320830678706919e-001 8.1800118917394714e-003
      -5.0543518725241774e-003 5.4244876898997983e-003
      4.9693462811805082e-002 -2.2863348615722031e-002
      1.4178035267742214e-002 -7.1912358275606075e-003
      -3.6984732015471887e-002 -1.2692711266605728e-002
      7.1352539174177401e-002 3.3519015223192061e-002
      -1.2272806715033613e-002 -1.6492397910866355e-003
      4.8823520611424873e-003 2.2950023627626100e-002
      5.2017474043929569e-002 -5.8756942918654728e-002
      -2.2900589448536336e-002 -5.1723257540483153e-003
      -9.4167731196167521e-003 -1.9538323789035906e-002
      5.0430303054556543e-003 2.6922179886501314e-002
      -4.7794576583018472e-002 1.9780918246435693e-002
      7.7195257325566369e-002 -2.9904765937952472e-002
      3.5481721745046206e-002 2.1716066066370443e-002
      -1.3941845856689693e-002 1.3542750279476955e-002
      -4.1497387757249628e-002 7.7626788974481022e-003
      2.1321768476288736e-002 -4.1141517888255146e-005
      4.5038476076900480e-002 4.6911933414728920e-004
      -7.5649505886655852e-002 -1.7583903186808796e-002
      7.0802256463641411e-002 -1.3357366067079232e-002
      -1.1149479881918899e-002 -1.7713110860514154e-002
      4.8783158515574222e-002 -1.4662257813136062e-002
      -3.7338273910129921e-002 6.7873939963712049e-002
      7.1742403904439644e-002 -4.4779943035414188e-002
      -2.0153678401050545e-002 -6.6182811018537929e-002
      3.2390164019366605e-002 2.8590628128263035e-002
      -2.2340137597536426e-002 1.6413391080477187e-002
      4.2334947674759864e-003 5.3698701895316149e-002
      7.0471993380392631e-002 -5.2967212456619187e-003
      7.2705303460319599e-003 -2.6169060696860050e-002
      -5.3915969365747357e-002 3.2920301690353398e-002
      7.8635282012364457e-002 -3.3539470564811068e-002
      4.3213061969421075e-002 1.3915755163098257e-002
      6.0474210286863908e-003 8.4885728632588323e-003
      -3.8111476881018652e-002 -1.4916893501000153e-001
      2.7776760156510423e-003 -1.1880647623782650e-002
      -3.2245265183740001e-003 3.9218234025701126e-002
      -3.0343786934772129e-002 9.4708389970791940e-003
      -1.7456671700922403e-002 -6.9039596523069083e-002
      -7.2634899211275880e-003 6.7659797317123668e-002
      4.8283239721451515e-002 -1.9213727351196655e-002
      -3.4617099759756999e-002 -1.4015683117728007e-003
      2.7818145619256576e-002 4.6982610721619252e-002
      -6.9374789814718577e-002 -1.3714426260863411e-002
      -3.4183546624542904e-003 -5.4520904096597069e-003
      -2.0557373150037642e-002 6.6992239696478106e-003
      3.5710719677533038e-002 -5.1730548715768369e-002
      3.1540974376801041e-002 6.4870117157342630e-002
      -1.8562238536527151e-002 3.5106041532927623e-002
      1.2021341108021769e-001 1.1101272416800623e-003
      -1.2146298457842482e-002 -3.9206790974401690e-002
      2.5949792752790503e-002 2.3195582306731608e-002
      5.4154087659812732e-003 6.4583967983549984e-002
      1.8275220225678630e-002 -8.7559068699126774e-002
      -4.0045648816834610e-002 6.2841738123012927e-002
      -3.2115258579247338e-002 -1.0867814451346701e-002
      -3.5373303327431674e-002 4.0663097706843995e-002
      -4.3588929591199484e-002 -5.0732448801431775e-002
      7.8969821236728771e-002 5.5110914848886354e-002
      -4.5047050549168924e-002 -3.7247793627546484e-004
      -1.0388294363312799e-001 5.7152316189426046e-002
      5.8875763096951216e-002 -5.0665089754900097e-002
      4.2438136893248810e-002 -1.8559555628154627e-002
      3.3796476649239786e-002 1.0349944518937730e-001
      -2.1661705912406685e-002 -5.8023872380228506e-003
      -4.1686100724852300e-002 -5.3292423902554481e-002
      4.3002444025465165e-002 7.5999451567681273e-002
      -6.9229444345231594e-002 2.0837426639957114e-002
      2.9650269743246135e-002 1.4266288518105984e-002
      3.6640597062917370e-002 -6.1853692794927945e-002
      -1.5340663054749748e-001 1.3291440039671348e-002
      -4.1528778906783931e-003 3.9088003592337864e-003
      -3.7649548508508091e-003 -9.2332813523288287e-003
      2.4286528038820133e-002 -2.1026047628305993e-002
      -1.1588649657132508e-001 1.7278394750651139e-003
      3.5935537289235091e-002 8.2146000043293407e-002
      -2.9963939591701391e-002 -2.1570403448641251e-002
      -3.5475520554365383e-002 8.6851176981919530e-003
      6.3702702610919801e-002 -8.8549884616157565e-002
      2.4849060489676063e-003 2.5771947388611868e-002
      -3.6270861582062372e-002 2.2586019382678031e-003
      -1.7982133694603884e-003 2.4862187809797317e-002
      -5.3083503905415594e-002 3.8101303424926646e-002
      7.8354287993923938e-002 -6.8508349982521061e-003
      6.7483968286087784e-002 5.6958914420518383e-002
      -2.5734729939858474e-002 -5.2999335765776449e-004
      -2.3280966356367054e-002 5.2514608613868276e-003
      -1.8033321430040807e-002 -1.1152280074895392e-003
      2.4102225362994594e-002 -6.8293021965707378e-003
      -6.3642342970511454e-002 -3.5686932843942774e-002
      7.9958145297988725e-002 7.6978502431896785e-003
      6.2659923632901755e-003 -3.4062744117737986e-003
      5.3411522509702679e-002 -1.9096221252227517e-002
      -1.8106059091844758e-002 6.4368657692221831e-002
      5.2652420409519431e-002 -6.6979755374120292e-002
      -1.1610804886401198e-003 -7.2240314627401811e-002
      2.1882776754512449e-002 3.2521329193608568e-002
      -1.0014570815797664e-002 2.3337802313274227e-002
      -8.0341130773248660e-003 7.9979595767392053e-002
      6.1888068430795938e-002 -1.6103741796339038e-002
      -2.3778296022918952e-002 4.7449736717313480e-003
      -4.9398627102651728e-002 5.0261265082230000e-002
      5.9639398533536475e-002 -3.5237398439000867e-002
      7.0749999477278933e-002 9.4114117041797091e-003
      -4.3987502413184052e-003 -1.5328109660972948e-002
      -1.5280106899870863e-002 -1.5417642286664374e-001
      1.1439927159685928e-002 -2.7088823866920519e-002
      -6.6874211363410572e-003 4.5604441009973656e-002
      -3.8665500219821389e-002 1.6458674899574234e-002
      2.3975404778241341e-003 -8.7455281550740338e-002
      -1.3307490807600934e-002 4.3418130262286213e-002
      4.9834379697268227e-002 -1.5876533612449211e-002
      -5.5899631179179107e-002 3.1542648849193344e-003
      2.9752544510481645e-002 3.5827390536827028e-002
      -5.8783812590935333e-002 1.4584033330656726e-002
      -1.3746307668014435e-002 -4.2891590118595791e-003
      -2.6119289900092234e-002 2.2685752976522464e-002
      2.8534711822261190e-002 -4.0236849393178779e-002
      2.9145334998361153e-002 2.1868019156993705e-002
      -3.3041149649726112e-002 2.7713026023519733e-002
      1.1243567363835814e-001 -3.7463271719660178e-002
      7.5828069112970197e-003 -3.9609117209924993e-002
      -8.1289909750161052e-003 -2.8588337947268406e-003
      -9.8185894463116569e-003 4.3219754207144807e-002
      -9.0634759980662769e-003 -6.1716128463930993e-002
      -2.4719170851390630e-002 7.6926036573769924e-002
      5.3399848820601574e-003 -4.0295426416937626e-002
      1.9669084982588420e-002 4.0002737122417628e-002
      -2.9810207656166987e-002 -1.9347824298606816e-002
      4.5928163044921470e-002 6.2980203735933243e-002
      -8.6441079366549850e-002 -2.5048942959156415e-002
      -4.9678206938812808e-002 2.4895400160279023e-003
      3.8093287919887454e-002 -1.2312813721562990e-002
      2.0830212839574366e-002 -1.1214684063455223e-002
      7.5627063726995236e-002 5.1750745044704151e-002
      -2.8769872242462715e-002 -2.9541204043622475e-002
      1.2927694572460202e-002 -5.0850576341206100e-002
      5.6629466593232272e-002 5.2508286157788985e-002
      -6.3753483717148812e-002 6.9397274813553081e-002
      8.5186551459498425e-003 -9.4148983585191498e-003
      -2.6678527419656877e-003 -1.5858003385273940e-002
      -1.2265736527057092e-001 3.8268098113560821e-002
      -3.2407259716714626e-002 -1.0164202961204105e-002
      4.3258810503004938e-002 -3.7413928909918744e-002
      1.1081856383670478e-002 -5.5124693763674735e-003
      -8.1422095697714081e-002 5.8832941189774762e-003
      3.1132895093929833e-002 5.4890009316336634e-002
      -9.9922191306621687e-003 -3.9332170853066513e-002
      9.8059518558989752e-004 1.9229160997783705e-002
      2.0817988760080064e-002 -4.4950023564397153e-002
      2.7269152503859320e-002 -5.4778773637875347e-003
      -1.2060525788271151e-002 7.8809248476712224e-003
      7.9514852527703111e-003 3.1566592201299586e-002
      -3.5959289586285040e-002 2.0922100542995814e-002
      2.8334529729127200e-002 -4.2623356685979864e-002
      3.7044968928027527e-002 6.3402515266689372e-002
      -2.0029105732061875e-003 7.2854745104587388e-003
      -3.8584061442088230e-002 -2.9853198504092484e-002
      5.4111599047793882e-003 1.9045979567590545e-002
      3.5167086535729371e-002 -9.5915076121531728e-003
      -5.6880754142532186e-002 3.5739726419915471e-003
      4.4825003966017483e-002 9.2862005021475836e-003
      -6.2451413342513182e-002 5.1973322222427461e-002
      4.4911383162846756e-002 -7.2000513847917348e-003
      -7.5526820151797392e-003 4.6105189469230062e-003
      5.9910163228569159e-002 -1.1063260959782083e-001
      -4.3059131965629577e-002 -2.0097873800330585e-002
      -2.3009614966273961e-002 6.2794406194304772e-003
      1.6926413548295924e-002 1.2998052722059152e-002
      -1.6660179726995947e-002 1.1301042792804009e-001
      2.0073221122360860e-002 -1.3608637900652063e-002
      -4.7825343515714012e-002 2.1336999267133654e-002
      -2.3891002336055130e-002 7.6623354464181712e-002
      2.7160920117974885e-002 -6.0988578703886777e-002
      9.5185631189418640e-002 -1.1199251781661921e-002
      -3.0698046264790092e-002 -1.2148746536608528e-003
      4.9584254876666048e-003 -8.5352999083515402e-002
      6.0674455866556051e-002 -2.6941075895155792e-002
      7.7279181297823041e-003 6.2097810705818074e-002
      -3.4584160124897532e-002 -5.0011513369940495e-003
      2.8209237964483332e-002 -3.8191935145527899e-002
      -7.9643469891707704e-004 1.3340049325012360e-002
      5.3944829139716014e-003 -2.2876236300278963e-002
      -4.9209353668499545e-002 1.1555596794013905e-002
      -7.7142196847939095e-003 -2.0186329426089524e-002
      -5.6132691984648441e-003 2.4195063161296371e-002
      -3.4845665829687511e-002 1.4788716318917264e-002
      9.2278568209399042e-003 2.5794076730729146e-002
      7.5594818155651014e-003 -5.4632031424714969e-002
      3.1842907987067598e-002 -2.7319625410585614e-002
      -3.8147394006606737e-002 1.6612615290944321e-002
      6.4142835856275227e-002 5.4367432174926194e-003
      -1.2894767685465110e-002 -2.2140822151066237e-002
      -1.5290490178766802e-003 2.8166523235051661e-002
      -5.1410773274048775e-003 4.6656027974428735e-002
      -2.6096120007092681e-002 5.3506943462544249e-003
      -2.7529410260786159e-003 -8.7389123676320200e-003
      6.7864898213644944e-003 -7.1174006541558768e-002
      3.0075474465403505e-002 1.4135747235598668e-002
      -3.4374730028284048e-002 4.8517680010227793e-003
      -2.4481436528766286e-002 4.0518972053279874e-002
      -3.9488960093438552e-002 -3.1498921771038572e-002
      -9.6253412604161879e-004 -2.4669132414184322e-002
      2.3511565198077310e-002 5.1876489753560195e-003
      -4.1371638879080909e-003 -2.9916255888658597e-002
      4.1852055759595858e-002 2.1660681188156602e-002
      -3.4262435191142929e-002 -2.3739450183797875e-002
      1.3117427960066552e-002 -5.2080260577296216e-003
      2.8607613290222312e-002 -6.6935393156947161e-003
      -6.1517296380008635e-002 4.7524845679270601e-002
      1.6808811311705446e-002 -2.7359782925891474e-002
      2.9918979358467535e-002 -3.2343406510528035e-002
      -4.5136566212768806e-002 4.2457516258428425e-002
      -1.8403271204464205e-002 5.2285696898289595e-002
      4.0014880240573932e-002 6.3875487743159428e-003
      1.9591523357493260e-002 4.4629148890608199e-002
      -4.4620182663706910e-002 5.6884905215869698e-003
      9.1316663479838866e-003 3.4863118667429346e-002
      -9.3318223882223727e-003 1.7631860991989431e-002
      -2.3542213259051450e-003 1.2096696210101373e-002
      7.3734560121292156e-003 -5.2517731645107701e-002
      3.5686842874629775e-002 -2.3414225257058569e-002
      -2.4873444368378882e-003 3.0523481237120113e-002
      2.3688234585584503e-002 1.0370800362126628e-002
      -6.3982596721117807e-002 2.3920235143952827e-002
      1.3814623799437193e-002 -5.3925057357550633e-002
      7.3705809005466472e-002 -1.0350502722851390e-001
      -6.8518807468504145e-004 -2.3675556345345888e-002
      -1.8911556506536559e-002 2.1730686962813810e-002
      1.0687085070039315e-001 -4.9780198216272890e-003
      4.4298760825466381e-003 -2.8708043309104175e-002
      -2.8642798756140082e-002 -5.1053563060362218e-002
      -3.0053706321729601e-003 1.9035678586117464e-002
      -1.5599473133300387e-002 -7.9050185168128395e-002
      3.9260343166813774e-002 1.4245110002049217e-004
      8.1799899246252986e-003 1.5664634663071594e-002
      5.5038067561091267e-002 -1.3940801896935121e-002
      1.8217008137725296e-002 -1.6938160426132234e-002
      2.2225226025952387e-002 4.2035599131104842e-002
      -1.8526407254067897e-002 -2.7952321606870670e-002
      -2.5319227993465161e-002 -1.8626344955159245e-003
      -5.2326160611266279e-003 -3.4785409498868110e-002
      1.6795311580481514e-002 8.2128552122854061e-003
      -1.9335143211521182e-002 1.0945706037667660e-002
      2.6815526952229045e-002 -2.5235897048924320e-002
      1.3255293797861091e-002 2.3892217321176298e-002
      -3.0894196843408703e-002 5.5263944289231329e-002
      -2.6943844670773761e-002 -7.4310663016884576e-002
      -3.3839446886111714e-002 -1.8092339159168820e-003
      5.0368431753809326e-002 6.1107148256963877e-003
      2.3001841265818307e-002 3.2604462940761837e-002
      3.1646184430433412e-002 -5.3164302076260973e-002
      -1.4601067056474619e-002 6.1782560672416498e-002
      3.6334577483360588e-002 2.3861029545965189e-002
      5.2089688010197041e-003 -2.3296992928556859e-002
      3.9992126108297971e-002 8.0748217965027166e-002
      -5.9955466200507179e-002 1.7120958179722041e-002
      -1.3263132584572898e-003 -4.3808293701674321e-002
      3.9575544647231987e-002 6.9788051101394872e-003
      3.6393328311684972e-002 -2.9577038206233312e-002
      1.8703800147931667e-002 3.5798626163058872e-002
      -2.8555406749367424e-002 6.3569744017150986e-002
      -9.3121711129790629e-003 -3.0841699907252551e-002
      4.8351400681881637e-002 -4.5349751880844544e-002
      -2.8102052334219190e-003 3.0327440540780119e-002
      7.3803716573937698e-003 8.1603051779575563e-003
      -1.3183370744040412e-002 1.9595318868785669e-002
      1.1713461924550719e-002 -7.9471487152197276e-002
      6.6172439474152557e-003 1.6834903541379464e-002
      -3.8519936482721416e-002 3.5564419183331766e-002
      -1.8677070423830617e-002 -1.5139371164799314e-002
      2.0934947713168086e-002 7.7261175823029118e-002
      4.9366920375963540e-002 8.1971833061621393e-003
      -2.3455825221563992e-002 -1.9288033898139316e-003
      2.7980654988056221e-002 -1.0455204292507903e-002
      -8.0826282333159791e-003 4.3180194282727829e-003
      -1.2899171105969333e-002 1.3147434263247893e-002
      -8.0597780072712254e-003 -4.2539070474768978e-004
      -2.2300009972231805e-002 -3.4849703079014860e-002
      -1.2347569926188122e-002 3.1414336764816211e-002
      -5.3040507057792990e-003 2.1797467416801174e-002
      1.2387551106719417e-003 -6.1765584691327773e-003
      1.7548016734856856e-002 2.4401958480285060e-002
      -6.2233423301081850e-002 -4.0100755386647249e-003
      -1.2490348819963061e-002 -6.2632694860102896e-004
      7.2675935025650750e-004 -9.0666427012840046e-003
      -2.3388527005446034e-003 2.2213534187089561e-003
      -3.9907582536836489e-002 5.5961084482526501e-003
      7.5010391181195790e-002 2.6460445286560771e-002
      4.6166565082098208e-003 -1.3455539773786785e-002
      -1.2307013042661489e-002 -2.3401536562635401e-002
      2.1953885061811774e-002 2.8303418845095295e-003
      -7.7516223494314921e-003 -3.2088598465867105e-002
      -1.9039423500442791e-002 -6.5976191346182027e-003
      -3.3321156004288227e-004 1.9445206567720735e-002
      -1.6132080775155069e-002 -3.7480705659187083e-002
      1.4637349754228512e-002 -1.0488953533191731e-002
      1.8156483295571123e-003 -1.7539321922879505e-003
      -3.4635344423030786e-003 3.1350962297579115e-003
      -1.2685192622885204e-003 3.4127855102790931e-003
      3.7262906856386393e-003 3.8387974867066339e-003
      -6.8446600548566292e-004 -1.7017383343780807e-003
      1.0933893825237741e-003 -5.0769724157731882e-005
      -3.3830093635666449e-003 3.0559439401566125e-003
      1.9797527947827851e-003 1.1368185792216814e-003
      -2.5328976291776762e-003 3.0914463092867124e-003
      2.8963006874189868e-003 -2.3425318066443179e-003
      1.6666312855845408e-003 3.3702764647711623e-003
      1.0126568311895833e-003 4.0464834477974207e-003
      3.8949917857341691e-003 -3.0987817178481192e-003
      1.3927949201488447e-004 7.5974954433451235e-004
      2.3434780708560029e-003 2.0425997637354581e-003
      -9.0755468992997392e-004 -1.0364792342909708e-003
      -4.6615524069678962e-003 4.2341289121952995e-003
      1.7747823180023332e-003 -3.2449415867533238e-003
      2.6551059744635260e-003 -4.2696489977182370e-003
      -5.0586509045160940e-004 -3.1838892392222068e-003
      1.9116836203557140e-003 3.4653716641715386e-003
      -3.3207060835128968e-003 4.4087239206603420e-003
      1.8726169276144498e-003 4.0377183257365480e-003
      4.2826200504757841e-003 -3.3176367825905862e-003
      -4.2323428943688126e-003 3.5218008358850732e-003
