<?xml version="1.0"?>
<opencv_storage>
<OCRMLP type_id="opencv-ml-ann-mlp">
  <layer_sizes type_id="opencv-matrix">
    <rows>1</rows>
    <cols>3</cols>
    <dt>i</dt>
    <data>
      400 36 12</data></layer_sizes>
  <activation_function>SIGMOID_SYM</activation_function>
  <f_param1>6.5000000000000002e-001</f_param1>
  <f_param2>1.</f_param2>
  <min_val>-9.4999999999999996e-001</min_val>
  <max_val>9.4999999999999996e-001</max_val>
  <min_val1>-9.7999999999999998e-001</min_val1>
  <max_val1>9.7999999999999998e-001</max_val1>
  <training_params>
    <train_method>BACKPROP</train_method>
    <dw_scale>1.0000000000000000e-002</dw_scale>
    <moment_scale>1.0000000000000000e-002</moment_scale>
    <term_criteria><epsilon>1.0000000000000001e-005</epsilon>
      <iterations>1000</iterations></term_criteria></training_params>
  <input_scale>
    1. -1. 1. -1. 1.0677496362510746e+001 -1.0583005244258439e+001
    2.6778771822215810e+000 -2.2293073634550078e+000
    2.5641305870975963e+000 -2.0843691118884382e+000
    2.2821844660109516e+000 -1.6907207295605786e+000
    2.2165473280131738e+000 -1.5860503004493760e+000
    2.1829682949028490e+000 -1.5289057337246250e+000
    2.1676195906699403e+000 -1.5017136987195037e+000
    2.1352036015127109e+000 -1.4414648839542197e+000
    2.0671686570481840e+000 -1.2949204419309421e+000
    2.0438662389419333e+000 -1.2325211074276894e+000
    2.0416727736972842e+000 -1.2260361156842099e+000
    2.0478539739966330e+000 -1.2439871485529486e+000
    2.0729530105447727e+000 -1.3090265850405993e+000
    2.2858216888022200e+000 -1.6963050964941888e+000
    2.5641305870975963e+000 -2.0843691118884382e+000
    4.2728675547407287e+000 -4.0243822102172482e+000
    4.7056456606751711e+000 -4.4825587930704698e+000 1. -1. 1. -1.
    2.0954377606077750e+000 -1.3603126296739476e+000
    2.0685889837365510e+000 -1.2984253229142826e+000
    2.0007740062146282e+000 -1.0282106618536617e+000
    2.0001598450145295e+000 -9.8743668707733734e-001
    2.0250372444938889e+000 -8.5379256768484446e-001
    2.0508200744097733e+000 -7.9854940950469055e-001
    2.1790447569998483e+000 -6.5701918400058645e-001
    2.2594075595671499e+000 -6.0412730575025575e-001
    2.3736394852786242e+000 -5.4764754243154101e-001
    2.4557402633348371e+000 -5.1536394906900507e-001
    2.5509493710592821e+000 -4.8374513989746187e-001
    2.5542156221592545e+000 -4.8274998168496663e-001
    2.4923524805340591e+000 -5.0256665062602079e-001
    2.4166194300545749e+000 -5.3006759938618053e-001
    2.1923536166648292e+000 -6.4717391844657102e-001
    2.0861782324880096e+000 -7.4638235119356100e-001
    2.0920051935461501e+000 -1.3527947616926117e+000
    2.2750182622216166e+000 -1.6796595008058461e+000 1. -1. 1. -1.
    2.0954377606077750e+000 -1.3603126296739476e+000
    2.0508200744097733e+000 -1.2522706649050830e+000
    2.0484392955898034e+000 -8.0280174669132631e-001
    2.0707515825724463e+000 -7.6704198949902247e-001
    2.1777498583297157e+000 -6.5800533014007845e-001
    2.1216558626595270e+000 -7.0677158003891960e-001
    2.1176679344121512e+000 -7.1079751780837708e-001
    2.1816539459774664e+000 -6.5504780299576271e-001
    2.2380558793636003e+000 -6.1680933211285072e-001
    2.2526906140177916e+000 -6.0802711263312081e-001
    2.2767964089373303e+000 -5.9438490321815263e-001
    2.3668635769195574e+000 -5.5057256403691346e-001
    2.4370871833797696e+000 -5.2223296786709350e-001
    2.5641305870975959e+000 -4.7976147520915829e-001
    2.4723096238787945e+000 -5.0946456218994129e-001
    2.3142979820333363e+000 -5.7491726102345209e-001
    2.0028253035589065e+000 -9.4824029858762393e-001
    2.0045046817737173e+000 -1.0694070489361678e+000 1. -1. 1. -1.
    2.0325528397928592e+000 -1.1974331521409258e+000
    2.0145822279448389e+000 -1.1282679228565913e+000
    2.0551400025304423e+000 -7.9113796557587834e-001
    2.1816539459774664e+000 -6.5504780299576271e-001
    2.1856166499364571e+000 -6.5209295750316554e-001
    2.1330597754636971e+000 -6.9573883953177484e-001
    2.0455518936546864e+000 -8.0813522979404495e-001
    2.0707515825724463e+000 -7.6704198949902247e-001
    2.0869967789998034e+000 -7.4535599249992979e-001
    2.0886476886774474e+000 -7.4330508768988812e-001
    2.1186571081102716e+000 -7.0979030802682941e-001
    2.1816539459774664e+000 -6.5504780299576271e-001
    2.3691104482834899e+000 -5.4959768300887535e-001
    2.5254943829123593e+000 -4.9168917189444167e-001
    2.4639562639584547e+000 -5.1241568321259900e-001
    2.3142979820333363e+000 -5.7491726102345209e-001
    2.0168385726590019e+000 -8.7838291818081693e-001
    2.0020745664756379e+000 -9.5547806427882853e-001 1. -1. 1. -1. 2.
    -1. 2.0284435276717789e+000 -8.4497110286706856e-001
    2.0989463941223701e+000 -7.3104896533592034e-001
    2.1288376821319965e+000 -6.9974437086513164e-001
    2.0616565068394967e+000 -7.8061456864529621e-001
    2.0017427788621842e+000 -1.0426270858296081e+000
    2.0678766879868631e+000 -1.2966710963862000e+000
    2.0837500501292441e+000 -1.3342849562458434e+000
    2.0954377606077750e+000 -1.3603126296739476e+000
    2.0971825050904083e+000 -1.3640965851694249e+000
    2.0886476886774479e+000 -1.3453426009875598e+000
    2.0472725824362725e+000 -1.2423398730333892e+000
    2.0136664742008579e+000 -8.8973000345537279e-001
    2.2526906140177916e+000 -6.0802711263312081e-001
    2.2876540091764950e+000 -5.8854309844174058e-001
    2.1869507160837269e+000 -6.5110858866968102e-001
    2.0226326125248768e+000 -8.6044990406399635e-001
    2.0076530122989262e+000 -9.1626136212378306e-001 1. -1. 1. -1.
    2.0061721603768130e+000 -9.2446239248716611e-001
    2.0288855392234795e+000 -8.4387274640268628e-001
    2.0845548825906830e+000 -7.4843689842699623e-001
    2.0616565068394967e+000 -7.8061456864529621e-001
    2.0046768757706235e+000 -9.3391078220161172e-001
    2.0928562595239728e+000 -1.3546680213353657e+000
    2.3026485592053838e+000 -1.7218920641845570e+000
    2.3064925204562163e+000 -1.7276824505313633e+000
    2.3064925204562163e+000 -1.7276824505313633e+000
    2.3471577583724446e+000 -1.7878161181029051e+000
    2.3242800415573774e+000 -1.7542290579137223e+000
    2.2240586787475527e+000 -1.5984543095676154e+000
    2.0100499787212387e+000 -1.1054004307759024e+000
    2.0989463941223701e+000 -7.3104896533592034e-001
    2.2180347896345403e+000 -6.2951809136909520e-001
    2.1362837845952551e+000 -6.9273930562412522e-001
    2.0122080942018661e+000 -8.9544532131359911e-001
    2.0016386283719112e+000 -9.6033104863102448e-001 1. -1. 1. -1.
    2.0000575397903755e+000 -9.9244321664693103e-001
    2.0067870345412935e+000 -9.2094019410681371e-001
    2.0339886885637459e+000 -8.3185251675141825e-001
    2.0405990566765628e+000 -8.1778748541905244e-001
    2.0035399293033005e+000 -9.4224633843341066e-001
    2.0508200744097733e+000 -1.2522706649050830e+000
    2.1137627844503157e+000 -1.3989315014661698e+000
    2.0980620484348393e+000 -1.3659948861491054e+000
    2.0928562595239728e+000 -1.3546680213353657e+000
    2.1451266503984487e+000 -1.4603675110487544e+000
    2.1267590769019531e+000 -1.4250092424248233e+000
    2.0311501608013964e+000 -1.1927550565009466e+000
    2.0036925889636876e+000 -9.4105157623262958e-001
    2.1196514744645230e+000 -7.0878358406557063e-001
    2.2135943621178655e+000 -6.3245553203367599e-001
    2.1277956934303464e+000 -7.0074687501720012e-001
    2.0012542134963205e+000 -9.6520667819070327e-001
    2.0009212330296329e+000 -1.0308159323129904e+000 1. -1. 1. -1.
    2.0650700322745590e+000 -1.2896897546695729e+000
    2.0067870345412935e+000 -1.0858468404344799e+000
    2.0055868608416305e+000 -9.2799594319600109e-001
    2.0152097747953355e+000 -8.8404272042222687e-001
    2.0004092797837849e+000 -9.7997294047562167e-001
    2.0065787855003610e+000 -1.0844657785099929e+000
    2.0275703620940670e+000 -1.1803996861495800e+000
    2.0199878351887870e+000 -1.1517250488876649e+000
    2.0369607124133919e+000 -1.2116182240082187e+000
    2.0400679217721644e+000 -1.2212037433111504e+000
    2.0092959530366858e+000 -1.1011754685732027e+000
    2.0069985786173552e+000 -9.1976862800100034e-001
    2.0837500501292441e+000 -7.4946509388340077e-001
    2.1992595172563023e+000 -6.4226162893325645e-001
    2.3045656902132219e+000 -5.7978327731027968e-001
    2.1790447569998483e+000 -6.5701918400058645e-001
    2.0059737783451514e+000 -1.0803348035082612e+000
    2.0189068494778324e+000 -1.1472801881672385e+000 1. -1. 1. -1.
    2.1909928343721412e+000 -1.5428356621305723e+000
    2.1508387221901271e+000 -1.4710540438746635e+000
    2.0226326125248768e+000 -1.1621827084608807e+000
    2.0095439581335599e+000 -1.1025816407458471e+000
    2.0254504711750507e+000 -1.1727639896310662e+000
    2.0116483972584538e+000 -1.1139089734503196e+000
    2.0095439581335599e+000 -1.1025816407458471e+000
    2.0057786794502830e+000 -1.0789618560127630e+000
    2.0108340920064038e+000 -1.1096448560819157e+000
    2.0036925889636876e+000 -9.4105157623262958e-001
    2.0449861283152848e+000 -8.0920437188708494e-001
    2.1330597754636971e+000 -6.9573883953177484e-001
    2.3103755072463450e+000 -5.7686366963483338e-001
    2.3713690589383094e+000 -5.4862267735235226e-001
    2.3558026871583437e+000 -5.5544526062582955e-001
    2.1803461098183812e+000 -6.5603334277721204e-001
    2.0000015982604533e+000 -1.0012650226436657e+000
    2.0226326125248768e+000 -1.1621827084608807e+000 1. -1. 1. -1.
    2.1923536166648292e+000 -1.5451796982182584e+000
    2.1395576769441020e+000 -1.4498140516334244e+000
    2.0097952987919459e+000 -1.1039899586916568e+000
    2.0111021671515701e+000 -1.1110640291343061e+000
    2.0218593894194341e+000 -1.1591823427328869e+000
    2.0108340920064038e+000 -1.1096448560819157e+000
    2.0158510008226544e+000 -1.1340754682251344e+000
    2.0095439581335599e+000 -1.1025816407458471e+000
    2.0012542134963205e+000 -1.0360475353056173e+000
    2.0185534789571711e+000 -8.7275005032029396e-001
    2.0596583918285818e+000 -7.8376381281972585e-001
    2.1726342293470307e+000 -6.6195303321445564e-001
    2.4091680948183978e+000 -5.3300179088902611e-001
    2.3851715792470189e+000 -5.4276976518895503e-001
    2.2932064328688218e+000 -5.8562288171871302e-001
    2.1937211558040053e+000 -6.4619093464264632e-001
    2.0108340920064038e+000 -9.0118923592448819e-001
    2.0013454919746443e+000 -9.6398562887779971e-001 1. -1. 1. -1.
    2.1166839341746284e+000 -1.4048787173725410e+000
    2.0945725273647628e+000 -1.3584269362049601e+000
    2.0026920984079504e+000 -1.0532489417670132e+000
    2.0033905173243243e+000 -1.0599480802784194e+000
    2.0083372158807316e+000 -1.0955720716214106e+000
    2.0330277606127662e+000 -1.1989980408670740e+000
    2.0472725824362725e+000 -1.2423398730333892e+000
    2.0288855392234795e+000 -1.1850127928207934e+000
    2.0076530122989262e+000 -1.0913916501751435e+000
    2.0031014277820796e+000 -9.4583866406650663e-001
    2.0344747107889227e+000 -8.3076527381140586e-001
    2.1196514744645230e+000 -7.0878358406557063e-001
    2.2821844660109512e+000 -5.9146373645037298e-001
    2.3514579141482614e+000 -5.5739362693147798e-001
    2.2950759051054010e+000 -5.8464955104770977e-001
    2.1964766313922337e+000 -6.4422576293678668e-001
    2.0449861283152848e+000 -8.0920437188708494e-001
    2.0230245191613978e+000 -8.5933784884731956e-001 1. -1. 1. -1.
    2.0685889837365510e+000 -1.2984253229142826e+000
    2.0433120968152703e+000 -1.2308953402433329e+000
    2.0050310589669866e+000 -1.0734900802433867e+000
    2.0069985786173552e+000 -1.0872299506163550e+000
    2.0254504711750507e+000 -1.1727639896310662e+000
    2.1651495903341162e+000 -1.4972652666406594e+000
    2.1829682949028490e+000 -1.5289057337246250e+000
    2.1309378590933177e+000 -1.4331971441689570e+000
    2.0821539983195620e+000 -1.3306306525291260e+000
    2.0246275866782995e+000 -1.1697279483084486e+000
    2.0050310589669866e+000 -1.0734900802433867e+000
    2.0001022963942789e+000 -9.8993685087024053e-001
    2.0416727736972842e+000 -8.1563665801307450e-001
    2.1842891862560312e+000 -6.5307761384266927e-001
    2.2380558793636003e+000 -6.1680933211285072e-001
    2.1896387775514370e+000 -6.4914069953958531e-001
    2.0502189364281280e+000 -7.9961130453612839e-001
    2.0189068494778324e+000 -8.7162666131059396e-001 1. -1. 1. -1.
    2.0302333714002097e+000 -1.1896500223059383e+000
    2.0275703620940670e+000 -1.1803996861495800e+000
    2.0023118877775654e+000 -1.0492519310793944e+000
    2.0025621286412720e+000 -1.0519147464607441e+000
    2.0937120322534124e+000 -1.3565454064853020e+000
    2.3142979820333363e+000 -1.7393807210098844e+000
    2.3263070884005317e+000 -1.7572294378246747e+000
    2.2240586787475527e+000 -1.5984543095676154e+000
    2.1992595172563023e+000 -1.5569978883230462e+000
    2.1052726696829929e+000 -1.3813356707528108e+000
    2.0998355585135102e+000 -1.3698042328608993e+000
    2.1034407347160804e+000 -1.3774744634423890e+000
    2.0246275866782995e+000 -1.1697279483084486e+000
    2.0271391945468475e+000 -8.4827190062579849e-001
    2.1614906329185080e+000 -6.7085455168330432e-001
    2.1566968680573089e+000 -6.7481981649075096e-001
    2.0693055565215204e+000 -7.6912241923808722e-001
    2.0532645117745991e+000 -7.9430965942228493e-001 1. -1. 1. -1.
    2.0090512798435713e+000 -9.0927984599746980e-001
    2.0124930030912207e+000 -8.9429998809932254e-001
    2.0242214914368417e+000 -8.5600769770622454e-001
    2.0090512798435713e+000 -9.0927984599746980e-001
    2.0405990566765633e+000 -1.2228115712575109e+000
    2.2428618127216517e+000 -1.6289811775076979e+000
    2.3123317794048872e+000 -1.7364413109563881e+000
    2.1319960892717735e+000 -1.4352565329168387e+000
    2.1247018782749367e+000 -1.4209447453949957e+000
    2.0643789402249744e+000 -1.2879532326182364e+000
    2.0774737344986880e+000 -1.3197604950513158e+000
    2.1992595172563023e+000 -1.5569978883230462e+000
    2.0845548825906830e+000 -1.3361179841636870e+000
    2.0010812990453628e+000 -9.6765309340689165e-001
    2.1147313780270593e+000 -7.1382209599649160e-001
    2.1089959209768065e+000 -7.1988482764062944e-001
    2.0894800815930128e+000 -7.4228053467463551e-001
    2.0707515825724463e+000 -7.6704198949902247e-001 1. -1. 1. -1.
    2.0369607124133919e+000 -8.2534248840517344e-001
    2.0411340044636401e+000 -8.1671164653949702e-001
    2.0576974054467567e+000 -7.8691967780991656e-001
    2.0422153730144736e+000 -8.1456251603801078e-001
    2.0011661496101718e+000 -1.0347369850702406e+000
    2.1764613848472902e+000 -1.5174696001811387e+000
    2.4449941216047231e+000 -1.9257033347152246e+000
    2.1937211558040057e+000 -1.5475302211613595e+000
    2.1803461098183816e+000 -1.5243127670411696e+000
    2.1016284094741500e+000 -1.3736307050545331e+000
    2.1099392073125869e+000 -1.3910661145556436e+000
    2.3222632883796388e+000 -1.7512390031838871e+000
    2.1406601627698798e+000 -1.4519142570493562e+000
    2.0026920984079504e+000 -9.4944315664093737e-001
    2.0945725273647628e+000 -7.3614559115980294e-001
    2.0945725273647628e+000 -7.3614559115980294e-001
    2.0821539983195620e+000 -7.5152334579043623e-001
    2.0545108029435437e+000 -7.9219443097064579e-001 1. -1. 1. -1.
    2.0090512798435713e+000 -9.0927984599746980e-001
    2.0108340920064038e+000 -9.0118923592448819e-001
    2.0354579099823065e+000 -8.2859348547952305e-001
    2.0384973098040939e+000 -8.2209942076802278e-001
    2.0320816044594450e+000 -8.3621057174658586e-001
    2.0175141667673469e+000 -1.1413875975074435e+000
    2.1428820520109801e+000 -1.4561303450769936e+000
    2.0449861283152848e+000 -1.2357817564282001e+000
    2.0284435276717789e+000 -1.1834724248047106e+000
    2.0045046817737173e+000 -1.0694070489361678e+000
    2.0111021671515701e+000 -1.1110640291343061e+000
    2.0671686570481840e+000 -1.2949204419309421e+000
    2.0000015982604533e+000 -1.0012650226436657e+000
    2.0609863245559850e+000 -7.8166358706295269e-001
    2.1288376821319965e+000 -6.9974437086513164e-001
    2.1137627844503157e+000 -7.1483128298414600e-001
    2.0427618111256791e+000 -8.1348921681996078e-001
    2.0222442379200283e+000 -8.6156296862079595e-001 1. -1. 1. -1.
    2.0119265603180732e+000 -1.1153347619462390e+000
    2.0081058347527230e+000 -1.0941765041446569e+000
    2.0178571428571428e+000 -8.7500000000000011e-001
    2.0349644486894882e+000 -8.2967893135570170e-001
    2.0520342959930069e+000 -7.9642797581523794e-001
    2.0297804541347735e+000 -8.4167887352238402e-001
    2.0016386283719112e+000 -9.6033104863102448e-001
    2.0374691458203364e+000 -8.2426058996524365e-001
    2.0545108029435437e+000 -7.9219443097064579e-001
    2.1034407347160804e+000 -7.2596627127369151e-001
    2.0861782324880096e+000 -7.4638235119356100e-001
    2.0302333714002097e+000 -8.4058334909427146e-001
    2.1417682802182556e+000 -6.8774860072748034e-001
    2.1790447569998483e+000 -6.5701918400058645e-001
    2.1590817160414337e+000 -6.7283646397498531e-001
    2.1052726696829929e+000 -7.2393699893018226e-001
    2.0001022963942789e+000 -9.8993685087024053e-001
    2.0033905173243243e+000 -1.0599480802784194e+000 1. -1. 1. -1.
    2.0623308481105904e+000 -1.2827645730346531e+000
    2.0364560339552917e+000 -1.2100307660669876e+000
    2.0246275866782990e+000 -8.5489963836985083e-001
    2.0320816044594450e+000 -8.3621057174658586e-001
    2.0520342959930069e+000 -7.9642797581523794e-001
    2.0390170567188881e+000 -8.2102014230716291e-001
    2.0293311790709319e+000 -8.4277533795802928e-001
    2.1089959209768065e+000 -7.1988482764062944e-001
    2.1428820520109797e+000 -6.8675170693398657e-001
    2.2092192704658387e+000 -6.3539492292159072e-001
    2.1651495903341158e+000 -6.6788432369345685e-001
    2.1007295580936791e+000 -7.2901423981885594e-001
    2.2092192704658387e+000 -6.3539492292159072e-001
    2.2380558793636003e+000 -6.1680933211285072e-001
    2.1937211558040053e+000 -6.4619093464264632e-001
    2.1206510528173976e+000 -7.0777734253324021e-001
    2.0026920984079504e+000 -1.0532489417670132e+000
    2.0242214914368417e+000 -1.1682137937306174e+000 1. -1. 1. -1.
    2.4751251313593063e+000 -1.9666449368638739e+000
    2.3713690589383094e+000 -1.8227463815859573e+000
    2.0065787855003610e+000 -1.0844657785099929e+000
    2.0005772211240807e+000 -1.0243157706134676e+000
    2.0199878351887870e+000 -8.6826278630112219e-001
    2.0330277606127662e+000 -8.3402971974569240e-001
    2.0364560339552913e+000 -8.2642526788830406e-001
    2.1590817160414337e+000 -6.7283646397498531e-001
    2.1663815031936844e+000 -6.6689493808806855e-001
    2.2165473280131738e+000 -6.3049702756379800e-001
    2.1362837845952551e+000 -6.9273930562412522e-001
    2.1147313780270593e+000 -7.1382209599649160e-001
    2.2135943621178655e+000 -6.3245553203367599e-001
    2.1869507160837269e+000 -6.5110858866968102e-001
    2.0630093597617472e+000 -7.7851870276723334e-001
    2.0105693714892667e+000 -9.0234150047874817e-001
    2.1384608001937844e+000 -1.4477190372993320e+000
    2.2858216888022200e+000 -1.6963050964941888e+000 1. -1. 1. -1.
    4.8627457569048680e+000 -4.6475800154489004e+000
    4.6188649021354751e+000 -4.3911332571502877e+000
    2.6942309245358160e+000 -2.2497339135978591e+000
    2.5509493710592834e+000 -2.0672042311618215e+000
    2.2714884801724491e+000 -1.6741817748932211e+000
    2.2195296187244411e+000 -1.5909902576697323e+000
    2.2077752608972729e+000 -1.5714000908788428e+000
    2.1726342293470307e+000 -1.5106811961325752e+000
    2.1473941432552901e+000 -1.4646259674920721e+000
    2.1226659236308723e+000 -1.4168996304388124e+000
    2.1543358855290715e+000 -1.4775312489248058e+000
    2.1578862962270811e+000 -1.4840583377339218e+000
    2.1007295580936791e+000 -1.3717153182748234e+000
    2.1277956934303464e+000 -1.4270488184131465e+000
    2.2348913349390962e+000 -1.6161287529521657e+000
    2.3922376805928334e+000 -1.8523964340873711e+000
    3.2458401913610593e+000 -2.9011491975882038e+000
    3.4032839739004386e+000 -3.0784446059744170e+000 1. -1.</input_scale>
  <output_scale>
    1.0526315789473684e+000 0. 1.0526315789473684e+000 0.
    1.0526315789473684e+000 0. 1.0526315789473684e+000 0.
    1.0526315789473684e+000 0. 1.0526315789473684e+000 0.
    1.0526315789473684e+000 0. 1.0526315789473684e+000 0.
    1.0526315789473684e+000 0. 1.0526315789473684e+000 0.
    1.0526315789473684e+000 0. 1.0526315789473684e+000 0.</output_scale>
  <inv_output_scale>
    9.4999999999999996e-001 0. 9.4999999999999996e-001 0.
    9.4999999999999996e-001 0. 9.4999999999999996e-001 0.
    9.4999999999999996e-001 0. 9.4999999999999996e-001 0.
    9.4999999999999996e-001 0. 9.4999999999999996e-001 0.
    9.4999999999999996e-001 0. 9.4999999999999996e-001 0.
    9.4999999999999996e-001 0. 9.4999999999999996e-001 0.</inv_output_scale>
  <weights>
    <_>
      -4.6222180089869102e-003 -3.0386965129628293e-003
      4.1951311306622193e-003 1.2393182417243767e-003
      3.9910867379776820e-003 -3.6096718242828603e-003
      2.7212430466679316e-003 -4.3222094542688183e-003
      4.2447361673685078e-003 -2.9648579954383437e-003
      1.8223902578679845e-003 2.2345350336514091e-003
      -2.8510467270295809e-003 3.2893528653748744e-003
      6.6332868772747005e-004 2.3070695693070183e-003
      4.4132864887138209e-003 2.4871913685018442e-003
      6.6752844171497007e-004 4.5411576321843479e-003
      2.6542105002752810e-003 1.3940396294657149e-003
      3.9125175763899530e-003 3.0413716111723937e-003
      -1.3362404417424599e-003 -2.2059426488131306e-003
      1.5680867236652495e-003 2.6706976345374977e-003
      -3.8907308630967393e-003 -1.4327270612453627e-003
      -1.1536972816925295e-003 -4.6264017750555914e-003
      2.3060224160819263e-003 1.3092783029316777e-003
      -1.8383566451348704e-003 3.9834846521900739e-004
      3.9465962783385364e-003 1.9445897513581125e-003
      -2.0512523005369746e-003 1.3795432742528333e-003
      1.5883914200944711e-003 1.6319220725004501e-003
      -2.3643416429982751e-003 1.8106297601928724e-003
      -4.7374210554400140e-003 5.6880728248780491e-004
      -3.6725714549732877e-003 -2.5920662679817202e-003
      2.8725399787440486e-004 8.3635052721691306e-004
      -2.8678647515879736e-003 1.4719575907745769e-003
      -3.0976136310436409e-003 3.9642033701190382e-003
      4.5363844566419630e-003 4.2988454258555504e-003
      -4.8108213563682499e-003 -4.2817316452198684e-003
      2.0251181385126668e-004 1.4318919384391968e-003
      -1.8672345114128803e-003 -1.7333742334773134e-003
      -3.9045569749589469e-003 5.6491604324825887e-004
      7.8036035827621177e-006 4.1099302360720937e-003
      -2.0927461498505182e-003 -2.6279956628809118e-003
      4.1391044263893858e-003 -1.8829944215139963e-003
      4.4589804284261535e-003 6.0622435323023807e-004
      -2.2389223128708734e-002 2.6239417007262070e-002
      1.5203130379818205e-002 -4.2771060426938734e-002
      -4.2739556276521318e-002 2.0586183152263116e-002
      -6.1317615626557798e-002 -1.9064698265789406e-002
      1.7770974210667078e-003 -2.4913080123220711e-003
      -2.3433565675753054e-002 5.1195344111007270e-002
      -1.3034669655477175e-002 1.7525892085733935e-003
      -2.5697983516200888e-002 4.6055179656294840e-002
      -3.7402451151500322e-002 -5.5875515942670154e-003
      -6.2727608533123856e-003 -4.7038518037697624e-002
      5.4581783807912801e-002 2.5221597168158423e-002
      1.3692042486438294e-002 4.6493895293808041e-002
      3.2460297715417953e-002 -2.0688201361947711e-002
      1.7252649422111285e-002 6.7874330888417454e-003
      -1.5079228383763508e-003 4.2701465685258386e-002
      -1.6431689306333437e-002 -4.3159317167681635e-002
      4.1627823317898320e-002 -7.5080654988020551e-002
      -2.7513259501464275e-002 1.4407541226388527e-002
      3.4208457617887278e-001 -7.0492621435322179e-003
      6.8519284714854758e-002 -7.7126702278876962e-003
      -4.1920689585889750e-002 -9.9441019596408109e-002
      -1.4854434809901581e-002 -5.5190429972304285e-003
      3.8812749161789589e-002 -1.0460477640134026e-001
      -4.8190273191730609e-002 7.2369372172480630e-003
      1.5515349402105545e-002 -8.0750535667802673e-003
      -9.7800405695766188e-003 -4.0709864998592906e-003
      -5.5228951599433480e-002 -3.2237070085617832e-002
      -1.7826545479913292e-002 -2.0089940723041072e-002
      -3.6073110462953575e-003 1.4235093129106070e-003
      3.3844963719775252e-002 2.1587812047379282e-002
      -5.2625763366734371e-002 9.3280570860494270e-003
      -2.7814237987537301e-002 1.0389367518875334e-001
      4.1663527886000896e-002 -7.6684582429737094e-002
      -4.4277068800875632e-002 4.0737998971015132e-003
      -5.9522414823964337e-002 -2.2894420425933208e-002
      -4.1310681027395844e-002 -5.2972698010835373e-002
      3.2270440587210120e-001 -8.1596273300381644e-003
      3.6737318139948463e-003 -2.1120873623881542e-002
      3.9985153500995921e-002 -5.8090822822687301e-002
      4.9074784971432257e-002 -2.8513203398345219e-002
      -1.6047439907697140e-002 -8.6548540854702889e-003
      -2.8589903761022543e-002 -5.8746443237480531e-002
      9.3004254164708006e-002 -1.8694560481773030e-002
      -1.3087104147581760e-002 -9.5535204686062608e-003
      -7.0121142751213034e-002 -4.6134902770101432e-002
      -7.0584904319797054e-002 9.5909648631218244e-003
      -2.6894533905378402e-002 7.0459131231239577e-002
      -5.0979141468054302e-002 9.2235642327672812e-003
      -3.4978614750194342e-002 -1.5270531041322229e-002
      -3.8032183085409052e-002 6.7813614288653956e-002
      4.5823108780867386e-002 -4.8220524209987348e-002
      1.7398881866942488e-002 1.8232470017302556e-002
      7.4609544954135363e-003 -1.6927546572169765e-002
      2.8488004764631206e-002 -2.9307250462360043e-002
      3.1388793202391224e-001 -3.3791795706581717e-003
      1.0475859749868920e-001 -1.7031594480230398e-002
      -2.7601909171712725e-002 -4.9452731327354046e-002
      4.0337415178043165e-002 1.0179930563391186e-002
      -1.3211691573729379e-002 -5.1745473292740984e-002
      -9.7998846044074023e-002 9.1543242764539498e-002
      4.7745712423363056e-002 -3.5358908002256523e-002
      -2.9072672907758234e-002 4.3679099936846811e-003
      -4.5678373802674754e-002 -8.1695131123855971e-002
      1.5485019772269085e-002 2.0497911680450783e-002
      -2.6109131262926705e-002 1.8256381894647022e-002
      3.2340258253501071e-002 1.7825371635694580e-002
      1.3131893114087226e-002 3.0134425226287947e-004
      -1.0051055720669184e-001 1.1981162589062773e-001
      -1.2055070192263194e-002 -1.0512978867396297e-001
      -3.5544699701526156e-002 -4.1731364345945336e-004
      -6.2065889762935395e-002 5.6388149930925273e-003
      1.5565217516127423e-002 -1.2475425806664189e-002
      3.5595500483128156e-001 -3.3891283268829883e-002
      9.1689748216001149e-002 -3.7802329638535331e-002
      -8.5204143521650320e-003 -4.9771472023369859e-002
      5.9543989200018972e-002 -3.6474525634931178e-002
      1.2094811360307177e-002 -1.3168840547190261e-002
      -9.0211817209253559e-002 7.3361585933019224e-002
      3.3586787720368980e-002 5.8906527000226246e-004
      -3.8666948280369380e-002 2.4793185563625062e-002
      -3.2778168341851072e-002 -9.3828548710068113e-002
      -2.4817137254952718e-002 3.3316507351270327e-002
      -2.8819184440763885e-002 1.1224935229420349e-002
      2.6510933856943811e-002 -1.4910394509737820e-003
      1.1419889093126303e-002 4.1398034916734251e-003
      -1.2175848290477757e-001 9.0872135263881215e-002
      4.8238174019497357e-002 -8.1421639066977664e-002
      -1.9156003760266094e-002 4.3424563062132354e-002
      -5.8420210859572240e-002 -4.1686610282575420e-002
      2.5237675541889385e-002 -1.7621220326957433e-002
      3.7634834531727712e-001 -3.4193413777077700e-002
      1.0027104508945756e-001 -3.2283009948665800e-002
      3.7105754740723064e-003 -2.1558518699725346e-002
      4.8721866952670161e-002 -1.9195024233992969e-002
      3.6946217881812578e-002 -1.2129939130476323e-002
      -3.7460848232058065e-002 1.4726238940331638e-002
      2.1930541947343656e-002 1.7564347237969100e-002
      -8.4693305387251432e-003 1.5327686946634094e-002
      -2.0146334766255370e-002 -8.6745683298268747e-002
      2.1750697616398410e-003 3.4520133665114229e-002
      -2.2299547511628031e-002 -7.6065126779204083e-003
      2.7739524063417630e-002 1.5580635584769372e-002
      1.4449561802709902e-002 -6.4078648514647443e-003
      -8.6699607617696114e-002 7.1812634975500667e-002
      1.7101522638605576e-002 -8.1092819555879339e-002
      -3.6456869338917210e-002 3.8388363946714778e-002
      -5.1709418924199155e-002 -1.7672283974860405e-002
      1.5021520129040917e-002 -1.0066960344083317e-003
      3.5885947358155229e-001 -3.0809613580258747e-002
      8.4279874247088785e-002 -1.1474813057155872e-002
      1.7273643884309936e-002 -1.6640385673275398e-002
      4.3116286623111885e-002 -8.1143308061310557e-004
      2.7312746569175973e-002 -1.5232253574371260e-002
      -3.2724912401211607e-002 7.2241704061589904e-003
      1.7164982045093535e-002 1.5114867991890105e-002
      -8.3605632689575209e-003 1.0861701042536556e-002
      -1.7908437816933447e-002 -7.7405043117503944e-002
      -8.1265452102185663e-004 2.1470745082707989e-002
      -2.0020794568124483e-002 2.6574443029697321e-002
      2.2925833829035895e-002 1.9704331960637429e-002
      1.6374750613042541e-002 -2.4813060295114826e-002
      -8.7437733390508088e-002 7.3861139238254478e-002
      -2.6924111663102095e-002 -8.6511574283014675e-002
      -5.7609180984149841e-002 2.4049105843185530e-002
      -3.3802818437711095e-002 -1.0335201627386546e-002
      2.3798528948930614e-002 2.1450586965714915e-002
      2.7993840780643237e-001 -2.4752791704823141e-002
      7.9410334281803469e-002 -3.5912372928647339e-003
      4.6037160969835816e-003 -2.4473308933736456e-003
      4.7170891166040577e-002 -3.2350847818329964e-003
      2.5671178906536755e-002 -1.1460554308527176e-003
      -2.5503172383412487e-002 1.5775383903189198e-002
      1.1788584130426643e-002 2.3379890770144383e-002
      5.6500106946013404e-003 1.4678000159172542e-002
      -3.9488309731537932e-003 -6.2313023168897912e-002
      -3.0392028940646374e-003 -7.5657266613088662e-004
      -1.6452551000778488e-002 -1.8175482362068191e-003
      1.8348629324321800e-002 2.7735442574158872e-002
      2.4229344169143598e-002 -2.3590670548172639e-003
      -7.7471795995510073e-002 3.8689010581899122e-002
      -4.2855137752391421e-002 -7.5109113212832104e-002
      -5.4595695326309965e-002 1.7708603338748203e-002
      -2.4961713021488564e-002 1.6189337760882567e-002
      9.9186629946817276e-003 1.6584585823346615e-002
      1.6394800990318822e-001 -2.2367206109012824e-002
      6.7601731922878633e-002 5.7320390687407324e-002
      -1.6754921632948844e-004 2.4038981568687896e-002
      4.3909735185300280e-002 5.3322376532403681e-002
      5.7873558822182591e-002 -8.1833015829754566e-003
      -1.7436752565032240e-002 -1.2734811459741943e-002
      7.5743412709147317e-003 3.3851480875323990e-002
      -1.3350557274517246e-002 2.5468102824265863e-002
      -9.3943103934038975e-003 2.5835182187943046e-003
      4.1230340589633922e-002 4.3192561585072226e-003
      -1.4991924951734273e-002 1.0102178794145530e-002
      1.8780532042618158e-002 6.4188967347024672e-002
      4.2183128779662425e-002 -1.5397773903776606e-002
      -5.6415407214480150e-002 3.4533120689104330e-002
      -4.6692277297618941e-002 -4.4328898792850430e-002
      -1.0998991628909686e-001 1.9439421249225403e-002
      -1.2983125377645340e-002 2.5754608651476826e-002
      2.9249938713888909e-005 3.3299922107207225e-002
      2.0831144300232590e-001 3.6925760867645820e-003
      5.2408607220869249e-002 3.1731333152611958e-002
      -9.7272407910064460e-003 4.4446079840568704e-002
      5.6518185288786917e-002 8.7389360854247568e-003
      4.8754748445364982e-002 -7.2437054157711055e-003
      -1.2978325764776784e-002 1.1776267242051127e-002
      -1.1460528570670448e-002 1.5066193730818299e-002
      -8.0834451352061378e-003 1.9474228796295373e-002
      5.2985542422750720e-003 -4.7492514087400260e-002
      3.1324963548416698e-002 4.3139366334079624e-003
      -2.9899776357041555e-002 -2.7425067982960072e-002
      1.1593272947908687e-002 2.3316163169130631e-002
      3.3262990237590329e-002 2.4061047536010228e-002
      -5.8843411202698752e-002 3.6095528614712685e-002
      2.8990853472021304e-003 -3.0967724973068451e-002
      -7.6581312765325676e-002 -5.0261154034951083e-003
      4.7229982373144337e-003 3.1010367449065129e-002
      -4.4802730575912900e-002 -1.0916586884818856e-002
      2.3071545077531194e-001 5.1084454073883180e-003
      6.2444120461110857e-002 1.4339878025588733e-002
      -3.9731530862322430e-002 3.6526885776051295e-002
      6.9697778943721173e-002 7.6843602795680446e-005
      4.5141133188088774e-002 -2.6038752813691838e-002
      -2.3374163095733241e-002 3.8143820472550195e-002
      -8.9549928465788870e-003 -4.5943789297445587e-004
      -2.2089284759563392e-002 2.3997945632777015e-002
      -3.1428060246959338e-003 -5.4255126791513585e-002
      2.6876650356664082e-002 4.8433326299262116e-003
      -4.2133302776030515e-002 -3.0329626145208302e-002
      8.2689947836718011e-003 1.8592617346170254e-002
      3.7233619628705812e-002 3.8389805628549933e-002
      -7.5073986427383013e-002 4.7538626441601957e-002
      4.2252126394213330e-002 -2.9524657556994363e-002
      -6.4561081779849483e-002 -1.7158128228198576e-002
      -1.1726111585883370e-003 1.4453043238002861e-002
      -6.3074506342638073e-002 -2.9952513286900007e-002
      2.5010037085188663e-001 -7.5774043877859000e-003
      2.5983959960150963e-002 2.5537281414983317e-002
      -1.7123218745388451e-002 4.2608712548955346e-002
      7.6309547876414988e-002 -3.3724645672937714e-003
      3.3042062054547371e-002 5.7513712702565827e-003
      -2.4941437317034350e-002 5.1209106098151831e-002
      7.7362916367859930e-003 -3.3385147873301838e-002
      -2.5333292294715766e-002 2.1962303233937479e-002
      -6.0536598952550596e-003 -3.7758071167185971e-002
      1.1365935429861907e-002 1.4211980999149916e-002
      -5.3065587841744352e-002 1.8617863272069629e-002
      -1.8340100957784919e-002 9.8719307224657445e-003
      3.4218632294245536e-002 3.1995311730483686e-002
      -8.7473372726020973e-002 4.7441041212542737e-002
      1.6432474556148019e-002 -1.7970018020689947e-002
      -4.0829239190917743e-002 -1.2822749770679369e-002
      1.5326038780609176e-002 1.4903499060151724e-003
      -3.8567770704176878e-002 -3.9284578722897492e-002
      1.7203558424782134e-001 9.0103795566101770e-004
      -2.2969553553052118e-002 1.9344338872698846e-002
      9.2047949998584743e-003 1.0220957351141875e-001
      -1.3150036713883198e-002 -1.0976579282834230e-002
      1.4632892496624529e-002 1.2820249737941885e-002
      -8.0843180839128125e-003 1.2929104492679710e-002
      -1.2325339027355355e-002 -3.9825908942550690e-002
      -1.7031505705412401e-002 4.8446214523008874e-002
      -1.0200950381477383e-002 -3.0381662039094806e-003
      8.2488645107982369e-003 3.9092797370306909e-002
      -2.8744635066996579e-002 4.3754768155094704e-003
      -4.8667999621219434e-002 -1.4980759095683130e-002
      4.5712996517720456e-002 -6.6092656567738493e-003
      -1.7282401953442907e-002 -2.0354731622983936e-002
      -1.0630451266567312e-002 1.0819111762633825e-002
      1.8811308139421829e-003 7.8847978221663791e-003
      2.4725387507648820e-002 5.1612506287822962e-002
      -6.8655353804733497e-003 -2.7165789017058409e-003
      -2.0172391800225475e-001 2.0798396455693835e-003
      -7.1108836859759605e-002 1.2496704390565131e-002
      6.1364720808684360e-002 7.0840094050163595e-003
      2.6071040861422139e-002 -4.2001590523837791e-002
      -1.9551401598927130e-002 4.1095494953079931e-002
      3.6769731373761647e-002 -4.3805704126059108e-002
      3.4785690668678149e-002 9.7457264776023463e-003
      1.7180285941788082e-002 4.4535052769380752e-002
      -4.5134659793291544e-002 -7.3663313634607141e-003
      -3.7877973285118417e-002 -3.9168736806875486e-002
      1.1621544436363576e-002 7.2719980194964774e-003
      -7.1854256250403162e-002 2.1567447548502802e-002
      2.2737221340811457e-002 7.5203804994473994e-003
      3.7588727317696573e-002 -6.8812667367160824e-002
      1.9932096509505684e-002 5.8569094645857682e-002
      4.2724569122230974e-003 -1.8364576244519593e-002
      9.9706130167627458e-002 -1.7684362738613912e-002
      5.7748371005253239e-003 -1.1026815838164087e-003
      -2.5629458793147758e-001 1.6616412125736418e-002
      3.5480625483131856e-002 3.2612734494945270e-002
      -6.5068108022150961e-002 -4.6144326558887401e-002
      -8.8693789080071719e-003 1.8919903882005554e-002
      -7.0956243373012942e-002 1.0070930658901060e-003
      -3.0795837742939910e-002 1.2879460817876845e-001
      6.2422448135956467e-002 -6.1463819692384146e-002
      -5.4745902279889493e-002 2.0707561567604053e-002
      -6.1376727535412359e-002 -6.4889972362128512e-003
      2.1850575706557459e-002 -4.4536022692245089e-002
      1.9499248559254109e-002 2.7587968590972761e-002
      4.7072168480255583e-002 5.8294398752366722e-002
      3.3786785839264470e-002 4.4340230741981290e-003
      -4.0817459939840933e-003 5.5297714619492698e-002
      -6.0342028129978173e-002 9.1244789503677065e-004
      -6.2224583360952594e-002 -6.7988168205474570e-002
      -8.6983150085006081e-003 3.5982022006772097e-003
      -9.3082207947547107e-003 -2.7486699916000151e-002
      -5.7979935300299801e-001 -9.9480486631746867e-004
      -3.6043201003345869e-002 1.1117968654457398e-001
      8.4829766044768481e-002 -4.5690179565937919e-003
      2.7833174277496757e-002 1.0332998849357419e-001
      -3.8949989770589534e-002 1.4089582269400955e-001
      5.0120483427007041e-002 -2.3695827695664758e-002
      5.2293333699750769e-002 4.7685250733081011e-002
      3.9525748649093015e-002 1.3259859558093095e-002
      4.6999605047518354e-003 1.5424861676492471e-001
      4.6096561570929985e-002 -6.1875265449581267e-002
      4.3833283873293244e-002 1.4407374252265251e-001
      -5.8683876110305386e-002 7.6609198148865590e-002
      4.2643583359273818e-002 -5.8198996042154796e-002
      3.2575175139243150e-002 -5.1064971477216989e-002
      -1.5140888764471314e-001 -5.7285444617778793e-003
      -5.8730340472179163e-002 -3.6085667106467850e-002
      5.2680000728038814e-002 -2.6631429126018860e-002
      8.0367663904021627e-002 9.9753969537867485e-002
      -4.2895456492672113e-001 9.7476451156863052e-003
      -6.4925454063426633e-002 1.4664407793837422e-001
      1.7468398366580394e-002 2.8022476538234014e-002
      -1.7153026725664440e-002 1.1866555408480814e-001
      -2.0449490686815933e-003 6.1664116797108138e-003
      2.4410296201419525e-002 -4.4703147243848280e-002
      -4.1667363093399242e-003 7.1359705705278387e-002
      -1.7910060464977303e-003 7.0156076181286950e-003
      1.5368488602309265e-002 1.5517451783392033e-001
      5.5572405462815888e-002 -4.2300628010919550e-002
      4.3383133056616625e-002 9.4458971978210515e-002
      -5.6737492995462381e-003 7.3749383998635329e-002
      1.3608133641054983e-002 -3.7333156279703419e-002
      6.3411047947994417e-002 -2.3692708219386849e-002
      -1.2921564051600609e-001 4.2074450568906066e-003
      -1.0674877964852553e-001 -2.8884935243526390e-002
      3.3168360743726630e-002 4.2500217707396079e-002
      1.8593896989847754e-002 5.4398989873535759e-002
      -4.6789493697921621e-003 -4.4294990888884824e-003
      2.7137525926839360e-003 -7.8663643944641373e-005
      -4.6836504848198068e-003 -3.4498204770849906e-003
      1.2180863294188823e-003 -4.2906359919444295e-003
      -1.9449909752313917e-003 2.9909704882622547e-004
      1.7768484712696012e-003 3.9951902542655028e-003
      1.1874384443957414e-003 3.3425340597871046e-004
      3.0630592397158430e-003 1.1239385831826195e-003
      -2.9405788540911868e-003 -3.2177526068619768e-003
      3.7767380277239546e-003 -3.4675452741078131e-003
      -8.9219784239875455e-004 -5.7023583401520390e-004
      -2.3245408346488127e-003 7.8861987990807984e-004
      -2.6117477508819918e-003 4.4356991975370123e-003
      -3.5855366667424528e-003 2.4216811053808522e-003
      2.4287684686802964e-003 2.7077570236381881e-003
      4.8927980192230418e-003 -5.0627460253129214e-004
      -8.2243414458874661e-004 2.5728529540919236e-003
      1.8187054090596007e-003 2.3956193096730220e-004
      4.0542044688994441e-003 -2.2050087471490033e-003
      -3.8082310452576267e-003 -1.3242387019078762e-003
      -8.5703240788172620e-005 4.1790232745207305e-004
      -4.3859117789445184e-003 -9.7886432217794654e-005
      3.8096315466101534e-003 1.3166832152260739e-003
      3.9001798040830911e-003 -8.7691322855022106e-004
      -2.2334106748155705e-003 2.1387270353332272e-003
      9.4741477303509898e-004 3.2776809843691524e-003
      2.5597349874420259e-003 4.7629358835966406e-003
      4.6522053134242366e-003 2.1436730477212740e-003
      1.3837672011595039e-003 3.9629123883329681e-003
      -3.4570566913050115e-003 -7.3036556521611780e-004
      1.8337400409721544e-003 3.0219425674972073e-003
      -1.5074255485661866e-003 1.7534316582259201e-003
      3.9830719100564715e-003 -4.5698646951901822e-003
      -6.9498440742623939e-004 9.0902932686618668e-004
      -2.9508905783461525e-003 9.8938735833807253e-004
      2.5705384226829189e-003 -1.8384329511515489e-003
      5.5895673678014901e-001 -3.7586988056284361e-002
      -1.1699546728170541e-001 -2.5864883722779126e-002
      7.7557235591052723e-002 -1.9527622600164014e-002
      -1.0362041506170339e-001 -1.8928726314474491e-002
      8.7606361287443976e-003 -1.1482590136384825e-001
      -1.6974649862609676e-002 -3.2708294559913149e-002
      -1.5933147208115481e-002 2.7440129847723982e-002
      -1.5051570256675287e-003 2.9183412278505620e-002
      -8.1713749602222108e-002 6.2022435303765867e-002
      -5.8428804280035468e-002 9.7458571415425903e-003
      8.4367544999663716e-002 -1.2017056701175883e-002
      -4.9350657215235377e-002 3.8229124607102420e-002
      1.0249294663470156e-003 6.3748879014656891e-004
      6.1766405429451381e-002 -2.9865537707843365e-002
      7.6090556519619906e-002 1.3184867505372558e-001
      3.4141106914778015e-002 -2.5283790484320355e-002
      1.1195989908110188e-001 -1.1340702408009107e-001
      -3.2182571103909097e-002 -9.9554561875783223e-003
      4.9325726311537660e-001 -1.3736370595984695e-002
      -1.0713648608242225e-001 -4.0515166331840921e-002
      8.2192882875808670e-002 -8.5837270661362295e-003
      -8.9906879341939694e-002 -2.0747703434442460e-002
      -3.7883845449821790e-002 -4.8612556552786228e-002
      1.9196044786825427e-002 -2.4647570453521478e-002
      2.3891862775083109e-002 -6.5612694025414552e-004
      -2.3683610334207777e-003 3.4548588215605705e-002
      -9.2668113232308419e-002 6.4794871229766834e-002
      -5.8588913372957477e-002 2.6873098104274629e-002
      7.3528102252511801e-002 1.8003410408611344e-002
      -7.9896593552835640e-002 4.2456176552369912e-002
      1.2886637939029907e-002 -2.3147647286758083e-002
      5.3134415449916254e-002 -5.5337397412871442e-002
      4.7964856258304898e-002 1.2042794135269873e-001
      4.9679539855158376e-002 -4.8291206241926184e-002
      1.2017181974311536e-001 -9.8762976902071170e-002
      -2.2840765592369146e-002 2.7424307726400974e-003
      6.5131268348305593e-001 -4.2555638049900389e-002
      -1.1423453953039861e-001 -7.1709713451829041e-002
      6.0574661633378428e-002 -1.2112446840050589e-001
      -7.3387894124823577e-002 -4.4325748323797182e-002
      1.5289414180250102e-002 -8.1717847510703434e-002
      -5.2858095799609567e-002 -7.7515205973529633e-004
      4.7722264269623926e-003 1.7610048600974874e-002
      -6.6095312959295882e-002 6.9215347445034547e-002
      -9.5678539857322623e-002 6.3804117040027822e-002
      -6.0521755234538573e-002 1.9337509990436187e-002
      8.3992034984268563e-002 7.2341739515918269e-002
      -2.4206587835316644e-002 1.7810995852632783e-002
      5.9573873257877516e-003 2.5342618920452871e-002
      4.9818268510016757e-002 -6.6196164052965217e-002
      7.2351210083530113e-002 1.0014202851716397e-001
      4.1390168245775537e-002 -3.3007848131226735e-003
      1.3094609177703176e-001 -1.3568914396198928e-001
      3.9139847150135118e-002 -1.3649350608215701e-002
      6.1829115966489268e-001 -1.3723682922280196e-002
      -1.2484754004024066e-001 -9.6134523282284265e-002
      6.4182319688061248e-002 -7.9166163497864386e-002
      -5.7350690360275118e-002 -5.7465023854330069e-002
      -5.4137600154272210e-004 -7.5514350756183915e-002
      -1.7559403053366934e-002 -4.8195875355253222e-002
      1.9250572723578680e-002 1.6885638386362752e-002
      -4.7783446262499828e-002 7.7340555929411109e-002
      -1.0755818163440077e-001 2.4587458016552027e-002
      -6.6784496452163541e-002 2.4968018971785057e-002
      6.3184480197263720e-002 4.3252424917346481e-002
      -3.5703362016260155e-002 1.4976093426862444e-002
      -2.8623264017095130e-002 1.0090152253771408e-002
      7.7171662918285339e-002 -7.8389075975198050e-002
      7.7655366004460130e-002 8.4843974477285630e-002
      4.9350208517419072e-002 8.3732720331547213e-003
      1.2646137270335414e-001 -1.0812409948784320e-001
      3.8337387448765893e-002 -1.8036862788013277e-002
      4.5479736550420108e-001 -1.7936977496416852e-002
      -5.3679313005263782e-002 -1.3978520798551869e-001
      6.9773377806419054e-002 -8.2183166928315607e-002
      -3.8472345661701227e-002 -1.3224807028325500e-001
      -3.0731187369710398e-002 -9.5234335489689417e-002
      -3.2388653797973031e-002 -1.5392642382123019e-002
      1.2000434287088500e-002 -3.5345164708587944e-003
      -2.7261614679444785e-002 8.0914306187973878e-002
      -9.6366680358303480e-002 -7.7693581034749201e-002
      -7.0204345747978500e-002 1.2232565061477975e-002
      5.0998159602157971e-002 -1.2169592327919860e-002
      2.3159566310157594e-002 -1.8261437337747429e-002
      -6.6457502731756879e-002 1.4700594720912083e-002
      6.0084855458088247e-002 -1.7437560234653864e-002
      7.4787564692896324e-002 1.9400326094965559e-002
      7.8848028609346865e-002 -1.1418728425237983e-003
      8.8916260241451064e-002 -6.7027715457883399e-002
      4.7784591410787808e-002 -4.6905921948990972e-003
      3.8491672618701367e-001 -2.1090558536730895e-002
      -7.2065133730986622e-002 -1.1768388033161881e-001
      6.1984391698886344e-002 -7.4508237381950948e-002
      -6.1295787756240595e-002 -9.3240682363184127e-002
      -1.7649384339920502e-002 -1.0193434909993829e-001
      8.5748303092914400e-003 -3.9255729591067837e-002
      3.2122191558982237e-003 1.5565684206987543e-002
      6.6183825938032122e-003 6.6794551782577219e-002
      -8.4360344039630039e-002 -5.1928638188531287e-002
      -6.2074836729395469e-002 6.2486568936120533e-003
      5.9175783766925151e-002 6.7405093141434157e-003
      1.4606572772561570e-002 5.9022183750149131e-003
      -7.4188576012540045e-002 1.5889684551662587e-003
      8.9759107284809833e-002 -1.0577688300855231e-002
      4.4113816181597994e-002 -4.7119548455106068e-003
      5.5384088040266788e-002 2.4636976943347589e-004
      8.3122314260255417e-002 -1.9838223245268516e-002
      2.2442593115540959e-002 8.8286042051439924e-003
      -1.7110147512431548e-002 -2.1045062531019763e-002
      -4.1673485136695450e-002 8.6167303630947864e-002
      2.7267755240538084e-002 -1.0956203192120630e-001
      -5.4304159557319202e-002 8.0031675634402985e-002
      -4.5046677551054362e-002 -9.3605529609354352e-002
      -6.3924729407663097e-002 -1.8827110236065332e-002
      1.0630740401654344e-001 4.9559526593188137e-002
      -4.9073118277463509e-002 3.9523512311350859e-002
      -1.0452760855639030e-001 7.5778827482408342e-002
      5.0158681846507125e-002 2.1600415018412065e-002
      5.1962451654587391e-002 1.4462447476686988e-001
      2.0129694561741591e-002 1.1997079251331901e-001
      -3.1588035673476914e-002 -8.1508691570352274e-002
      -2.1049048243199340e-002 9.9115840877888980e-002
      -9.8618931306936938e-003 -9.0123520057386452e-003
      -8.1639821475259250e-002 1.9985335236268033e-002
      -1.4748685795022263e-002 5.3404988412563525e-002
      4.7610144282656981e-002 3.9410501491037961e-002
      -1.6163044581780983e-001 -2.5422418155102804e-002
      -8.5527763299860140e-003 4.5117731971041998e-002
      4.0690918952005918e-002 -7.7722842263276790e-002
      -5.6086743766065240e-002 2.0434746095302301e-002
      -3.3191780600651494e-004 -6.4542513072977772e-002
      -3.0039730771854491e-002 -5.2345867239802554e-003
      1.0400308047203079e-001 4.2083403701470595e-002
      -4.4368399062365546e-002 1.1709276185734939e-001
      -1.4952400065928206e-001 6.7137090700557164e-002
      1.3039742534648055e-002 3.8987024057394237e-002
      6.3466248936367792e-002 5.1360416039690202e-002
      2.5780936041537024e-003 8.6494520229588132e-002
      -4.7610688725051465e-003 -6.4905996656564380e-002
      -2.1884665344271683e-003 -1.4537784907692589e-002
      3.6527240521398285e-003 4.7012380576264827e-002
      -2.3777596396522979e-002 4.1441226439050259e-002
      -6.2000163837219431e-004 4.1341861272024542e-002
      3.4263610833794284e-002 3.4442620630035656e-002
      -5.6027697793048073e-002 1.1694116170072060e-002
      -2.2806518689962061e-002 -6.0246120870825091e-003
      3.3898896938762080e-002 -4.0928535367658531e-002
      -4.1152983669587237e-002 -3.6507472117984004e-002
      1.5103836546488444e-002 -7.9010480343463710e-002
      1.6565826660374684e-002 -2.0104180805046053e-002
      4.4961207462078739e-002 2.7303204776511953e-002
      -9.0380859601718235e-003 1.2793911632153565e-001
      -1.4096886241078030e-001 -8.7114341774169324e-003
      -3.8508141952949904e-004 4.0705965811597767e-003
      4.7738058010538993e-002 -2.5422070722857591e-002
      3.1943255862284131e-003 5.5130606643486568e-002
      -2.7355790634188314e-002 -1.2087354186036079e-002
      1.7172673361536824e-002 -2.0103943946746871e-002
      3.8016897995017583e-002 5.6567057802592399e-002
      -5.3338850996779716e-003 -5.3947269687077241e-003
      5.1443599287698843e-002 1.5529535450809116e-002
      -4.8104608264617182e-002 -7.4260295430334086e-004
      -1.5806063636196552e-002 8.0670385831918111e-003
      2.5174144731718518e-002 -1.3604730861396571e-002
      2.1777490863981153e-003 -5.9236591092401022e-002
      -3.0152387378503603e-002 -3.6617045243177992e-002
      6.0789111805356344e-002 -9.5898511920097948e-002
      5.4039129469569073e-003 2.5394680950877786e-002
      5.2325627441552267e-002 2.0488636627838959e-002
      -5.3299613148411647e-002 1.5212629622965360e-001
      -1.8184997822757965e-001 1.1366786114660052e-004
      2.8500215748456261e-002 2.8325258819672784e-002
      4.9335932286687166e-002 -5.1722625926406999e-003
      2.1917365794409758e-002 6.3010763093277980e-002
      -1.3876667717750523e-002 -2.0057842046296900e-002
      -1.0951761730653105e-002 4.9381834833302374e-003
      8.3833998967832307e-002 4.8912346105371159e-002
      -1.1940357267579259e-002 -1.1501087380464394e-002
      2.2914021265069851e-002 -1.5586217383406126e-002
      -7.0630829405365497e-002 -1.9597984922794971e-002
      -3.2204714300966143e-002 -2.6966047953748970e-003
      3.0176088403952795e-002 1.5966672879790169e-002
      -2.1846593778400095e-002 -3.4948935639650729e-002
      -1.3996009391399727e-002 -3.0544095267439616e-002
      6.4734606510289963e-002 -1.0791399944830948e-001
      -2.2891493972878065e-002 4.4379298864855629e-002
      9.4614285755337951e-002 -2.8746006889244450e-003
      -9.2686167030342978e-002 1.9770406658598946e-001
      -2.5728609113156897e-001 1.2776933158149414e-002
      1.7563037276339580e-002 4.1342615131505354e-002
      3.7440677927865977e-002 1.2261645524901131e-002
      4.8962164949063807e-003 7.4244550851486443e-002
      1.7016755763930597e-002 -4.2092854499795759e-002
      -4.2147848566824755e-002 3.4456816343356123e-002
      1.0894169570817698e-001 8.3888704183247786e-002
      -1.2095593572830925e-002 3.6302119419150190e-003
      3.0654481451913962e-002 -2.0497891904783311e-002
      -8.7210764624791604e-002 -2.3239128215063312e-002
      -1.5605886955868977e-002 1.3185663798081129e-004
      1.7432981480115947e-002 2.6255812456512029e-002
      -3.0882013863267391e-002 -5.1086172692440861e-002
      -8.0597439456797423e-003 -3.3360005800039644e-002
      6.2047692861321141e-002 -1.1109572753506948e-001
      -1.1589513346614828e-002 5.9792243267893459e-002
      9.4607234394768272e-002 -3.3150074319236521e-002
      -9.4402989084023836e-002 1.9256720421960333e-001
      -2.7292029472657486e-001 1.2471313433248414e-002
      2.4007505175116489e-002 3.2111605380819856e-002
      2.1060454767092524e-002 1.3733544644005604e-002
      -1.5589424194117969e-002 7.6276103592427758e-002
      2.2079875313325774e-002 -3.2944099360087950e-002
      -5.9565455919404084e-002 1.8196538725837725e-002
      9.1823992134699592e-002 8.1414773420746114e-002
      -4.7101385296565877e-003 -2.2273246490594412e-002
      4.9262866513845149e-002 -3.6305809970840541e-002
      -8.3423722451691815e-002 -4.1329826834613455e-002
      2.3501843543221011e-002 -1.6689448479530428e-002
      6.5473976107646104e-002 -1.5007924262530769e-002
      -2.7944100104350660e-002 -6.7034117547942848e-002
      1.9293953223651964e-002 -5.0037305802265723e-002
      1.0087564364764352e-001 -1.1683085430525882e-001
      3.7977488404012889e-002 5.7182112981380664e-002
      3.6573747493893624e-002 1.5345095477443946e-003
      -5.9313369505497981e-002 1.8862693234616137e-001
      -2.5135778375557338e-001 1.2962287564711832e-002
      4.3617180498115950e-002 -1.5653605327638362e-002
      3.9448990087156632e-002 -3.3955077874272904e-002
      1.5107486127811261e-002 7.2540479537884436e-002
      1.1645953628059211e-002 1.2710103589244943e-002
      -3.7346253054639990e-002 -2.9064988677253833e-002
      8.2638462629509690e-002 3.8106022671315833e-002
      -1.6553304065093404e-002 -1.8869085768740801e-002
      6.4652080444436585e-002 -1.0030507763507249e-001
      -7.2986083205717311e-002 -5.1200510880723415e-002
      5.6387487448364582e-002 -1.2241088536842118e-002
      5.9040503377381148e-002 -6.7560400383671730e-004
      -7.8710120428122296e-002 -7.0086501562375308e-002
      9.9372419924271642e-003 -2.1575261608470803e-002
      7.9382734157384893e-002 -1.0306180126504438e-001
      -3.5719477752653339e-003 9.6906664812319784e-002
      3.0082050332403468e-002 6.8202942754700905e-003
      -7.5616455465905064e-002 1.9081418891222560e-001
      -2.2243507634293047e-001 5.3214035242689327e-002
      6.9720554250448027e-002 -4.4613078649786975e-003
      3.4057308592708418e-002 -2.8729869244489479e-002
      2.5433192312200800e-002 7.1453424795187043e-002
      3.0825947584305218e-002 4.1529645544951393e-002
      -4.0715076362027730e-002 -2.4171034929950385e-002
      1.0577626131635341e-001 5.3328266753638602e-002
      -3.8611683062896307e-002 -2.4957668529108773e-002
      2.4956142847630518e-002 -8.2290463527821808e-002
      -7.8827596588850177e-002 -8.4693542768496582e-002
      5.2453186091033282e-003 -3.0735642007032580e-002
      -6.2788542952694593e-002 4.0279688804991776e-002
      3.4220141364861657e-002 -3.3028139401127068e-003
      -2.9735706110849639e-002 4.7244297870196454e-002
      3.9552352604143914e-002 -2.9870074279958130e-002
      1.2999237141292438e-001 -1.1909859793609453e-002
      2.2365935804744357e-003 1.3947719476333722e-002
      3.2458724477518693e-002 1.1271342826557348e-001
      -1.4049199105253402e-001 1.0454474769659640e-001
      5.9678482160947031e-002 -2.0685003963908679e-002
      6.5297116398941493e-002 4.0075342619965683e-002
      -5.9935866888729337e-002 5.6520642455403294e-002
      5.0851119165839051e-002 7.7812270886287596e-003
      8.6072876571714405e-002 -1.0369418837406053e-001
      -5.7066251584996952e-002 2.3058855301316464e-002
      -2.7816798041381544e-002 5.6896975026025122e-003
      7.2696667490397812e-002 -5.2366505785935880e-002
      -7.4710132325165844e-003 -2.8157595129909233e-002
      -1.5076339637452457e-002 -7.1098080355058296e-002
      -3.9335514471178279e-002 5.3722466241116699e-002
      4.7821765460376406e-002 -7.3246023203271726e-002
      -4.6448317415507763e-002 6.1215611618080257e-002
      9.3559705186158984e-002 -5.8022042263078784e-002
      6.3674382118925552e-002 2.4822054442033135e-002
      -3.7574705060188555e-002 4.8375974328201982e-002
      -3.8465660069195535e-003 9.8240086677310490e-002
      -1.2544053974047839e-001 1.2524601043052302e-001
      4.7964056271218240e-002 -3.5391743608348972e-002
      9.7726038564321771e-002 6.6676111901261798e-002
      2.6494515067973260e-003 5.7613795545545077e-002
      5.5814286126466904e-002 2.4197427476456597e-002
      5.4839846309613846e-002 -6.3873569506023006e-002
      -1.6942930289027235e-002 2.0083476913686640e-002
      -5.8572792284914119e-002 1.6190618749053309e-002
      5.8945801937788533e-002 -1.5528697919774570e-001
      1.3624577713422042e-002 4.2280272540047055e-004
      -6.5257021305893681e-001 -4.2459224275426637e-003
      1.9699941638418719e-002 1.4245273491908622e-001
      1.9576512474664402e-002 -5.7487945732610783e-002
      -2.0650807953594291e-002 1.2537070378562643e-001
      -9.7566350757443744e-004 -5.2246855283811421e-002
      3.7077260787856260e-002 4.1655414680259524e-002
      8.9942974926262728e-002 -3.1627652360862700e-002
      -2.1978711230925072e-002 1.0570023219823117e-001
      -1.6261295481430466e-001 7.3275333338327128e-002
      8.0489031367371899e-002 -3.2172141378632335e-002
      5.3971785900828843e-002 1.1600099343972177e-001
      1.4070857271014635e-002 1.7016244732795516e-001
      6.5280276702906065e-002 -1.0466241837943059e-001
      -7.9155927954073953e-003 2.5043160281919719e-002
      -7.5730185706303244e-002 -9.8559360633504907e-003
      -1.1003757291896325e-001 -2.2837834510651172e-002
      7.3506206571553575e-003 -4.2759660505769834e-002
      -3.6624707074107483e-002 3.7552928916451032e-002
      -1.8494552193306726e-001 -9.0289279507420155e-003
      -3.3850387201162069e-002 1.7332996070948115e-002
      5.3822420883103883e-003 -2.4563509719588299e-002
      -3.2729098350539484e-002 1.4708794199854248e-002
      -2.8155106284171991e-002 -9.3467873026739506e-002
      3.5022942235360559e-002 -1.0140947689969785e-002
      6.1136200579478259e-002 -5.8165846803494133e-002
      -1.4115715064421918e-002 7.8052740483702504e-002
      -1.2943773449887738e-001 -2.3080326078752510e-002
      -1.3453291391773139e-002 -9.0548176052342409e-003
      3.4109928674726356e-002 2.4028748153828869e-002
      -1.1990408888392283e-002 8.9623477193220558e-002
      3.2538729167287929e-002 -5.1289202603380102e-002
      5.7541784626735717e-002 1.2846569027278628e-002
      2.7188973866719243e-002 3.7149558456116186e-002
      -6.0066296588621006e-003 -2.9326817645612013e-002
      5.7499946934612182e-002 -9.1289199526460637e-003
      -6.7411705537025218e-002 3.9008587300141851e-003
      -1.7539321922879505e-003 -3.4635344423030786e-003
      3.1350962297579115e-003 -1.2685192622885204e-003
      3.4127855102790931e-003 3.7262906856386393e-003
      3.8387974867066339e-003 -6.8446600548566292e-004
      -1.7017383343780807e-003 1.0933893825237741e-003
      -5.0769724157731882e-005 -3.3830093635666449e-003
      3.0559439401566125e-003 1.9797527947827851e-003
      1.1368185792216814e-003 -2.5328976291776762e-003
      3.0914463092867124e-003 2.8963006874189868e-003
      -2.3425318066443179e-003 1.6666312855845408e-003
      3.3702764647711623e-003 1.0126568311895833e-003
      4.0464834477974207e-003 3.8949917857341691e-003
      -3.0987817178481192e-003 1.3927949201488447e-004
      7.5974954433451235e-004 2.3434780708560029e-003
      2.0425997637354581e-003 -9.0755468992997392e-004
      -1.0364792342909708e-003 -4.6615524069678962e-003
      4.2341289121952995e-003 1.7747823180023332e-003
      -3.2449415867533238e-003 2.6551059744635260e-003
      -2.5302752373876055e-003 1.4590412678682015e-003
      3.2122333286868604e-003 1.1061994906542731e-003
      5.0613038257430638e-003 -2.1174209150231606e-003
      1.8501080251932041e-004 -4.3034012895009780e-003
      1.3195441196353042e-003 -3.8716296954018278e-003
      -2.2033281888973288e-003 -3.5936353197301494e-003
      -4.7392112259839374e-003 -9.2562346769048680e-004
      3.7904233817787609e-005 3.9862224803989439e-003
      2.2869263167429148e-003 -3.1639375516332854e-003
      3.4399829872048780e-003 -3.9803858927475507e-003
      -4.9205556326454812e-003 -2.7354363632136162e-003
      2.0518547072424778e-004 2.2983664101444007e-003
      -9.4663643104329919e-004 -1.7833889805240692e-003
      -2.9704271654344468e-003 2.3080269615436831e-003
      -1.5325043802801195e-003 -5.0474648594055968e-003
      2.6001866743163198e-003 -1.9280658201928811e-003
      3.0971159810741253e-003 2.0099201755330929e-003
      4.2458693805161561e-003 4.4602490853842503e-003
      5.6199055780239993e-001 -4.1909712533895131e-002
      -1.1134882733268862e-001 -2.9928713295011324e-002
      7.0998441302977708e-002 -2.5650614033696503e-002
      -9.9555133145028535e-002 -1.0660550194061820e-002
      8.1910998415043266e-003 -1.1735759722624471e-001
      -1.7684667090579077e-002 -2.6317787472081924e-002
      -2.0431451946242195e-002 2.1122587455678292e-002
      -2.2737573850812255e-003 2.5450208550777512e-002
      -8.3340102493561941e-002 6.7910245884289136e-002
      -5.8057248049168814e-002 8.0576058678125551e-003
      8.5877197530973379e-002 -9.7453077112987230e-003
      -5.1889827600946473e-002 3.8672975180016216e-002
      1.5710344716244828e-003 -4.3644241893646372e-003
      6.8843148614911850e-002 -3.1805770039057622e-002
      7.8956516455036624e-002 1.3147397467164415e-001
      4.1880358259143873e-002 -1.7738148239171012e-002
      1.1223837578332760e-001 -1.1556111700723601e-001
      -2.7329637408964529e-002 -5.0889769011182020e-003
      4.1532104081810117e-001 4.7365188421850696e-002
      -1.4384442515331960e-001 -4.0373442673793801e-002
      7.7682120018422701e-002 8.9281067137990916e-002
      -1.0638139814510195e-001 -6.1941088283714064e-003
      -8.7023277119373313e-002 -2.3601607526646008e-002
      8.5259054135634713e-002 -8.2227759049079974e-002
      5.0829652680353610e-002 -4.1997163212794363e-002
      2.6909718254887305e-002 5.4850769032292170e-002
      -1.2068270040153439e-001 3.9372719707216994e-002
      -5.4682387815634136e-002 4.7037412141085498e-002
      7.1418994134139477e-002 -3.6816555110987669e-003
      -1.1748146427698498e-001 5.2052071448887731e-002
      -3.0377626630077564e-002 -4.8179551376763344e-002
      1.2719728720913007e-001 -8.3630298774193895e-002
      1.2885996704955566e-002 1.1291878377294542e-001
      5.8229140738567942e-002 -6.7515639056751578e-002
      1.2203973337803012e-001 3.4326537928827320e-003
      -4.3549952216660283e-002 3.5285191040354651e-002
      3.8539203574786884e-001 1.5525323221799342e-002
      -7.3247584658545584e-002 -1.1000145781748917e-001
      6.4448901530671163e-002 -6.4885848635587051e-002
      -8.7447521718720736e-002 -1.2913560077350647e-001
      -8.4625116649048510e-002 -9.6122476651861313e-002
      -4.8372024944596331e-002 -2.0113755727734068e-002
      5.7705740970033177e-002 -2.0191063283618742e-002
      -3.0634876835977504e-002 6.9076513317675253e-002
      -9.5339414274556111e-002 -1.2097858932266653e-001
      -1.0185336876446785e-001 3.4145053344918415e-002
      5.4373700131301730e-002 -1.1637833506192132e-002
      4.4332704794649317e-003 -1.3931000857461535e-002
      -8.1901727375607705e-002 -2.7895469192094412e-002
      6.5466041684212689e-002 3.9030257374343680e-002
      9.4247554716936383e-002 2.7881824234357505e-002
      7.7086963115838347e-002 -1.5423019998853659e-002
      7.1663446290932617e-002 2.6993841039279161e-002
      1.8650722056097999e-002 2.9226326125005100e-002
      2.8018972499195055e-001 1.2832964618832187e-002
      -5.3996472823677963e-002 -7.4581854165791980e-002
      5.1171068056088655e-002 -7.6203289096416438e-002
      -8.7391403432519041e-002 -9.4235211332923466e-002
      -7.5159647383260586e-002 -7.7025771845908711e-002
      -6.5119393517265797e-002 1.2419446540484607e-002
      6.8474083652277917e-002 -8.1900554799000016e-003
      -4.4697159054189264e-002 6.8245082284744144e-002
      -1.0523014759646027e-001 -7.6782501548744123e-002
      -7.9855375655255578e-002 1.9539854248452459e-002
      6.0780299891656356e-002 3.3608218273411636e-002
      2.1707031248123891e-002 1.9200146906423791e-002
      -6.5872543667772301e-002 -2.8364682203935659e-002
      4.2890858025032133e-002 4.2267986118999956e-002
      4.8490273998020229e-002 3.1866226301662366e-002
      5.5364731072011050e-002 -1.4180093709323709e-002
      5.6393858944252848e-002 4.4373522173399599e-002
      3.4228714816127513e-002 2.9944840013794428e-002
      -1.2510322908947627e-001 -1.3780121202260579e-002
      -2.7300091800048096e-002 6.1442878199177216e-002
      4.7014395528537672e-002 -1.2014900670193195e-001
      -5.1520328083785136e-002 5.1858708784234160e-002
      -4.8926645698935539e-002 -6.9763063517770577e-002
      -4.6027068645230471e-002 -3.1825770460673919e-002
      1.1217495687880136e-001 5.4529573771695532e-002
      -2.3386821780335753e-002 5.0645622159147571e-002
      -1.1358476160708225e-001 4.9698656665159914e-002
      1.8366926859082658e-002 2.3385152775150086e-002
      6.8955201908865088e-002 1.1947620226912380e-001
      1.9055976987127521e-002 1.1334017718021759e-001
      -4.0882049419274917e-002 -7.9012184823760379e-002
      5.0554466302833089e-003 8.2944486095165040e-002
      -2.7326271630248342e-002 2.5698317161816442e-003
      -5.7477999369863725e-002 1.9988472619068647e-002
      -7.6732112732314749e-003 5.8336381959367987e-002
      5.8647804706087818e-002 7.4993540167927517e-002
      -1.7329576856262327e-001 9.3526543998814701e-003
      -5.7210068791679766e-002 3.7864713633738466e-002
      6.2556550438265288e-002 -9.8379741745485402e-002
      -2.0472164283916523e-002 2.2420983245523187e-002
      -6.3738854073608575e-002 -2.1962682403812866e-002
      -9.5798065015725034e-002 1.8633139219926230e-002
      9.2307605617907809e-002 6.6436539766891164e-002
      -5.3508091671999040e-002 5.1409655292175033e-002
      -7.7661237517550857e-002 3.2336464829921328e-002
      -5.7812092027920104e-003 -1.4586904758590081e-003
      6.7280514850285855e-002 1.3474397431736182e-001
      8.7448065061688271e-004 9.9681781440448980e-002
      -4.4249004380080906e-003 -6.0925839652261900e-002
      -3.4710586485249162e-002 4.1401288329861473e-002
      -2.9759992718406309e-002 4.3875006685742811e-002
      -5.4990389473312314e-002 1.3190153599476610e-002
      2.6278606636133416e-002 7.9430481430399387e-003
      9.9751557971577198e-002 5.8670222126562345e-002
      -3.8411545126697139e-001 1.6362425904552023e-002
      -1.9984098125367947e-002 7.7436936156589656e-002
      3.0041048467849683e-002 -7.6090560400567678e-002
      -4.7779356683615042e-002 6.2767287353664519e-002
      -1.0539110913062916e-001 1.6787064227244480e-003
      -1.0410220129383914e-001 2.7758169642822751e-003
      1.1337059274417449e-001 7.4719360538264945e-002
      -4.7349830419842240e-002 5.8707824732479257e-002
      -8.0963744566030310e-002 4.9275211606876576e-002
      2.7040194649503347e-002 2.9324304641609247e-002
      7.2680984808065716e-002 1.2982549248064301e-001
      1.0136516661632082e-002 1.2024315737434198e-001
      -8.6139810096278885e-003 -8.8700419340427841e-002
      -2.0607713841647245e-002 8.0722110699154248e-002
      -3.8220825818308796e-002 1.7723204114541934e-002
      -7.7557667244913919e-002 3.1708785536984058e-002
      -3.8786741995332219e-002 9.3212605857058803e-002
      7.1143100624852060e-002 7.4763201720403169e-002
      -2.4603991723071256e-001 4.0355088915815986e-003
      -2.2528325114421727e-002 -1.1686669443543693e-002
      1.0371011802267618e-002 -7.8918304560248398e-002
      1.4325189064464495e-002 -2.2909677579894490e-002
      -6.2694995049747945e-002 2.3519370837786682e-002
      -6.5880725723031164e-002 4.5438392886937615e-002
      7.1923561073518869e-002 2.3833050592035072e-002
      -4.0846034419771068e-002 8.1019396571398575e-002
      -6.2307009475760254e-002 1.0114262315009130e-002
      -1.5558601281181240e-002 2.0514279881571319e-002
      1.5551824535438298e-002 8.4318242366335491e-002
      -3.0955843319561509e-002 2.5491281905461124e-002
      4.6355840255511748e-003 -1.3435971780672473e-002
      -5.4828888346985953e-002 1.3388299086016657e-002
      5.2403889546568022e-002 3.9091831295700777e-002
      1.5714040026191037e-002 -4.1371605140535228e-003
      -1.1054175426422022e-002 2.7453645098492775e-002
      -1.1954570784901870e-003 -4.7862773519811386e-002
      -2.1760278572213393e-001 2.3298336878519354e-002
      9.7971605353456108e-003 -1.1956340980954228e-004
      -4.4684784764113562e-002 -9.3572730453458930e-002
      5.6561853371821132e-002 -2.0051937530828692e-002
      -4.2724312263622055e-002 -1.0318855551790825e-002
      -6.9724564952448775e-002 6.1549624448140425e-002
      7.2981822459439932e-002 3.7264078113751192e-003
      -5.8391368995172215e-002 1.0811005451994800e-001
      -1.1241578131328915e-001 3.3931882103699877e-004
      -2.3425044077836882e-002 1.3463866295766175e-002
      -1.0261602907077077e-002 6.0920007162551741e-002
      -1.9093607046600587e-002 4.4551037628064935e-002
      -1.4920278971460367e-003 -6.4197765052374026e-003
      -8.9175011561134124e-002 4.9362591147634291e-002
      1.0310652366145581e-001 4.8525587063871188e-002
      -5.6705218790337377e-003 -3.2579152005982527e-002
      -2.1707664364992562e-002 3.8827290897427346e-003
      -7.2472504736073223e-002 -6.8234586226280494e-002
      -1.7825781468471774e-001 2.7545447600864650e-002
      4.6191926866750322e-003 4.6111694463862136e-003
      -5.3350468146378408e-002 -8.9750745386122682e-002
      6.3865775766255531e-002 -1.3283415459448082e-002
      -4.1898011246833490e-002 -1.8157657661985734e-002
      -9.2165573660179911e-002 6.5136807300007954e-002
      8.6598838977514747e-002 -4.6005670049622336e-003
      -8.5148056931089913e-002 1.1985479730722985e-001
      -1.3655695378652757e-001 4.6437000211820081e-003
      -2.9707975172401771e-002 2.6069069013809048e-002
      -1.1501752989904317e-002 6.5622138556047482e-002
      -3.0362843304092533e-002 5.2289871226335057e-002
      8.1821004002995325e-003 -1.1035352740151232e-002
      -1.0687128915600499e-001 6.4790659374598408e-002
      1.0706765016934942e-001 5.2624439680597671e-002
      -1.1751279581226879e-002 -3.8714264424154377e-002
      -1.1675749073184522e-002 -4.1634442329110330e-003
      -8.5390745228812487e-002 -7.4564936878750057e-002
      -1.1036236880127299e-001 8.9002698108636598e-003
      -4.2251294214023349e-002 1.7674249117451215e-002
      -1.1433599258163082e-002 -4.1132410630811571e-002
      1.0654717335122349e-002 -1.6687558902330188e-002
      -1.5068997123621957e-002 -2.4663176894391600e-004
      -4.3760354963351955e-002 2.4144506907416940e-002
      5.8212179670154462e-002 9.4428237995874756e-003
      -6.4232292954003969e-002 1.2350510003312858e-001
      -1.2812569580879010e-001 3.0194463670416245e-002
      -1.7672717933453673e-002 2.6654906009339188e-002
      2.2474576344140712e-002 5.7089941441094416e-002
      -4.6899951775601870e-002 3.7955755030687509e-002
      2.3236548360841595e-002 -2.5810393919993655e-002
      -5.0285284063528043e-002 1.1759218835217378e-002
      8.1118431232867411e-002 8.4539141985523480e-002
      2.5749476590734145e-003 -1.8744556465942440e-002
      4.4195911595838501e-002 -5.8082006472344331e-003
      -4.0177669762481161e-002 -4.2509962724169237e-002
      -6.8755422380004927e-002 1.5357891593223273e-002
      -1.9472773467540030e-002 1.6066152380684120e-002
      -2.0424328096123798e-002 2.9892939911743088e-002
      -1.2809477507708243e-002 -2.3296095633195929e-002
      -5.1386461264180290e-002 -8.0892212428122605e-003
      9.0694961250071537e-003 1.5029303017028706e-002
      7.8844946890708534e-002 -7.2468426333168245e-002
      -2.2081091115342379e-002 1.3788059221373927e-001
      -1.7236522759346098e-001 -2.1198127911979243e-002
      1.0400468883365849e-002 7.4353784201364181e-002
      -1.8107072370359314e-002 3.4585906643944897e-002
      -4.3867479115788761e-002 2.3688724822171343e-002
      1.0726815550197819e-002 -6.2689080348630660e-002
      -5.2825244085613954e-002 3.9743969988806437e-002
      4.2653872072122859e-002 4.5336912655769175e-002
      2.9978396373832393e-002 -9.6233657060648195e-003
      -5.9198222915002744e-003 7.7673162825009870e-002
      -6.3004653630624713e-002 -2.1024075391909210e-002
      -2.6015010387497668e-002 -2.0553294635358558e-003
      3.4626330639296481e-002 1.5028361913643824e-002
      -2.4008521060439044e-002 -8.6640077545448876e-002
      4.6549756358807287e-002 -3.0749904192472585e-002
      2.5860768469253531e-002 -4.7329308696470763e-002
      -1.8439814169872278e-002 3.9142563629044773e-002
      7.6810486644772427e-002 -2.6514641231190454e-002
      -4.3283866102511372e-002 1.5692657474022692e-001
      -2.0066214057796697e-001 -2.1435028940111782e-002
      1.7489560797377898e-002 2.7805919697333772e-002
      -1.9727520523922664e-002 2.6032957604194936e-002
      -1.9400120336885436e-002 4.6770549795054496e-002
      7.8004424107589012e-003 -1.8567915123614262e-002
      -1.0873296137565745e-001 4.3792560478231435e-002
      9.6051791870209194e-002 2.4993831014575599e-002
      -1.5964021381738966e-003 -2.2931938427180960e-002
      3.7257869216050961e-003 -1.9853364095301789e-002
      -6.6235853528483532e-002 -3.8408441310837212e-002
      1.9116359332685410e-002 -1.2226181381174454e-002
      4.4990208296541656e-002 1.2158548953951820e-002
      -2.4256643636456281e-002 -5.0945469800841581e-002
      -1.1358371346382436e-002 -1.9532515520555307e-002
      1.0466891253286575e-001 -1.1230545348778349e-001
      4.9501526935725008e-002 1.4096915979512762e-002
      5.3385539829979713e-002 -1.9280617421261503e-003
      -3.9731777537089258e-002 1.9717335299071703e-001
      -2.4964909323697992e-001 1.2784181594302706e-003
      4.2864326467017259e-002 2.5772591149044906e-002
      3.5106709809106892e-002 -3.0263766281318522e-002
      3.3297296809685945e-003 8.3223470799353702e-002
      -5.6351473264558468e-003 -3.3142491000573183e-002
      -2.7959560114745385e-002 2.5753658920890242e-003
      9.6660125647123868e-002 3.7293214416337421e-002
      -2.1375437224332289e-002 -8.0075257354141425e-003
      3.7656698921248108e-002 -4.1750366304402507e-002
      -1.0946258793009538e-001 -1.8791626605847898e-002
      -1.2207979880704971e-001 -1.3672677283438036e-002
      2.3478991083798049e-002 2.7801809620976226e-002
      -2.2479258635029954e-002 -7.9410153210788162e-002
      -2.9430672461951260e-002 -7.2171624432099872e-004
      2.8621291929007892e-002 -9.7928257815871778e-002
      2.3483630356912834e-002 4.0880655483307750e-002
      4.5956343217990601e-002 1.5586574401065343e-002
      -1.9368539968941351e-002 1.1849723352599786e-001
      -1.6746151054828540e-001 1.6441219449457489e-002
      2.4294590264832203e-002 -1.5134088723975691e-002
      4.9499436040092104e-002 1.5493795179585485e-002
      1.2474197477830067e-002 8.0511400508179745e-002
      -1.0079143984590613e-002 -1.7821571936240718e-002
      -4.6251480256245267e-003 3.0997908414540847e-002
      6.1279316363728187e-002 7.2276796336244583e-003
      -3.4906934475716467e-002 2.5164697648098421e-003
      2.6269643508310236e-002 -2.3413366069773888e-003
      -6.0382699357531613e-002 -9.8908443777090405e-003
      -3.3599940787778543e-001 -3.8318606748344156e-002
      3.9981806296336866e-002 5.9377310705422209e-002
      -1.7370084838305628e-003 -1.3844582586765980e-001
      -4.2177084829937435e-002 2.7384973293128043e-002
      -6.3064806971459067e-003 -8.2035736410891791e-002
      -1.7373251519133964e-002 1.0759127072747288e-001
      1.0075753935566478e-001 3.1758845621285829e-002
      -4.3730923666273742e-002 8.8067071339348393e-002
      -1.5455658996890062e-001 3.4869434687404034e-002
      2.2191440062257754e-002 -3.5371053980352662e-003
      7.6976289113387539e-002 8.9158480591269323e-002
      3.1113876951963812e-002 8.6389326146408138e-002
      -2.0077902702277318e-002 -3.0739524291539838e-002
      -9.8707164099621058e-003 6.4699272674802175e-002
      3.5591015659033588e-002 -3.2554620443710248e-002
      -5.7897102233603184e-002 3.3933777942180353e-002
      -2.4980180606100830e-002 -1.0720308699793422e-002
      2.9375269295469530e-002 1.1207553464914647e-002
      -6.0084245068158271e-001 -2.2427470053747327e-002
      1.6201981292117546e-002 5.9900975890488518e-002
      1.0850435639989175e-002 3.1623756737261130e-002
      -7.6356524334183105e-003 4.1178403201187569e-002
      -1.9858764110764413e-002 -7.8895809106125248e-004
      7.6161240510294270e-002 3.9837317075140842e-002
      7.0382650075275860e-002 -2.5052960286178143e-002
      1.0197158274723006e-002 1.1839526091656738e-001
      -1.2360697572001890e-001 -6.7124696605776572e-003
      6.5770941402035862e-002 1.0548325129472952e-002
      6.6840951554021408e-002 5.3545113639389018e-003
      -4.6449223881242098e-002 6.9239204593339501e-002
      1.6704595642985473e-002 -8.2778698790240430e-003
      4.9265183569117375e-002 -1.0594025824116952e-001
      -6.4806507294889468e-003 -4.1738363785701824e-002
      -1.9324721351400474e-002 4.4813938357411834e-002
      4.6483544426978813e-003 4.2014836613976266e-003
      4.8307736390443251e-002 -1.4239370232640231e-002
      -1.9917671662211905e-001 -4.8330213303315175e-002
      -1.1455388306637788e-002 3.9288722613640477e-002
      1.2237170696356747e-002 2.4620065479357304e-002
      -6.7353450393876765e-003 2.7882704274461143e-002
      4.0538475112370763e-002 -7.7508266297949768e-002
      5.3048101736040784e-002 -1.2593171003093000e-002
      -1.7153342258757742e-003 -3.6190047181455178e-003
      1.5433802041528326e-002 7.8067677932612656e-002
      -7.3982369426150538e-002 -3.2543876723700542e-003
      4.3305483548186002e-002 4.3177347654670836e-002
      3.7617823183644927e-002 -1.7328838816322752e-002
      -4.1966312697958690e-002 5.8956836057487937e-002
      2.2210457986344832e-002 1.2321265174318804e-002
      3.5701708771251339e-002 -7.6047353259696179e-002
      7.2088996635576927e-002 -1.5054302839950707e-002
      -3.5059357940907692e-003 5.5741063882851959e-002
      1.7777523867099146e-002 -2.8862109670494702e-002
      -3.1130114318688971e-003 -4.5993359933406232e-002
      -1.0737521685498172e-004 -1.3590141060583092e-003
      -1.9219916326408501e-003 4.8265153582863936e-003
      -4.7147669085393839e-003 -4.4496748278894140e-003
      3.8235207512976837e-003 -1.0005366947195081e-003
      6.1729700110774860e-004 4.9550421744450302e-003
      -3.8716042003635682e-004 -4.8791348758471164e-003
      -7.5099405757820484e-004 -2.8722620703964482e-003
      3.0947754225400265e-003 1.4177017050389081e-003
      -3.9916555531720795e-003 -2.6717661306202415e-003
      -3.6805896686595944e-003 -3.1984481520685357e-003
      4.3840929576024479e-003 4.4962354406250134e-003
      -1.8040744094960923e-003 1.3502407191533802e-003
      -4.0242262126731883e-004 4.6268087786952442e-003
      4.4468896909035374e-003 -1.3648593213832177e-003
      4.3791899813599148e-004 -1.9502239590888574e-003
      4.3905158998200694e-003 7.8192798707220714e-004
      3.0383010724789241e-003 -2.7217818320574550e-003
      -2.7569710018828463e-004 4.9181031920011347e-003
      -3.0350387577676810e-003 3.1392938573274421e-003
      3.4140029767950066e-003 -4.6332075712113058e-004
      -2.2400278694444087e-003 -2.1477871458406971e-003
      1.7764960338862920e-003 -2.2894355391506228e-003
      -3.1378581383985937e-003 -5.4152520599074568e-004
      -2.8046316756282625e-004 -4.2739439901155188e-003
      1.7955272719993406e-004 -2.5257895960682560e-003
      -2.3651537008371527e-003 -4.3305352957915215e-004
      3.7381865619991535e-003 8.4382307076977551e-004
      -1.7894026182475188e-003 1.5479990563379950e-003
      -1.2647167274293354e-003 -4.2160587186504247e-003
      2.0220177590738104e-003 -2.5302578808156006e-004
      -4.4940918541265251e-003 -1.9864003484857812e-003
      4.3903216092457502e-003 3.1725731977946233e-003
      -4.9756323854394978e-003 -1.1027041381687225e-003
      3.4753154326685556e-003 2.5715815091178810e-003
      -3.7529229079061153e-005 1.9438542210375648e-003
      2.8573122563878544e-003 -1.5813600684705077e-003
      4.6332340699475527e-001 3.8027540948191774e-002
      -6.1005263259887400e-002 -3.7295168185770736e-002
      -2.0912309709191546e-002 3.9678728595917617e-002
      -8.8347250606647401e-002 -2.5440625185668118e-002
      -5.2378719422632329e-002 -8.4459782570461064e-002
      -4.0847751990738500e-002 2.2990574426885071e-003
      2.0834362270409263e-002 -2.3486685204088278e-002
      -4.0247926951485435e-002 2.8370935815001476e-002
      -5.4569462234374616e-002 -6.7645413575586752e-003
      -3.7257164588515038e-002 2.3050859316246803e-002
      5.1975230278720461e-002 -3.7279852087724392e-002
      1.5447227226268199e-002 4.2504887904367551e-002
      -2.8114368788221562e-002 -8.5026951303323658e-003
      2.2349404843442597e-002 2.4164499496641550e-002
      4.2018472370851941e-002 8.2902918046060717e-002
      1.2712493395751879e-002 -6.1496538075069107e-002
      4.9811329882020708e-002 1.9158885418432688e-002
      -4.5338816357606261e-002 -2.7906162384320307e-003
      3.4314346035203247e-001 4.0711952644144164e-002
      -7.5392290477541535e-002 -4.4350472768442749e-002
      -9.7638224430471462e-004 9.8928126118094338e-003
      -9.0168590548563299e-002 -2.3939624441425337e-002
      -8.0870804631429663e-002 -3.8335138111173166e-002
      -5.1989964289912618e-003 1.0986079351844539e-002
      6.0609046988978274e-002 -1.2170095001965983e-002
      -2.6161730322545363e-002 3.1335872169744032e-002
      -7.1987302899228292e-002 2.0017501296005283e-002
      -4.3767057171233185e-002 2.0456312892156636e-003
      6.6732374178777226e-002 -1.6676174045542828e-002
      -2.5991623024244855e-002 7.8253243340442369e-002
      -3.0274729062427248e-002 -1.5587894875986859e-002
      3.2199273186905457e-002 -3.4988410999948843e-003
      3.8737066678706258e-002 8.9134557953340021e-002
      1.7823913234943155e-002 -9.1760855599406554e-002
      7.5948681139780844e-002 1.6531133029299951e-002
      -3.2540239350138653e-002 3.4793584864712228e-003
      3.6754738291590366e-001 1.6372499821987591e-002
      -6.8711974366959361e-002 -1.3712177809929302e-001
      4.3255253373906767e-002 -7.9004916387421950e-002
      -8.3804008222284967e-002 -1.2898004989821413e-001
      -8.2497737287387921e-002 -7.3953811608052006e-002
      -3.8266743552545023e-002 -1.5165079771256695e-003
      3.0533097610040003e-002 -1.1854755592620549e-003
      -1.3237089397930191e-002 5.3139001916881083e-002
      -6.2402423017529407e-002 -1.1612001521008350e-001
      -1.0643789708281289e-001 2.0276681434315848e-002
      5.7362407953214081e-002 -2.4375246290270255e-002
      1.9807854064257838e-003 -2.1906092833627079e-002
      -8.6815918793991420e-002 -1.0597699247161516e-003
      6.9260773648639321e-002 1.0064604743947509e-002
      8.1236478299144724e-002 3.1007197444480585e-002
      9.6866065220822542e-002 -2.8016819811693731e-002
      6.2903735373104869e-002 3.0682460212465210e-002
      2.5747622147902129e-002 3.3311093634258012e-003
      3.8842048058833359e-002 -2.8233394306730951e-003
      -5.3606822033671626e-002 7.7775758000527273e-002
      2.8367187131273446e-002 -7.8992019684697642e-002
      -7.4583426444972803e-002 6.9546581569454133e-002
      -3.0297155076469139e-002 -8.2912729231023191e-002
      -4.7794146212802334e-002 -4.0957921235102293e-002
      6.3193450328430670e-002 6.6405879494315784e-002
      -3.4249210834496439e-002 3.6901331405108741e-002
      -5.9993508559873440e-002 5.2123422806834886e-002
      4.4829278765475947e-002 1.7978377774479224e-002
      7.2466718482727899e-002 1.0292674554402875e-001
      3.6232644996176198e-002 1.2326703388968858e-001
      -3.2935948204816851e-002 -7.9330382437462849e-002
      5.5898601240795048e-003 9.0401174741572790e-002
      -1.6760452607584679e-002 3.2903597618428947e-002
      -7.6466536794162113e-002 5.2590110317854008e-003
      6.2304146707994187e-003 7.5208353934095501e-002
      4.2267522611004492e-002 7.7650718900428795e-002
      -1.7028424448739865e-001 -1.7846956054319973e-002
      -1.4718590275481457e-002 9.4450723535660155e-002
      2.5781414931453230e-002 -1.4641132557962588e-001
      -4.7885173907271837e-002 7.8105222880326938e-002
      -4.7028579182259507e-002 -6.3196058328455443e-002
      -6.7519485794727593e-002 -7.0850994469754038e-003
      9.1692546874255848e-002 7.1447077801117184e-002
      -2.0952256234887997e-002 2.5335864672454161e-002
      -7.6519635166662103e-002 7.2844199721188357e-002
      5.2509497769389901e-002 -2.6522461898376942e-003
      7.6930488709177000e-002 1.1076110023999113e-001
      3.6935676323458878e-002 1.2986253133493436e-001
      -3.7683942743317454e-002 -6.1568143127856183e-002
      9.2157024453261016e-003 9.8043863691938821e-002
      -1.6397813403537933e-002 -1.1108389630072910e-002
      -9.5264450303492995e-002 1.5590596405797654e-002
      -2.1541084918785008e-002 6.3991563384646261e-002
      7.4745039015730555e-002 5.5644307766886940e-002
      -4.6388577664016262e-001 -2.7099401229262850e-002
      3.0705152310977714e-003 5.2690350056951440e-002
      4.2632142202098391e-002 -1.8986432919226182e-001
      -9.4789932353609493e-003 3.1106654552032605e-002
      -3.8007921275031685e-002 -1.7788357735460284e-002
      -9.7473978909135145e-002 7.2738503853247594e-002
      7.8150828230356753e-002 8.9086990912085814e-002
      -4.7045733705134415e-002 6.8920854931804984e-002
      -7.4524835448669530e-002 5.1475085885770842e-002
      3.0477785561886851e-003 -2.5326615948191272e-002
      9.5834419060199960e-002 1.0527496002996137e-001
      1.2583733847041959e-002 1.0305126251689752e-001
      3.1644384294668127e-003 -3.1166761927978195e-002
      -2.6860113921166554e-002 1.3386528748527285e-002
      -2.0972115607043790e-002 2.5587174052527323e-002
      -6.9107316903066637e-002 1.5937369349172507e-002
      -1.3748402898313094e-002 -6.9227986080311688e-003
      1.1790790134301647e-001 4.0947261990972414e-002
      -7.2004635697233943e-001 -2.4387389839496926e-002
      1.7769420230751110e-002 6.4059049067662618e-002
      7.7796185166377013e-002 -8.2408964712704327e-002
      -3.4093622977720145e-002 -1.3311005433693542e-002
      -5.9087690396394284e-002 -2.9687746864114847e-002
      -7.5243172659134827e-002 6.9203681354743959e-002
      5.5060094552683847e-002 1.1508942945477919e-001
      -4.7442841862184539e-002 9.2794887865602541e-002
      -7.9167241170923885e-002 3.4503336464892384e-002
      3.4076379328058172e-003 -3.8617769064807406e-002
      1.0751813410007729e-001 1.4518628972791331e-002
      4.5435749915852960e-002 4.0330519772866516e-002
      1.5506563724491116e-003 -2.5526090657924314e-002
      2.9434213731113587e-002 -2.6439767583619232e-002
      -2.4595033596035241e-002 4.7767053091098632e-002
      -2.5121586797100012e-002 3.0366731442547177e-002
      -1.4187907611998838e-003 1.6727673665018938e-002
      1.0577666134831780e-001 1.0065730157158631e-001
      -3.7091121543406697e-001 -1.8373555563747677e-002
      -1.5559146313003392e-002 3.6636738468493454e-002
      4.1759800256111465e-002 1.3538490488155357e-003
      4.3724426615309522e-002 -1.3020026137713945e-002
      -4.4697021316268966e-002 -2.5244820549183296e-003
      -4.8519082195337349e-002 2.1709359420581553e-002
      5.3541074340423558e-002 4.6559366200967206e-002
      -4.1133351283007519e-002 8.5938144805876374e-002
      -7.6495856807900262e-002 2.9983245895183176e-002
      7.1126666994769817e-003 -2.2912255934690478e-003
      1.7051589874350920e-002 4.2168140135578826e-002
      1.2950049417295897e-002 1.0646434205420408e-002
      1.7215806188236902e-002 -3.2315875896556358e-002
      -2.1429234323528081e-002 3.0283519562891093e-002
      1.5754239550977784e-002 6.3463231154855929e-002
      2.0646908937757481e-002 -1.1834634394857163e-002
      2.3761830150864703e-003 4.5803358285835512e-003
      1.9469633682416042e-003 5.0175913546290328e-002
      -2.2958659625510502e-001 2.8213332898975028e-003
      -5.1261119659872477e-002 3.9618964294372970e-002
      2.3473794773281941e-002 4.3602845193407125e-002
      6.2863050114720168e-002 -1.4284788699975367e-002
      -9.0810783768808644e-003 -2.7854835555995675e-002
      -3.4224687200848772e-002 -5.5247770366305552e-003
      3.1581340789995534e-002 3.4848666311985681e-002
      -4.2563529021935553e-002 9.4504397436844328e-002
      -7.7424805927772997e-002 2.2390935448869453e-002
      -1.3252065833350429e-002 -1.3146372129801742e-002
      7.5870572307456269e-003 1.9787136465660268e-002
      -6.9438351440200051e-004 2.7119376031976623e-002
      1.2791171090344274e-002 -1.8836059540527431e-002
      -3.5185715749238088e-002 1.7098080952684773e-002
      7.8605716068950143e-002 8.2860873422964276e-002
      4.0991506550237550e-003 -2.4800538652387825e-002
      4.5661402360313005e-002 -3.4269815856317970e-002
      -4.6948435326203658e-002 3.6989734395088757e-002
      -2.3898487189520434e-001 1.2095224342188434e-003
      -4.6960257471310191e-002 4.4097343924182249e-002
      3.4088283601598657e-002 4.2189358349517370e-002
      7.5044089825434465e-002 -2.7852021285348090e-002
      -1.3199085153702869e-002 -2.9514452555026435e-002
      -3.2462470614134042e-002 4.0975998871672724e-004
      3.8304789739388112e-002 2.8139896114504563e-002
      -5.5081578800434738e-002 9.2635814636733427e-002
      -9.6995470420783284e-002 1.4674666490133804e-002
      -2.1537545287837113e-002 -8.7831533581019649e-003
      4.7591953371359068e-004 3.1261944912874082e-002
      -5.8372692352194515e-003 1.8651950549162296e-002
      2.0093025760235084e-002 -2.5877962642777318e-002
      -4.4456272659939157e-002 1.6167752346098085e-002
      6.8054600105976137e-002 9.1809200347712380e-002
      1.1247962135755315e-002 -3.0879899565880945e-002
      5.6345804234293612e-002 -5.3045990719910910e-002
      -4.3510318917761220e-002 3.9610240493696103e-002
      -1.9452499294227124e-001 -1.2820541349948698e-002
      -2.3572289524225781e-002 4.8629190969243730e-002
      8.3345125258162209e-003 3.0149776363369955e-003
      5.7678324937242155e-002 -1.8187185416048107e-002
      -7.4230592647019887e-003 -2.3821836729685911e-002
      -5.0517776637783507e-002 1.2604013928170121e-002
      3.7766620494939916e-002 3.8394555788608363e-002
      -6.3229169814177727e-002 8.9884952298001294e-002
      -8.6301666736562671e-002 3.0643215742280735e-002
      -3.9222866345552613e-003 -2.4532632852149284e-002
      6.7414164966777606e-003 3.6449939181420220e-002
      2.4133450395720756e-003 2.1530669668589252e-002
      2.3766667801540919e-002 -1.5836121579879219e-002
      -5.2771340492420105e-002 3.7935154056178602e-002
      5.8106278776724272e-002 6.5605715449279831e-002
      1.0009496860177011e-002 -1.4583751717063487e-002
      4.0948306116281676e-002 -2.5429318251389912e-002
      -3.8034948236579318e-002 3.6134622110173681e-002
      -1.0399963197706943e-001 -1.5405504822214852e-002
      1.3163101875022842e-002 5.9119594110770161e-002
      -3.4584798279429847e-002 1.5255179824885215e-002
      1.9849335244752676e-002 -9.6105933145539581e-003
      -6.2797994530465317e-003 -7.0060131696499869e-002
      -2.4138271390342206e-002 2.0584813523519561e-002
      2.5297100487740021e-002 1.3422748052147621e-002
      -4.6482246568246385e-002 8.9367674492438792e-002
      -1.1332941918504887e-001 1.6811666147529245e-002
      3.9124220042601285e-002 1.1523372033286470e-002
      -5.2562024716104926e-003 5.9894692686451772e-003
      3.0987700188049791e-002 2.6051670482096150e-002
      -3.7961008553372105e-003 -1.3019829059674410e-002
      -3.8456453304346605e-002 7.5098805253722506e-002
      6.2554726287772061e-002 3.4878207617404504e-002
      -2.2530546777438142e-003 -1.6208957391838152e-002
      -4.6797089903545322e-003 6.1425860674211331e-002
      -7.3936376629780254e-002 2.7802216472222276e-002
      -8.9868984104040511e-003 -7.2884911039908821e-003
      6.2682693178768997e-002 3.7148297941537789e-002
      -1.8447325303634993e-002 -8.5867791749159775e-002
      6.8953690907096257e-002 -1.7457088066355632e-002
      5.3451175005273063e-002 -9.5556955677296149e-002
      -1.6311325568877894e-002 2.1788681825969356e-002
      4.0785866648842421e-002 -1.9845330090743244e-002
      -3.3821828603644903e-002 1.2827515846440884e-001
      -1.8407123028549358e-001 -3.1819616182853741e-002
      2.7265535357264694e-002 2.3093650666689263e-002
      -3.7862724992458074e-002 8.2821227328900050e-003
      1.6275033444765594e-002 5.2296583016516650e-002
      -1.6946634181494138e-002 -1.8171019912507413e-002
      -1.4126731395281747e-001 8.4682625340635642e-002
      9.1897939707432305e-002 3.6057444593448991e-003
      -2.5991027653336583e-002 -7.5437586292813313e-003
      -2.9932702775856700e-002 -1.1007704686361043e-002
      -8.5852320104331942e-002 -2.5081035973008346e-002
      5.4918760422363579e-002 -1.9383174077999450e-002
      5.1678672400437574e-002 4.0282748500611525e-002
      -2.2854928863842678e-002 -3.9397373706426334e-002
      -6.8496906677400458e-003 6.1794949760144162e-004
      1.1282621989418221e-001 -1.4824395008547445e-001
      4.5256265055501912e-002 -6.4163604503763207e-003
      3.1692566975735262e-002 3.3728564772913790e-004
      -3.5737721222105237e-002 1.7278548062685228e-001
      -2.2813440887423611e-001 8.6947799308853876e-003
      5.5255389406794718e-002 4.0095250045683768e-002
      1.5047134000722429e-002 -3.5908149034698050e-002
      2.5202332684621527e-002 7.9225255547299270e-002
      -2.1225222666548575e-002 -4.7613615514146369e-002
      -4.9317874165013972e-002 4.8421035325339278e-002
      8.9901064950007020e-002 1.2265925066971715e-002
      -4.9449229929300155e-002 -2.8245708344775311e-003
      1.7150777392069782e-002 -2.0089219655163311e-002
      -1.1469859753103473e-001 -1.3969857319655664e-002
      -7.3417061143557824e-002 -1.7569190739756272e-002
      -4.1691625713034348e-003 3.2698030351676892e-002
      5.3901253489763018e-003 -4.3911518424831375e-002
      -7.0814474890784984e-003 -6.4820096080180052e-003
      2.6425564660078758e-002 -9.7583046862788583e-002
      7.2416292373139041e-002 -8.9940388852722125e-003
      5.8519109324314061e-002 -1.4561403195323180e-002
      2.0251991262851008e-004 1.0296814432204700e-001
      -1.6301963306455108e-001 7.9228529294363137e-003
      1.3368007087475131e-002 1.9718249129059746e-002
      1.8599579556022577e-002 1.2788458165552631e-002
      -1.8992232899869604e-002 4.9191522509696578e-002
      -2.2698449538390376e-002 -4.1961477051798639e-002
      -1.7365213331492702e-002 2.0902377243641843e-002
      4.0487821073243738e-002 -4.2708940519908299e-003
      -3.7412984483764229e-003 1.4186725867287850e-002
      3.4587762086121389e-002 1.2662366593014967e-002
      -5.9749428087418892e-002 -1.4992345275603397e-002
      -2.5481453577844215e-001 -4.5546721729476970e-002
      1.5692229747736094e-003 5.7598740552474152e-002
      2.1109744096576379e-002 -1.0897835890581113e-001
      -1.9051204094802612e-002 2.3110061197941175e-002
      -2.1449515260493013e-003 -8.0827153435416382e-002
      2.6894804525396703e-002 4.9686759476676737e-002
      9.6334035159720929e-002 -3.9785951560229980e-003
      -2.2265537277598994e-002 7.0904812417546467e-002
      -1.5461838095006419e-001 4.0610415107534534e-002
      5.7460643417059946e-003 2.9588595475993292e-002
      3.8354046054117776e-002 8.7215517879589463e-002
      -8.6046201823723363e-003 5.6062477621089152e-002
      -3.3702495300202820e-002 -4.3507883883400447e-002
      -1.6606219908087451e-002 5.1285542471520243e-002
      3.1580387888960934e-002 -4.3200212772103674e-002
      -3.4837020006338135e-002 4.3423799443145519e-002
      -1.5612922454194680e-002 -3.9600324218067142e-003
      2.3703656239006988e-002 -1.1832495659215363e-003
      -5.5846966912463714e-001 -3.2819318494172620e-002
      -2.8904348123376139e-002 4.1533758896892821e-002
      4.7522013810013676e-002 6.1640850241482151e-002
      -2.2427026172484561e-002 2.9325270947229629e-002
      -3.6436215831618643e-002 -6.2863171616131044e-002
      1.2171813185929067e-001 -1.4537032022884418e-002
      5.0100928148683638e-002 -3.5707767341600367e-002
      5.1413379585556120e-002 9.6058511776334884e-002
      -1.1282082096299965e-001 -3.2346203757819859e-002
      3.6314918547750867e-002 2.6290465972965707e-002
      5.2342227894754019e-002 -1.7486402380410448e-002
      -5.7120440888478882e-002 5.2659115485742612e-002
      -2.9690278781529561e-003 -3.4016131941026505e-002
      7.4119537635969318e-002 -1.0001728267303293e-001
      -2.2313126209518523e-002 -6.7404885359097555e-002
      -3.3688407707810858e-003 4.8445228529009739e-002
      1.0242349005461915e-002 6.0787366191061405e-002
      5.4710883567682903e-002 -5.8569168522869556e-003
      -2.5318956245838048e-001 -3.7289636960279357e-002
      -8.4820295903813500e-002 3.9030381134496944e-002
      5.0422210346254388e-002 1.5197395630995508e-001
      -5.0934584597411889e-002 4.7811000392431580e-002
      -1.5680043727912828e-002 -1.0497338890875034e-001
      1.6142193235129915e-001 -1.0238374760880239e-001
      1.2201884819810703e-002 -3.8767763616860754e-002
      6.7012570101729729e-002 6.7115686320762355e-002
      -7.7539879439199363e-002 -4.8374117554832147e-002
      2.8174693801973037e-002 8.2443155812623792e-002
      2.6908812315255347e-002 -2.7519108413974220e-002
      -8.0815467151919715e-002 7.6506108003497983e-002
      1.1355346628237127e-003 -7.2824909565314691e-002
      1.0151001936866336e-001 -8.3365666737454269e-002
      -2.0483208634672824e-002 -2.5298475373527946e-002
      -2.6144300006964846e-003 6.6092705716714634e-002
      1.8554214225323981e-002 1.0096052775735363e-001
      8.5616780091287478e-003 1.3814342249788447e-002
      -3.7989884446518159e-003 -1.7501076488247273e-003
      3.6861437718943898e-003 3.6457192666170556e-003
      -4.5663547017317100e-003 3.7769956536946791e-003
      2.3429671514796609e-003 -3.9630001016514741e-003
      1.0547133342751977e-003 -1.7652978746577237e-003
      4.4747579936726123e-003 6.9202604842872933e-004
      7.4258424780785281e-004 -9.9103039151591968e-004
      -1.6185729289967133e-003 -3.5855755139659689e-003
      -2.7252403192560273e-003 4.6649751304273365e-003
      1.1617948855856266e-003 1.7204704458837353e-003
      -1.4798348947592478e-003 -4.2813615985454814e-003
      -1.9735833422353192e-003 2.4537011575886470e-003
      4.4753747214976236e-003 -8.4790795304926772e-004
      9.9552902352461410e-004 -1.9281720522481712e-003
      -3.2293432276397755e-003 3.8895424794434131e-003
      2.9761907069395556e-003 -4.6437667626340997e-003
