<?xml version="1.0"?>
<opencv_storage>
<OCRMLP type_id="opencv-ml-ann-mlp">
  <layer_sizes type_id="opencv-matrix">
    <rows>1</rows>
    <cols>3</cols>
    <dt>i</dt>
    <data>
      400 71 41</data></layer_sizes>
  <activation_function>SIGMOID_SYM</activation_function>
  <f_param1>6.5000000000000002e-001</f_param1>
  <f_param2>1.</f_param2>
  <min_val>-9.4999999999999996e-001</min_val>
  <max_val>9.4999999999999996e-001</max_val>
  <min_val1>-9.7999999999999998e-001</min_val1>
  <max_val1>9.7999999999999998e-001</max_val1>
  <training_params>
    <train_method>BACKPROP</train_method>
    <dw_scale>1.0000000000000000e-002</dw_scale>
    <moment_scale>1.0000000000000000e-002</moment_scale>
    <term_criteria><epsilon>1.0000000000000001e-005</epsilon>
      <iterations>1000</iterations></term_criteria></training_params>
  <input_scale>
    1.0188157667825207e+001 -1.0089040211752915e+001
    4.2560194693631859e+000 -4.0064200814641122e+000
    3.0883772689903473e+000 -2.7208442930903587e+000
    2.3960588929610003e+000 -1.8577828508933711e+000
    2.3523632846155733e+000 -1.7953772945065423e+000
    2.2936965865858077e+000 -1.7083293774167112e+000
    2.2936965865858077e+000 -1.7083293774167112e+000
    2.2637963196610955e+000 -1.6621749217462292e+000
    2.1531256921292483e+000 -1.4752952895988363e+000
    2.0996870698038101e+000 -1.3694862225631868e+000
    2.0782715745641389e+000 -1.3216303614075322e+000
    2.0904948045680749e+000 -1.3494547854645385e+000
    2.1540139011512482e+000 -1.4769369089285898e+000
    2.1787555171295945e+000 -1.5215165104207973e+000
    2.2131624519399056e+000 -1.5804187610694462e+000
    2.2973573952930293e+000 -1.7138890570941216e+000
    2.3997065787146741e+000 -1.8629128010013685e+000
    2.9521298652639674e+000 -2.5617756147871620e+000
    3.5181005257826912e+000 -3.2062053435161251e+000
    9.6337819939416054e+000 -9.5288373969947227e+000
    4.9470352147354522e+000 -4.7358812726430859e+000
    2.0000893963075406e+000 -1.0094997658672000e+000
    2.0261624576070916e+000 -8.5080499470223803e-001
    2.0870730570731681e+000 -7.4526067233936377e-001
    2.0765275657507960e+000 -7.5899387251853234e-001
    2.0484586111688077e+000 -8.0276673443995483e-001
    2.0340629028978787e+000 -8.3168590055457259e-001
    2.0511080402138431e+000 -7.9804347495028882e-001
    2.1166189926262078e+000 -7.1187192619909934e-001
    2.1981324461150997e+000 -6.4305464133402834e-001
    2.2366225793977730e+000 -6.1769153312910552e-001
    2.2104715640654509e+000 -6.3454890747014525e-001
    2.1129341725836626e+000 -7.1569927029690517e-001
    2.0889543061330751e+000 -7.4292695280465848e-001
    2.0941821362863711e+000 -7.3660804930763424e-001
    2.1131427538996252e+000 -7.1548037063386882e-001
    2.1063846532241870e+000 -7.2271679524162302e-001
    2.0005364637749379e+000 -9.7710499111068327e-001
    2.0794470317328626e+000 -1.3243724038770002e+000
    5.6472862880495738e+000 -5.4642795455004203e+000
    5.0328057375979700e+000 -4.8255766167226355e+000
    2.0015054116818591e+000 -9.6194577027598271e-001
    2.0885042178907245e+000 -7.4348231818033750e-001
    2.2184563950518705e+000 -6.2924153710021546e-001
    2.1895118431214931e+000 -6.4923316367702266e-001
    2.1463869671107054e+000 -6.8364983626320019e-001
    2.0600330932986104e+000 -7.8316824025171206e-001
    2.0425580014571736e+000 -8.1388855415695549e-001
    2.0884143634123995e+000 -7.4359341234956433e-001
    2.1261019427641954e+000 -7.0238857001979660e-001
    2.1354742375383720e+000 -6.9348779706302299e-001
    2.1236597757470173e+000 -7.0478267701552155e-001
    2.0808882019063444e+000 -7.5317431972261029e-001
    2.0983409615628901e+000 -7.3174537505858528e-001
    2.1460184126158093e+000 -6.8397353079533751e-001
    2.2597244521981548e+000 -6.0394526500582368e-001
    2.2845024911815015e+000 -5.9022053262849017e-001
    2.0925119088281390e+000 -7.3860107935616426e-001
    2.0000414764432835e+000 -1.0064609923592709e+000
    5.6243546274332594e+000 -5.4405496700966154e+000
    5.2745083800363739e+000 -5.0775635275343314e+000
    2.0300475560534559e+000 -8.4103162314711211e-001
    2.1036934665057978e+000 -7.2568488653444041e-001
    2.1997978665681424e+000 -6.4188401710836662e-001
    2.1777735762242707e+000 -6.5798722055008463e-001
    2.0685338820008350e+000 -7.7024401539288434e-001
    2.0000488369508855e+000 -9.9303603188428813e-001
    2.0106742705224865e+000 -1.1087912581142432e+000
    2.0016919425816395e+000 -1.0419878994063647e+000
    2.0004282384370269e+000 -1.0209091496380800e+000
    2.0003524911504442e+000 -1.0189518204784567e+000
    2.0005238365804057e+000 -1.0231508934004336e+000
    2.0059141369617857e+000 -1.0799173258595307e+000
    2.0014007920131638e+000 -9.6326668703017793e-001
    2.0445388787960037e+000 -8.1005538065752880e-001
    2.1660078014610833e+000 -6.6719451050760703e-001
    2.1853011949578542e+000 -6.5232648029812090e-001
    2.0728672204286185e+000 -7.6404670087051041e-001
    2.0047864135226647e+000 -9.3316791542018263e-001
    5.5738106774163594e+000 -5.3882206534903290e+000
    4.8948229193893242e+000 -4.6812025987774444e+000
    2.0314902487772590e+000 -8.3759306091679542e-001
    2.0962479913317074e+000 -7.3417509808767401e-001
    2.1587654878881595e+000 -6.7309822796512842e-001
    2.0860971668629267e+000 -7.4648434519903173e-001
    2.0009093556325275e+000 -1.0306136294632326e+000
    2.1796001342935911e+000 -1.5230023136243038e+000
    2.3185803307543860e+000 -1.7457658149486643e+000
    2.2170033018625346e+000 -1.5868068987776034e+000
    2.2161990488802381e+000 -1.5854720792276957e+000
    2.2281576671466459e+000 -1.6051711338755128e+000
    2.2686712232868449e+000 -1.6697954886113027e+000
    2.4211253986518235e+000 -1.8928104908204961e+000
    2.1895118431214931e+000 -1.5402786794444705e+000
    2.0089469660915960e+000 -1.0991676124422778e+000
    2.0315910783610316e+000 -8.3735625701698868e-001
    2.0561587502343777e+000 -7.8944324721248649e-001
    2.0198249893093205e+000 -8.6876276259824026e-001
    2.0002070323971952e+000 -9.8571452343333976e-001
    5.1192673811706921e+000 -4.9158434923601284e+000
    4.7023286166713474e+000 -4.4790678787052443e+000
    2.0490976069040907e+000 -8.0161327318596598e-001
    2.1031011471789864e+000 -7.2634508652571050e-001
    2.1348904120369201e+000 -6.9402952898843429e-001
    2.0406263052703615e+000 -8.1773247872885346e-001
    2.0403954830769426e+000 -1.2221963351974316e+000
    2.3022947208530420e+000 -1.7213580630768188e+000
    2.4496344416422389e+000 -1.9320493074942078e+000
    2.2690490570202231e+000 -1.6703844969637092e+000
    2.2643553250927977e+000 -1.6630507731566726e+000
    2.3410165872396611e+000 -1.7788582467165719e+000
    2.4288602854958667e+000 -1.9035169091386148e+000
    2.5995343582115882e+000 -2.1300651496444640e+000
    2.3273163955430665e+000 -1.7587215567854222e+000
    2.0771063529658087e+000 -1.3188970731218908e+000
    2.0031482078275809e+000 -9.4544313536066082e-001
    2.0269444747866978e+000 -8.4877258357743890e-001
    2.0048822028671331e+000 -9.3252571082933466e-001
    2.0029807701049518e+000 -1.0561071531054886e+000
    4.9058629196222077e+000 -4.6927691205648996e+000
    4.6392462774184837e+000 -4.4126237372842434e+000
    2.0374044254430914e+000 -8.2439781698183745e-001
    2.0803778168415974e+000 -7.5384477070945533e-001
    2.0966265081628430e+000 -7.3373309151108546e-001
    2.0255275871926286e+000 -8.5248122554976147e-001
    2.0300475560534559e+000 -1.1890159329063439e+000
    2.2098419666262301e+000 -1.5748681924394388e+000
    2.2961331332006840e+000 -1.7120318504126506e+000
    2.1825778836728813e+000 -1.5282232098613902e+000
    2.2204047790092583e+000 -1.5924360939071607e+000
    2.3136435414071008e+000 -1.7384028993293832e+000
    2.3140703546244250e+000 -1.7390406768892381e+000
    2.3328752620599276e+000 -1.7669180612546247e+000
    2.1921585394023113e+000 -1.5448439802885841e+000
    2.0591041756946038e+000 -1.2744551331340814e+000
    2.0000527425593480e+000 -1.0072888264287316e+000
    2.0073985330533666e+000 -9.1760502963360258e-001
    2.0007972349663117e+000 -1.0286367807061665e+000
    2.0201817220979286e+000 -1.1525111811393156e+000
    5.0733936111861837e+000 -4.8679691370692320e+000
    4.6056934829943259e+000 -4.3772389693133249e+000
    2.0044679015995670e+000 -9.3535426677135181e-001
    2.0285451993621044e+000 -8.4471757479603127e-001
    2.0436924741526528e+000 -8.1168027354500749e-001
    2.0150059074191287e+000 -8.8477479176823770e-001
    2.0120951608538946e+000 -1.1161917318055623e+000
    2.0927890345267901e+000 -1.3545202801572065e+000
    2.1456504652114732e+000 -1.4613531977711194e+000
    2.0977674499290089e+000 -1.3653597406361733e+000
    2.1282355047120647e+000 -1.4279124621571151e+000
    2.1462640481080362e+000 -1.4625063183394444e+000
    2.1182208426080740e+000 -1.4079870248686992e+000
    2.1093224915603281e+000 -1.3897885997078430e+000
    2.0487136533717316e+000 -1.2464084161373647e+000
    2.0079308471057788e+000 -1.0931089689711235e+000
    2.0052749597722328e+000 -9.2996068804454946e-001
    2.0074939188446490e+000 -9.1709848251960269e-001
    2.0072331020874787e+000 -1.0887410570859530e+000
    2.0483313678191450e+000 -1.2453338283109820e+000
    5.3900251457820545e+000 -5.1976297565690892e+000
    4.6423358399928434e+000 -4.4158804331639248e+000
    2.0012509472735136e+000 -1.0359997367497034e+000
    2.0020852568082166e+000 -9.5536611494034185e-001
    2.0134778391777304e+000 -8.9044940065033240e-001
    2.0045233046193722e+000 -9.3496811851525674e-001
    2.0083550755797828e+000 -1.0956790536339964e+000
    2.0298513960752302e+000 -1.1883447642821900e+000
    2.0148696686140699e+000 -1.1296025279712891e+000
    2.0051357468287798e+000 -1.0742779898740107e+000
    2.0073274012677027e+000 -1.0893423092245460e+000
    2.0011371893391310e+000 -1.0342956259505622e+000
    2.0002109952769107e+000 -9.8557943806738446e-001
    2.0003173820455999e+000 -9.8234276476451510e-001
    2.0066352721814456e+000 -9.2179292271694946e-001
    2.0208241279050818e+000 -8.6573124635451337e-001
    2.0414982777465962e+000 -8.1598389643557434e-001
    2.0247677416383203e+000 -8.5451968268649314e-001
    2.0001694707259992e+000 -1.0131031033897857e+000
    2.0501296577833221e+000 -1.2503599762665891e+000
    5.4768679401051674e+000 -5.2877516451056472e+000
    4.6641503390160342e+000 -4.4388676595828809e+000
    2.0052749597722328e+000 -1.0753142717276833e+000
    2.0012802363105373e+000 -9.6485400266629573e-001
    2.0169808603630810e+000 -8.7790349451128080e-001
    2.0038812064859952e+000 -9.3961105626131491e-001
    2.0019861202995655e+000 -1.0455700325461490e+000
    2.0099978855561087e+000 -1.1051132523696747e+000
    2.0030411235744978e+000 -1.0566879043247215e+000
    2.0003272251822426e+000 -9.8207350614250144e-001
    2.0025198495849890e+000 -9.5104601242279696e-001
    2.0173836817457529e+000 -8.7655846188212971e-001
    2.0303430812664063e+000 -8.4031944052688146e-001
    2.0342734053005644e+000 -8.3121448268104736e-001
    2.0611151159613494e+000 -7.8146143133256429e-001
    2.0764450894481956e+000 -7.5910598775661642e-001
    2.0725468875195294e+000 -7.6449660471397285e-001
    2.0651015715662959e+000 -7.7533273583059081e-001
    2.0064344270142702e+000 -9.2293784207822771e-001
    2.0120036863274349e+000 -1.1157274484197217e+000
    5.5960975836045792e+000 -5.4112990747461662e+000
    4.6578838946847867e+000 -4.4322656490324066e+000
    2.0042677064645673e+000 -1.0674963791487770e+000
    2.0015591391283514e+000 -9.6128593897572934e-001
    2.0201021609470260e+000 -8.6791317150580993e-001
    2.0043945672397587e+000 -9.3586934610434069e-001
    2.0011651191779696e+000 -1.0347213725977074e+000
    2.0146665137072906e+000 -1.1286604605771797e+000
    2.0170172779291735e+000 -1.1392361221737537e+000
    2.0000006759195421e+000 -9.9917819462902868e-001
    2.0052349924532265e+000 -9.3021691791592198e-001
    2.0177169126522831e+000 -8.7545911262173948e-001
    2.0355510955057499e+000 -8.2838952502768948e-001
    2.0353363968715206e+000 -8.2885993032367222e-001
    2.0496766704732647e+000 -8.0057595905508927e-001
    2.0483313678191450e+000 -8.0299753950816311e-001
    2.0593178148743156e+000 -7.8430718915362574e-001
    2.0760334852760800e+000 -7.5966667887500305e-001
    2.0129344984068074e+000 -8.9255358137084528e-001
    2.0053351991247261e+000 -1.0757587427477806e+000
    5.4252546167550175e+000 -5.2342035840740042e+000
    4.6330870131311137e+000 -4.4061305035128111e+000
    2.0021996851254875e+000 -1.0480135375691098e+000
    2.0019133592554499e+000 -9.5720425693640632e-001
    2.0188899203853237e+000 -8.7168020541712188e-001
    2.0007741702252364e+000 -9.7256047805892387e-001
    2.0349623605417348e+000 -1.2052788165855919e+000
    2.1062842251987370e+000 -1.3834575820074193e+000
    2.1159820710167048e+000 -1.4034545375111482e+000
    2.0385746258006074e+000 -1.2166363089441692e+000
    2.0138028320554264e+000 -1.1245894001153593e+000
    2.0040196104931534e+000 -1.0654420510706268e+000
    2.0000192264233547e+000 -9.9562480811126997e-001
    2.0008928860237267e+000 -1.0303309763876631e+000
    2.0000946541825884e+000 -9.9031817386801635e-001
    2.0004688772466084e+000 -9.7857959602225164e-001
    2.0216006759071021e+000 -8.6343235226122750e-001
    2.0466940074196729e+000 -8.0600144934559326e-001
    2.0035787364313662e+000 -9.4194007189586426e-001
    2.0062367123160070e+000 -1.0821527566500360e+000
    5.1972661902816419e+000 -4.9971522139224840e+000
    4.4012991371423080e+000 -4.1609705942331265e+000
    2.0018419617196481e+000 -9.5799301881417809e-001
    2.0116114145437192e+000 -8.9789314646151897e-001
    2.0316415578258207e+000 -8.3723787135669447e-001
    2.0000000751021374e+000 -9.9972598985648098e-001
    2.1199445881674883e+000 -1.4114566667451118e+000
    2.3077170744893638e+000 -1.7295229568264698e+000
    2.3194452958602021e+000 -1.7470527255883161e+000
    2.1487352958975037e+000 -1.4671345545981449e+000
    2.1297084475079142e+000 -1.4307975497576464e+000
    2.0906770788079814e+000 -1.3498589196140325e+000
    2.0656288622136549e+000 -1.2910887989843227e+000
    2.1262136694993554e+000 -1.4239338599175255e+000
    2.1123098607663326e+000 -1.3959537487635001e+000
    2.0578314661617854e+000 -1.2711296587362741e+000
    2.0004113861759159e+000 -9.7992199309110717e-001
    2.0327116034234298e+000 -8.3475427178131267e-001
    2.0057456449311561e+000 -9.2701836946461913e-001
    2.0001554983243164e+000 -9.8760761005914977e-001
    4.9546404772328509e+000 -4.7438408241524455e+000
    4.3986999540553144e+000 -4.1582119735581822e+000
    2.0477610611823645e+000 -8.0403662932557762e-001
    2.0823446212018988e+000 -7.5127615615574128e-001
    2.0990126284430390e+000 -7.3097295083419900e-001
    2.0071627849606539e+000 -9.1887241224356619e-001
    2.1381807921967186e+000 -1.4471833410599744e+000
    2.4358743894354049e+000 -1.9131860784110362e+000
    2.4015414584381154e+000 -1.8654889734017097e+000
    2.2155571951740787e+000 -1.5844057278176922e+000
    2.1982834423738145e+000 -1.5553352363246358e+000
    2.1373534024445240e+000 -1.4455983001460908e+000
    2.1246551928562609e+000 -1.4208522429069583e+000
    2.2649152356686959e+000 -1.6639275193255294e+000
    2.2645418613006791e+000 -1.6633429223763074e+000
    2.1501060809180559e+000 -1.4696908995148976e+000
    2.0009427473204067e+000 -1.0311791823337970e+000
    2.0234132696741400e+000 -8.5824551606964938e-001
    2.0128713322111533e+000 -8.9280138426521016e-001
    2.0024923341306402e+000 -9.5130733384912713e-001
    4.5670331438641343e+000 -4.3364286339279969e+000
    4.3704354084333081e+000 -4.1281990254912317e+000
    2.0765275657507960e+000 -7.5899387251853234e-001
    2.1216840253239737e+000 -7.0674347294636619e-001
    2.1398452191589930e+000 -6.8948287652128970e-001
    2.0262995747764943e+000 -8.5044609448347530e-001
    2.1002673761132624e+000 -1.3707280778881159e+000
    2.4637920755441312e+000 -1.9513179222588488e+000
    2.5335389494187184e+000 -2.0443972147337401e+000
    2.2562464640141404e+000 -1.6502937277209486e+000
    2.2013204320315887e+000 -1.5605003090045799e+000
    2.1523670693460084e+000 -1.4738907137649599e+000
    2.1560568841462038e+000 -1.4807011651604240e+000
    2.4102920340821368e+000 -1.8777357303061097e+000
    2.3827635083024972e+000 -1.8389854015502627e+000
    2.1373534024445240e+000 -1.4455983001460908e+000
    2.0002526914579790e+000 -1.0160231196539777e+000
    2.0216006759071021e+000 -8.6343235226122750e-001
    2.0151771090744592e+000 -8.8415964692469440e-001
    2.0019861202995655e+000 -9.5641608775341680e-001
    4.5524408363755509e+000 -4.3210136576559943e+000
    4.6862989489336986e+000 -4.4621939430173025e+000
    2.0619155678314036e+000 -7.8021099487070733e-001
    2.1056828788556592e+000 -7.2348586170602436e-001
    2.1299360059805443e+000 -6.9869372407747654e-001
    2.0378479127704945e+000 -8.2346033087971893e-001
    2.0272700302244391e+000 -1.1793333671304271e+000
    2.3041629687872280e+000 -1.7241756608039260e+000
    2.4355918438479782e+000 -1.9127972941922018e+000
    2.1866009306811289e+000 -1.5352347449726096e+000
    2.1305060158057123e+000 -1.4323551338107328e+000
    2.1138746718760633e+000 -1.3991602634279701e+000
    2.1298221949525482e+000 -1.4310198866744068e+000
    2.3083477105326153e+000 -1.7304700362186820e+000
    2.2153969464590411e+000 -1.5841393484648543e+000
    2.0399932668326874e+000 -1.2209770607735242e+000
    2.0030411235744978e+000 -9.4635321924977656e-001
    2.0289289781743278e+000 -8.4376533964909362e-001
    2.0159423365111451e+000 -8.8145683691519106e-001
    2.0004990338586786e+000 -9.7790905772688907e-001
    4.9432465436287165e+000 -4.7319156417909314e+000
    5.1972661902816419e+000 -4.9971522139224840e+000
    2.0207836690817511e+000 -8.6585236136183008e-001
    2.0640542680642029e+000 -7.7691930314776181e-001
    2.1019227156039846e+000 -7.2766617442771553e-001
    2.0424395329943592e+000 -8.1412121149364092e-001
    2.0000099323311127e+000 -1.0031565301860836e+000
    2.0518322097560349e+000 -1.2550533001303015e+000
    2.0665384519393073e+000 -1.2933563139535198e+000
    2.0019253913961466e+000 -1.0448525371098827e+000
    2.0000108147949098e+000 -9.9671681740327311e-001
    2.0000009200017672e+000 -1.0009596273371411e+000
    2.0008603992206062e+000 -1.0297659166172373e+000
    2.0267132034664121e+000 -1.1773431934907996e+000
    2.0095054420468359e+000 -1.1023643514982884e+000
    2.0036117333733845e+000 -9.4168104213081794e-001
    2.0551957195156292e+000 -7.9104477611940305e-001
    2.0759513197913066e+000 -7.5977884011545360e-001
    2.0263453647954028e+000 -8.5032648392517429e-001
    2.0002070323971952e+000 -9.8571452343333976e-001
    5.4821149314998845e+000 -5.2931930480698739e+000
    5.4716367547097944e+000 -5.2823262202394980e+000
    2.0000397302123352e+000 -9.9371664315564923e-001
    2.0379035478220953e+000 -8.2334319138852408e-001
    2.1015317391536357e+000 -7.2810674190873781e-001
    2.0572009609409605e+000 -7.8772925258283288e-001
    2.0117314012323071e+000 -8.9739539280786196e-001
    2.0000018775559756e+000 -1.0013711784858230e+000
    2.0000920064617564e+000 -9.9045389303271969e-001
    2.0597464002846260e+000 -7.8362371614007453e-001
    2.0909509014159933e+000 -7.4048542130852768e-001
    2.0860971668629267e+000 -7.4648434519903173e-001
    2.0718291231376904e+000 -7.6550934921084990e-001
    2.0088946774350678e+000 -9.1003094047688882e-001
    2.0168718505557139e+000 -8.7827058660811996e-001
    2.0466316536408393e+000 -8.0611711268711883e-001
    2.1118948444586318e+000 -7.1679412575007273e-001
    2.1314213476025321e+000 -6.9728260720759749e-001
    2.0375150319055537e+000 -8.2416338369213415e-001
    2.0031020861168649e+000 -1.0572690101016942e+000
    5.8038639014501356e+000 -5.6261215635528892e+000
    5.5463409494291174e+000 -5.3597656270003915e+000
    2.0690769037556289e+000 -1.2996229825727326e+000
    2.0043945672397587e+000 -1.0685252211354184e+000
    2.0226874957820757e+000 -8.6029350327590615e-001
    2.0103332468937691e+000 -9.0338282860894992e-001
    2.0027598663608455e+000 -9.4882738256270538e-001
    2.0001624093681203e+000 -9.8733695255531029e-001
    2.0023703940126296e+000 -9.5248408095571990e-001
    2.1018248856587496e+000 -7.2777630666753368e-001
    2.1581177691880193e+000 -6.7363555470133030e-001
    2.1585061888144899e+000 -6.7331314590794555e-001
    2.1154529640098008e+000 -7.1307403281229254e-001
    2.0110209649750477e+000 -9.0038517443902011e-001
    2.0170172779291735e+000 -8.7778115575542004e-001
    2.0331242607429720e+000 -8.3380938783279201e-001
    2.0477610611823645e+000 -8.0403662932557762e-001
    2.0522296038519672e+000 -7.9608961475814199e-001
    2.0001803446121800e+000 -1.0135197197007182e+000
    2.0719086709162018e+000 -1.3065118804544207e+000
    5.9749086943302396e+000 -5.8025713032427477e+000
    7.9452502830836993e+000 -7.8173293584108672e+000
    2.8526978101651879e+000 -2.4434384778490807e+000
    2.6262715876539642e+000 -2.1642090063237793e+000
    2.3282006562808921e+000 -1.7600278186765803e+000
    2.3155678989228217e+000 -1.7412766003409765e+000
    2.2458466819563148e+000 -1.6337626794335538e+000
    2.2481495606970285e+000 -1.6374402562188348e+000
    2.2335490450535187e+000 -1.6139518894340548e+000
    2.0612602133508986e+000 -1.2800262108668501e+000
    2.0255275871926286e+000 -1.1730463616428672e+000
    2.0244583839387928e+000 -1.1690983638133796e+000
    2.0609702135730732e+000 -1.2792813191951249e+000
    2.2254964448815593e+000 -1.6008144131824811e+000
    2.1940860125258186e+000 -1.5481564704715955e+000
    2.1841511437023389e+000 -1.5309708379842855e+000
    2.2142776050959969e+000 -1.5822770225507845e+000
    2.2636101853835666e+000 -1.6618831698116130e+000
    2.5526776738282675e+000 -2.0694597776383867e+000
    2.8172984626528890e+000 -2.4007644750943160e+000
    8.7321580238451144e+000 -8.6160961811056005e+000</input_scale>
  <output_scale>
    1.0526315789473684e+000 0. 1.0526315789473684e+000 0.
    1.0526315789473684e+000 0. 1.0526315789473684e+000 0.
    1.0526315789473684e+000 0. 1.0526315789473684e+000 0.
    1.0526315789473684e+000 0. 1.0526315789473684e+000 0.
    1.0526315789473684e+000 0. 1.0526315789473684e+000 0.
    1.0526315789473684e+000 0. 1.0526315789473684e+000 0.
    1.0526315789473684e+000 0. 1.0526315789473684e+000 0.
    1.0526315789473684e+000 0. 1.0526315789473684e+000 0.
    1.0526315789473684e+000 0. 1.0526315789473684e+000 0.
    1.0526315789473684e+000 0. 1.0526315789473684e+000 0.
    1.0526315789473684e+000 0. 1.0526315789473684e+000 0.
    1.0526315789473684e+000 0. 1.0526315789473684e+000 0.
    1.0526315789473684e+000 0. 1.0526315789473684e+000 0.
    1.0526315789473684e+000 0. 1.0526315789473684e+000 0.
    1.0526315789473684e+000 0. 1.0526315789473684e+000 0.
    1.0526315789473684e+000 0. 1.0526315789473684e+000 0.
    1.0526315789473684e+000 0. 1.0526315789473684e+000 0.
    1.0526315789473684e+000 0. 1.0526315789473684e+000 0.
    1.0526315789473684e+000 0. 1.0526315789473684e+000 0.
    1.0526315789473684e+000 0. 1.0526315789473684e+000 0.
    1.0526315789473684e+000 0.</output_scale>
  <inv_output_scale>
    9.4999999999999996e-001 0. 9.4999999999999996e-001 0.
    9.4999999999999996e-001 0. 9.4999999999999996e-001 0.
    9.4999999999999996e-001 0. 9.4999999999999996e-001 0.
    9.4999999999999996e-001 0. 9.4999999999999996e-001 0.
    9.4999999999999996e-001 0. 9.4999999999999996e-001 0.
    9.4999999999999996e-001 0. 9.4999999999999996e-001 0.
    9.4999999999999996e-001 0. 9.4999999999999996e-001 0.
    9.4999999999999996e-001 0. 9.4999999999999996e-001 0.
    9.4999999999999996e-001 0. 9.4999999999999996e-001 0.
    9.4999999999999996e-001 0. 9.4999999999999996e-001 0.
    9.4999999999999996e-001 0. 9.4999999999999996e-001 0.
    9.4999999999999996e-001 0. 9.4999999999999996e-001 0.
    9.4999999999999996e-001 0. 9.4999999999999996e-001 0.
    9.4999999999999996e-001 0. 9.4999999999999996e-001 0.
    9.4999999999999996e-001 0. 9.4999999999999996e-001 0.
    9.4999999999999996e-001 0. 9.4999999999999996e-001 0.
    9.4999999999999996e-001 0. 9.4999999999999996e-001 0.
    9.4999999999999996e-001 0. 9.4999999999999996e-001 0.
    9.4999999999999996e-001 0. 9.4999999999999996e-001 0.
    9.4999999999999996e-001 0. 9.4999999999999996e-001 0.
    9.4999999999999996e-001 0.</inv_output_scale>
  <weights>
    <_>
      -2.1736778630408463e-001 -1.6943001446142161e-002
      1.4527722848185192e-002 -1.0375057662138752e-002
      1.8282582244822633e-002 -5.4110446256227331e-002
      2.3550805909438911e-002 -2.4194972632487093e-002
      -3.1081165285070468e-002 4.7538773256607693e-002
      8.0470239758748785e-002 -9.0109426268489737e-002
      -6.0820628388863207e-002 4.7816352256016881e-002
      6.2616812288567650e-002 -3.4762246322039669e-002
      2.1911878695354135e-002 1.9355083370744632e-002
      1.7168210246905527e-003 -4.0986501766207842e-002
      9.1008788037368699e-002 -2.3788923818372009e-002
      3.3639906077270437e-002 6.5799544781178262e-002
      4.0930634973727308e-002 -1.2401102624740342e-002
      3.9454796065530068e-002 8.6737007023505504e-003
      4.8733642735732455e-003 1.4711284185455741e-002
      1.9249530036755256e-002 4.3838458029333692e-002
      5.1967413342839830e-002 1.3279508804366980e-002
      -3.2803840544143328e-002 -1.9709407042318904e-002
      -4.3348466615241672e-002 1.6668115296271206e-002
      -1.6548285713278318e-002 6.2351281432695181e-003
      2.0650994574373378e-002 4.2067689685218370e-003
      -3.0587928443946803e-002 -7.1112207089568573e-003
      -6.2698811996482031e-003 2.0553055083820999e-002
      2.5128074122994445e-002 -1.9265803500415575e-002
      5.9104267710375913e-003 2.5832071184716351e-002
      2.6761650147341193e-002 1.0938303929165066e-002
      2.4020963662087880e-003 5.8720490878921047e-002
      -1.9631573467441071e-002 4.6684225330705577e-002
      9.9795308705034665e-003 8.8190390106658422e-003
      2.1603461767659891e-003 5.0563235811242543e-002
      3.6020327439900947e-002 1.6221761312411355e-002
      5.4669275206904420e-002 8.6861615626432527e-003
      3.5292873016181538e-002 -2.8923000583160097e-002
      1.2060941635543667e-002 2.9467179468844151e-002
      5.1036927432766305e-002 -1.5367456142592769e-002
      -1.0228965230634953e-002 2.8103705214829000e-001
      -2.6484863741077787e-002 -7.1400103084618652e-002
      1.7462539089379430e-002 1.8728144773425198e-002
      -1.0002162359174535e-001 9.7910257640301174e-002
      -2.0102237384633573e-002 4.2003333268347834e-002
      -1.9159463426415529e-002 -9.5919859073109320e-002
      -9.5007198148748875e-002 5.8418975963331137e-004
      1.5105384247174919e-001 9.2718287073138492e-003
      1.0709368035502793e-001 4.8167382335255644e-002
      -1.9500595684273567e-002 4.1351698658623752e-002
      -5.4218010115696408e-002 9.3638152342519404e-002
      -5.4926701424927032e-002 2.6264799842673926e-002
      6.1645479379301579e-002 4.0471421239125664e-002
      2.7905982652684905e-002 1.1143827853973759e-001
      -1.7370652816677011e-002 4.0405130394569097e-002
      1.5658345169818618e-002 -1.5508555060340756e-001
      -8.2222167692467832e-002 -4.5577609979864861e-003
      1.1941312278416538e-001 -3.4429355219546369e-002
      -3.4788315355815083e-003 -1.0957971026506072e-001
      1.5517510480080430e-002 -1.2625837646164323e-001
      6.5744655252263931e-002 -3.5384216483232071e-003
      2.1029328954469270e-001 -1.6319009977689460e-002
      6.2730802349672973e-002 -8.1118427032830856e-002
      2.9671525452594168e-002 -1.6052864935169181e-001
      6.6921933663026859e-002 -5.5690123478396875e-003
      -5.5447389377157222e-002 3.6969375500045948e-002
      -1.0278222102009477e-001 -4.1258286052886436e-002
      9.2158287209255178e-003 -2.9453666650004283e-002
      8.8412228872929877e-002 5.3406497245168306e-002
      -2.9590962526200846e-003 -6.6659099954333459e-002
      -8.2471953979046678e-002 5.9884224934740875e-002
      3.9755595110073448e-002 1.2491899214432445e-001
      -1.0777799843101250e-001 5.1618013053674625e-002
      -7.6165503859342273e-002 5.9524738283925460e-002
      -1.7981577061685391e-001 -1.1675781106944906e-001
      -5.1567983169848793e-002 -1.7033943148347802e-002
      2.3122786381525667e-001 6.2386515969622917e-003
      -6.4114210647429268e-002 6.5484504578995795e-002
      1.5438011244972452e-001 1.1730686995972820e-002
      -4.3344963789906273e-002 -4.3970454240501125e-002
      2.4715222505946634e-002 -3.8778147772025075e-004
      -9.7014250524497497e-002 1.8467550581798359e-002
      3.7524045895621694e-002 -1.2751957693506286e-001
      -9.7485854670422672e-002 1.9962217506800459e-001
      3.9949905695434856e-002 -4.7353208055208873e-002
      6.5817040790491513e-002 -1.6498735533891640e-002
      4.9956196108491523e-002 -3.4972207908805807e-002
      -1.5368243205961059e-003 -1.7411027333773942e-002
      -1.9005115301794251e-001 1.9064947065703203e-001
      1.7559661554376077e-002 2.2432172076076684e-001
      -6.0106585520734786e-002 -1.0375747768494881e-001
      -9.3963709558869096e-002 1.1274661046645316e-002
      -7.8655289884134102e-003 -3.8577315682246552e-002
      -6.8802027977740168e-002 3.0993088044769877e-002
      -1.3329980434039226e-001 -4.9744639027265308e-002
      1.1840307281231048e-001 2.9354924510404480e-002
      -2.5699276853690559e-002 -7.7759758124576167e-002
      8.3672670363308319e-002 -1.1237175498812908e-001
      -2.8919867305216704e-002 8.5011982586249688e-002
      1.2781553652925491e-002 2.9098945005859612e-002
      -1.1212424169031630e-003 -2.0570137772031388e-001
      1.5243564077458854e-001 -8.8348027155644784e-002
      1.0311990136301982e-002 -1.6769386726481570e-002
      -1.9235609663038243e-002 8.1702624902911927e-002
      1.1373001826513858e-001 -1.0903795142235832e-001
      -7.6917695613615264e-002 1.1962823521604611e-001
      5.4621161602697380e-002 -1.6304945104169202e-001
      5.5467442821086232e-002 -1.3052833730079991e-001
      9.5310071466658625e-002 -5.6054107749555278e-002
      1.0703435052758649e-001 2.0003331927841123e-002
      -5.3543836548948592e-002 -6.0250322856574355e-002
      6.2538546702675640e-002 3.7794729546657924e-001
      4.5230834142757498e-002 -5.6644701930432070e-002
      4.2683498979083799e-003 -1.2824825969024961e-002
      -4.2129812538817597e-002 2.2119803707708986e-005
      -6.6191356435213082e-003 -3.9427843649810335e-002
      -2.8850641284448975e-001 -5.5914374151497602e-002
      8.4591935322116341e-002 1.1909714965783202e-001
      -1.4071921836445211e-001 2.6421134103645455e-003
      3.0231192378427862e-002 2.3113464918898381e-002
      -8.3140095758019963e-002 -5.9378666828545312e-002
      1.7768061205921809e-002 -6.5558846201177814e-002
      4.3347096462562858e-002 -6.5271735758851451e-002
      -5.3411202586648464e-002 -1.3927552304367025e-001
      -6.2532452344523523e-002 1.2748790896057929e-001
      1.9628875378325908e-001 7.9005435510658001e-002
      -2.7944712313199377e-001 4.5174485420937494e-002
      1.1360996877108656e-001 -7.9492449549600636e-002
      -9.2040729632304422e-003 9.8803512041797228e-002
      -6.8028487904785009e-002 3.3081241683273692e-002
      -1.0955873675880091e-001 -5.3276121361668385e-002
      -4.9725183288432923e-002 1.6459261100320543e-002
      2.7087193409343513e-002 -2.3481119882419570e-002
      -9.8105477244612715e-002 2.7437507806303005e-003
      1.0427947758219049e-001 1.2577303784370930e-001
      -6.1592889976156202e-002 -1.2796851566112910e-001
      -6.1597969979375097e-002 3.3992379420219633e-002
      -1.1364569492930434e-002 3.8968501514539636e-002
      -1.0793486873012605e-002 -6.8560518406323032e-002
      -2.1906867568251137e-002 6.7879187298253887e-002
      -1.0452837163926522e-001 4.7751106819292247e-002
      4.7348660730872211e-002 -5.1562024574651401e-002
      -5.7875934698907505e-002 9.7307883577397558e-002
      -4.1630977385107147e-002 1.7799623679290488e-001
      -3.7035549793279283e-002 -3.4246432364529455e-002
      1.4148908791780004e-001 -8.7005423123921649e-002
      2.7113682914521094e-002 1.1236579625235309e-001
      2.1310866311507964e-001 -1.6405457438222613e-002
      -1.3377003609461707e-002 -1.0794075759158469e-002
      -5.0773786519637071e-002 6.1268173667659180e-002
      3.1782076168239935e-002 5.5871100338571157e-002
      -8.3696637200835991e-002 -1.2604606509185981e-001
      5.2838221499629232e-002 3.5917774687381623e-002
      -2.6461474039154453e-002 -8.7501788496727892e-002
      4.4841468564837852e-002 -1.4420484991941341e-002
      -5.1310498268144628e-003 -1.8727928461379679e-002
      -5.4084215579612523e-002 2.7263649158865921e-002
      -4.3123289463457316e-002 -1.2052488542948953e-002
      -1.0712538864626635e-001 2.4760267718741586e-002
      -1.8791783868170905e-001 6.4685944669734083e-002
      1.4381972271472931e-001 1.5841306704921490e-001
      1.6079078416445260e-002 -1.9764419519866755e-001
      8.0285618146764978e-002 7.7041540350307594e-002
      -4.2553450927502137e-002 -6.6781488784771470e-002
      9.1522770345541460e-002 -1.2938219302649141e-002
      2.0010985258101879e-002 -6.0198969981593915e-002
      1.0647687607227677e-002 4.2281018297719811e-002
      3.3356425167720687e-002 -1.2220915421914248e-001
      -3.3227234882276795e-002 5.2034933024841579e-002
      1.0888852874011199e-002 5.4444150998431133e-002
      5.5064183253897749e-003 -3.1770672335230690e-002
      -1.3283736178765698e-001 -4.3627263191577788e-002
      9.9647464459760554e-002 -1.1004191165260119e-001
      -4.7283984375380970e-002 -1.3126971709398147e-001
      -6.0493288734768384e-002 -4.5912897897644557e-002
      4.4026716154765513e-002 -1.0483247780479452e-001
      -6.8654138806919437e-002 -3.7419426970427987e-002
      -5.8428276586471317e-002 -4.5723128229880877e-003
      -2.6052756478807355e-002 1.1407812849258762e-001
      3.8208939149099591e-002 -2.6290934994578972e-003
      2.3477646928117761e-002 3.9134588150146275e-002
      -3.7782388997796852e-002 1.1171829098476178e-001
      8.2744649517511815e-002 -8.5217918383881888e-002
      -2.6358674324110015e-002 -5.5769329525168831e-002
      -3.2650681576579473e-002 1.2689343397796696e-001
      -1.8011179534897420e-002 -1.7335701522461933e-002
      6.4833602932062542e-002 2.8720815815241003e-002
      4.5436418635176307e-002 7.0570748373006406e-002
      1.8728166041435814e-002 -4.5106565810120409e-002
      2.4179938391749429e-003 -5.8573509491140305e-002
      -6.4426520458191489e-003 -1.1162414255072164e-001
      5.1335141225009998e-002 -5.6622442475945126e-002
      5.4765211480217162e-003 1.5530869129849252e-002
      -7.2515851038480073e-002 1.0225745623254392e-002
      5.7726115403841970e-003 9.5362048890197698e-002
      -5.3567915608997436e-002 4.2611798740984069e-003
      -3.9418428956200777e-002 -1.2402234397163425e-002
      -2.4668715785597831e-002 3.2672550944222348e-002
      -2.4562526929944723e-002 -3.8275654884409932e-003
      4.5746769412625182e-003 -7.7439802413022465e-003
      3.3381278744733428e-002 -3.9015863161093222e-003
      -8.4515890788579798e-003 -5.2169538949876769e-002
      3.9983579158082504e-002 2.8334420400276197e-002
      4.6503273599813211e-002 -1.3001062908103529e-002
      6.0840552299999441e-002 2.4389940608240082e-002
      -6.9210813438108698e-002 -2.0356142353049441e-002
      -3.2719033303282637e-002 -1.3777519603582731e-002
      -1.9135537336555037e-003 -7.3636421412265340e-002
      1.6062473633365021e-002 -2.9894274274100734e-002
      -1.1197818986700626e-002 -2.5147017712862884e-002
      5.9169581126614201e-003 -4.2661615000141997e-002
      1.4889112087706566e-001 -4.0912132592637894e-002
      1.8245490535898478e-002 -3.9917196436341153e-002
      6.1204432928657168e-002 -6.5849344461572701e-002
      1.6441916277376672e-001 -5.4994681454990632e-002
      4.7776454637226358e-002 6.2626833193147560e-002
      -5.8587522013702174e-002 1.4427341903296698e-003
      1.4908953574554529e-001 -9.2690038829876725e-002
      -1.6309769070512828e-001 3.1742772599450950e-002
      -2.3428272710801928e-002 2.5679328034148966e-002
      -9.7252834567122907e-003 -7.3155618781006987e-002
      1.3099367117262596e-002 8.4785793434217688e-002
      -9.6059953904918061e-002 -6.0404233323722842e-002
      5.5450390682263512e-002 4.6231340067467534e-002
      -1.3010863241301726e-002 1.4935404506397640e-001
      -1.4521778136585264e-001 -9.5569407719234084e-002
      -1.1151055704546795e-001 5.0149751891682436e-002
      -3.8377391990107194e-002 -2.8762939283337702e-002
      1.4587753058802506e-002 4.9061519145245133e-002
      -9.5449181281418480e-002 -5.5109758161070325e-002
      -3.6520167151769339e-002 -2.9825445337274718e-002
      -1.6816685312906237e-002 -9.1837892004075342e-002
      1.6884024674759499e-002 6.9352856049651104e-003
      -1.0270034131616720e-002 -5.1511054701379795e-002
      3.7581224784369642e-002 9.2308070805465717e-004
      7.2880059340605617e-003 -1.7423316834639564e-002
      5.4649038844060610e-002 -9.1164146887443454e-002
      -6.1920620403073501e-002 1.1252414903665146e-001
      3.6851112143804175e-002 3.5550302029646860e-002
      -3.2096717753137315e-003 6.3363874368493306e-002
      1.4400279852221825e-002 6.0303029689134690e-003
      2.3130325547261816e-002 -2.0031651752680887e-002
      -3.8126943261783314e-002 1.8491048932614856e-001
      -1.1424451107130090e-001 8.2971007319442742e-003
      -8.7751619397692548e-002 -3.4784695623259053e-002
      -4.0072158916359284e-002 1.2103390785618453e-003
      -4.3553873344106472e-002 1.2964613246037959e-001
      -5.0979113843930002e-002 -1.0160346141102518e-001
      3.1653356509793402e-002 8.4668946606812380e-003
      3.4105169169436490e-002 1.4255569635956744e-001
      3.4334748250383081e-002 1.1001719955480918e-002
      4.8958360451948020e-002 -9.0248681131082698e-002
      3.5814638242067813e-002 -2.3958582111544256e-002
      -6.4890155816839670e-002 -1.5420069704429132e-001
      2.3228671159302414e-002 8.4101444031925120e-003
      -1.1329146740233954e-002 2.8709907344501517e-002
      6.9874971146874812e-002 1.1160533678753475e-001
      8.8957199986646820e-002 -4.3296355474913964e-002
      2.9111988088407974e-002 7.8646692014547517e-003
      7.0067954805078020e-002 -2.1514296584305356e-002
      2.4058160860675362e-001 -2.5209879292185280e-002
      -3.9978108461036291e-002 -1.4470053096272034e-001
      2.6694267696728231e-002 -4.3691927042580771e-002
      1.7550579398969961e-003 -2.0368995365950486e-002
      3.2794177263963172e-002 4.3630122860556945e-002
      1.7008709307715024e-002 -9.1384227121745996e-006
      6.6362146542413042e-002 -7.0188087621094200e-002
      -9.5755759422065323e-002 1.1996205354959093e-002
      7.4402860449998443e-002 4.9883325186315941e-003
      -2.5817734466300216e-002 -4.3874838423730009e-002
      2.5834971652020873e-002 3.8538245776540206e-002
      8.3311089058364152e-002 -8.7497951531401771e-003
      -8.1682421161389379e-002 1.2271608977264301e-002
      -2.0981258165376868e-002 1.3678865464179435e-002
      -3.0888672612399193e-002 7.3033938603366155e-002
      2.6868968825718834e-002 6.2440358021883455e-002
      -3.5288774399114299e-002 6.1062435377636443e-003
      -6.8438949534549126e-002 -7.2770752165195671e-002
      1.8798405754306505e-001 -6.2547866398594179e-002
      7.4357298329684957e-003 -1.4303910077675963e-001
      -1.1797171521898289e-003 -1.3549495499474888e-002
      -2.2489272341495437e-002 7.3981635199894258e-002
      7.2129506893474665e-002 3.7951144878737094e-003
      -4.2188470553360689e-002 2.4751511647109592e-002
      -6.7374442798816174e-003 1.9226071734604399e-002
      9.2060533047499324e-002 -7.4897040019206468e-002
      5.3910269985196810e-002 2.4505943913685768e-002
      -3.4501290230083470e-002 -5.6382128037686205e-002
      8.0719496280694428e-002 -2.9460284291479805e-002
      -5.4057628532384872e-001 -1.6077556002380439e-002
      5.4291145097810023e-002 -5.8198582173825002e-002
      -1.1658955353540201e-001 6.6411183075889668e-002
      5.0362061651619244e-002 1.5005243533466689e-001
      -2.1991619303815751e-002 -5.9681143822063659e-002
      2.9457318145380860e-002 5.3878318748064202e-002
      -2.5594071087347230e-002 9.9115478003907159e-002
      7.9859707108530895e-002 -3.0485614706152207e-002
      -3.8605641912506185e-002 4.8319065481273613e-002
      -3.2856571680051037e-003 6.0893908166234127e-002
      -5.7224950898188243e-002 2.5729722800798688e-003
      6.6471959821179136e-002 -6.4124375208556600e-002
      7.9075372859796031e-002 -1.4753752181074197e-002
      -4.4657721034538030e-002 -1.3148889437458194e-001
      -5.0420428640125543e-003 1.0444954469444501e-001
      2.1187120942598493e-002 1.5073762185015240e-002
      9.1517312722529439e-003 -5.9800406299105628e-003
      2.3173184902008134e-002 -7.6565212034068143e-003
      -7.6053659805311688e-002 -9.7430946442863237e-002
      2.8141473209892562e-002 -7.0062842536518358e-002
      1.7175207290868365e-002 -2.3391830286969353e-002
      1.5610532042371183e-002 2.2631175428440755e-002
      3.8747101527341385e-002 -1.9929848700331775e-002
      -3.6071479863354530e-002 -1.4845316338464595e-001
      -5.2814004346500514e-002 1.5182987780514176e-001
      2.4966838636337953e-002 6.4416675005497821e-003
      -6.7508449117292924e-002 7.5860636333202031e-002
      -2.7747678494780052e-002 -3.6050232909842078e-002
      8.1956054837195563e-002 4.9316129791505417e-002
      5.6408871041496417e-002 2.9511525279452437e-002
      -1.9561714093855886e-002 2.3519784909831035e-002
      -4.1516045845615204e-002 3.6353913415740173e-004
      -3.0671627358384974e-003 5.4380255428553473e-002
      -7.6174701586067622e-002 -4.4740209913377821e-002
      -9.0694042582288484e-002 -2.4457012495499700e-002
      6.6396255182411767e-002 -8.1233983094624918e-001
      3.5423971562999902e-002 -1.2978112201681007e-002
      -1.0053776493562039e-001 -4.5839172176844002e-002
      7.4199603420088495e-002 5.5334996683880054e-003
      1.1008039204447882e-001 4.1104465173586062e-002
      1.8620806685161281e-001 6.3460946455937237e-002
      4.3192062847253930e-002 -1.1483815558357331e-001
      2.6319422968159995e-002 1.4082986741262904e-001
      -7.3144006858842536e-002 -1.3984143783368343e-002
      3.9519328232295287e-002 -1.2521545676895132e-002
      5.3404584125597725e-002 -2.2365405509472663e-002
      4.8885392955519948e-002 5.8003339505385068e-002
      8.6071952461930251e-002 6.7196017365380153e-002
      -3.0782264622915060e-002 -6.8921557495316282e-002
      -5.5282480947873381e-003 9.9428297373821222e-004
      -6.3042536406054894e-002 4.5318866701881108e-002
      -4.4618584017992090e-002 -1.3740138463520615e-002
      2.3587844122594105e-002 -5.7089128007698842e-004
      1.4634997791251316e-002 -8.7580845068493257e-002
      -3.9212444651738669e-002 6.0800830156547414e-002
      -4.5485879308104285e-002 9.8124728564447962e-003
      -2.9338558051159383e-003 -8.0503966808922037e-002
      6.4737922794281255e-002 2.0318268862043767e-002
      -1.4898624777170952e-001 -1.9867133073275898e-002
      -1.0464635773050335e-001 5.2779882399210401e-002
      2.9489119853310420e-002 3.6338164524129503e-002
      -2.1543280009992768e-002 -1.1372063564308574e-002
      5.1157757660711879e-002 -9.2868421272292150e-003
      -5.8890010039292916e-002 9.9255296867942835e-002
      -6.0536195685322765e-002 5.9322594311539634e-002
      5.5069154810904838e-002 -1.6122999726249410e-001
      1.9747784565714460e-003 -3.8789524852751438e-002
      3.4081268223475382e-002 1.0365539552796574e-002
      7.5034528976411691e-002 -9.7258325253084171e-002
      -6.5481146663453602e-002 -4.7904349491096603e-003
      2.0718286428770379e-002 -3.2224995886309379e-002
      -6.2257641117370099e-001 1.8842283746752411e-002
      2.1171688002031216e-002 -6.8698855052544014e-002
      -8.8655663409526846e-003 8.8898644841730420e-002
      -3.7141195459175998e-002 4.4520338029589615e-002
      7.5535794497079270e-002 1.9915711604409267e-001
      3.8652401687042780e-002 2.4251816792957681e-002
      -1.5024810240489420e-001 2.1404017445026846e-002
      8.3914284289858102e-002 -4.8623009833479058e-002
      -5.3100019258769719e-002 2.9124316471809433e-002
      -2.2114745190572351e-002 4.2823730270461914e-002
      -1.1141183377807937e-002 -2.5238890977683979e-002
      7.1808783026125797e-002 7.2631705520564374e-002
      7.1722849739688482e-002 -3.3771933136257627e-002
      3.2929916234268754e-002 -9.3821346599572541e-003
      -4.8825190398799984e-004 -8.5836273249893014e-002
      3.1758032208639639e-002 -5.7511772182468411e-002
      -1.8698967788171695e-002 1.2468141538625207e-002
      -1.9511790076439006e-002 -2.1810810883406491e-003
      -5.4019105181677136e-002 8.5594491024560872e-003
      9.7415828925078329e-002 -4.0807269996163249e-002
      -4.0232527529250319e-003 4.0088309642678281e-002
      -5.6731104751959902e-002 4.5894704040478261e-002
      1.4392910831212103e-003 -5.3928536770062548e-002
      -3.8219902262209538e-003 -7.0659681867357077e-002
      2.2057213768570106e-002 -2.9223677292808292e-003
      -3.3925197595265431e-002 2.0966687450272678e-002
      4.1369515484620846e-002 2.3939482072959702e-002
      -4.0350889019144187e-002 -6.6099876633559401e-002
      2.1595343308339874e-002 -3.2234436464658858e-002
      4.4951004506272235e-002 4.8416919851974931e-002
      -1.6904666722244913e-001 5.8050901296151265e-002
      -2.2187159261656729e-002 -3.5034282034176620e-002
      -1.5046596584215215e-002 4.2315651244515397e-002
      -8.3568182339952710e-002 -3.4988558401424515e-002
      -3.5517942228005625e-002 -9.0242407545034001e-003
      -5.6384713002568684e-002 -2.0365463873745041e-001
      3.3264591560126545e-002 7.7158241197161401e-002
      -4.7799443964189121e-002 -8.2903585356406059e-002
      1.1214130786130275e-001 3.7515518154886768e-002
      1.4791047468081610e-002 4.2224969553344323e-002
      1.0194341874007576e-001 4.9203957770066184e-002
      7.8811007474894699e-003 -5.5853464570454509e-002
      -1.1823223624479372e-004 3.6667837671698546e-002
      -3.6459182936432126e-002 5.2135951615427029e-002
      1.3103337650137728e-002 1.6768200179206442e-003
      -8.6653800458257255e-003 1.6423171893284839e-002
      -4.4598687403588858e-003 -2.0148592331637277e-002
      -1.6059972291220465e-001 9.4439463903360624e-002
      -1.0658916578905145e-002 5.4613496397674752e-002
      -3.4289315984859799e-002 -1.1237047236680127e-001
      1.0742788886282188e-001 2.4339332081175981e-002
      -2.7132887670054517e-002 -2.6504361748632688e-002
      -1.1006182382752505e-002 -2.5491294320401436e-002
      -7.5318188029881619e-002 1.1393279768555021e-002
      1.3039975386050470e-002 -1.0348853996358586e-002
      -9.5915095730043379e-002 -2.7790953868203468e-002
      1.3673591585324888e-002 2.7669387287776875e-002
      3.5701007848797185e-002 -1.2275975904048695e-002
      7.7016505835404703e-002 1.9063433560813896e-002
      -1.7075231679227927e-002 -4.1471864489379902e-002
      5.7679015316182809e-002 -4.5117814841286553e-002
      2.2626585349469361e-002 5.4460281616648232e-002
      2.2517880875227603e-002 -7.5294460455427925e-002
      -1.1887649842233674e-003 -7.8450514875665345e-002
      -3.3325223469551760e-002 2.6966804837808639e-002
      1.9741824421538236e-002 -2.1997912998199160e-002
      5.1070374059367755e-002 -3.7164351568134212e-002
      -1.0994050534262997e-001 -9.9508376374010291e-002
      -1.7535983681421143e-002 -6.1280036863461930e-002
      3.8277145541670658e-002 -9.6772513698620295e-003
      -9.2440124286759490e-002 -1.9882941674670654e-002
      -1.9351358042385183e-001 3.3380412024171281e-002
      -3.0489837089416359e-004 6.5481247742131196e-002
      4.8977331694307853e-002 2.1238099276237290e-002
      4.0844165251490538e-002 -4.1389732714426683e-002
      1.5197288112655707e-001 5.9408579218953268e-002
      -9.5294632038850163e-002 -2.4199109417521555e-002
      5.0579558569449944e-003 6.6947877315293421e-003
      4.6308401530743152e-003 -4.6899588327928149e-002
      8.9339021088978340e-003 -2.5030166156274871e-002
      1.0315301601163649e-002 -6.6306876316996943e-002
      8.9325753503765190e-002 4.5518098054637343e-003
      6.4317103548177129e-002 -6.2641534256340475e-002
      5.9233150961409985e-002 1.0728838027622777e-001
      9.1021531360733574e-003 5.5981597249104259e-002
      -1.0701572099600726e-002 -4.3446257929128276e-002
      -2.9589903382241677e-002 -3.2606197907222058e-002
      5.3423528640087779e-002 2.7570263210647717e-003
      -2.8577861476853452e-002 4.6856832799787202e-004
      5.6351458225507363e-002 1.3479013062863868e-001
      -1.3483609985849476e-002 -4.7536208246162427e-002
      -3.5801139183120431e-002 -3.0541931612450609e-002
      5.7705064299337860e-002 6.1930075878450182e-002
      -1.8364009452150516e-002 7.7503788959301049e-003
      1.4482439814212927e-001 2.1880851746936138e-002
      -1.3631258371174380e-002 -5.1356071171562025e-002
      -9.0621623852696773e-002 1.8440450194758325e-003
      1.5121733906087331e-001 3.5050610714754764e-003
      -1.1317524953960184e-001 6.4044308631052316e-002
      -7.7407105126985301e-002 -5.4473948925759874e-003
      3.7285483914471708e-002 -4.0381145076551578e-002
      -6.6729694882660950e-002 2.1081868661366399e-002
      1.1301420268790652e-002 9.6683620169647731e-003
      -1.5942933518219585e-001 -4.8134271598137893e-002
      4.8443934750811893e-002 5.9955604715810615e-002
      2.0843937864290802e-002 -4.9571004437563557e-002
      -7.6418720244225455e-002 -2.4384819321918225e-001
      8.1195411655251321e-002 -4.7235210550834114e-003
      1.4500601100576418e-001 -5.5090585919082266e-002
      -5.8774631231361854e-002 -5.3817390843089712e-003
      -1.0705019299403390e-001 4.5315783884639638e-003
      -1.0402307180555648e-001 -7.4463347531570884e-002
      -3.3018019902604681e-002 3.6079438506854418e-002
      1.0295088274148087e-001 -8.8083778041395097e-002
      -1.1000742567039096e-001 6.9744251653342304e-002
      -5.3638468637851835e-002 9.3400172212390197e-004
      -7.5710681577909736e-002 8.6779744090488289e-002
      1.7941277997267583e-002 -8.2437147306922975e-002
      -8.6882313794093682e-002 4.7262043017516499e-002
      4.6094538660170589e-002 2.7526968896447925e-002
      -1.1414062474694631e-001 -2.4737618018240731e-002
      -1.3402998949468908e-001 -1.0568329173542253e-002
      -3.2224579987858333e-002 7.1052666236997269e-002
      -7.8703098921905912e-002 -2.0144031170159896e-002
      -3.1499330679743379e-002 1.1739029069439311e-001
      1.1705946629235474e-001 -1.2610824471595861e-001
      -1.1585745929591313e-002 -5.0396058986766502e-002
      9.8931438515660733e-002 3.0662430106657295e-002
      1.3776681461451503e-002 -3.0809802383999132e-002
      2.2385589806908752e-002 2.4663271882981921e-001
      5.0789961218418708e-002 -3.7110142681031730e-002
      -5.6600191304673302e-003 -1.0781954283625252e-001
      -1.0606963042587894e-002 1.4461722873061797e-001
      -2.0437297368733367e-002 -1.2862130499888724e-001
      4.1467274690102009e-002 -1.5725564170597106e-001
      5.0659037871540233e-002 -4.6735570212039231e-002
      -6.2271286743454828e-002 8.5073209624851912e-004
      -7.6290791148075233e-003 -4.7455599749882012e-003
      -4.9963013453063143e-002 -8.3421871670554523e-002
      -1.0884902579194176e-001 1.0170252266683087e-001
      1.0338350438635402e-001 5.3656595864064363e-002
      -6.3379330877772630e-002 3.2953415329751538e-002
      2.7569060226546531e-002 8.6732273015311417e-002
      5.0182154439357848e-002 1.0591313314851153e-001
      -1.5370150650634911e-002 -7.3261499345139952e-002
      3.8960924704082488e-002 6.1741660889348951e-003
      -2.7636675743823298e-002 7.3177432127805628e-002
      -6.9628612589388350e-002 -1.6053760604451590e-002
      -5.9878508163727556e-002 1.7023280401840576e-001
      -3.0481688575477825e-002 -7.9380207956045890e-002
      1.3426697235909607e-002 1.6069076212902812e-002
      -2.2821066850238356e-002 -5.1721516478443433e-002
      3.1224819248713499e-002 8.1218386918307534e-003
      1.7482768173592924e-002 -1.0375485585709661e-001
      8.8505045496950416e-002 -7.9928604848715348e-002
      -5.0793810983591613e-002 -1.7357323250322459e-001
      7.5971052149322676e-002 -4.1910271355125893e-002
      1.1465603173959575e-002 -7.8647815494483769e-002
      1.0085450163634377e-001 5.5359397330218365e-004
      6.2420503718504878e-003 -1.1014991225879744e-001
      1.0709893048053019e-001 9.0451648337669541e-002
      -2.6442280921548995e-002 4.1699363765872514e-002
      -2.6635883000979167e-002 1.4595317934606103e-001
      -9.9208721902457775e-002 7.2468437611330691e-002
      4.2493600653761628e-002 -7.7625391027449003e-002
      9.2161579316684228e-002 2.7637692147333609e-002
      6.4544342782311054e-002 2.9070403263575722e-002
      -2.1787614995210275e-001 6.8751492587372856e-002
      4.4090903250646366e-002 -3.2713263091017984e-002
      -7.6071314359998241e-002 1.0221944740051324e-002
      -1.5784208013300763e-001 1.3723470326541459e-001
      3.3428658277006142e-004 -5.3601878811430886e-002
      2.8179474437592007e-002 6.6624796375337844e-002
      1.6802506025526447e-002 1.9181074414153433e-002
      -1.2191717948271023e-001 -7.7551455727651472e-002
      1.5816199285708446e-001 7.3471013901416693e-002
      9.7486125659993247e-002 -8.3275245193983938e-002
      -2.5535525494077122e-003 -6.9785132010592554e-002
      -2.0772337826938787e-002 1.6244248377863320e-002
      7.3369768602441543e-002 -3.3402878882734993e-002
      7.2746889294646100e-003 -1.1664988789825101e-002
      -3.4386251068133936e-002 -7.4733886055681431e-002
      2.6046250185365823e-002 -1.0935839738730434e-001
      -6.9773866064515272e-002 5.8686085079237650e-002
      4.8063978133234785e-002 -6.6755954172346837e-002
      -2.0470124623043089e-002 2.4123533430176643e-002
      1.1535451794040230e-002 5.5000752937449549e-002
      -6.1541865190849095e-002 3.3549416902022698e-002
      2.7013496241769266e-002 -4.6478698897230032e-002
      -1.0638657257943170e-001 1.0782750806673903e-001
      6.0498718962667390e-002 -3.9086812883552695e-002
      4.3770373827044101e-002 2.8085720741363941e-002
      -1.7644626288120056e-002 9.7835523920625639e-003
      -1.0745279488110039e-001 -1.5274148180726340e-002
      8.9436019976164294e-002 -3.6613421183486684e-002
      4.0205003290925530e-002 8.7744502391785231e-002
      6.7173389406201420e-002 6.8128674127499275e-002
      5.8876025497986664e-002 1.6758186176959258e-002
      -1.3703622697256529e-001 4.9841324826666526e-002
      9.3944676832915824e-002 -5.8009124545598888e-002
      3.3231021551192617e-003 5.9084852085316254e-002
      3.9069203797165705e-002 8.8858554356692487e-002
      1.5967358597584944e-002 -4.4561864238305479e-002
      6.1124499472453651e-002 -2.0678970702470007e-002
      8.7374585418682080e-002 -7.0809621399568992e-002
      7.9864544739861321e-002 -3.0021703829561444e-002
      -2.5255520118307763e-002 4.3380083219382901e-002
      -7.5575697508820150e-002 6.3702858067350529e-002
      -7.0845827322012708e-003 -4.5683993776541448e-002
      6.0879813210520342e-002 -7.0382416183756763e-002
      -4.7281039106374809e-002 1.2532395557944842e-001
      -1.2863407176643183e-003 -1.6177305958969979e-002
      1.1742217692903827e-002 5.9298078670776775e-003
      9.3482169385762204e-002 -2.9448329830576474e-002
      1.3854547997084046e-001 -2.0802593823435828e-002
      -5.9989348120802317e-002 -1.1199261834005365e-001
      4.3675274933121955e-002 2.3901019621069622e-002
      -4.9252386701314974e-002 5.1016799860124563e-002
      6.1281392965803087e-002 -1.2055406254119298e-002
      -1.5985778878332007e-002 2.3650316781606895e-001
      8.8619100232557625e-003 -8.3809433414441095e-002
      -1.0183876221821554e-001 5.4832966150826806e-002
      -1.7084812079340692e-002 -8.9442400448779009e-003
      -3.2909958962323238e-002 6.9932610216681595e-002
      9.5128459741378277e-002 -7.0973461291350237e-002
      8.0924936004303255e-002 -8.4786286758014306e-002
      -1.0850509071271408e-001 -6.3388938504978273e-002
      3.8175181287085788e-002 1.7358355075194129e-001
      2.0875733285257131e-002 -3.3864076034151251e-002
      2.5278552730394525e-002 -1.6021261098927066e-002
      4.0613362979732785e-003 -1.1950007853584850e-001
      8.6981503628703355e-002 1.5269624546491091e-002
      -1.9731824595938897e-002 5.0432277346176689e-002
      3.4540699939757405e-002 8.7426446361976676e-002
      -3.9008441724075804e-002 -5.0613173295364314e-002
      -6.2027312996840028e-002 -8.1126383979975097e-002
      -6.0962492916172104e-002 -5.2271677810992200e-002
      1.8956640095180985e-002 3.5329108085406326e-002
      -1.4648549794478025e-001 1.2851978073715278e-001
      -8.2177000841798839e-002 -1.0912898238330275e-002
      -3.9779114440821606e-002 1.8949305391346441e-002
      3.7883959153142978e-003 6.5961104790347117e-003
      4.6437823677464428e-002 -3.3927913649466748e-002
      1.8936521369573088e-003 1.2398110240559289e-001
      8.7195903105417912e-003 1.3609283195403710e-001
      -9.9235694137349117e-002 5.0993391186329957e-002
      6.0309604398849212e-003 -9.7241521935343439e-002
      2.8900899429408575e-002 -4.0114179036675225e-002
      -5.9249641898099226e-002 2.9536399875591274e-001
      -9.7435704988135058e-002 1.0871759858086682e-002
      -7.1128244911558641e-002 2.4310320706437478e-002
      -2.4129036795701702e-002 -6.8717829864953089e-003
      -2.9089745991721726e-002 -2.3759595912038085e-002
      -3.6811399874634582e-002 -7.0636045715116558e-002
      -3.8009964679135318e-003 -2.2818660685254268e-002
      -8.9222719274226786e-002 3.9473422571285728e-002
      6.9363558169714443e-002 6.5686856794496234e-002
      4.9972634620319180e-002 -3.2866712604415739e-002
      -4.2765263125466718e-002 1.0815773015530697e-001
      8.2485687525509308e-003 -1.1065025176301198e-001
      -1.1919174795216872e-001 5.0866825844818046e-002
      -1.2833029378387659e-001 -2.7698252865919176e-002
      6.2479644179087884e-002 4.9238321061745992e-002
      1.5496725000717987e-001 -2.9180045709482332e-002
      3.1601988980759651e-003 1.6449849019895991e-003
      4.5759959072313332e-002 -1.0231733173922005e-002
      6.9353222662821887e-002 -1.7746388776727729e-002
      4.1834952818896667e-002 7.0700914102509740e-002
      -6.7513000620041660e-002 6.2844842645733784e-002
      -6.3609455906142268e-002 2.8784117602064643e-002
      -1.0324050296759267e-001 -2.5740195538068358e-002
      2.2961091783703119e-002 -1.5714090069466738e-001
      6.8335576166351414e-002 4.1453559911180042e-002
      -7.3855107129930916e-002 6.6827415897139045e-002
      -4.0736066789179272e-002 1.0065806713135294e-002
      -6.3089557426931082e-003 -2.9504731877842024e-002
      1.1239541532015344e-001 1.5393072685088825e-002
      -6.1955753745969504e-002 3.0153141760909705e-002
      3.8434871727301562e-002 -7.4462679547078938e-003
      -5.2022047420770497e-002 5.3275952048131195e-002
      -3.8207746771579808e-002 7.5535744026763163e-002
      5.5026548557969443e-002 -1.0518706430164261e-002
      -4.8894395645236524e-003 -6.6952226490853833e-003
      -2.1569519098402757e-002 -9.2673159028941968e-003
      6.2374946258041286e-001 -7.1327617329209544e-002
      -9.9668650838640720e-003 -4.6746302159109181e-002
      1.3620309702446015e-002 2.1457012964136338e-002
      -1.3042225468684618e-001 -9.4980273549594665e-002
      1.5320245242915462e-002 -2.2058735612863469e-003
      5.7748718168081768e-002 -2.0536932387510500e-002
      -4.4031348380635119e-002 -1.1812117181311538e-001
      -4.2070889806904481e-002 1.1377523378638953e-001
      3.6774480424492037e-002 -1.2285761908449801e-001
      7.2640571745172322e-003 -5.0693793839472978e-002
      3.9884132973566667e-002 -3.4730239389807994e-002
      -1.1968894703219264e-001 -9.3707190207671043e-002
      -9.3374884449899630e-003 -6.3376991572236294e-002
      -2.4025649793698589e-002 1.4058773135312927e-001
      8.7145389431891058e-003 1.3766313478492059e-001
      4.3664662848018655e-003 1.0902956261337299e-001
      -3.2463658509951920e-002 -2.2718850590116343e-002
      1.9245205501027159e-002 8.5161968558607123e-002
      -2.7092855233790389e-002 -1.0329596053886262e-002
      -4.9216840423336954e-002 -1.1714042222110205e-001
      6.4371786354842045e-002 9.4622680027915042e-003
      1.9879292859689562e-002 -1.6813790053843436e-001
      -7.3756569644116227e-002 4.3493307887007636e-002
      -1.3623061756023534e-002 3.5554026351349133e-002
      4.3438741479495106e-002 -1.2601538977044269e-001
      5.7768606071510228e-002 -1.3772198621145001e-002
      9.8453787127003339e-002 8.5862250720528915e-002
      3.6487280502712244e-002 1.0885514135564435e-001
      1.0028409361250527e-001 -2.4487965940962555e-002
      2.5982238267386125e-002 -5.0248954440079386e-003
      2.9193045831443650e-003 4.6139956587347899e-003
      -1.2623829581923391e-002 -1.6051058343871810e-001
      -1.3150494710921473e-002 4.6478263223992712e-002
      -3.8009528317331107e-002 -8.2789271513010812e-002
      -3.6317548235918727e-002 9.6131925390949766e-002
      -4.8702535166522454e-002 3.0561999802440069e-002
      -4.7538047023046009e-002 -4.0689338879351361e-002
      1.3806026007024959e-002 9.1359865840545881e-002
      -1.3515622477014664e-002 -3.7677287943275663e-002
      -2.2115190824526919e-002 5.0345486112587995e-003
      2.7420537486001022e-002 -2.1531271237517781e-002
      -7.8038895661516366e-002 4.1992789136186974e-002
      2.0873448437998848e-002 -4.7264241330142606e-002
      5.0890640444603338e-003 2.2163111096591769e-002
      1.9041781176540398e-002 2.9892355575831774e-002
      -4.7080301885126005e-002 3.0711666269210122e-002
      -2.2058187981848706e-002 -3.9399074448384162e-002
      5.0119087010487839e-002 5.8358782859988904e-003
      -1.3665905816144746e-002 -6.4242159556739658e-003
      5.2912609478111411e-003 -1.9320882575411424e-002
      1.0358336998562218e-002 -4.1819479879337498e-002
      5.2009469271715070e-002 2.0765662113465283e-002
      1.9166714333914019e-002 -2.0994561382861255e-002
      -3.3547815464204656e-002 -2.6763837832480215e-002
      1.5960393495596397e-002 -1.0312153227615870e-002
      -1.6952303581860822e-002 -1.1646821562779491e-002
      -4.2597931639191282e-002 -1.9983088942072791e-002
      3.4079576781807258e-002 -5.4257418895571861e-002
      3.0364813053375215e-002 -4.1808181153296542e-002
      -3.5681899660691858e-002 1.2072044584631535e-002
      -9.3347925974485314e-003 -5.0641856643938610e-002
      2.7393948138542158e-002 4.7214097924839153e-002
      1.9010505568344785e-002 2.9175071170891107e-003
      -5.6489348400044917e-003 -9.8711341314858085e-003
      -3.7608711788296889e-002 -8.1964263154352072e-003
      2.9914485778409945e-002 -2.8789875070397968e-002
      1.3929718965988984e-002 -7.6630922862925112e-003
      -4.0767307606354705e-002 5.0889192597860157e-002
      3.1654522081751124e-002 -1.5205125923130477e-003
      -3.7535037659368581e-002 -3.5949346835562244e-003
      1.1309721083751969e-002 -2.8249906974806515e-002
      2.9990973292152462e-001 8.0319439579688817e-002
      -5.1454710412682528e-002 -5.0472340238023057e-002
      8.0346705389828146e-002 7.2415699215501353e-002
      -1.4039039033432493e-002 -3.4807206183416310e-002
      -1.1618451617196395e-002 -1.2366025082786911e-001
      4.4775047562071603e-002 -5.0241290882664921e-002
      -3.3398107673348922e-002 -3.6426591087254885e-002
      -1.8242277754407642e-002 3.3125318991424811e-002
      1.7932014154257343e-002 -6.7232840542093261e-002
      8.7461557375463194e-003 1.5485454005165558e-002
      2.3655573418223649e-002 -3.6577146573783609e-002
      7.0728763292585109e-002 -8.3318914983288809e-004
      -2.4659461477403399e-002 -4.0620992762086881e-002
      4.4559372980638737e-002 8.9395284978792504e-003
      -6.6557896890098306e-002 -4.7904873472958784e-002
      -1.0679226990785268e-003 -4.1685827483591356e-002
      -4.9671254332996163e-002 6.2099713071491480e-002
      1.9724530623013072e-002 8.1149329950488430e-002
      -1.5301986234810575e-001 -8.1158791990206286e-002
      -3.5587867471890057e-002 -3.8904436472350472e-002
      -5.5569984759559196e-002 -8.2937850956571867e-003
      6.4383563140482977e-002 -1.4111268881653255e-002
      -6.7154146168688492e-002 -4.2793266722742336e-003
      4.6189451823948503e-003 2.1977790296648390e-002
      -8.3507341020069126e-002 -1.9868978101458448e-002
      -3.0951691562198159e-002 2.9638876286073881e-002
      2.0280606770587281e-002 2.4409772985142641e-002
      1.1239746790785205e-002 -6.9134250806948657e-003
      9.1988088446771352e-002 -2.6979877718489989e-002
      -1.0448220242777423e-001 3.8281207039130502e-002
      7.2647653217308858e-002 2.9756996935173054e-002
      -1.0663400466425789e-002 -4.8843195307259293e-002
      -5.4324263123196007e-002 -3.3082986604091362e-002
      -4.0787577929511418e-002 -7.9733361400692093e-002
      3.7122747628556947e-002 9.8851659346398200e-003
      1.0242899662637436e-003 -1.7633077352896664e-001
      9.2587345570771459e-003 -7.4608382107960919e-002
      -6.3209544105519485e-003 8.2154607526965198e-002
      -1.2106752422197713e-001 -8.6746088383093625e-002
      -2.0816375583695296e-001 -1.3058436624585340e-001
      -2.8709306839944143e-001 -8.4961818312560070e-002
      1.8228566887800328e-002 3.3274070064401828e-001
      -3.1661000241135290e-001 -7.8362405034604676e-002
      1.9937507986038217e-001 1.3883443222374442e-001
      -3.9629216445636284e-001 -1.9587880775375591e-001
      2.8605292578616916e-002 -8.2843884221384043e-002
      2.1951850343350433e-002 -2.3114852109617198e-001
      -4.3487019128594810e-002 -4.9266243717961350e-001
      1.4089832060559332e-001 -7.4346863839508948e-002
      5.4171191128510587e-001 -3.0713707103288357e-002
      -3.8921776034395456e-001 3.1365331382305094e-002
      1.6474445090066336e-001 -2.1154774426770825e-001
      -7.5160462442548412e-002 5.0724302629892255e-002
      4.7016330183827715e-001 -9.0201216995424438e-002
      -2.8706852400182853e-001 2.6621516817747110e-001
      5.0576023755900069e-002 -2.6457992639869511e-002
      -3.1124431462474300e-001 2.2585359290737231e-001
      -5.2964457550422853e-002 1.1312941037386744e-001
      1.7892826740301879e-001 -2.7067039851386432e-001
      -5.0209848679563150e-002 -1.1783743290180312e-001
      -3.6692754017602275e-001 2.2144313836658408e-001
      -1.0741029121087302e-001 3.1703560721590605e-002
      7.3353639193631831e-002 8.0087551210891034e-002
      -2.1473384480755732e-002 2.9343307942756275e-001
      -2.3515478580493801e-001 -4.3189087604088350e-002
      -6.9741650743091382e-002 -6.2535962858318011e-003
      -3.3176192998604215e-001 3.0347319915771789e-002
      -8.0961546362246548e-002 1.9987927974983849e-001
      2.3597539053126827e-002 -2.9808054038852009e-002
      9.6376918763015684e-002 -1.1858912544835652e-001
      1.1405273848486215e-001 2.4264112137332966e-001
      -7.2603602288754177e-001 -5.9221520620586110e-002
      -5.2833739946499550e-002 -2.6877616931346649e-002
      1.7438454652450374e-002 -1.3328539175567924e-001
      -1.1274737105513055e-001 -1.2748780683241343e-001
      -1.0741739244717195e-001 -2.1749677856740593e-001
      7.3215031547812044e-003 8.2984818350580664e-002
      1.6403160377739445e-001 -2.6825780126866194e-001
      -3.0903207140378690e-002 3.5326148167026984e-002
      1.3704173315146664e-001 -2.3339907824428782e-001
      -1.6406714340469902e-001 4.4100918829896835e-002
      -7.9475505273122499e-002 -1.6984435842771248e-002
      -1.8314303240255636e-001 2.0161390404152959e-002
      -3.4380091297765220e-001 1.1577494556812894e-001
      1.9731034824052189e-002 3.8264157920855341e-001
      -1.0384389539384556e-001 -2.6014345153040302e-001
      4.8673860875849899e-002 1.3795475968927123e-001
      -1.9170400717388275e-001 -3.1259655763995982e-002
      7.2071711862421922e-002 1.5568295935471316e-001
      -5.1817458829445100e-002 -1.8349388703054037e-001
      1.0079716763195674e-001 1.9173668664088768e-002
      -7.5156086981076802e-003 -1.3773651069052983e-001
      7.6780088281246703e-002 -3.7894926688201151e-002
      6.7373626503148432e-002 1.6656795014726483e-001
      -2.1920069777342879e-001 1.4667604143979178e-002
      -1.4454375045762816e-001 -3.4491407718768713e-001
      1.9374067758476843e-001 1.5585318733946673e-003
      -1.6997606181798384e-002 2.6324860505438787e-002
      -1.0653418111628569e-002 -9.0086951109413074e-002
      1.8037405136883519e-001 -2.3520650329296300e-001
      -7.1578295123467209e-002 -6.6319988055188198e-002
      -5.2245088216437516e-002 -2.1946083481750481e-001
      3.3952066031072106e-002 -7.5950955296877509e-002
      2.3010335247471855e-001 3.9078315288651189e-002
      -3.9492193169235378e-002 8.5858763153935938e-002
      -5.9270454975864514e-002 5.4383044643221662e-002
      1.7600734635961596e-001 -6.8447158394704644e-001
      -1.1666760888097383e-001 -1.7599151508464500e-001
      5.6625905208539114e-002 1.7428781710073252e-001
      -1.8964959988874308e-001 -9.7829019950327403e-002
      -1.3449365256722570e-001 -2.4582573869396676e-001
      -2.1925883055893974e-001 -3.9132892366594903e-002
      -1.3192179414602767e-001 1.0169613512266409e-001
      -3.7020955088441876e-001 5.7589216966984332e-002
      -1.1132162004068623e-002 3.2555540252842907e-002
      -1.2679759261520043e-001 -2.4456008731598006e-002
      -5.7935418654302455e-002 4.9055692365172258e-002
      -1.2087908080448855e-001 8.8750933754845371e-002
      1.2670043639133080e-001 -1.7169066983138379e-001
      1.0112395939268609e-002 1.2375578849589317e-001
      1.4409321155491389e-001 6.7914926303509940e-002
      -2.5234338620368030e-001 -1.6880107381746719e-002
      1.7350497924583416e-001 -1.2256833804208400e-001
      1.7100701237541552e-001 3.3712518344555346e-003
      1.0096985555498975e-001 -5.6663276135549424e-002
      -1.9985942755404604e-001 8.4350392131181021e-002
      -8.0314242984453749e-002 -4.3095474891534868e-002
      -1.9453257203022465e-002 -3.0362212600447806e-002
      -1.4181654042733313e-001 5.2880249777259018e-002
      1.4043603402885030e-001 4.0502342354396162e-002
      3.3369195552439113e-002 -1.8196767527502083e-001
      -2.0951959608055989e-001 1.6676943835701016e-001
      3.6221199962437389e-002 7.5171466317306992e-002
      -4.1657082170033617e-002 -9.4666118318094156e-002
      1.0902477704452097e-001 1.5586541117721611e-001
      -1.2509200225521974e-001 -8.0220864072399145e-002
      3.9478764269516138e-002 -1.7642405446735673e-002
      -3.0421044743762582e-001 1.3475364559109804e-001
      -2.9288901433548231e-001 3.2641109070742802e-001
      -4.9550718172348594e-002 -6.6563774310821430e-002
      8.8059020844147365e-002 -2.1442189529757255e-001
      1.9869401442569831e-001 1.8119410412997577e-001
      -1.0255504961595718e+000 2.6039266775998961e-002
      -1.4244225227641072e-001 1.4814710653731183e-001
      2.1844653614328125e-002 3.3736882064465762e-002
      3.2272580532171954e-002 -6.6484808232642346e-003
      -8.1387020573165825e-002 -1.3305458496355377e-001
      -1.9274741642036203e-002 -6.0437820928243222e-002
      7.8291015154414306e-002 -2.6384490155703466e-001
      1.8575632993268337e-002 8.0275848651946272e-002
      -3.1473749040614507e-002 1.3807372665586037e-001
      -3.9756812861753404e-003 -5.8320657919090690e-002
      1.8882815741489083e-002 4.1842010804444059e-002
      -3.2358117630846950e-002 5.8817151467818038e-003
      -1.5848768297640423e-001 3.1188805916349142e-002
      1.1987782934675356e-001 8.5798079396825072e-002
      2.9104271690125394e-003 -1.4491078977333818e-001
      8.0384821524173297e-002 6.1791498083042788e-002
      -5.1140925141214530e-002 1.9675719579727596e-001
      -1.2242323398015777e-003 -3.9147181487320061e-003
      9.5296217888148887e-003 -2.8425304526158244e-002
      1.3788231697255848e-001 1.3591372503142288e-001
      3.0000423552777811e-002 -2.3992086404390645e-002
      -1.4320350431435788e-001 2.3228538042856565e-002
      3.4522631957175018e-002 1.3721386322348930e-001
      -6.0365109734688373e-002 5.8229516692925268e-002
      -2.4846839364347542e-001 -4.8265340538703835e-002
      2.1543105821783651e-001 -1.0661382111263526e-003
      2.3936188995723695e-002 -2.0126853885845640e-002
      1.9695578878183548e-002 -9.2595100573090814e-003
      -6.1247950722369764e-002 -2.7528240290116368e-001
      -3.9993073150600210e-002 3.0231043272609032e-002
      6.8952737763261454e-002 -1.8285112436757758e-001
      6.7150772517318408e-002 -4.4636764622771490e-002
      4.7307534793414999e-002 -1.7142846955106567e-002
      1.1090342715217667e-001 -6.3997024526218499e-002
      -2.4294907017994687e-002 9.4719314546547820e-002
      1.4788678013425322e-001 -7.9629052982689463e-001
      -4.2062563523550089e-002 -4.0460714455941994e-002
      1.5045465097997182e-002 -5.4881584599637948e-002
      5.8980134446378195e-002 -1.5546904536469278e-001
      8.7606981302016079e-002 -6.0261357680626453e-002
      -4.6411709735477827e-002 1.1133252120852406e-001
      9.4506730791475715e-002 -8.3345080202992094e-003
      -1.2879629161192552e-001 8.8744387038345252e-002
      1.2636713311025999e-001 6.5262763567638271e-002
      5.9474919496885145e-002 -3.7920222792981661e-003
      7.8647610564159101e-002 -9.7350477721606196e-002
      -6.4934502425671961e-002 2.3103598644986977e-002
      7.6769523587945740e-002 -9.5987795992059519e-002
      -8.3277082615357073e-002 3.2399748289748558e-002
      -7.1387323707282624e-002 6.4201056516716953e-002
      -7.7608099438957079e-002 8.6054204362054923e-002
      1.6823348393535564e-002 1.0209371305953721e-001
      2.4512254872566370e-003 7.7790690264757364e-002
      1.0325544611026372e-003 -2.4452478379541971e-004
      -2.0387198998475564e-001 -6.0087560298809253e-002
      1.0441757971325942e-001 3.6772981548171949e-002
      1.5029472830626750e-002 -4.9390155013342922e-002
      4.3987469596491538e-002 3.9731189235775316e-002
      -8.7734197549785703e-002 -3.3294044393854118e-002
      -5.4591349531608026e-002 -7.8361736087144494e-004
      -7.1472723628375853e-002 1.6267555562686936e-001
      7.1806516114796257e-002 -8.3881995848882646e-002
      4.0856524820751104e-002 5.6829719842095817e-002
      -4.5623912389842598e-002 1.1691109165611437e-001
      4.1153247665394382e-002 -8.1048405100033905e-003
      -8.2577328347336817e-002 1.3206917058124455e-002
      -9.9737726805814664e-002 -1.4737486301615182e-002
      1.3891480609371160e-001 -3.1137771296964770e-002
      1.1246458908181406e-001 4.1220196951100553e-002
      -1.3862380590870682e-001 -2.4361520736281988e-002
      1.4708723627109188e-001 8.8383395887190755e-002
      -9.5720612794181192e-001 5.9424366986547447e-002
      -4.1474912392537857e-003 3.8027584815064712e-003
      -1.6542139491345498e-001 -6.8990636924822157e-002
      3.4284484086950597e-002 8.2648548889878284e-002
      1.5501304863634022e-002 -1.5889321755934047e-001
      -4.1544366933756197e-002 1.2243536172982250e-001
      1.9164828120571482e-002 -2.4762966748275769e-002
      -7.2206088546557107e-002 -8.7080956260957073e-003
      -5.0499654190166207e-002 1.1997680940921354e-001
      6.5770995529440060e-003 1.0397579916769999e-001
      -7.4665967686392026e-002 -5.1813889815338957e-004
      -4.4865920769785329e-002 -8.9878906081785115e-002
      -1.2543196310756788e-001 8.1984689866041474e-002
      -9.8880606068472529e-002 8.3892763096722459e-002
      9.5609433488275039e-002 -5.0389996452479185e-002
      3.1678968518695290e-002 -1.0864906965080061e-001
      1.6875119414047016e-001 -2.2617538260416785e-002
      6.7596547339793367e-002 -2.0333392807450328e-002
      -3.7175045149705523e-002 -1.4321846811106467e-001
      -9.5070075344278901e-002 1.5431540763613633e-001
      1.4651104784822518e-002 -4.7596455140595226e-002
      -4.9007952247859789e-002 -1.0925958496558792e-002
      1.4993752651630859e-001 -3.7905368232799233e-002
      3.1325461274249240e-002 -8.5871806246861679e-002
      -4.5310277478986902e-002 1.2133125593892531e-001
      -4.8633689645763310e-003 -1.2332668297332205e-001
      -8.4899402239344265e-002 -3.0676394612755946e-002
      -4.2557966815158013e-002 -2.0327007934676445e-002
      8.7814342736574222e-002 -1.6139856932031401e-002
      4.4725831727239040e-002 -1.4171598026387799e-001
      1.5290717690450947e-001 -1.3072345685619341e-001
      6.6490272799453728e-002 2.0555806340780189e-001
      9.9289888224145695e-002 1.1862954115254545e-001
      -5.8633987659262338e-002 -2.2898214428800506e-001
      -9.9581607553912099e-002 4.1648542817383276e-002
      -1.4309554354942022e-002 -1.0076498821066147e+000
      4.2893889997487701e-002 1.0134061121818425e-003
      9.9087110407322626e-002 -1.3440424272203443e-002
      2.6266900168117755e-002 1.0512556869189316e-001
      9.8866879936829660e-002 -2.8317778120978923e-002
      -1.0568346026410931e-001 8.4332279203217189e-002
      1.3710769634040532e-001 -2.4976928314454239e-002
      2.0290663411336324e-001 -5.5211281540942424e-002
      3.7247428094832190e-002 -2.0606007607205781e-001
      2.1239672935677575e-002 1.5423034245717438e-002
      1.2447738326703703e-001 -1.1470604063767140e-001
      -4.4976173312652683e-002 -8.5090419914059842e-002
      -2.3094397914288606e-001 -9.9381952593674397e-002
      1.9342932684639932e-001 -1.0875389652513391e-001
      2.2068047960182045e-002 3.5915052168762999e-002
      -4.2133662613357735e-002 -1.2333426649332685e-002
      -1.7428618999415665e-001 2.7074851327493252e-002
      -2.1648127962700568e-002 1.0110620328769565e-001
      1.1528861839293945e-001 -1.0788616223447957e-002
      -2.5954644896559115e-001 2.3233216313255048e-002
      5.6246180039849714e-002 -3.9365067742502514e-002
      -1.3400994352710437e-002 -3.1557844990729444e-002
      -5.7585191623236186e-002 9.0505725527147779e-002
      -4.0944970809902850e-002 4.0741460677339129e-002
      -1.6525384981246169e-001 3.1115255004971323e-002
      1.7937211840406778e-001 -3.2297475981154608e-002
      -4.0687513488561165e-002 -1.4239879320718199e-001
      -6.5896416866674745e-002 -2.3531104782532147e-002
      -2.8444184444668404e-002 1.6335727823758472e-001
      2.8374555065551386e-003 -4.2906682240185394e-002
      -1.2880016563316332e-001 1.0471264405427295e-002
      -6.3664762318816695e-002 5.7066371268992118e-002
      2.2434942405028177e-001 1.1802540574360477e-001
      7.6377023503537006e-002 -7.4425385723221960e-003
      -2.1842458606972961e-001 -1.5339064015071963e-001
      1.0711404514663703e-001 -1.9486591674516687e-002
      -1.6090686031392549e+000 8.0620590970830117e-002
      1.4211989089395033e-001 4.4294597116914670e-002
      -2.2489261873768976e-001 1.4671137525925673e-001
      1.0888506290279423e-001 6.0326574951499783e-002
      -9.2929354300672395e-002 -1.3754500762588576e-001
      -7.2347866967482882e-002 8.7085589684646428e-002
      -5.7783470929762409e-002 1.3299124355440436e-001
      7.7605454853699560e-002 6.8230375753643047e-002
      -3.3986884704704616e-002 2.4626308959300659e-002
      3.3053248538798048e-002 1.3278555873593073e-001
      -1.3407902258319970e-001 1.8640979947484600e-002
      -1.5576095382585273e-001 -2.6329898547311487e-001
      -1.1513590366590128e-001 1.1039436573771670e-001
      -3.7872727628473601e-002 1.5139886522941553e-002
      5.6901134573579773e-002 -4.6575585537281056e-002
      1.2917445976403114e-002 -1.6056306577715670e-001
      -6.7233982290945821e-002 -1.6926871783149006e-001
      1.4591514830341779e-001 8.7522560990328194e-002
      -1.2805984469327894e-001 -1.8982404395077176e-001
      7.1907277785930826e-002 8.3981685829983652e-002
      -7.7436827749499879e-002 -6.4499289680319385e-002
      1.1466269853414800e-002 1.8898230907852462e-002
      3.5131956677479592e-002 -1.2284172055262155e-001
      1.4053519311482951e-001 -2.0149489773579410e-001
      2.7688888272851337e-002 2.0270896767093952e-001
      4.7019753418630308e-002 -1.4178281039419985e-001
      -2.3408433514881999e-001 -7.0512968008144786e-002
      -6.6768342124815569e-002 -6.2130910041520521e-002
      1.3929067124783914e-001 3.6655554318139966e-002
      5.7966907215909969e-002 -1.9751603961084002e-001
      -1.4385202349058483e-002 -8.7267457051739813e-002
      2.5111677803550243e-002 3.8701302930704973e-001
      9.2810799911885733e-002 9.2064109852548690e-002
      1.4451130658626146e-001 -1.9102241092913885e-001
      -6.0585434313442633e-002 -6.4961983283689767e-002
      1.3017562900998972e-001 -1.6832861142588684e+000
      1.1273324431947057e-001 8.0345066197411094e-003
      5.7258791042663883e-002 -2.8727555616129191e-001
      1.9493248097117555e-001 1.7958057975123717e-001
      2.1230273134685790e-001 -1.7404466670656438e-001
      4.3810849042860159e-002 -6.8244241989644350e-002
      4.5303953672762812e-002 -2.1707090890974015e-001
      2.5581407791866062e-001 1.7036968928632418e-001
      3.8645027605725744e-004 -1.3199895878087387e-001
      5.4335875535758887e-002 4.5575437909801578e-002
      9.5666639143578300e-002 -1.4782696424541469e-001
      7.3321067091222103e-002 -2.2262837202125477e-001
      -1.5485564345034339e-001 -1.5262178105220853e-001
      1.7394610762601240e-001 2.5910216794640745e-002
      2.0283687358350112e-002 1.2199591617829349e-001
      -1.5842930340445449e-001 -2.0064271795496504e-002
      -2.1747851866636622e-001 -9.3660079119261885e-002
      -1.6400313815218906e-001 1.3660569832014394e-001
      4.5072681796352827e-002 -2.1182107643806389e-002
      -9.0614849860125607e-002 2.4758227545226430e-001
      2.3601828241492984e-001 -1.2518972626360628e-001
      -5.8465820848511693e-002 2.9932551438385302e-002
      2.1849498982829332e-001 -2.7555744526342216e-002
      -3.3523170291371612e-001 1.1217553598568822e-001
      -1.8716443047720099e-001 7.8178473960782952e-002
      2.2503094862936346e-001 5.8025476717278833e-003
      -8.7349987133885268e-002 -3.3563416450326328e-001
      -1.2631097784599540e-001 -9.6068072186479767e-002
      -3.5681240932067169e-002 2.2311689248719579e-002
      7.7852707426589451e-002 1.2060850111708701e-001
      -2.4006300020479210e-001 -1.6949875291406472e-001
      -9.8244039998874825e-003 1.7731267285975247e-001
      4.3871904220901925e-001 9.6424428139627913e-002
      7.8536229269835611e-002 2.4211782705496959e-001
      -2.2979798772569346e-001 -2.7374998380848350e-002
      -5.4145566622549393e-002 5.0350800733173572e-002
      -1.5085203091094244e+000 8.6412022404981345e-002
      -2.8183958865245001e-005 8.3060262229124049e-002
      -3.3472594484150442e-001 1.9075871149660328e-001
      2.0380849642672699e-001 8.9542237465305222e-002
      -1.3138020330461750e-001 9.9559122379024936e-003
      -7.7265217859974256e-002 3.9188987349259512e-002
      -2.8583116319042523e-001 2.7500761436194004e-001
      1.8049094842989427e-001 -2.2434653612507290e-002
      -2.2892557100310593e-001 4.6715754133591962e-002
      8.3743760595837283e-002 8.8766394952255981e-002
      -1.3710161291857939e-001 -1.5498209885774501e-002
      -1.9933835879565823e-001 -2.1163450327275435e-001
      -1.5501698374727177e-001 2.2487250644598705e-001
      8.3306981288512938e-002 7.6686993492676506e-002
      8.6545241319777144e-002 -1.6986520766217672e-001
      -1.2433045779823442e-002 -2.0662439634434837e-001
      -1.2460162442695462e-001 -1.6200269465580219e-001
      1.2218554379495704e-001 1.0111515390865508e-001
      4.8786599849015514e-003 -4.8016305497867971e-002
      2.7987712003605542e-001 2.5236764810871520e-001
      -1.2700081522787912e-001 3.4901576354129354e-002
      9.6409774795971070e-002 2.4357696644571214e-001
      -6.4786238504448423e-002 -3.0642046074181534e-001
      1.4546960074013501e-001 -2.0638675814707744e-001
      -3.7218238860567777e-002 2.2331137143220470e-001
      -4.6610657497442455e-002 6.3195427031601742e-003
      -3.3392392042038599e-001 -1.6824266940007898e-001
      -9.9303590940125447e-002 -4.9566473382080062e-002
      -9.1214320934274992e-002 1.6580404365744286e-001
      1.4100027325352119e-001 -2.5177435999026254e-001
      -2.2921390640348327e-001 9.8740068796416405e-002
      1.8091713738336845e-001 4.5025641919757403e-001
      5.1986161513170162e-002 7.7674041322787601e-002
      3.0187452196221043e-001 -2.0483580215974270e-001
      1.6159990088288022e-002 -9.2980741287366289e-002
      -4.1996371475313932e-002 -9.7147282540336288e-001
      9.9898815030284610e-002 1.1583359844330592e-001
      1.9422670804707412e-001 -3.5626901779112335e-001
      4.4281451704745865e-002 2.4343673878647301e-001
      3.0511954427538679e-002 -1.5141946442789931e-002
      -4.3659044234387122e-002 -8.8993838901418806e-002
      1.3495866137354567e-002 -1.4886141551444568e-001
      1.3470267016519683e-001 6.9086750808388608e-002
      -8.9026775713929154e-002 -1.3648275287451100e-001
      1.0419948043073805e-001 1.3852888815661107e-001
      7.2219725042828439e-003 -6.8040400850976679e-002
      5.7402262080786012e-002 -1.4300299166172045e-001
      -4.6294182974042408e-001 -1.0300940817776533e-001
      2.6799139243245501e-001 -6.6875335141970818e-002
      1.3737820427999270e-001 7.3425350061729455e-002
      -1.3976468751118035e-001 -3.2939859874847682e-002
      -1.2056238509918225e-001 -1.5118676596438230e-001
      -1.4452516606257163e-001 5.9137512995098188e-002
      6.0796238084838340e-002 1.6226429804179596e-001
      -1.8576492850209562e-002 8.1552413489045697e-002
      6.1795787505819134e-002 -1.4015264533251776e-001
      5.0538028858691617e-002 2.9662215753057393e-002
      1.0860487289876751e-001 -1.6184215412395711e-001
      -7.0061772100398823e-002 2.1775964808218376e-001
      -1.2207479880967514e-001 -1.8506452727409084e-001
      2.1502754488040610e-001 -6.6690277352481300e-002
      3.1679268631568248e-003 -1.1950474811707366e-001
      -1.1249275406605944e-001 -1.0995222622961373e-001
      2.8009968065453764e-002 -7.3907702318306290e-002
      2.1108579228413718e-001 1.1051888235158433e-001
      -2.6393387677960539e-001 -2.6784463594842028e-002
      1.0678092913803784e-001 1.3435964541703210e-001
      2.6700732419831169e-001 -3.1785947627770658e-003
      3.4504611286290898e-002 3.0776975811446922e-001
      -1.3294738352946214e-001 -2.4509001218772737e-003
      -1.5570457641996871e-001 -8.2218251246803001e-002
      -6.0634975996368100e-002 4.1225009597232153e-002
      -5.6950888066591598e-002 2.4787744903232153e-001
      -2.0508489712557623e-001 -4.5643213708165487e-002
      1.8948544680484170e-001 -2.8355728282943030e-002
      3.6421204206122916e-002 -1.4725629111162167e-001
      -5.7687218496343326e-002 4.0339943503978973e-002
      -1.1121069443638351e-001 1.8486747310381735e-001
      -7.7573589742557694e-002 -1.6954612438074926e-001
      -2.6806279322635845e-001 -2.7270101731835753e-002
      1.0501482408199750e-001 -6.3693599360823014e-002
      1.0855542156630225e-002 3.6680480355636626e-002
      -1.3279480148005907e-001 -4.0860646868296213e-001
      1.0734996783955951e-002 1.3373363298995739e-001
      -6.4512819610635539e-003 1.1141771656368664e-001
      8.3804033112585847e-003 -2.3109696065801136e-001
      -3.8660828047793305e-002 -1.5370233461303301e-001
      -7.7926699699466223e-002 -7.4841388647674115e-004
      1.3498532752178993e-002 4.4096146021623803e-002
      2.1961288931866677e-001 -3.0317364001475715e-002
      9.7806438917368444e-003 5.0909500304085448e-002
      -3.4328482696664941e-002 4.7490864751020779e-003
      1.3303221735329321e-001 9.9279700022427586e-002
      -1.1701905425800671e-001 4.6667429533960208e-003
      1.7078316991221229e-001 5.2181952539795330e-002
      -3.5121123044234023e-002 8.2398910560771005e-002
      -2.0355472400843647e-001 9.0455272806777842e-002
      -1.3839147464072674e-001 -1.2941752950824936e-001
      -1.4383277480927803e-001 4.4374990425130260e-002
      -1.3427968526506165e-001 1.4565701266626710e-001
      5.0662291894991371e-002 -2.5260618325358120e-001
      -4.5099536628365293e-003 1.5836078766489314e-001
      1.3477206628773733e-001 1.9619074857223079e-001
      -8.8775441828182700e-002 -2.6687694406727386e-002
      1.7355454953434907e-001 -8.5744066023786994e-002
      -2.0524985555106127e-002 -4.0367498590525762e-002
      -1.2330260625469062e-001 -8.6489752923369523e-002
      1.3965186097522383e-001 7.0798513944813263e-002
      2.4284357686552088e-001 -2.6464907020188144e-001
      -8.3718181058064001e-002 1.6314186154763927e-001
      -8.5906246481639692e-002 3.1128368388069001e-003
      -1.3685314757757400e-001 -1.2326317512929047e-001
      7.7966642882913570e-003 -2.2965237900383233e-002
      2.1052837626624490e-001 -8.4360979171398218e-002
      -2.3374480459211944e-001 -8.4663962608499413e-002
      3.9158528436701937e-002 8.8123111286837433e-002
      -8.6938509396446234e-002 6.4423902952885401e-002
      3.2086478409402056e-002 -1.4090400215621018e-001
      -3.2786491363730064e-001 4.6436802072627875e-002
      8.8778767440529052e-002 -3.8213267647104502e-003
      5.0462645112051008e-002 1.4394112017459760e-002
      -1.9410996487531168e-001 -2.9562090993043185e-002
      -1.7353891384919881e-001 -1.3208152719755626e-002
      -4.9279648426114910e-002 -1.5969987464240557e-002
      -2.4724607829354706e-002 2.4924882963803505e-001
      1.0563580991075401e-001 -5.8013330047916027e-002
      5.2236700371410219e-002 -3.5327769900393956e-002
      9.3499170706809437e-002 3.5905648291813759e-002
      8.9243089481148397e-002 -6.0652995423887746e-002
      -3.0705941120379315e-002 5.9006138224579022e-002
      9.8673980086045623e-002 4.4551032287787111e-002
      -5.3994965921156303e-002 -2.0321028888307943e-001
      3.8141157168474965e-002 -1.4454545947860195e-001
      -6.6674902815172896e-002 -2.0061213680140688e-001
      5.4356849067546995e-002 -2.2327883442057628e-001
      1.1052408874142850e-002 1.4752984808914849e-001
      -1.7694916942954589e-001 7.8788351690371794e-002
      8.6711502272301538e-002 1.9190953861814875e-001
      1.7008822847855537e-001 -1.2971369210612027e-001
      -6.4929583660707932e-002 2.7679821217068179e-001
      -1.1190376000964920e-001 3.7937426037694656e-002
      -8.6105929517968263e-002 9.6844416002296700e-003
      2.3547935886878625e-002 2.2207181098235284e-002
      8.3700992084902656e-002 2.2435490165060687e-001
      -8.8439729578019211e-002 -8.6280509588054485e-002
      3.8989760443094205e-002 -7.4168401819564606e-002
      -4.8097220140606169e-002 1.2179857648141211e-002
      -1.0118690523487381e-001 -1.6316611451604162e-003
      8.5663122290636398e-002 1.5814737714322191e-001
      -1.4495392022977224e-001 -1.1152811723699557e-001
      6.0116759595509460e-002 -1.8245441453326974e-001
      1.1362254502388411e-002 -1.0492189705684843e-001
      3.6031105475694401e-002 -2.7657516689384785e-002
      -7.3987203541743277e-002 -2.1913029559903119e-001
      7.0569759267130078e-002 1.0040235136714455e-001
      -9.9894677148170352e-002 5.2306672903799367e-003
      1.0401191548921009e-001 -1.6141638070643571e-001
      7.1327481120899663e-002 -1.1720628170786103e-001
      2.1252845114644790e-002 -3.5858393651834256e-002
      -3.9506126512017653e-003 2.3515593111625537e-002
      1.9620355188022004e-001 8.2651943033265438e-002
      7.0234448598835691e-003 3.0291057384924373e-002
      -3.7992107329954117e-002 -5.5344679417470975e-002
      -1.9262011567618687e-004 6.2849000072637384e-002
      -1.0674861242359357e-001 2.4839470831759140e-002
      -2.2983970969997526e-002 9.6354146980259722e-002
      -7.5711773909172581e-002 -1.1075362058720996e-001
      -1.1602736491596684e-001 1.6885880615298891e-002
      -4.9773006345805795e-002 -1.2264326290903394e-002
      -1.5044796561159599e-001 2.0223191746924871e-002
      -5.9970808675635368e-002 6.5659163984026950e-002
      -4.3219510173547401e-002 -1.6729249160364487e-001
      9.0036711195944988e-002 7.6473938918718301e-002
      4.8914993139947349e-002 -6.6666674309797266e-002
      -2.3770325362305653e-002 -7.5713250511698110e-002
      2.4756744503056974e-001 7.8450735587431653e-002
      -1.2914799169671084e-002 -4.1128255034108704e-002
      7.8884655573876694e-002 -5.5880102976437884e-001
      4.8958143197788849e-003 2.9411299547940861e-002
      1.2905199582297486e-001 -1.3003284986361632e-001
      -6.3450613288137711e-002 8.6938493508866413e-002
      2.6058451258687720e-002 -7.3961046632341931e-002
      2.2425423513892508e-002 -8.2409132420186382e-002
      -6.4039687941911311e-002 1.9085557606242853e-001
      1.3681815223196769e-001 -5.0052433543883397e-002
      -1.3241830207212044e-001 -5.1053645043939465e-002
      -9.3598848534459256e-003 -2.6752976183647876e-002
      -1.1115673100260456e-001 1.1816009917108675e-001
      -3.6369469732242699e-002 -4.2647154907614677e-002
      -2.0832559314958886e-002 1.1995144032139995e-001
      -7.3807347158756156e-002 -5.1022724132829225e-002
      -4.4656974197623163e-002 9.0389132489177418e-002
      7.8401741089800109e-002 4.8964610227422677e-002
      -3.3500130301961826e-003 2.4483287583065394e-002
      -1.0817728026087822e-002 -1.3340640530420561e-001
      1.7269854959248244e-002 1.1902740540579793e-001
      2.1052064144194871e-001 5.0919077052222206e-004
      6.8866757880644350e-002 -5.5994681007350763e-003
      7.8009371780534381e-002 -7.4781639284248400e-002
      4.3468498770187047e-002 -1.2468179304859296e-001
      -1.2167795320573800e-002 -1.4010414473726102e-001
      1.0448328793671412e-001 1.0388897565740883e-001
      3.4066045465484438e-003 -1.2794261770930357e-001
      1.0896680291141986e-001 -4.6272179489494754e-002
      3.9534080535092879e-002 -1.4916694051630694e-001
      9.2233863188675727e-002 -1.0479626965501269e-001
      1.5102846955473989e-001 -1.8039315273665108e-002
      -1.2177667360552724e-001 1.5396534236937589e-002
      7.5255557367396086e-002 -3.0291326940724013e-002
      7.0164048500766213e-002 -1.1936068663440821e-001
      -4.8338955663763221e-002 1.6697965081999749e-001
      -3.8016724435947724e-002 2.0105113158845556e-002
      -9.0542328016316134e-002 2.0771092432918924e-002
      -6.8568175209319393e-001 -1.0089486404096069e-001
      1.3605425255817441e-001 -4.0491178164720601e-002
      -2.5266795825974055e-002 -2.0815508534381022e-001
      -3.3017803570296649e-002 -1.7529954574909190e-002
      -1.2971321612444198e-001 -9.7472555516288681e-002
      1.0106400807528129e-001 -1.2514915104636409e-001
      2.8906454841084062e-002 -2.3380682278314573e-003
      -5.8243291810897505e-002 -2.1893819640821023e-002
      -9.5854057298816797e-002 -4.9326241715696849e-002
      -2.6252678426039219e-002 -7.4039895048801568e-002
      1.4668756680148126e-001 -1.7117520793237362e-002
      8.5700655688361452e-002 2.3369495206474848e-003
      8.9994350057509970e-002 -2.2165271359488534e-001
      -1.4309586469002183e-001 -1.1623208213990325e-002
      8.9880224859683694e-002 1.6354532833809365e-001
      -5.8595481691901666e-002 1.3418125265383407e-001
      8.1653314037514121e-002 3.9341200051081784e-002
      -8.0194039314406260e-002 -3.0984797589213905e-002
      2.4463805301113914e-001 6.2929938972005869e-002
      -5.4528605798925954e-002 -2.6044173056986836e-002
      2.4162421876705094e-002 1.8807031808993922e-002
      1.8286620158192591e-002 6.9733022735375086e-002
      -8.6758692761714690e-002 -6.6761108396460531e-002
      -2.9349636841245136e-001 5.6571618025735800e-002
      1.5408257511678958e-001 -1.1489989674326957e-001
      -2.0309801342207287e-001 2.3968663344381441e-002
      -3.7312133607726790e-002 7.9774002690151377e-002
      -2.0857164932721256e-001 1.2681979155987358e-001
      -1.3368184293816304e-001 2.7627531627748880e-001
      8.5485885248798715e-002 -1.1099271779204489e-001
      -5.7808528540457309e-002 1.1672849876314209e-001
      -1.0853168967049352e-001 3.1139463534458327e-002
      -9.6277313063823769e-002 2.3621695495859015e-002
      8.4672064606587813e-002 -7.4224461770957539e-002
      -9.0731801669500636e-002 -7.4074119431791360e-002
      3.5141693476248598e-002 -7.3332743242562892e-001
      -1.0935659316821302e-003 3.0408762527665771e-002
      9.0140905266316490e-002 4.4695190745264797e-002
      -5.0408577584034511e-002 -4.3579944998884228e-002
      -7.7489900598338183e-003 -4.3301401902865799e-002
      6.3132483155932367e-002 4.7518887482685769e-002
      -6.6456067577761915e-002 -1.3845411180421938e-001
      -6.9959927010833367e-002 -2.7508566703922325e-002
      3.7931424386455033e-002 -7.2828520793448676e-002
      4.4065341282485552e-003 -4.9461636940542834e-002
      -1.3660436424887842e-001 1.5695470364898917e-001
      -3.5582690834858328e-002 -1.0433906106361203e-002
      -3.8152919490187863e-002 -2.6145700413474884e-002
      6.8395952537236467e-003 -9.7128085071952544e-002
      1.1134805538983510e-001 3.9000333882407867e-002
      1.4908023936332040e-001 -1.4010860678014686e-001
      4.2471048543717374e-002 5.2609601073714006e-002
      3.7802622424386416e-002 -3.9583371305873138e-002
      -1.3224709637905936e-002 2.7576249302084455e-002
      1.3979739901904664e-002 6.2974787516340410e-003
      -6.3513886862906238e-002 2.0811102258039737e-002
      -5.3822914989728750e-002 -3.1023958526878073e-002
      9.1468520833979133e-002 -7.6713030232543236e-002
      -2.4278546338370753e-002 -8.3213095697982437e-002
      1.2105771266438266e-001 2.3545573768108341e-002
      -1.2259739087688257e-001 -1.0132360259565804e-001
      -1.3479692263304921e-001 2.8377262527344956e-002
      6.4879144139022238e-002 -9.2454517783667631e-002
      1.0637620760284711e-001 -5.0715878993375950e-002
      -5.9117312356485915e-002 4.9970243467471892e-003
      -7.6608449463261508e-002 -2.1335911223707399e-002
      1.5903455945543454e-001 -1.1338866647822106e-001
      -2.6012999411595527e-002 -1.7264321399762493e-002
      9.6923691397832114e-004 1.6500261734630248e-001
      -8.9982411933112474e-002 -1.2694920132336296e-001
      -9.1498797968233223e-002 -4.5891208167563785e-002
      4.1500017557443097e-001 -1.3474710894953060e-001
      4.5443251684094008e-002 -1.7685597702177330e-001
      -5.5378072455966411e-002 -7.1081270736017013e-002
      6.4834680565489453e-002 2.1655901408072043e-002
      -2.3210814472866265e-001 9.2003723810699281e-002
      3.1974242174884926e-002 2.0703780558072839e-002
      -7.4943737803559576e-002 1.9684128435471160e-001
      2.1658980687145231e-002 6.6410386359728193e-002
      -1.0486658608078664e-001 8.9121055668491640e-004
      -3.7510135903841682e-002 -5.2805486734537360e-002
      1.8736982455118446e-002 1.9916988880681920e-002
      2.3574343973021952e-002 4.9025388844122060e-002
      6.3592842995026572e-002 -1.5350048029797875e-001
      -1.0314178199883818e-001 -1.8085072126878121e-001
      1.2176920774906784e-001 3.4927120901038750e-001
      -1.3943528580783697e-002 7.3016578802628324e-002
      7.8386609997145848e-002 -1.9813908731626625e-002
      4.0432669304587644e-002 1.1283755358674150e-001
      1.2506586803317907e-001 -1.3295562113447751e-001
      -1.0234946128051589e-001 -2.0179110028125079e-002
      -2.8509394458926626e-002 1.2198723882730471e-001
      1.5411110090083197e-001 -2.0811486611931471e-002
