<?xml version="1.0"?>
<opencv_storage>
<OCRMLP type_id="opencv-ml-ann-mlp">
  <layer_sizes type_id="opencv-matrix">
    <rows>1</rows>
    <cols>3</cols>
    <dt>i</dt>
    <data>
      400 32 46</data></layer_sizes>
  <activation_function>SIGMOID_SYM</activation_function>
  <f_param1>5.9999999999999998e-001</f_param1>
  <f_param2>1.</f_param2>
  <min_val>-9.4999999999999996e-001</min_val>
  <max_val>9.4999999999999996e-001</max_val>
  <min_val1>-9.7999999999999998e-001</min_val1>
  <max_val1>9.7999999999999998e-001</max_val1>
  <training_params>
    <train_method>BACKPROP</train_method>
    <dw_scale>1.0000000000000000e-002</dw_scale>
    <moment_scale>1.0000000000000000e-002</moment_scale>
    <term_criteria><epsilon>1.0000000000000001e-005</epsilon>
      <iterations>1000</iterations></term_criteria></training_params>
  <input_scale>
    2.1502747380143110e+000 -1.4700048939261194e+000
    2.0063359448886895e+000 -1.0828296378681725e+000
    2.0048853377166744e+000 -1.0723805294763609e+000
    2.0406168973571384e+000 -1.2228654294145302e+000
    2.0328157051971640e+000 -1.1983004660386574e+000
    2.0160473735890303e+000 -1.1349557676047151e+000
    2.0036248207814511e+000 -1.0620461684743427e+000
    2.0003830525164839e+000 -9.8061886167746537e-001
    2.0132586748208197e+000 -8.9129234015748715e-001
    2.0441666011115633e+000 -8.1076772310111211e-001
    2.0429241859394853e+000 -8.1317189307035398e-001
    2.0149694085659662e+000 -8.8490644616120218e-001
    2.0050461087934770e+000 -9.3144229330791717e-001
    2.0007416848023829e+000 -9.7313442695294572e-001
    2.0010278434218343e+000 -1.0325780377498661e+000
    2.0246009886526983e+000 -1.1696291020662357e+000
    2.0935023862691540e+000 -1.3560860607597129e+000
    2.0985816396148014e+000 -1.3671134504240496e+000
    2.1207946420388413e+000 -1.4131613759132893e+000
    2.3314043910866196e+000 -1.7647527849716926e+000
    2.0000020108332031e+000 -9.9858296655469481e-001
    2.0140664686925529e+000 -8.8822273364064663e-001
    2.1109333671819650e+000 -7.1781313308314698e-001
    2.1056782254300415e+000 -7.2349097280445140e-001
    2.0480111225770887e+000 -8.0358008737532682e-001
    2.0185559721995108e+000 -8.7274208157066202e-001
    2.0129293510249511e+000 -8.9257374938386591e-001
    2.0210857451191897e+000 -8.6495132994465607e-001
    2.0484053239877977e+000 -8.0286334593055497e-001
    2.1077614461858447e+000 -7.2121786296744805e-001
    2.1369587080459174e+000 -6.9211765303132089e-001
    2.1161275317030244e+000 -7.1237758937365003e-001
    2.0761157025215167e+000 -7.5955452531275014e-001
    2.0631952039944417e+000 -7.7823301795592958e-001
    2.0774846065860726e+000 -7.5769858311675820e-001
    2.0950479901104466e+000 -7.3558406459351477e-001
    2.1330948620557111e+000 -6.9570592494726824e-001
    2.0612247645921387e+000 -7.8128953428173387e-001
    2.0070847035999333e+000 -1.0877875407202136e+000
    2.0732538218009675e+000 -1.3097484084122675e+000
    2.0006374160261529e+000 -9.7506959711881569e-001
    2.1466788126149816e+000 -6.8339392148619316e-001
    2.2852974865304514e+000 -5.8979600474835814e-001
    2.1771004352335788e+000 -6.5850187583000908e-001
    2.0619784317810814e+000 -7.8011322404877004e-001
    2.0077243630255119e+000 -9.1588900678574481e-001
    2.0000039412387838e+000 -1.0019872269422323e+000
    2.0005543347418784e+000 -1.0238231131712194e+000
    2.0006811344626816e+000 -9.7423979236313807e-001
    2.0096992448196369e+000 -9.0624554715349481e-001
    2.0164894315219062e+000 -8.7956912810002608e-001
    2.0078759701841835e+000 -9.1510399435223577e-001
    2.0043809912506036e+000 -9.3596520195522381e-001
    2.0108026101837573e+000 -9.0132544679393889e-001
    2.0308239978948759e+000 -8.3916919028157522e-001
    2.1013842246636845e+000 -7.2827326220618915e-001
    2.2054219300513340e+000 -6.3798365531831003e-001
    2.2239405143255286e+000 -6.2568037158562806e-001
    2.0505379347564352e+000 -7.9904682993628540e-001
    2.0521709667295895e+000 -1.2559798486110194e+000
    2.0117167177751445e+000 -8.9745615344875285e-001
    2.1853212979320253e+000 -6.5231158992440641e-001
    2.2263372136176880e+000 -6.2414473501448808e-001
    2.1100819654263243e+000 -7.1872048794016330e-001
    2.0013191215750470e+000 -9.6433385920476600e-001
    2.1428890190372050e+000 -1.4561435308035007e+000
    2.3929735239168393e+000 -1.8534346834421123e+000
    2.6243759613345055e+000 -2.1617980657107405e+000
    2.4724314695384115e+000 -1.9630096140024911e+000
    2.3254463733641746e+000 -1.7559560320709344e+000
    2.3164512081950992e+000 -1.7425941093980435e+000
    2.3402735767340355e+000 -1.7777716322410988e+000
    2.3625689504036731e+000 -1.8101191206793883e+000
    2.2461958155931860e+000 -1.6343208635576629e+000
    2.0592896359646882e+000 -1.2749374008255572e+000
    2.0121563420031645e+000 -8.9565495711116472e-001
    2.0802653131591327e+000 -7.5399292972699150e-001
    2.1156890300676174e+000 -7.1282999651739365e-001
    2.0754365787968343e+000 -7.6048328411954347e-001
    2.0119041103349034e+000 -1.1152202449374842e+000
    2.0425552443253352e+000 -8.1389396434404315e-001
    2.2229190374099872e+000 -6.2633864539614925e-001
    2.2824426949625369e+000 -5.9132484454006740e-001
    2.0653570303039452e+000 -7.7494819940218940e-001
    2.0712718719413443e+000 -1.3049717707083657e+000
    2.8146561189349288e+000 -2.3975665494103966e+000
    3.1261813724916334e+000 -2.7644451274614052e+000
    3.0605623916163731e+000 -2.6886250731797268e+000
    2.7448934948545420e+000 -2.3124521062011962e+000
    2.5765818395904736e+000 -2.1005060969661988e+000
    2.5049420356396568e+000 -2.0065821836824198e+000
    2.6177743985013762e+000 -2.1533904262204318e+000
    2.8835178432075605e+000 -2.4803487289984494e+000
    2.8036193542551002e+000 -2.3841896295331590e+000
    2.5999904607546038e+000 -2.1306501521129970e+000
    2.0569560044196016e+000 -1.2688256692038100e+000
    2.0269433966608070e+000 -8.4877536164766920e-001
    2.1048519154001695e+000 -7.2440096407773846e-001
    2.0647351323581007e+000 -7.7588600407671116e-001
    2.0005279312299198e+000 -1.0232422359538176e+000
    2.1083912941377316e+000 -7.2053644623822088e-001
    2.2657763978233065e+000 -6.0050143044976745e-001
    2.2965218056852108e+000 -5.8390011310175605e-001
    2.0356499421725318e+000 -8.2817352298539337e-001
    2.1309525277841277e+000 -1.4332257287691601e+000
    2.5460720363786269e+000 -2.0608308541760074e+000
    2.7632204219077328e+000 -2.3349447666120504e+000
    2.5592627156603096e+000 -2.0780400325965589e+000
    2.4813291956913237e+000 -1.9750001099568069e+000
    2.4538788597224088e+000 -1.9378405232266160e+000
    2.4618337438510394e+000 -1.9486607995145353e+000
    2.5842796154473819e+000 -2.1104461578788252e+000
    2.6754164919789210e+000 -2.2262257480051488e+000
    2.5811880844391051e+000 -2.1064573774740571e+000
    2.4454532896201968e+000 -1.9263319659444404e+000
    2.1699743530410061e+000 -1.5059351224876183e+000
    2.0013191215750470e+000 -9.6433385920476600e-001
    2.0754365787968343e+000 -7.6048328411954347e-001
    2.0412173348606077e+000 -8.1654482439616771e-001
    2.0004287664001970e+000 -1.0209221682181380e+000
    2.1086017460051334e+000 -7.2030935991582057e-001
    2.2502438521666388e+000 -6.0946763437865581e-001
    2.2506143170881550e+000 -6.0924882747040388e-001
    2.0103306254276698e+000 -9.0339446284462366e-001
    2.1232855525385990e+000 -1.4181331469734546e+000
    2.3903141535736405e+000 -1.8496801384077364e+000
    2.5310712094005723e+000 -2.0411517254482496e+000
    2.3983398068870443e+000 -1.8609919772101402e+000
    2.3929735239168393e+000 -1.8534346834421123e+000
    2.5137377719299319e+000 -2.0182619490452747e+000
    2.6682429334364617e+000 -2.2172296639162883e+000
    2.5811880844391051e+000 -2.1064573774740571e+000
    2.5089834462493892e+000 -2.0119542524872798e+000
    2.5103374810785524e+000 -2.0137520037523218e+000
    2.3517577433975689e+000 -1.7944992083412252e+000
    2.1682935443751732e+000 -1.5029238293967453e+000
    2.0121563420031645e+000 -1.1165013848920000e+000
    2.0109823884497646e+000 -9.0055053640447491e-001
    2.0034554168237655e+000 -9.4291953040812215e-001
    2.0169377199205676e+000 -1.1388891095751135e+000
    2.0513508388220485e+000 -7.9761826432927641e-001
    2.1205697805809738e+000 -7.0785894263862914e-001
    2.1265023704574819e+000 -7.0199908088840302e-001
    2.0002896224432671e+000 -9.8312589781457238e-001
    2.0820325279026788e+000 -1.3303514706082631e+000
    2.2222399375996091e+000 -1.5954623942238828e+000
    2.4181970656203480e+000 -1.8887449570954165e+000
    2.3440663431652511e+000 -1.7833119584630703e+000
    2.3286435204129661e+000 -1.7606816861659011e+000
    2.4448569829763418e+000 -1.9255155535239086e+000
    2.5622368037495944e+000 -2.0819082367392481e+000
    2.4630689589827734e+000 -1.9503370769937334e+000
    2.4655485939716932e+000 -1.9536990276678705e+000
    2.3690887265480347e+000 -1.8194816425105156e+000
    2.2290991728034286e+000 -1.6067088904367313e+000
    2.1107201364930939e+000 -1.3926802035028880e+000
    2.0135252049997967e+000 -1.1232569705713558e+000
    2.0002522862648209e+000 -9.8424212043943970e-001
    2.0028186160799542e+000 -1.0545186502417569e+000
    2.0484053239877982e+000 -1.2455419780572432e+000
    2.0279119851491862e+000 -8.4630529953120470e-001
    2.0793901713490253e+000 -7.5515006080896974e-001
    2.0706181964932111e+000 -7.6723274921111184e-001
    2.0000502726497018e+000 -9.9293477092266125e-001
    2.0343261399083450e+000 -1.2032294851896921e+000
    2.0809694844287483e+000 -1.3279016846184584e+000
    2.1137285405811896e+000 -1.3988614717657988e+000
    2.1130796692349660e+000 -1.3975331221372493e+000
    2.1285981338828779e+000 -1.4286237900833325e+000
    2.1471890231628912e+000 -1.4642416353361238e+000
    2.1649656477300021e+000 -1.4969331392982828e+000
    2.1859183728654128e+000 -1.5340485007531095e+000
    2.1541913590521595e+000 -1.4772645224583443e+000
    2.0898923218778354e+000 -1.3481168707065050e+000
    2.0541128291286608e+000 -1.2612462493090046e+000
    2.0276195027691344e+000 -1.1805736923383532e+000
    2.0016932560856469e+000 -1.0420045296498031e+000
    2.0037284249953879e+000 -9.4077493124783462e-001
    2.0000020108332031e+000 -1.0014190442785083e+000
    2.0504031513608343e+000 -1.2511180885288813e+000
    2.0172400462454130e+000 -8.7703601556841126e-001
    2.0569560044196016e+000 -7.8813033521579179e-001
    2.0677194936642764e+000 -7.7143647019720818e-001
    2.0068461570305121e+000 -9.2061079381646438e-001
    2.0097558023154969e+000 -1.1037697422529664e+000
    2.0283045077201964e+000 -1.1829858820551855e+000
    2.0358732027358406e+000 -1.2081862384358328e+000
    2.0493320705108422e+000 -1.2481397111236625e+000
    2.0281078824569172e+000 -1.1822960159926810e+000
    2.0287992597146713e+000 -1.1847128972638992e+000
    2.0217660581583052e+000 -1.1588171308956141e+000
    2.0181637091548170e+000 -1.1441603104368916e+000
    2.0135922645074245e+000 -1.1235799150364032e+000
    2.0016238306630711e+000 -1.0411168761872014e+000
    2.0001418992769509e+000 -9.8815859005684881e-001
    2.0005543347418784e+000 -9.7673122157065906e-001
    2.0039400507465355e+000 -9.3916929491169887e-001
    2.0217660581583052e+000 -8.6294892726269135e-001
    2.0039400507465355e+000 -9.3916929491169887e-001
    2.0403780663276767e+000 -1.2221436404095445e+000
    2.0021668478727910e+000 -9.5452140421842369e-001
    2.0180080247118481e+000 -8.7450829885414183e-001
    2.0550986577145909e+000 -7.9120715480645420e-001
    2.0027287209468905e+000 -9.4910938533813216e-001
    2.0137268962299060e+000 -1.1242261472571100e+000
    2.0140664686925529e+000 -1.1258437350519066e+000
    2.0191926772417110e+000 -1.1484659427703494e+000
    2.0153244232634431e+000 -1.1316909693878665e+000
    2.0100986772118499e+000 -1.1056682882735063e+000
    2.0028793607047293e+000 -1.0551186649203164e+000
    2.0000502726497018e+000 -9.9293477092266125e-001
    2.0000463311370078e+000 -9.9321642819651190e-001
    2.0001628971432530e+000 -9.8731807217181855e-001
    2.0030028056394675e+000 -9.4668297663022483e-001
    2.0064731058567702e+000 -9.2271586532806382e-001
    2.0011592452870337e+000 -9.6652699793642050e-001
    2.0201687590936133e+000 -8.6771003563450866e-001
    2.0546749394376587e+000 -7.9191810626652814e-001
    2.0210857451191897e+000 -8.6495132994465607e-001
    2.0168625720002908e+000 -1.1385606776989730e+000
    2.0033887990685550e+000 -9.4345635304972664e-001
    2.0148989216026156e+000 -8.8516121087987865e-001
    2.0336743394700085e+000 -8.3256066620106561e-001
    2.0002522862648209e+000 -9.8424212043943970e-001
    2.0341081265139436e+000 -1.2025236499484731e+000
    2.0701302189295108e+000 -1.3021976249533906e+000
    2.0852708424423150e+000 -1.3377432347148375e+000
    2.0786941035846267e+000 -1.3226177598956639e+000
    2.0872864323973896e+000 -1.3422921115885087e+000
    2.0299037903597030e+000 -1.1885242130452658e+000
    2.0126042869493626e+000 -1.1187477034658964e+000
    2.0224577047497192e+000 -1.1615078990692518e+000
    2.0167875974303984e+000 -1.1382323649706445e+000
    2.0098125278323837e+000 -1.1040858951818853e+000
    2.0153959425536025e+000 -1.1320169212216138e+000
    2.0043433445482326e+000 -1.0681114986971438e+000
    2.0133915984401622e+000 -8.9078017401209686e-001
    2.0294995808892398e+000 -8.4236319813709659e-001
    2.0022740193308297e+000 -9.5343677778118641e-001
    2.0111030852213143e+000 -1.1110688627371301e+000
    2.0122834765086619e+000 -8.9514084880993661e-001
    2.0221104626513329e+000 -8.6194895784598802e-001
    2.0476187023538843e+000 -8.0429719306866987e-001
    2.0013398341597286e+000 -1.0372797920949812e+000
    2.1379358146367853e+000 -1.4467143657752042e+000
    2.3085287819836009e+000 -1.7307418704406266e+000
    2.2861172730509276e+000 -1.6967580554663295e+000
    2.2562210532315832e+000 -1.6502535724005258e+000
    2.2414751475915158e+000 -1.6267540847097814e+000
    2.1802994950438070e+000 -1.5242309288947775e+000
    2.1295366243388014e+000 -1.4304615696955336e+000
    2.1381807921967186e+000 -1.4471833410599744e+000
    2.0985816396148014e+000 -1.3671134504240496e+000
    2.1288323491704260e+000 -1.4290828617374924e+000
    2.1877175914605695e+000 -1.5371725277491666e+000
    2.0831037456562869e+000 -1.3328082955758886e+000
    2.0001931481056090e+000 -1.0139946829945479e+000
    2.0133915984401622e+000 -8.9078017401209686e-001
    2.0015335319793843e+000 -9.6159892319145701e-001
    2.0017167220604972e+000 -1.0423005960587275e+000
    2.0373427684760075e+000 -8.2452868139967750e-001
    2.0613750796462744e+000 -7.8105419920800423e-001
    2.0792158177324516e+000 -7.5538158324312843e-001
    2.0043433445482326e+000 -1.0681114986971438e+000
    2.2168609981099641e+000 -1.5865708249377466e+000
    2.5056134572025770e+000 -2.0074753308557236e+000
    2.4502501518443434e+000 -1.9328901864308117e+000
    2.4336644638739182e+000 -1.9101436199010406e+000
    2.3876704726853597e+000 -1.8459414941974732e+000
    2.4125950289446885e+000 -1.8809483081590894e+000
    2.3388602733426280e+000 -1.7757030492734589e+000
    2.2716389215484849e+000 -1.6744156429678141e+000
    2.2573536821820941e+000 -1.6520423076775084e+000
    2.3011935399140011e+000 -1.7196951156192266e+000
    2.5592627156603096e+000 -2.0780400325965589e+000
    2.3050593121477423e+000 -1.7255258237135467e+000
    2.0166381681149295e+000 -1.1375760965344852e+000
    2.0203338985813253e+000 -8.6720798511141128e-001
    2.0077747321794672e+000 -9.1562727434616664e-001
    2.0000232456020322e+000 -9.9519023948064822e-001
    2.1214708078058804e+000 -7.0695638093361013e-001
    2.1688525592957322e+000 -6.6492615331783511e-001
    2.1756592480905330e+000 -6.5960854685444692e-001
    2.0001101221546320e+000 -9.8956100626737264e-001
    2.2724280459727675e+000 -1.6756417809214965e+000
    2.7499341080919986e+000 -2.3186483560287896e+000
    2.6576352665638745e+000 -2.2038926600773596e+000
    2.5076328684061218e+000 -2.0101600404282203e+000
    2.4956312680199546e+000 -1.9941693413630808e+000
    2.3757083432483102e+000 -1.8289450645909071e+000
    2.3050593121477423e+000 -1.7255258237135467e+000
    2.3033363303331882e+000 -1.7229295437475280e+000
    2.3586055976357692e+000 -1.8044068631941259e+000
    2.3983398068870443e+000 -1.8609919772101402e+000
    2.5504342321182181e+000 -2.0665316509250564e+000
    2.3586055976357692e+000 -1.8044068631941259e+000
    2.0158286772816103e+000 -1.1339750939841391e+000
    2.0224577047497188e+000 -8.6094980568046742e-001
    2.0133915984401622e+000 -8.9078017401209686e-001
    2.0030655063096878e+000 -9.4614452659069348e-001
    2.1563075417765742e+000 -6.7514563985290366e-001
    2.2513564845618919e+000 -6.0881123313379581e-001
    2.2432827245437172e+000 -6.1362625859966413e-001
    2.0143412087089057e+000 -8.8720133213979879e-001
    2.2364670007160155e+000 -1.6186794627984320e+000
    2.7736220794534536e+000 -2.3476673556803269e+000
    2.6808510646107009e+000 -2.2330288079301277e+000
    2.5960227075598463e+000 -2.1255580138188535e+000
    2.5015977273247505e+000 -2.0021295480744317e+000
    2.3309429273225541e+000 -1.7640729442882124e+000
    2.3222746987940366e+000 -1.7512559342295360e+000
    2.4478458362315343e+000 -1.9296050770860893e+000
    2.3967232258848887e+000 -1.8587179980664292e+000
    2.4496479654252448e+000 -1.9320677798773700e+000
    2.5009314152380253e+000 -2.0012416302025207e+000
    2.2242817622475313e+000 -1.5988207959206946e+000
    2.0014458249591511e+000 -1.0387537889039269e+000
    2.0244184510630250e+000 -8.5546894273508434e-001
    2.0188729257102680e+000 -8.7173398451329642e-001
    2.0026111405551825e+000 -9.5018957406376081e-001
    2.0836424306617283e+000 -7.4960306956732914e-001
    2.2521003054884980e+000 -6.0837366448604502e-001
    2.2396775807827294e+000 -6.1581605631561431e-001
    2.0618272797035848e+000 -7.8034841314930070e-001
    2.0880263162682837e+000 -1.3439522758851021e+000
    2.6638010067516271e+000 -2.2116498716010744e+000
    2.9514216259185124e+000 -2.5609400069477282e+000
    2.9071589344054045e+000 -2.5085170328781747e+000
    2.6480691268198795e+000 -2.1918291964333010e+000
    2.3897841659969390e+000 -1.8489311414746596e+000
    2.4636877152405172e+000 -1.9511763882045221e+000
    2.7601309185513645e+000 -2.3311599192983450e+000
    2.6369532908498083e+000 -2.1777674370262741e+000
    2.5240706533094790e+000 -2.0319269850876225e+000
    2.3716228142519364e+000 -1.8231093698326357e+000
    2.0573895412703407e+000 -1.2699683314165902e+000
    2.0155394979151215e+000 -8.8287032176117564e-001
    2.0264658977076992e+000 -8.5001221290688800e-001
    2.0153959425536025e+000 -8.8337902133198887e-001
    2.0040844089101260e+000 -1.0659842055901705e+000
    2.0084447012411446e+000 -9.1223034289214211e-001
    2.1901353048265908e+000 -6.4877944580016289e-001
    2.2168609981099636e+000 -6.3029017317221747e-001
    2.1028034765064434e+000 -7.2667783213928006e-001
    2.0062905555945534e+000 -9.2376991406913145e-001
    2.0430475538698163e+000 -1.2301162668365344e+000
    2.1756592480905330e+000 -1.5160507012360862e+000
    2.2329371002788676e+000 -1.6129582513925911e+000
    2.1454083506569410e+000 -1.4608977452998628e+000
    2.0869178818720560e+000 -1.3414632385884899e+000
    2.0962172212888324e+000 -1.3620061412287905e+000
    2.1791316564641718e+000 -1.5221784656469810e+000
    2.2112494376544354e+000 -1.5772241451222080e+000
    2.0680381251153048e+000 -1.2970692891924267e+000
    2.0058021863579221e+000 -1.0791284025867778e+000
    2.0086565212984469e+000 -9.1118721095203226e-001
    2.0437918360760539e+000 -8.1148853389293119e-001
    2.0418225819538036e+000 -8.1533924996907425e-001
    2.0126689592801790e+000 -8.9359990236900744e-001
    2.0656692535103716e+000 -1.2911897432605954e+000
    2.0118414765891344e+000 -1.1149002397206946e+000
    2.0256177782781681e+000 -8.5224162622679034e-001
    2.1907431008696379e+000 -6.4833818087279282e-001
    2.0921624528857365e+000 -7.3902108198218530e-001
    2.0289984376686254e+000 -8.4359379172495885e-001
    2.0091429018394109e+000 -9.0884371197783909e-001
    2.0037983123236347e+000 -9.4023945199644177e-001
    2.0037983123236347e+000 -9.4023945199644177e-001
    2.0255244440257907e+000 -8.5248958449639067e-001
    2.0639625273262903e+000 -7.7705906268452940e-001
    2.0625851371440564e+000 -7.7917283116162317e-001
    2.0164894315219062e+000 -8.7956912810002608e-001
    2.0005543347418784e+000 -9.7673122157065906e-001
    2.0087634344033001e+000 -9.1066600961250010e-001
    2.0378013686397023e+000 -8.2355840905036193e-001
    2.0638086406500031e+000 -7.7729378184435749e-001
    2.1042347880608658e+000 -7.2508374007202270e-001
    2.1075519987516946e+000 -7.2144505459253983e-001
    2.0064731058567702e+000 -9.2271586532806382e-001
    2.1194494168416140e+000 -1.4104617290467520e+000
    2.0534147568721863e+000 -1.2593617163176696e+000
    2.0171642043532954e+000 -1.1398751211497282e+000
    2.0003611624706008e+000 -9.8117544823962122e-001
    2.0011982438319103e+000 -9.6597827878670206e-001
    2.0064272199861959e+000 -9.2297928270493756e-001
    2.0089250587961676e+000 -9.0988466219440722e-001
    2.0067989454600301e+000 -9.2087370781461408e-001
    2.0050867128485268e+000 -9.3117682708152671e-001
    2.0328157051971640e+000 -8.3451523915850689e-001
    2.0931183634881774e+000 -7.3787468117294508e-001
    2.0847259746725126e+000 -7.4821914944641654e-001
    2.0282061040558466e+000 -8.4556522205391227e-001
    2.0019603008437610e+000 -9.5669401784507591e-001
    2.0106836020796846e+000 -9.0184234733097601e-001
    2.0267518543525473e+000 -8.4926995598578814e-001
    2.0272320684289369e+000 -8.4803383463774307e-001
    2.0082355539657044e+000 -9.1327445002382501e-001
    2.0011786636989726e+000 -1.0349260616151663e+000
    2.0872864323973896e+000 -1.3422921115885087e+000
    2.1557767027131987e+000 -1.4801858755725057e+000</input_scale>
  <output_scale>
    1.0526315789473684e+000 0. 1.0526315789473684e+000 0.
    1.0526315789473684e+000 0. 1.0526315789473684e+000 0.
    1.0526315789473684e+000 0. 1.0526315789473684e+000 0.
    1.0526315789473684e+000 0. 1.0526315789473684e+000 0.
    1.0526315789473684e+000 0. 1.0526315789473684e+000 0.
    1.0526315789473684e+000 0. 1.0526315789473684e+000 0.
    1.0526315789473684e+000 0. 1.0526315789473684e+000 0.
    1.0526315789473684e+000 0. 1.0526315789473684e+000 0.
    1.0526315789473684e+000 0. 1.0526315789473684e+000 0.
    1.0526315789473684e+000 0. 1.0526315789473684e+000 0.
    1.0526315789473684e+000 0. 1.0526315789473684e+000 0.
    1.0526315789473684e+000 0. 1.0526315789473684e+000 0.
    1.0526315789473684e+000 0. 1.0526315789473684e+000 0.
    1.0526315789473684e+000 0. 1.0526315789473684e+000 0.
    1.0526315789473684e+000 0. 1.0526315789473684e+000 0.
    1.0526315789473684e+000 0. 1.0526315789473684e+000 0.
    1.0526315789473684e+000 0. 1.0526315789473684e+000 0.
    1.0526315789473684e+000 0. 1.0526315789473684e+000 0. 1. -1.
    1.0526315789473684e+000 0. 1.0526315789473684e+000 0.
    1.0526315789473684e+000 0. 1.0526315789473684e+000 0.
    1.0526315789473684e+000 0. 1.0526315789473684e+000 0.
    1.0526315789473684e+000 0. 1.0526315789473684e+000 0.
    1.0526315789473684e+000 0.</output_scale>
  <inv_output_scale>
    9.4999999999999996e-001 0. 9.4999999999999996e-001 0.
    9.4999999999999996e-001 0. 9.4999999999999996e-001 0.
    9.4999999999999996e-001 0. 9.4999999999999996e-001 0.
    9.4999999999999996e-001 0. 9.4999999999999996e-001 0.
    9.4999999999999996e-001 0. 9.4999999999999996e-001 0.
    9.4999999999999996e-001 0. 9.4999999999999996e-001 0.
    9.4999999999999996e-001 0. 9.4999999999999996e-001 0.
    9.4999999999999996e-001 0. 9.4999999999999996e-001 0.
    9.4999999999999996e-001 0. 9.4999999999999996e-001 0.
    9.4999999999999996e-001 0. 9.4999999999999996e-001 0.
    9.4999999999999996e-001 0. 9.4999999999999996e-001 0.
    9.4999999999999996e-001 0. 9.4999999999999996e-001 0.
    9.4999999999999996e-001 0. 9.4999999999999996e-001 0.
    9.4999999999999996e-001 0. 9.4999999999999996e-001 0.
    9.4999999999999996e-001 0. 9.4999999999999996e-001 0.
    9.4999999999999996e-001 0. 9.4999999999999996e-001 0.
    9.4999999999999996e-001 0. 9.4999999999999996e-001 0.
    9.4999999999999996e-001 0. 9.4999999999999996e-001 0. 1. 1.
    9.4999999999999996e-001 0. 9.4999999999999996e-001 0.
    9.4999999999999996e-001 0. 9.4999999999999996e-001 0.
    9.4999999999999996e-001 0. 9.4999999999999996e-001 0.
    9.4999999999999996e-001 0. 9.4999999999999996e-001 0.
    9.4999999999999996e-001 0.</inv_output_scale>
  <weights>
    <_>
      -2.0558286097244860e+000 5.6196804755423470e-002
      -3.3250508069371756e-002 2.2519707642363527e-002
      1.4068347499241593e-001 5.9413947078312344e-002
      -1.0161814433982341e-001 -8.8983426059658435e-002
      -6.8142944154775086e-003 -1.0376136466824320e-005
      1.5905823202506116e-002 -6.6131021171759952e-002
      -1.8621467903730901e-001 6.5643048551785335e-002
      1.2127314266001629e-001 -3.4616448862307366e-003
      4.0548987553693079e-002 -2.1784803262114780e-002
      2.6598713853929179e-001 1.5316857690696078e-001
      1.3165137657808831e-001 1.1705511048401471e-001
      1.1796742661012409e-001 -2.4737499435527541e-002
      3.2895760638271494e-002 1.8717939368892908e-001
      -1.1842481317569294e-001 -2.5382298030746601e-002
      -1.1324608794995765e-001 7.9298763699704490e-003
      -1.9347783543563129e-002 4.1841276950201345e-002
      -2.7271011608774129e+000 1.9852797127727051e-001
      -2.7394533031753491e-002 1.5616779882390663e-001
      1.3037630940491804e-001 1.5614431338980866e-001
      -1.9244831080946287e-001 2.0365470134347882e-001
      4.0494454851930256e-001 5.6543559780892129e-002
      -1.7522643810626246e-001 1.0011033683344393e-001
      -4.2634506012424765e-002 4.5359977215550275e-002
      2.0685577017515810e-001 -2.2046334183836877e-002
      1.9159832914799135e-001 -7.5234803234466283e-002
      2.6752968973821251e-001 3.2286085680023974e-001
      -2.3268083949494231e-001 -3.1314434800201400e-002
      -1.4027282629389029e-001 -1.2083174007764567e-001
      -1.4883618702162785e-001 3.3287335824982844e-001
      -2.2769600492034264e-001 -2.3191657198300561e-001
      1.4337832132800990e-001 -1.1384728976875103e-001
      4.1552376139994338e-002 1.4586695612667452e-002
      -1.6522753768636524e+000 1.4380055838513803e-001
      -6.0975183692450708e-003 1.3571811707544124e-001
      6.2874365881324015e-002 -6.6774739451072485e-002
      -2.7396042955534317e-001 1.2812942538186728e-001
      2.2904883503870688e-001 4.4248493530612658e-002
      -1.2645458338959845e-001 2.0152486222074033e-002
      -2.0682499391497183e-001 8.6608314575310263e-002
      3.2799816667494330e-001 -9.0858697264752139e-002
      1.7060871688673709e-001 -1.1270323300976078e-001
      4.7897986228717526e-001 4.8293331160092057e-001
      -3.4604016422712514e-001 -7.5343812645735017e-002
      -1.6255529325103352e-001 -1.3270681290787786e-001
      -2.0713841830779273e-001 3.2382281276648633e-001
      -1.9286931591474263e-001 -2.3728922554431753e-001
      3.1208136386135721e-001 2.4192469361859170e-001
      -2.1803332462848766e-003 9.5117786430873971e-002
      -1.0308170206822747e+000 4.8710191262340191e-002
      5.5462392104201015e-002 -7.8367005609155053e-003
      5.5134774248068771e-002 -7.3940498742062030e-002
      -7.9567157910021280e-002 1.3312199373635872e-001
      7.8116139417022265e-002 -1.3563365897113848e-002
      1.7934382868713659e-002 1.4007110574707940e-001
      -2.8006190453369922e-001 1.9941725127374277e-001
      2.0437590667168831e-001 -6.0977874590280083e-002
      4.2142811914907659e-002 5.3084208036940209e-002
      2.5978327182858030e-001 1.1562653784432333e-001
      -1.6561374344594251e-001 -4.5140817562859245e-002
      -1.0023392829215755e-001 -1.8441678316301446e-001
      -9.6616931364219491e-002 9.2749149815641946e-002
      -1.7412288510666066e-001 -1.3363067680868956e-001
      2.5622038594764263e-001 2.3235587538077704e-001
      8.2581567256503462e-003 1.3822756684900489e-001
      2.4411378051085014e-001 1.5293228084903002e-001
      -3.3996959540698500e-002 -1.5839834578211611e-002
      9.4816982017892140e-003 -1.0267672254657040e-001
      -2.2240349920743088e-001 2.7399080042405238e-001
      2.0567321199980229e-001 1.1869722175797241e-002
      -7.2855519744857766e-002 -8.9741206247144854e-003
      -7.1921875297772608e-002 4.0687618455317459e-003
      1.2967337747015440e-002 7.3356805127070240e-002
      2.9337331877750984e-003 -6.7309484352125384e-003
      1.1321951273423486e-001 1.0678120883113895e-001
      -2.6081012836107359e-001 7.6401921521923294e-002
      -8.2479249585976064e-002 -6.8014655237249883e-003
      4.9872880937090504e-003 -7.0658745871704023e-002
      -1.0333429895766602e-001 1.4859959438853654e-001
      1.6734208699422265e-001 -2.5573054319792482e-002
      -3.5981700048844802e-002 2.3740432954472219e-002
      1.4283161473841159e+000 1.3748887046902863e-001
      1.3344210887747940e-001 4.5847869009194624e-002
      1.0262353793490922e-001 -8.0273394443481513e-002
      -7.8153130640918153e-002 9.3104850164539982e-002
      1.1007981324489654e-002 1.1040278130756602e-001
      1.0937322275621826e-001 -2.1295124790120326e-001
      -1.7146081139775954e-001 -3.4337054148317968e-002
      -1.5060727516633285e-001 -1.6514075342532619e-001
      -6.7258302620854929e-002 7.6784071608897197e-004
      1.7697923615488864e-001 4.6263012269900677e-002
      -2.2532288586094233e-002 1.0410358612718071e-001
      6.3941162377770089e-002 -1.1115057988901972e-001
      -1.5644384198601913e-002 4.1552077949538635e-002
      -6.3891058227929379e-003 2.9902578814824854e-001
      7.2053610639783855e-002 8.9394643482340871e-002
      -1.9094355647119422e-004 -4.8734753869141929e-003
      8.2409626103967759e-001 1.8406288261014259e-001
      2.8890835776149218e-002 -4.3535749757137997e-002
      2.5033996911002981e-001 -1.3450702260646902e-001
      4.1027178950195126e-001 3.2615347666589017e-001
      -3.3287990038803150e-001 -2.1934062935344598e-001
      1.1138780743315253e-001 3.2121806502890857e-002
      -2.0965662847030669e-001 2.4706978961866319e-001
      -3.5920197801615990e-002 -4.4482942057068359e-001
      2.2254453216595502e-002 6.8854929857177685e-002
      4.4224605374599199e-002 2.5024815084753921e-001
      -3.3005918024494783e-002 9.6385300965316029e-002
      1.8471241028668042e-001 -1.4152048444619658e-001
      -7.0211814326883754e-002 3.3821980609353819e-001
      5.8131071803088748e-002 -1.1787010511352697e-001
      -1.4247824117698857e-002 1.9064689340508725e-001
      3.6761933321032447e-001 -7.3244045299073690e-002
      6.0018846395837140e-003 2.4636571349183589e-001
      -2.1571240182015491e-001 7.3972718147556613e-002
      2.0579171625430678e-001 3.9342071953864053e-003
      6.0141633807408157e-001 2.3871898593559099e-001
      -3.4262961979293000e-001 -3.7049328042929819e-001
      3.6838886324644360e-003 7.2674327778278341e-002
      -7.5176352118456927e-002 2.2850938682325389e-001
      -4.9693893683257856e-002 -2.2847221510807678e-001
      1.2038974064090623e-001 -3.5837085179627484e-002
      -7.1087403493001591e-002 3.5111033100125488e-001
      -1.7808635595374889e-001 1.9495700405816201e-002
      -5.9425399633500332e-002 2.0581331171352125e-002
      1.0118762977486005e-001 3.8334630315604418e-001
      -1.8409227507461090e-001 -3.6876758559031592e-001
      -3.7449164421793409e-003 -4.9157217922189134e-002
      2.3845978434003423e-001 -5.6124889125962286e-002
      -2.4486924706383943e+000 1.5378613399020513e-001
      -1.4337876364560020e-001 2.2331968119984662e-004
      -4.7909176130669785e-002 1.9089979806041910e-002
      3.6891581067356199e-001 4.1936152510526298e-001
      -2.4915783777483441e-001 -2.8584880925496997e-001
      4.9269987876123390e-002 8.2895327298338151e-002
      3.9499833665854002e-002 2.4319927776709691e-001
      3.0512366127667832e-003 -7.5671350777094776e-002
      1.0021622180118543e-001 -3.4648882901469440e-002
      -4.5951809702095212e-002 1.2222982725964789e-001
      4.0433073651374850e-002 2.8136342172681718e-002
      -6.4052814054244012e-002 8.8138264478009098e-002
      8.6638090885669192e-002 1.6384458705062083e-001
      1.0739196306985212e-001 -2.9729538929777838e-001
      -7.0091996557397401e-003 -1.8884470722094551e-002
      1.4875666996495243e-001 -1.3148181718083679e-001
      -1.1285106864434056e+000 1.0989126349014400e-001
      7.4048445473890931e-003 6.0985563273843725e-002
      -1.6109154939490500e-001 3.1138909290001172e-002
      1.8823488998599017e-001 4.5700532715741937e-001
      -1.4163780331751053e-002 -1.0165104251925025e-001
      6.4557362927684880e-002 -1.7172949349439928e-001
      2.5501718431021297e-001 2.9325409207866227e-001
      -3.2400709008746048e-001 -4.0700897455494885e-002
      1.1526901140910305e-001 5.6381679707874555e-002
      -3.9937376040562897e-002 1.4815320606169132e-002
      1.5852431030790246e-001 1.7150340581335818e-001
      2.1550199528303557e-001 1.9020972450198112e-001
      7.8202869745751039e-003 9.2996843766770393e-002
      3.3096555048114346e-001 -1.2701960356987846e-001
      -1.0695764272866018e-001 -1.0054566781905870e-001
      -1.9804323090657000e-001 -2.1111318392594555e-001
      -1.1593298757947255e+000 -2.2596397929438589e-002
      6.3713350241125732e-002 8.4177378694034119e-002
      -2.1502903988460731e-001 -5.9334761731071294e-003
      -1.6633667238021896e-001 1.1634162375997430e-001
      2.5029354520479807e-001 1.3601335349360788e-002
      7.3190175665533347e-002 -1.6471731311264268e-001
      2.2092474935479262e-001 1.0736737354179755e-001
      -2.0879449689305143e-001 1.6333089018441024e-001
      7.2940815284680910e-002 7.9263427250865822e-003
      2.4847999936630536e-002 -1.7392623071160879e-001
      1.1777569259146789e-001 1.5294232276382599e-001
      8.9792604814645544e-002 1.5937431959177176e-001
      8.0489085371963226e-003 -5.2996299849059805e-002
      3.1613881259677529e-001 7.2613136978073131e-002
      -9.9573266452954723e-002 -2.9103597074056100e-002
      -2.5069861075754107e-001 -5.7953185259557539e-002
      -2.5359605672680536e+000 -5.1308605895504941e-002
      -2.5135304251720357e-002 -4.4325680778175947e-002
      -1.0525590726967088e-001 6.6715403780377575e-002
      -2.4112203426823656e-001 -1.8626027298095083e-001
      7.9477752974217553e-002 7.0055857039487246e-002
      6.4384566953948327e-002 -6.6682350980058841e-002
      5.2112368017019399e-002 -1.6998541438345219e-001
      -2.9835760604422393e-002 1.8884496479894300e-001
      7.5428559343967572e-003 9.9094690284126912e-003
      -9.0503068925170044e-002 -2.0525365089366768e-001
      1.1957767898017906e-002 4.7620943667002036e-002
      -2.1808076819397132e-001 3.6088981390924889e-002
      1.1184041146686228e-003 -2.2539064620460153e-001
      4.8776565831264475e-002 4.2111995215201779e-002
      -2.4039774790685749e-002 1.8300267492331636e-002
      -8.4713018462695480e-002 1.0909573601635013e-001
      -1.5719762508690798e+000 -1.1043462274047480e-001
      4.7441105869586248e-002 -6.7892557473927390e-002
      -7.1983367410086820e-003 -3.0748492769210822e-002
      -3.5030135044186733e-001 -3.2289923075882443e-001
      8.3150037545411740e-002 8.6094688412826678e-002
      -8.8980694313057238e-004 -5.3487596389880494e-002
      9.9102073315222930e-002 -1.2857284568277969e-001
      6.6550755068487899e-002 1.4616274136599927e-001
      -1.3176783627024680e-001 1.3158800268987605e-002
      -8.5524227949043047e-002 -1.8573995832507137e-001
      -1.5009078538953582e-001 -1.9782949533302920e-002
      -1.6904664540954137e-001 5.1415603531069762e-002
      3.7466085182967469e-003 -2.0702332479629093e-001
      -4.8459322511728499e-002 1.1906471731124878e-001
      7.2175982883969203e-002 -4.3953804308259008e-002
      -4.1313574711944127e-002 1.1194550280944451e-001
      -3.8309444931803738e-001 -2.0092235778298717e-001
      -3.6123738359309196e-002 -6.3811103412469303e-002
      7.0197424762233909e-002 -8.0190602334482233e-002
      -2.3286408815178294e-001 -4.3334642876133200e-001
      9.7801973538726578e-002 2.1113845324839825e-001
      1.1267880283190457e-001 -1.1917332606111414e-001
      -4.0833628909030167e-002 -9.8769686393102518e-002
      8.3135452348839164e-002 1.2063265609268826e-001
      -2.0378105560565798e-001 3.9222388082870666e-002
      4.3218720442796295e-002 -2.3610831427858595e-001
      -1.3703737938412541e-001 3.3780539761042948e-003
      -1.1024128481077278e-001 -9.2655139952646348e-002
      1.8323452265794501e-001 -4.1161660937993966e-001
      4.5531433156108629e-002 3.7087345105896841e-001
      -1.6250161699723406e-003 9.0359244345784087e-002
      -1.1849868802985805e-001 3.1395313044091477e-001
      -3.8437490951361786e-001 -2.3537128255653317e-001
      3.3213782364884425e-002 -1.2647927672735931e-001
      1.0838716975858574e-001 -1.9966325189123897e-002
      -1.8030855743456320e-001 -3.9943148625974295e-001
      2.9544328932014006e-002 2.0779828460012728e-001
      3.1087911053127401e-002 2.7240397130924660e-002
      -2.9741285984837473e-001 -5.1504238158771014e-003
      2.4342576324428898e-002 8.8900648899419787e-002
      -1.8755372080136384e-001 1.2488728991179504e-001
      -1.6649485349543677e-002 -1.8216937906472794e-001
      -1.3196989241099755e-001 -1.5885791324179113e-001
      1.1770146074734250e-001 -2.2092919776920267e-001
      -3.3530714121954269e-002 -1.3099945926528084e-001
      -2.2490012622174715e-002 1.4375742814564305e-001
      -1.2167323313933674e-001 4.5176093024316848e-002
      3.8357567141970202e-002 1.2349479942127056e-001
      -6.7413163416508626e-001 -9.7386384440116436e-002
      1.7524148882625296e-002 -5.3140455073854918e-002
      7.3168146905491560e-002 -6.5882618072870561e-002
      1.6293915108572525e-002 -4.4871791175338821e-002
      -3.6922878034448763e-002 7.5045592371650205e-002
      3.4152239698917865e-003 4.8055721210719653e-002
      3.1733401268431306e-002 -5.9194128830750746e-003
      -5.6089578871913244e-002 3.8187262278679454e-002
      -4.0767090738497852e-002 -2.8927734507297530e-003
      -1.8474011152371644e-001 -1.5318173472913585e-001
      -9.5981297430493356e-002 -2.1984548291626296e-001
      8.2155864519380520e-002 -1.5272649782774553e-001
      2.4549292282572233e-002 -1.2654096352345820e-001
      -6.8461156945927879e-004 -1.3023136540806350e-002
      5.1239956532292200e-002 4.9097976487062047e-003
      -1.6056194746808385e-002 -7.4694116515543835e-002
      -5.8218060456544685e-001 -5.0384702718357231e-002
      1.8007589275398656e-003 7.0883608785560048e-002
      5.3502713614595174e-002 3.5390922252724950e-002
      8.5812412549893496e-002 1.3115864444318243e-001
      -1.0153678272771006e-001 1.2080872081794940e-001
      -5.7352095725868614e-002 2.7628543236280657e-002
      7.1957041298465557e-002 -2.0459711702843423e-003
      -5.5803586326614044e-002 -2.8887693003783070e-002
      2.1177546386882389e-002 6.6289125741088056e-002
      -1.3862279386390511e-001 -1.3556550003838103e-001
      1.1097743648840420e-001 -1.6556083431306207e-001
      -1.3827465349942678e-001 -9.4565491787255790e-002
      1.2997317411899316e-002 -4.3548328271788672e-002
      4.2823964314983323e-002 4.4898219131676458e-002
      1.3930777541101819e-001 9.2262238515082671e-003
      -3.8912486012278091e-002 -2.0672487201356986e-002
      -1.5947072445764174e+000 2.8110135047462494e-002
      5.4955542811607992e-002 -4.1961761960864166e-002
      -7.3430104038716588e-003 5.1823643102015690e-002
      -5.8393221954936153e-002 -3.8861548802761929e-002
      -2.5383243917377354e-002 2.3626912783711548e-001
      -1.6653197013425047e-001 3.6442818471578306e-002
      1.5875470491531279e-001 -8.7919155032925522e-002
      -4.1109172076453038e-002 1.0027179341142399e-001
      1.4290211216179202e-001 1.1231913422925051e-001
      -1.1071349872035718e-001 -1.6135279368435848e-001
      1.5827868399360076e-001 -1.6793837308692297e-001
      3.9892362180308345e-002 9.2791067657432225e-002
      1.9935967274586304e-002 -3.7213078989853911e-002
      -4.7240508421524684e-002 1.8108506688438669e-001
      -1.5089229981051779e-002 -3.5472724431773232e-002
      -1.0285667717435101e-001 -5.2099746752380625e-002
      -1.5884487114981021e+000 6.2563064932677229e-002
      4.7109630504970836e-002 1.8024655311406942e-002
      -1.4464713201325535e-001 5.1052426245426698e-002
      1.5147132012747808e-001 1.2540105844773788e-001
      -5.9621373343256560e-002 1.5589916827378417e-001
      1.8005397158596434e-001 7.3392790833791050e-002
      1.4691255561183397e-001 -3.1717266584746572e-002
      -2.0214628932110970e-001 -1.3002379164111802e-001
      -1.1726632652489137e-001 -6.9947253580860003e-003
      5.1188613028873987e-002 -3.1397688043573091e-001
      1.4682153395262446e-001 -1.2308006313764527e-001
      1.7404573148732194e-001 3.6274711298490241e-002
      7.0680781082286578e-002 -2.1497963014641022e-001
      -8.8578826259359866e-002 8.4396048089760797e-002
      8.3293598965018867e-002 -1.7153718946462651e-001
      1.0602604642950614e-001 -4.7305134047563230e-002
      -3.3925526887700413e-001 7.0329605013752489e-002
      1.4327149835453468e-001 -1.9674152600425508e-002
      -1.0983302817187211e-001 3.0837209332785571e-002
      -4.6956254592774256e-002 -2.5136968439878660e-001
      1.4395734174643786e-002 1.9548891858691048e-001
      1.7736341586830803e-001 5.7973084446795463e-002
      -1.4459939592531998e-001 -1.0283762598876549e-001
      -2.6365217176709743e-001 2.3054840442683050e-002
      -2.2097966313332071e-001 1.7974474185359743e-001
      -3.6145534255598875e-002 -3.0805565260353239e-002
      -1.0268808377993800e-001 -8.0912214927088014e-002
      -7.4205260820237609e-002 -1.7666133071385132e-001
      2.0017297269194462e-001 -2.7909128931361410e-001
      6.5081617294721422e-002 1.8997072745620416e-001
      -4.4805563943808285e-001 1.1538501343995217e-001
      -1.7605955548493399e-001 2.0635297808145516e-002
      -2.2108243721747640e+000 2.1255045059158734e-001
      -2.1996480894735340e-001 1.9479550827508987e-001
      2.9019386147888998e-001 2.2620347035775629e-001
      -2.7375486550288186e-001 3.3214071057065297e-001
      3.5265673715654605e-001 3.5086098268989681e-002
      -9.3437844711057538e-002 1.4907827395552514e-001
      -1.6204767515685325e-001 -8.5433681555637256e-002
      1.7847169719033659e-001 -4.7810744037853174e-002
      1.8233877125386241e-001 -1.4898828018118462e-001
      4.0246000912943158e-001 2.1678372147021185e-001
      -9.1778652034177455e-002 2.8377025936355452e-002
      -2.3471651486555595e-001 4.8395337729893302e-002
      -9.2706876635292437e-002 2.7222125255024165e-001
      -1.5749633306505548e-001 -3.9615345157591786e-001
      2.0398099908710660e-001 -7.4478762263685619e-002
      -2.7857833148719974e-001 8.5354244819957029e-002
      -5.6546124601878167e-001 1.7030413398310174e-001
      -1.7646517990073782e-001 3.3648831803980062e-001
      2.7618525387734666e-001 2.4033040807880601e-001
      -2.2529053329037729e-001 2.4194268566236293e-001
      2.3907736463056734e-001 6.4018507709745889e-002
      -3.1179423214173857e-001 1.4153989776167439e-001
      -2.5669033476521669e-001 -1.4383820852196205e-001
      2.4654432108743315e-001 -2.8476830386484009e-001
      2.5355669928943392e-001 -1.5708320548345134e-001
      6.8271998494979880e-001 2.4119555610262722e-001
      -3.1793542365889987e-001 -7.7849371257059360e-002
      -3.2033879074444216e-001 8.9300726728045357e-002
      -5.2828095354060370e-002 1.2363530745086214e-001
      -5.2719532112449228e-003 -3.1370461611428474e-001
      1.2654914495675007e-001 -1.1132670583848803e-001
      -3.0367939337070915e-001 6.0105658030087793e-002
      -5.7655811622379383e-001 1.3082355492952763e-001
      -1.2009475388328364e-001 3.0519998865406593e-002
      7.6357127000077407e-002 6.2129576225623935e-002
      -8.1872238088235197e-002 -1.0784421268043173e-001
      8.3235646756651863e-002 -1.7596922501733708e-001
      -1.8369967139063550e-001 -9.3777595076719608e-002
      1.0670290283384987e-001 -1.6654240852411434e-002
      1.0999691074528631e-001 -2.0788645689749908e-002
      7.9035296377310216e-002 -2.2271134068725254e-001
      2.8353343921236124e-001 5.4826658724135238e-002
      -1.8011303975708576e-001 8.0419991506577457e-002
      -5.3938557579675923e-002 2.8797904499142346e-001
      7.0581275387336731e-002 -6.6752036957289942e-002
      -7.9926514956134800e-002 -1.6939421621084455e-001
      9.0661847671603263e-002 1.2365053824715518e-001
      -7.6783820273617229e-002 1.0436591006064955e-001
      -4.0280113613693935e-001 6.6760529698944721e-002
      4.4799031846195006e-003 -1.0462899243446089e-001
      -2.3647649386314206e-002 -1.8115297499297975e-001
      -2.9795508336020154e-002 -7.5007132124606204e-002
      3.8255614210894150e-002 -8.4847108007927427e-002
      2.1490637009895019e-002 -2.4990180659315339e-002
      -1.4798705804917797e-001 1.1119896377664887e-001
      1.7637684761844072e-001 1.6506239161743511e-001
      -1.2238663776765765e-002 -2.3156838126189863e-002
      1.8938652874707326e-001 -3.7659992893283561e-002
      -1.7258778292948973e-001 1.1783984948188495e-001
      2.1878231458197308e-002 1.4243756752273909e-001
      6.3137824809095716e-002 2.9599889213669500e-003
      -8.9606599270257617e-002 -9.8011785881236598e-003
      3.4002685870848592e-002 1.5148704417342852e-002
      5.2244911820879335e-002 1.4068160565594315e-001
      9.0284979592181458e-001 1.0718818654885018e-001
      8.9156873406000758e-002 -1.2023459778961592e-002
      6.1275426889117274e-002 1.0162177715242500e-002
      3.7349067430311564e-002 -1.8133559415043736e-002
      1.3222186975978320e-001 9.7448455201553694e-002
      -9.9534060136726943e-002 -4.0057149323348570e-002
      7.6539429217995572e-002 -3.1088734316850625e-002
      -6.4352779124670217e-003 3.5276857617899934e-005
      6.4775554952514719e-002 1.6383617629213837e-002
      1.1358130161775873e-001 -1.4476325699546641e-001
      -1.0952639281016427e-001 2.5159041356661239e-002
      6.1408727760487607e-002 2.4102380347707172e-001
      6.6766863994478315e-002 -9.5138071935052856e-003
      7.6020769320661652e-002 1.9441583951180511e-002
      1.0431685708238937e-001 -6.2966506093864422e-002
      -2.2328001469479615e-002 -3.3602672537326829e-002
      -1.0046666191437861e-001 2.1350581810001373e-001
      1.6104026162571575e-001 -7.7169734087923950e-002
      2.0817482622268884e-002 -1.2930820291405903e-001
      -4.7202087440397882e-002 1.5420098344557376e-001
      1.3865982499931573e-001 6.6353610556926521e-003
      5.3345448361941050e-002 -3.4802911320310131e-001
      5.3876405158601107e-002 1.1748065224294930e-001
      -1.2020252893452640e-001 -1.0180913156711291e-001
      -1.8527366028445275e-001 8.0906112624060778e-002
      1.8147789735777389e-001 -3.8326025034910177e-001
      8.7043631151384998e-002 5.7657335499007499e-002
      2.7748945848135309e-001 4.7214468291565753e-001
      -1.5050762171875665e-001 -2.0759083915977453e-001
      2.0278008405956671e-001 -6.9122959797333336e-002
      1.8215062163866041e-001 1.2347683160421287e-002
      -5.1575629862494435e-002 -1.7927971433415568e-001
      4.3925531213955928e-003 2.3558440304588613e-001
      6.7800230938472275e-002 5.3331018490464219e-002
      1.6030159451414180e-001 -2.5777976236857601e-002
      -7.7418648474365220e-002 2.5808073952453364e-001
      2.6126348479136318e-002 -6.0061083191865788e-002
      2.0593559911422052e-001 -2.5152397860040143e-001
      1.5698333626419220e-002 8.2572004568666008e-002
      -2.1050592104697660e-001 -3.5176262344423709e-001
      -1.4859252583721752e-001 2.5178478642923691e-001
      1.4257997236334397e-001 -2.6652076755344872e-001
      5.0638614444699505e-002 -1.2778949193254672e-002
      2.7482779508111393e-001 2.3250800924268236e-001
      -1.1325553822190998e-001 -1.3724281852433523e-001
      1.9169382942941179e-001 -3.4013664040708512e-002
      1.2228222447512595e-001 1.8574656321101704e-001
      -9.5755689179737175e-002 -6.5938946152453951e-002
      -1.5609540235682842e+000 2.4684175652158341e-001
      -1.5664018723178480e-001 3.3737918606883126e-002
      2.4701102835798769e-001 7.6202407744252437e-002
      1.3726481395019793e-001 4.9937586359903857e-001
      -1.0925883643270949e-001 -2.2542189816610345e-001
      1.8918120611322192e-001 -1.9002758919348470e-001
      1.3699627865810607e-001 1.4637575234108655e-001
      -1.5811132522103150e-001 -2.7910085110469468e-001
      -5.7917615496181534e-003 1.5261490947776235e-001
      1.0038551150198560e-002 2.3359739303605406e-002
      6.9286392029278165e-002 5.5384785726572579e-002
      -6.0960428552910548e-002 3.3071122538838943e-001
      -5.4696053955453808e-002 -4.1708138706602997e-002
      2.0867039822663877e-001 -2.7670384603779508e-001
      1.9079906785016118e-001 6.4769098182593729e-002
      6.1393703742146939e-003 -1.5367104847668300e-001
      -4.1438420607863531e+000 1.2681887289256705e-001
      -2.0706935823942624e-001 3.9156236838779661e-002
      1.7499211133500431e-001 8.8274400516960047e-002
      1.4220487133864977e-002 6.2289325804562301e-001
      -2.4565566888893270e-001 -2.3828618887298733e-001
      9.2852060053692786e-002 5.8252490643224637e-002
      2.9723218854536153e-002 2.4968306228610437e-001
      -2.6292114327615700e-002 -1.0048121008501996e-001
      1.8170418789152651e-001 9.0690319036904998e-002
      -6.4331500569532643e-002 1.0421563542665518e-001
      9.4528495110868666e-002 4.9910809482416642e-002
      -8.2774473410369309e-002 1.9218446122226304e-001
      -6.0910750151383190e-002 1.7845013871692408e-001
      2.9053747415896947e-001 -4.0944592213847686e-001
      1.6182264708523519e-001 -1.7262300198083554e-002
      1.3367914666893441e-001 -1.1868291558308475e-001
      -2.4615850748147867e+000 1.7092188274874739e-002
      -1.9930442995504141e-001 1.3784901965380492e-001
      -1.1348619251401378e-002 9.0401861157247410e-002
      -6.1245988102394358e-002 6.2203061978716034e-001
      -2.1966346284628602e-001 -2.4145177551669061e-001
      1.0014250620460753e-001 6.3890034080811287e-002
      8.3069452596273366e-002 1.4451285925321869e-001
      -3.9380246575586048e-003 1.4975816450237944e-001
      3.0056886150671291e-001 1.7991011873982485e-001
      -2.5879784123428229e-001 1.3360291580370998e-001
      -1.7792531579294074e-001 4.0916105175912015e-002
      -8.1369918613947267e-002 -4.0032029424933606e-002
      2.5758869092831288e-002 1.0600232783766744e-001
      -1.9511864175851549e-002 -3.7235503733631259e-001
      2.7692493995908844e-002 8.0781017040388453e-003
      3.3835141726734887e-002 4.7393845408159607e-002
      -2.5110442724139084e+000 -1.5226026085796479e-001
      -5.7352650287229356e-002 1.2500265605486302e-001
      3.6745414733972491e-002 1.2464191162477674e-001
      -1.2597789596142756e-001 4.3106914824047698e-001
      -1.7511928885217398e-001 -1.0342040467066421e-001
      1.0531552547784395e-001 3.6067843796163818e-002
      1.1796056300601838e-001 5.0144814011620861e-004
      2.8207842098588104e-001 3.2088345556785591e-001
      1.8555173986737722e-001 1.5564488084558417e-001
      -1.7612133410519745e-001 9.1885416616004204e-002
      -2.6535216125195121e-001 -2.7443503015318227e-002
      -1.8328714928700346e-001 -1.0762875914515101e-001
      1.4460510981980671e-002 -1.1244708427528080e-001
      -2.8399341326906320e-003 -1.7568942476955365e-001
      8.7446512169326931e-002 -8.3574904296023794e-002
      -2.0988483032596103e-001 4.6695508248448550e-002
      -4.1834344118649902e+000 -2.0644845783481126e-002
      2.0163982266581401e-001 9.0110128855243055e-002
      -2.7124927593738073e-002 1.5394735578863922e-002
      -3.5009088194415561e-001 2.0169699722946088e-002
      -1.4984885625396829e-001 -2.3374402109680486e-002
      2.6273471989623093e-001 -2.0235876411067594e-001
      1.0176397467528350e-001 2.7803112127572367e-002
      1.9507326039175554e-001 3.0556148446663745e-001
      -1.3661549200790926e-001 9.3765791747410551e-002
      -1.3831992784440161e-001 -8.3888440335766284e-002
      -2.5181287730059421e-001 -2.7616533613297189e-002
      -5.3151248008237451e-001 6.5502657121729771e-002
      -1.4676583004220764e-001 -4.2926562538941704e-001
      -2.9615015874504210e-002 1.0967051267731179e-001
      2.0350475490047970e-001 9.6065459456094477e-003
      -5.3832075310580296e-001 1.2263072181632334e-001
      -3.3100561214241457e+000 -6.8684319302128372e-002
      7.2956753593104925e-002 2.8753221268165211e-002
      1.5366734466845849e-001 -8.0943792055018088e-002
      -5.6908241395519399e-001 -2.3273299724882007e-001
      1.4728946126276396e-001 -3.1438540601693356e-002
      1.2940512994889913e-001 -1.4916259996137285e-001
      8.5252147758178520e-002 -8.3810549106355631e-002
      2.6441693493004959e-001 4.7061553785231115e-002
      -7.9870393936443504e-002 8.6753585045032583e-002
      1.3302206344413733e-001 -4.8068254516741188e-001
      -1.3193398185273592e-001 -1.1074846815902462e-001
      -4.3748747472808414e-001 2.8309802935215439e-001
      -9.4271870858283494e-002 -5.1006536608665010e-001
      -7.6393684470263973e-003 -4.8211372560405114e-002
      2.0723890074842483e-001 1.0969549201951662e-001
      -6.3953950258218228e-001 9.4374357833354433e-002
      -1.0621535521329624e+000 9.7416241916632035e-002
      2.5197147969402645e-001 1.2457948013586960e-001
      2.1127639743573151e-001 -1.2331273237877032e-001
      -4.9837699568699800e-001 -1.6726488664874273e-001
      2.8882529763721205e-002 1.2719015240570539e-001
      7.6960388827306145e-002 -2.3974636396288224e-001
      7.2621281662703374e-002 -3.2710134364027553e-002
      7.3800782341050739e-002 -8.6545540766028842e-002
      -3.5013791635848884e-001 2.5522739810551515e-001
      2.1676283614715110e-002 -3.7387814293025479e-001
      -1.0329780920250448e-001 -2.0165581958397541e-001
      -3.6373469008467343e-002 1.4534040028896614e-001
      -2.5051884588429751e-001 -3.9955608280790489e-001
      1.0735020064754629e-001 4.7923100475563966e-002
      1.7097880494830484e-001 1.5387516717539160e-001
      -2.8366094992866192e-001 2.8004242297257902e-003
      3.1103408051279169e-001 2.3282366188709866e-002
      2.8817734620646918e-001 1.3805974882528757e-001
      3.1953176457378657e-001 -7.4392826571535564e-002
      -5.6280317485348985e-001 -1.5277433256494996e-001
      1.7604016918301321e-001 1.5448435109107475e-001
      3.1654837839329139e-002 -2.1351164004900780e-001
      1.2501387150417051e-002 -1.1691047315417137e-001
      1.1821450217940220e-001 7.1468182472988528e-002
      -3.5520679095315316e-001 2.9471838407452822e-001
      -4.1787341135779470e-002 -3.2270778148419160e-001
      -7.3434191789127454e-002 -2.6638637484146399e-001
      -3.8983391970172886e-002 2.3124459223620549e-002
      -2.5224925793202230e-001 -3.2972751986046134e-001
      -2.2713592629450618e-002 1.6512695540160582e-001
      1.8127508540785517e-001 1.4509229373663707e-001
      -2.3043901924720922e-001 3.3336475246061772e-002
      4.9142502531269033e-001 7.1400273360119323e-002
      3.0146885461081507e-001 2.5698120180085347e-002
      1.9167315870773077e-001 6.0825043432018722e-002
      -1.3791931180268718e-001 6.3295433009231378e-002
      4.7494299493005883e-002 2.0065314122703590e-001
      6.2628569090485461e-002 -7.9690506774243736e-003
      -1.2746733674983407e-002 2.3675009524266620e-002
      2.7119538056353011e-002 -1.5883232831866856e-001
      -6.5369894327646644e-002 2.5321299661926117e-001
      6.2638691094179218e-003 -1.8937794512767156e-001
      7.7068395566373571e-002 -3.0198626868399686e-001
      9.5967995696886285e-002 -2.7403420402181988e-003
      -2.1585348189747727e-001 1.1335485413803613e-001
      -4.5317301753084183e-002 -7.3806389870451669e-002
      2.3244121301148984e-002 6.1909638277312905e-002
      1.3187706499094301e-001 6.4296122574878267e-002
      -8.7110217134921453e-001 -1.9266902074433313e-002
      5.4366272876405948e-002 -1.2175757167990578e-001
      6.9870595656119985e-002 4.2120646249489073e-002
      3.3778584160193193e-003 1.7708300630442017e-001
      -1.5651172549555561e-001 1.6711643323088737e-001
      1.4113664368459999e-001 -1.0089015179401838e-003
      -5.6066775767257028e-002 7.5029102174893877e-002
      7.6566460506641010e-002 -4.5636369916660681e-003
      6.0974104230289268e-002 8.5219621210470081e-002
      -1.5614992344839154e-001 -3.7456936973167237e-002
      3.4531220581738398e-001 -1.0473866705130430e-001
      4.5446378807778652e-002 1.7086875834516856e-002
      -2.8820594330008796e-002 -1.4922207525242179e-001
      -2.6587291456657669e-001 -1.2303754780939398e-001
      3.2074677070167097e-002 6.2351001466148415e-002
      9.6061252357265467e-002 -4.6412310082267101e-003
      -6.0722599221189599e-001 6.2444184390373900e-002
      4.3719116872737501e-003 -1.1764722692028429e-001
      9.8043068626991095e-002 1.6311334318102746e-001
      9.8105881381176305e-003 1.8962149725771707e-001
      -6.2756738424193673e-002 3.9526051919659182e-002
      -1.2424938075628691e-001 7.2670623312830725e-003
      1.2196631594404138e-001 -3.8355619865191562e-003
      -4.0546669550168037e-002 7.1266214733553115e-002
      1.1681460025774136e-002 2.2122334088233810e-003
      -2.4991285907876540e-001 -1.7792894744633997e-001
      2.6249708367288510e-001 -9.0069530288832092e-002
      2.5419441175232567e-003 -1.4454136860199524e-002
      1.9260323969786386e-002 -2.1226091985121737e-001
      -1.2211617409807334e-001 -1.4713808707484137e-003
      -4.9505930373586492e-002 -4.8374365721525280e-002
      -3.3254681205640631e-002 -8.9596716242799107e-002
      -1.0713058178493704e+000 1.0675732574202552e-001
      4.5512513321366799e-002 -2.2930818776572940e-002
      1.5813143234779312e-001 2.3909340851622540e-001
      2.0931276941076840e-001 1.6093642963301588e-001
      -1.5877628971797622e-001 1.3849039723510451e-001
      -8.4130651411292182e-002 8.1636835041458307e-003
      2.3704359423925478e-001 -7.4926487560914148e-002
      -1.1988297907297465e-001 7.3767745372065166e-002
      6.4283611748199215e-002 6.5386195359997484e-002
      -1.0147494799871491e-001 -5.7690098802791234e-001
      1.1270142128515262e-001 -1.6924552123016928e-001
      -4.4862744032614178e-002 1.5634978364308405e-001
      7.7340099047616781e-002 -1.6412176522540070e-001
      -2.8491346328773124e-002 7.6230690797637862e-002
      -9.4596272813597185e-002 6.5911289223249764e-002
      -1.7736272169938244e-001 4.2164632506648918e-002
      -1.2509357571672022e+000 2.7146086510420020e-001
      2.9446800584944654e-002 -1.8832593952375090e-002
      -4.2707544633680788e-002 2.6173999817576173e-002
      1.9546847250148466e-001 5.5244065071221871e-001
      -3.4130688335815818e-001 1.5190608983391157e-001
      6.2685577051705604e-002 8.5811499738754057e-002
      3.9628551257449651e-001 -3.4893743700013091e-001
      -2.5648773355156129e-001 -2.0562527517252285e-001
      1.0798938081656055e-001 1.0867577348556527e-001
      -2.9481138150342315e-002 -6.8996081105262252e-001
      -5.3448752640491197e-002 -1.7034389611624701e-001
      2.6084668541030771e-002 2.1004180979707024e-001
      9.7019872208716079e-002 -3.7220289592697736e-001
      4.3824088230302705e-002 1.4597850609975477e-001
      3.5923607678727498e-001 -4.7332417483496858e-001
      1.3714588142390849e-001 -1.2259292806845082e-002
      -7.9941264868791329e-002 -9.4778412923549691e-003
      -7.9656425060149444e-002 1.6466803918934836e-001
      6.8807969005741529e-002 2.3095978729247307e-001
      -1.8045390080353929e-001 2.3263038860782484e-001
      1.3547109146103264e-001 -1.3802447558019779e-003
      -1.3862081676794530e-001 1.7028898436612705e-001
      -1.5670071538552374e-001 -1.9086499379030483e-001
      8.4525485509161169e-002 -9.0908553915045431e-002
      9.7477198946142332e-002 -1.5106338098348271e-001
      1.9104085249828792e-001 1.4965623718357657e-001
      -6.6736991578212432e-002 8.9689054060404006e-004
      5.4493650167983250e-002 -1.9135577626673514e-001
      -1.3628821957991039e-001 1.8429717501980913e-001
      6.4688123382494758e-002 -2.2782674263359906e-001
      1.9037175358747313e-001 -6.4431084697170779e-002
      -1.3924113797717774e-001 -2.5297559438194710e-002
      5.2911603827028264e-001 6.3739450466922627e-003
      3.2152443026698944e-002 1.9112629976047968e-001
      -5.4954165736989580e-002 1.1755101498942525e-001
      -1.2265969016901505e-001 5.6125889308652956e-002
      5.3238143601888582e-002 1.9058552561664385e-002
      -1.4552566047452714e-001 1.1219282320635657e-002
      -5.8700287640287853e-004 -1.5131215628462472e-001
      1.4648983436932009e-001 -9.3945502454011835e-003
      5.0274813906900029e-002 -1.0341103011427662e-001
      7.6962890433299583e-002 1.7520282562535228e-001
      -2.3671872522446027e-002 2.9541969638709351e-002
      1.8948706663392567e-001 -4.3357067337722571e-002
      -1.5775198598927428e-001 1.1820633861809125e-001
      2.4875910980598957e-002 -9.1936537103879543e-002
      -1.2833435707847887e-001 -3.3868593933984348e-001
      4.4316797553446925e-002 -5.0365443197415045e-002
      -1.0952800334500898e-001 3.1644809555725156e-002
      -1.0501365607568232e-001 9.2321599371840105e-002
      4.4124768490882420e-002 1.4083739663695324e-001
      1.4797998157758530e-001 -1.2185568544871195e-001
      -1.4407347324510825e-001 -6.5571876744438790e-002
      -2.0414393866937289e-001 -1.3974351515862404e-001
      1.5638735267974574e-001 6.1208128677771589e-003
      -1.3029299930581997e-001 6.3129182921517965e-002
      -7.5580067522292979e-003 -2.3443744005714143e-001
      -5.9040142927378664e-002 -5.8941320055128484e-002
      7.5128347162580045e-002 2.6137551057152954e-002
      -4.6113482377790053e-002 1.7567802964013959e-001
      1.5667581410284534e-001 9.0250566187063015e-003
      5.5075422469426462e-002 -5.8370879556128179e-002
      -2.5085177756067506e-001 -1.6952417138267578e-001
      -2.4433630809778073e-001 -1.1945088041730033e-003
      8.7182192274459877e-002 -7.5740541955239410e-003
      5.6562759727286513e-002 -3.4522538598958957e-002
      1.0335155981351060e-002 -1.3676428344918732e-002
      2.2183495061397351e-001 -4.4731299539266779e-002
      -8.5288659624906449e-002 -3.2847228437160259e-002
      1.3424973590491248e-002 -9.9490517792845179e-002
      -6.4121810785388741e-002 1.3313176583521821e-001
      6.4872704969031456e-002 1.1999431038406112e-001
      -8.1066110053213389e-002 2.4459909436284883e-004
      3.8125437124403042e-002 -1.2524540135235931e-001
      -8.4488897937886512e-002 5.2701601522103542e-002
      9.6555673754498625e-002 1.0244397974025120e-001
      1.1604757667634688e-001 -1.7517304839979780e-001
      9.9607002087078234e-002 7.2738743232820771e-002
      -1.3883185956668750e-001 -2.1425176422205125e-001
      -1.1664750585943491e-001 8.0597208033784007e-002
      -6.5302596871170093e-001 1.3153789119261294e-001
      1.0524270390438548e-001 4.5910303544855228e-003
      -1.6009845979222162e-001 -6.8135154185675117e-002
      2.5130649697928165e-001 3.1043525390200308e-002
      -7.2044606684808110e-002 -2.0591885459968866e-002
      -6.0319697857650354e-003 -1.8100212858004824e-001
      3.1209537632207025e-002 2.3830520151911480e-001
      1.1651745066523609e-002 2.4669126580981296e-001
      -8.8413126506510467e-002 -3.2720983069960928e-002
      -9.5985424973920541e-002 -1.3787382142559057e-001
      1.1484954494240089e-001 1.1541455100611663e-001
      1.9117541236798491e-001 3.8579846910402255e-001
      -6.6592946103246078e-002 -2.6145546424238819e-001
      2.9878878972631556e-001 -2.7456095352565617e-003
      -8.5601094385077903e-002 -5.9014100303859868e-002
      -9.2410776223973604e-002 -1.0627304097376656e-002
      -5.5284225680125965e-001 9.3990181783402349e-002
      8.6944701600919060e-003 -8.3202596656975783e-002
      -1.6901265307475494e-001 -3.8785767433926796e-002
      -2.4583871952039399e-001 1.1916110980467867e-001
      2.2866496002200623e-001 -8.1159467787271636e-002
      5.2198787805050766e-002 -7.8570442977864946e-002
      2.1525692527012526e-002 8.3769078089515461e-002
      4.6914894924932733e-002 -6.9714093992229970e-002
      3.0793445712184005e-002 -6.4407400586850849e-002
      8.2732336095984793e-002 -5.7874708307435754e-002
      -1.0081248528883148e-001 2.0280731424335274e-001
      4.0787685211358969e-002 4.5274155467978229e-002
      -2.6009974278572862e-001 7.1599506763562040e-002
      1.5463644052436445e-001 2.6266162331833112e-002
      9.4140031979123781e-002 -4.0379788687150649e-002
      1.6803149316477575e-001 -4.8475088538318285e-002
      -7.4110203952463161e-001 8.4369321950067994e-002
      -3.4939161043223664e-002 2.1787721395507352e-002
      1.6082323907700743e-002 -1.3141641791821279e-002
      -1.8202022986319691e-001 7.4839404293212966e-002
      5.6250008143248355e-002 -9.4313051606765883e-002
      9.3645516495990996e-002 -2.8883595677949059e-002
      3.0048959190739397e-002 3.5781640114721930e-002
      -1.0541184453302287e-001 -4.4252547076459411e-002
      -6.1080544203861442e-002 3.6841059610726049e-002
      4.1197579904291008e-002 -1.7203888953415516e-001
      -9.5718586410369538e-002 9.0930767293339654e-002
      -4.9982596578693070e-002 3.3425431958130296e-002
      -1.3743252039487988e-001 -1.9642410785994786e-002
      8.5830205536700233e-002 -5.6861268727647615e-002
      1.4602848271922345e-001 -3.0877964230549847e-002
      1.3234125076880432e-001 4.3044696533664772e-002
      -1.5534926757532010e+000 4.8694623893070589e-002
      -9.6749034718481355e-002 -3.8168538340184389e-002
      6.3367794624849844e-002 -3.2184334097331367e-002
      2.4746062317318143e-002 2.3746108984728689e-002
      -7.8426442939889029e-005 -3.4727370066120994e-003
      6.7205153613590723e-002 -1.9470904531672568e-002
      4.7614867511276476e-003 5.8667503336209258e-002
      -4.3944726016740439e-002 -2.7638534303247961e-002
      3.1636797528002726e-002 -1.3280918545135306e-001
      1.8687695589920281e-001 -7.5522384178619700e-002
      7.3817437994508045e-002 8.1272600421330568e-002
      -1.9281963035638275e-001 1.2447440844246579e-001
      9.7701147485304812e-002 -8.0170928792764176e-002
      -7.1390752155575232e-003 3.9630262208234457e-002
      1.1715170468023370e-001 3.8160226181466653e-002
      -5.5784131548058280e-002 -3.9212290651011707e-002
      -2.2229150649144920e+000 -3.8722688189355339e-003
      -9.6809827836134107e-002 7.3834148839970692e-002
      -3.1063704240710979e-003 -2.9054396904308371e-002
      -2.2970479957282561e-002 3.3018445865005103e-002
      -8.9462096873100028e-002 3.1760739327443638e-002
      2.2430168979234420e-002 8.0828992224728335e-002
      -1.2074776988153611e-001 -1.4840677302548877e-001
      -4.3741665048656439e-002 -1.3390941946134433e-001
      7.9122696198166517e-002 -7.4645877730819460e-002
      1.4064972737253426e-001 5.3835831060977980e-002
      1.6479700440615616e-001 5.4695770398709716e-002
      -1.6213297112934405e-001 5.4245625932571748e-002
      4.5293972285289974e-002 2.9095736968315994e-002
      3.1669291774494207e-002 1.3037480071456095e-001
      1.3220350844808295e-003 9.8919536652976037e-002
      -2.0015588480387744e-001 -6.0755230385232964e-002
      -3.2401858454099042e-001 -1.4643460886236934e-001
      -3.1155640309633605e-002 -3.1118831378494711e-002
      -9.4430331104603027e-002 1.7101846283070960e-003
      -8.4185168430028309e-002 1.0140780675721082e-001
      1.1148965685532460e-001 -1.9827565163656469e-002
      -4.9755009610089725e-002 1.0806987876909908e-001
      -4.0617430612390662e-002 -1.0607886680235970e-001
      -7.8445220388372403e-003 2.6806056709512735e-002
      2.0592628721841755e-001 1.7429753414498421e-002
      -1.2818502226209891e-001 1.4309428220256348e-001
      -4.1024392225456487e-002 7.5493770719468029e-002
      9.9788277703240516e-002 -3.0338101292152114e-001
      7.8345947522278372e-002 5.1445046317889168e-002
      -9.2568431155073516e-002 -4.8978587096602473e-002
      -5.6908945515672903e-002 -4.2299448806152565e-002
      4.3097528669017483e-002 1.6322196965514284e-002
      -4.4328789871057245e-001 -1.6168162156192342e-001
      -3.5537429104968217e-002 -1.6700798091428887e-001
      2.6959695876901207e-002 2.2041789580988937e-002
      -2.7086010057101616e-002 8.0281035703569148e-002
      1.2568137099436813e-001 -6.5083135684536983e-002
      -4.5812321925815011e-002 9.3244093655234672e-002
      -7.2020025941457899e-002 -2.4301317117652742e-003
      8.6687425906743915e-002 2.3109499534798730e-001
      1.6962485709493447e-001 5.1474758980816396e-002
      -1.1590784523245343e-001 1.8429360772727452e-001
      -1.4325783312038565e-001 7.2646881270303998e-002
      9.4420197122358177e-002 -2.7228050741905441e-001
      1.0229468717826609e-001 1.8249757990858088e-002
      -1.6831181591450786e-001 -1.8298964897592716e-002
      -5.2102646790755013e-002 -1.9089075341828389e-002
      9.7983697304124789e-002 1.2476413377236542e-001
      -2.0556384958364800e+000 8.6576672562153095e-002
      4.5697035949536481e-002 -2.2974384656296695e-002
      -3.4196404844036923e-002 -2.3246371205933994e-002
      -3.0426770063268081e-002 -4.9819177218316746e-002
      -5.2130605589485422e-002 1.0310142338714305e-001
      8.1587594223381063e-002 -1.1260011474323077e-001
      -3.8388345400483741e-002 3.8306109972390021e-002
      3.8203606995447559e-002 -1.6282171263779885e-002
      -6.1088270714854356e-002 -3.0589715940488534e-002
      3.3354398752096927e-002 1.4489784137024395e-001
      -7.3983353972250476e-002 2.1414667572908987e-003
      5.0426793363981273e-002 -4.2635956879528154e-002
      1.3932039357790835e-003 -8.2719826572741961e-002
      -5.3397938534782523e-002 3.0866027821603512e-002
      7.3191867148873241e-002 7.0045013121404348e-002
      -4.9805815712182851e-002 -6.7963491189468983e-002
      -7.3813156587617623e-001 7.2766626548601901e-002
      -9.6805182214252587e-004 -6.1936038355422232e-002
      9.6625900228342221e-002 -8.0351062068808494e-003
      1.5368091622498142e-001 -4.6065344017629066e-002
      -1.5015839980790591e-001 4.8533663345116468e-002
      -2.0779636350430793e-002 -1.2134080470125115e-001
      1.2841223171718313e-001 3.6924095058582735e-003
      4.4008802464819190e-002 -2.3047480616892650e-002
      -2.3810967398299850e-002 -4.0031290919762617e-002
      1.3561831845552061e-001 1.2976840405190900e-002
      -6.6309352565145363e-002 -7.7886625487004854e-002
      -3.1737238682545477e-001 2.2529695110663098e-001
      1.2940305164234303e-001 -2.7274889915241279e-001
      -1.4279838457892899e-001 -2.7560364728638903e-002
      6.3120270853691596e-002 1.6202262767796502e-002
      -1.4676176597098475e-001 -2.4582105479562220e-002
      5.7071972174917780e-002 -1.4235477255794039e-002
      3.5131796378654268e-002 1.1305617542737521e-001
      1.2592138841589001e-001 -1.4097947304540521e-002
      -1.0316897565850319e-001 2.3613604911685918e-002
      1.2973064594005383e-003 -3.8785857672195079e-003
      -1.2970591637755496e-001 -1.4917901149941107e-002
      8.2531329131279821e-002 -1.1160868900558857e-001
      2.9337198491979299e-002 5.3647502495322401e-003
      -1.1424530963123836e-001 7.4465709684324505e-002
      -1.6605218660501870e-002 1.2152207400267845e-001
      -1.0301201264117600e-001 -1.3629637591428886e-001
      -3.6084731327619503e-002 -9.5941890407706634e-002
      -1.8271001384404101e-001 -8.4495653185753000e-002
      -1.0748003388892305e-001 1.7481439012655708e-002
      8.6548035217043892e-002 -2.1464670282368530e-002
      1.2672963111060329e-001 6.6647875651225652e-002
      -1.0160973825170226e-001 -2.7901205606094708e-002
      8.2480467527414003e-002 -2.3240319787907453e-003
      1.3141411788758212e-001 9.7828536477945465e-004
      -2.2602322736905354e-002 -1.7802368995447165e-001
      2.1444717758859425e-002 2.0437382802518150e-002
      -1.4286709564943767e-001 -3.7690781852255025e-004
      1.0809450866965109e-001 9.0481698516672981e-002
      4.0724423288934268e-002 -1.8554481585857763e-002
      -2.8593988656720848e-001 9.1739410965487642e-002
      -1.2107704932088095e-002 3.3395197140428434e-002
      6.5702017480227682e-003 -1.5231758779271715e-001
      3.1675088781399047e-002 -1.4178753024080543e-001
      -3.5594915242983395e-002 1.5248752126443235e-001
      3.7155458582831188e-002 -8.4438821793416080e-002
      -4.9936881277391716e-002 -4.0826977222829949e-002
      7.5439100441906354e-002 2.9460654401886228e-002
      4.0369059421809189e-001 4.8271374498149014e-002
      3.5188228324026760e-001 2.8189265795855206e-002
      -7.4345958254513164e-002 -1.6991271334543282e-003
      8.8228731887423917e-002 4.3901957184737023e-002
      -9.1645310505186109e-002 4.6970490872627120e-002
      1.1827384995330149e-001 -5.7215899140952070e-002
      -3.8848142389792346e-002 9.9811937389405775e-002
      1.1271481757184827e-001 1.4262912215714230e-001
      -1.9832396181569523e-001 1.9286504786521269e-001
      -1.3932105664493979e-001 5.2152518731603578e-002
      1.3341062470659878e-001 -1.2258606225107908e-001
      -4.7334539769115280e-002 1.6234757298204974e-001
      -1.1131378564601259e-001 7.2232533641625879e-003
      8.3391693337780237e-002 -2.0630354597998757e-001
      -3.8780173485967900e-001 -1.5909279172746058e-001
      -1.3730734369414133e-002 4.4343132058913631e-002
      7.6808316135275145e-001 -4.1152885299846655e-003
      2.1953677411394801e-001 2.6022717818813965e-002
      4.1189969452946958e-002 8.2875713194235853e-002
      7.3062997541369946e-003 1.1004059770568485e-001
      -3.9629248765417298e-002 4.8552979886407194e-002
      -1.4061587858269591e-002 -5.9056653492879335e-002
      -3.6958107852075747e-002 -1.6194582605924532e-001
      -3.5541779262744634e-002 7.9079613959599695e-003
      -1.4067950100257573e-001 1.0837844091146524e-001
      -6.2207274528700750e-002 7.3215057677690036e-003
      1.3214789710765010e-001 -7.3324264250218957e-002
      2.3448991872142215e-002 7.3534092844490334e-002
      -4.0311508584645007e-003 -1.0758101112100772e-001
      5.8836120381105576e-002 6.2977914449023745e-002
      -1.9471305978973846e-001 -1.0800308564267182e-001
      -9.6217955490959378e-002 1.2243839727935106e-001
      -3.6604389921801451e-003 3.3473010541927903e-002
      -4.7150091686082175e-002 7.3817153609129535e-002
      -1.8794619619006914e-002 1.5573839389204658e-001
      -9.1549956309639122e-002 1.3189372225353221e-001
      4.0886956842965200e-002 -6.1782867640721953e-002
      -1.0689895341315837e-001 4.1832947036842243e-003
      2.8958638008860960e-001 -2.3775342250949377e-001
      -1.8679735987875160e-001 -2.4062964175796603e-001
      1.1126921730272799e-001 -3.5687504043207030e-002
      5.3189079094894624e-003 -5.2777556673694007e-002
      6.9588876065213842e-002 -9.9511460226329729e-002
      -1.6704041144485471e-001 1.6641496365229441e-001
      -6.2559224010681369e-002 1.9424172458190880e-001
      1.2570113369463731e-001 -1.9134488717043423e-002
      -4.3803482505390394e-002 -5.3472603403935816e-002
      -1.4718923323336866e-001 -7.1182751141574727e-002
      -8.3290933910546794e-001 -5.1709678658791169e-003
      4.7309349430497527e-002 -1.3379895010383966e-001
      -5.3880149527416828e-002 8.8125163547839655e-002
      -1.4838904132947237e-001 -2.7770098404073223e-002
      -1.9647886574627396e-001 4.8051179597955518e-002
      -2.0468195995624511e-002 1.0477582264905896e-001
      1.4464228163090845e-001 -5.4618331240588222e-002
      -1.3121128464411294e-001 2.2805416453189944e-001
      9.7605976348545828e-002 8.6910084816059469e-002
      7.3295876374045374e-002 -2.1605236932248287e-001
      2.2363417118449924e-001 -1.6230931429415701e-002
      -1.2668351930423960e-001 3.6756208710841558e-002
      1.1501069648407493e-001 5.6114725805634966e-002
      -3.3422726720029577e-002 2.9339957560449033e-003
      -1.2468494952945409e-001 -1.5011321279696865e-001
      3.6477597626219885e-003 8.2599847121857445e-002
      -6.6592796581666991e-001 1.2963997817395162e-001
      -4.4105459739441313e-002 -4.7900292701170750e-002
      -1.4133235541710865e-001 3.1936669830818672e-002
      -1.1327075399791119e-001 7.6134882597898579e-002
      -6.1161416102147113e-002 -1.9751784418506800e-002
      4.0292933284923295e-003 -7.0290346021507121e-003
      2.0197448749278948e-001 -2.0338063402952494e-001
      -9.2552711035005633e-002 -2.8452807914706849e-002
      1.0896333222236845e-001 -4.1350815324305269e-002
      9.1321048155511966e-002 -2.4860319954300086e-001
      -7.6209903635089003e-003 -1.6575737513675717e-002
      -2.3398691857386505e-001 -9.6399189155485579e-002
      1.1979699462569826e-001 1.2142348970942537e-002
      -4.8856687786147268e-002 -1.0917238091549427e-002
      7.2206564397057499e-002 -5.9674856934585352e-003
      -1.0919743169813778e-002 1.0518928902042901e-001
      6.4638318634529901e-001 -1.2961389373441942e-001
      -7.9781850897679307e-002 1.3269804303931226e-001
      -2.9512072758152975e-002 1.7702664801637619e-001
      -1.2935380629388438e-001 1.3435152606185044e-003
      -5.3175730518974479e-002 -2.3116964548554969e-002
      -1.2270302356053867e-001 3.3489643751708653e-002
      1.7193468679739690e-001 -1.7884692663645160e-002
      -6.2518920135432809e-002 -4.6606313444257787e-002
      1.1102756424200708e-001 3.7861560022553020e-004
      -1.1198179904835058e-001 1.0225459505367988e-001
      1.7844579903800040e-001 3.7796075338521508e-002
      -2.2419463673190942e-001 1.5518933040171398e-001
      -6.3188180580625405e-002 2.8460434660430172e-002
      8.1956403031729866e-002 -2.5772981619274151e-003
      5.3729750200856685e-002 -8.3431922130692171e-002
      -5.0801962275952774e-002 -7.4501827948644588e-004
      7.0878431249346940e-001 -2.4836398572054449e-001
      -7.6938251738360844e-002 1.3472012444024520e-001
      -3.5613721055254358e-002 2.4627449171677887e-001
      -5.8838696393395194e-002 -1.1051961980135491e-002
      9.3788090258849918e-002 -2.0907624773954636e-002
      -2.4512179916641261e-001 -6.2558923934739705e-002
      2.1768021611289084e-002 -1.3358552157540696e-001
      -1.1966085029694613e-002 6.5604352536335836e-003
      3.5748351297783060e-002 -1.3126338593403777e-001
      -2.0326135216850388e-001 1.3003475326579250e-001
      6.6444651450998496e-002 1.1835097021832787e-002
      -5.2374308391015312e-002 1.3592475026564582e-001
      -1.6678978730706503e-002 7.9249900144998484e-002
      3.0535569468987209e-002 4.3205651999125343e-002
      -7.8357468443702755e-002 -2.3354217898797677e-001
      -2.7375108177351215e-001 -1.5674217778831276e-001
      -8.4813548920627035e-002 -2.4174909776077716e-001
      1.9323194905485182e-002 6.0636456561528843e-002
      -6.8780971665203097e-002 2.5904843063820959e-001
      7.3345982398627566e-002 -1.5418364761906764e-001
      -7.2249029635972822e-002 7.5644044075401803e-002
      -1.4090682824798634e-001 -1.2481357186802168e-001
      7.4167152103440742e-002 1.3237464063045693e-002
      -4.5196824216013912e-002 1.9466148377095849e-001
      -2.4802711401972702e-001 -1.7811569723675438e-001
      -3.3393815854697773e-001 1.8831159870003558e-001
      1.8566007493662443e-001 7.4453671483289047e-002
      -1.3268340622731475e-001 1.3976572946608451e-001
      1.9619475510156381e-001 -9.7008546438617657e-002
      1.0052225112354907e-001 5.6787558328461260e-002
      -4.0064719402792320e-001 -2.1692472422913442e-001
      -1.3330262006980242e-001 -1.1419219572655941e-001
      1.6899643811415102e-001 -1.6967665201186025e-001
      7.7314985446960055e-002 -9.7330402828227053e-002
      1.3474600607107728e-001 -4.9644531712574446e-003
      1.3704613544755448e-002 -1.4287780182735998e-001
      -1.8777618010879288e-001 7.8450877877861563e-003
      5.6740613978486017e-002 4.1940558643839984e-002
      -7.8738954217267995e-002 3.5745125061780590e-002
      5.8819706427734569e-002 9.4396272415364080e-002
      -6.3037216850744912e-002 -3.1295582386652462e-002
      -2.5959212990848879e-001 -1.0532764437885553e-001
      1.0917280868495964e-001 5.5025390930927370e-002
      -3.8175533674250986e-002 1.4930943666650818e-002
      8.2466423594600383e-003 -1.3392584312958400e-001
      1.4241170984591939e-001 5.3080425957675599e-002
      -2.7011167227129218e-001 3.1885679148822767e-002
      1.1229572162949009e-001 3.9217463521186637e-002
      1.1299924327090265e+000 -4.4719543812383335e-002
      -4.7805529095914963e-002 -4.6369827800969987e-002
      -3.5436624687855543e-002 6.9075091440328846e-003
      -9.3419549096223492e-002 -3.8545850889785467e-002
      1.2934815787996187e-001 -7.3334940279262434e-002
      -7.5396162648871334e-002 -1.5971294609017523e-004
      8.4012227173433290e-002 1.1127487782084076e-002
      1.5420203542622615e-001 5.8643863178360102e-002
      8.3326418557380932e-002 -4.3912149700745161e-002
      -1.8386669487354265e-001 3.0342688516630290e-002
      -6.7249722102421472e-002 4.5880967722980753e-002
      -3.8734099194329144e-002 -1.9645151906502602e-002
      6.1430158228564999e-002 -5.6617145964075299e-002
      1.3621691093358304e-001 4.3889227870864092e-002
      -8.8336443849714064e-002 -1.2681806435121507e-001
      -1.5048549837344835e-003 4.0614038463918929e-002
      1.1051866986286325e+000 1.7408587764834216e-001
      1.1516266284745162e-001 -4.9407036036793466e-002
      -4.3401305379791519e-002 4.4426048917282357e-002
      -6.3824018358635357e-003 -4.4963273053693457e-002
      -1.5303178050120403e-001 -1.8916131728005554e-002
      6.6135821150005450e-002 -7.9064370017688373e-002
      -6.5698568861249515e-002 -3.7795317578507966e-002
      -4.1697400798431719e-002 -1.0749105541430970e-001
      -3.5440920833173573e-002 6.0811028230818652e-002
      2.1339559042338946e-001 -7.1660474916997216e-002
      -2.8586952976074116e-002 8.2458247738014995e-002
      -2.5352546750096783e-002 -4.7477388364024924e-002
      5.2198892350642741e-002 -8.6329161061014011e-003
      5.5971578258528908e-002 1.6807859788318913e-001
      3.0680708772748640e-002 -6.2010943442160828e-002
      7.9298590531440491e-002 3.9259308385172213e-002
      2.0899518405102904e-001 3.6922884031659657e-002
      2.7286279780453372e-002 2.2348469207711736e-002
      -1.8349207110418684e-002 7.9537014840108652e-002
      -1.3537876672595139e-001 4.0254917195774155e-002
      4.9580522697309976e-002 7.6934959722320825e-002
      2.4254068038029503e-002 3.1549733006011813e-002
      -8.9911240051204905e-002 -5.0478798988743009e-002
      -3.8537351420443511e-002 -4.2435149975437597e-002
      -8.6687836291985648e-002 5.9201029983857498e-002
      8.0423867493841505e-002 -1.1345271844410788e-001
      -8.7292741642645846e-002 5.6205148182280708e-002
      7.9602352020774758e-002 1.3676619777392381e-002
      -2.7716497578671392e-002 6.2103470406933712e-003
      -3.1061495834240584e-002 3.0195967454890829e-004
      2.5222113493802689e-001 -1.6714925990757013e-002
      9.5200181155119488e-003 3.4524702302811253e-004
      -1.8043998340178504e+000 8.7222507890680461e-003
      -1.3051081864787478e-001 7.3841781035005202e-002
      8.9223065121625672e-003 -2.8770214867220706e-003
      5.2084566791014086e-002 5.5760211852401424e-002
      3.5533218323773604e-002 3.4078231811953914e-002
      2.7933555317126321e-002 1.0532228169610519e-003
      -4.6449288908317024e-002 8.7836909760837054e-003
      4.8088432167909152e-002 9.5367511463390620e-002
      1.0572350288931279e-001 -2.1878272806298099e-001
      1.3603379410944330e-001 -8.4570831360965909e-002
      2.8828682165657749e-002 5.4822041964641820e-002
      -6.7027304095457971e-002 2.3819000383511871e-002
      1.8392441375551429e-002 -1.1571691108351662e-001
      -5.4781570233496946e-002 -5.6627283830579994e-002
      3.2618336086393240e-001 -2.5735387682362717e-002
      -3.6764990278921411e-002 -4.2490981202511199e-002
      -1.3604094603511536e+000 -2.2313645762638383e-002
      4.6363801469308984e-002 -1.1632390125321013e-002
      -6.1654080176297532e-002 5.8880730083652431e-002
      -1.1628762731415915e-001 6.4512972790396070e-002
      -1.1898362011675565e-001 1.0632799059526658e-001
      4.8406422288595138e-002 6.9880751452894754e-002
      -1.1163106550885528e-001 -6.1620082308273351e-002
      8.6865574003260060e-003 -1.9508926638748175e-002
      4.1277182275053621e-002 -1.5863092038875631e-002
      7.2880713617683168e-002 8.5644274269196005e-002
      1.1414691936995759e-001 1.8334922473002876e-002
      3.2888572769520945e-002 -4.2866216113453683e-002
      -1.9534490792808255e-002 1.2626917630750795e-001
      -5.9723521511249295e-002 6.6377228520740683e-002
      6.3475095954956831e-002 -9.0330654587105833e-003
      -5.8011799992381454e-003 -2.1150871218351451e-003
      1.3869555644513782e+000 -2.0618707201026512e-001
      2.6335656834652461e-002 -7.6105777255234222e-002
      -5.1695511773522676e-002 3.7947553094792467e-002
      -7.4523955195424124e-002 1.2499960149635195e-001
      1.7277795998131634e-001 7.5660377037191931e-002
      -4.4546707097424393e-002 -4.6992868675076543e-002
      8.2313306534079495e-003 -4.1718348567962353e-002
      4.6772487603244969e-002 2.7942281359976629e-003
      1.3970216553031126e-001 4.2491892122803195e-002
      7.4043214652866104e-002 5.3735523329911918e-002
      6.5416827495283880e-002 4.9186049557084749e-002
      1.6394017203415800e-001 -9.6979626409914657e-002
      2.3652568403200461e-002 9.6476765440729834e-002
      6.0303202033864800e-003 -8.0705106169108365e-002
      -2.3492024840044770e-002 -1.3114501540092824e-001
      -5.8555198908514426e-002 -2.7616610495905570e-002
      1.3126231528555676e+000 -2.1772548503356001e-001
      3.2377225577275202e-003 -5.6433135922588772e-002
      -3.7960460650646698e-002 3.5187033143114069e-002
      -6.3341149210921280e-002 8.8036768930582390e-002
      1.8390321885901667e-001 8.3291851445686821e-002
      2.4520435834203117e-003 -1.9830703639120678e-002
      2.5921727232849991e-002 2.1151706645045898e-002
      3.4307516721077208e-002 3.7131342853111642e-002
      1.5360882342047241e-001 4.8238684197357821e-002
      -4.7970370739449852e-003 7.1219320035685291e-002
      -4.8956300732253689e-002 4.0503137720031640e-002
      1.5987288838581859e-001 -1.0540883497340264e-001
      6.1489803117166286e-002 7.2024739460159568e-002
      -1.8187733378293415e-002 -8.1188823780989447e-002
      -3.1708178688957284e-002 -1.1476913072013095e-001
      -4.1560103547507068e-002 -2.3142139044497266e-002
      -1.2335390247064888e-001 6.4337016064729899e-002
      5.2124380427424108e-002 1.6939257495416957e-002
      7.4592693514151820e-002 7.3244265997127522e-002
      -4.2905896277832367e-002 4.8164450491111892e-002
      -1.5622123847941433e-001 7.1088134702640582e-002
      -1.6089905503597863e-002 6.2210874629577584e-002
      3.5399457843968619e-002 3.3261749845351220e-002
      6.6783064137456681e-003 -1.4724534140589161e-003
      -4.2420222302290769e-002 1.7206133728051274e-002
      -4.1910663845736509e-002 2.7470260823897124e-002
      -5.2481032746308817e-002 -4.3386507544557328e-002
      -2.8464317471864200e-002 8.6645868464652456e-002
      3.5677522259311659e-002 -2.7535774559479583e-002
      1.8506056345421025e-002 1.4443828566625237e-002
      2.3659656971710748e-002 -4.1438883350460545e-002
      -1.2650988209469782e-002 -3.3266576389286054e-002
      -8.7609262662938114e-002 -9.8483273825983337e-003
      -1.2838563203475328e-002 -1.3533385896217167e-002
      9.2791801615180150e-002 2.1472723048556665e-002
      8.1981027048117328e-002 -2.7900348680710736e-002
      -1.0148070839689803e-001 -5.9506335121096456e-004
      -6.8387292578343611e-002 4.0844011270776290e-002
      1.6825759621914360e-001 1.2592761445949319e-001
      -1.2341038708266082e-001 9.0699261807396819e-002
      -1.1771318495259996e-001 -4.8133992683235302e-002
      -7.7032261900264493e-002 -8.4710040979939935e-002
      1.5793613327059031e-002 -9.9744463014864226e-002
      -1.6882509035957011e-001 1.7236608095466080e-002
      4.5953400796608854e-002 -1.3657310827329733e-001
      -1.6804768640832776e-001 -3.6618708034882305e-002
      4.9797179907567719e-002 -6.5259316944861053e-003
      2.6026980330584773e-002 -1.8228614148333867e-002
      3.9056424102776988e-001 6.3218815983349330e-002
      -7.4939564089768276e-002 -4.5588709097964482e-002
      1.5586400137389719e-001 -1.0121107254643254e-003
      -4.3938974049923175e-002 -9.9128559056229720e-002
      7.0252299945972582e-002 -4.0684594210375687e-002
      -1.3625105604013651e-001 4.8482903375371362e-003
      5.8200006595612004e-003 1.1575778852630196e-001
      -5.4509003088678509e-002 1.0093047569847434e-001
      5.6999825691052108e-002 -4.2201739689989144e-002
      5.8329075214651430e-002 5.5124519421391717e-002
      9.5642852868330783e-002 -9.4792644758956601e-002
      -1.7492238858656445e-001 6.0379192079888878e-002
      -9.9829577805556707e-002 -9.2476169574813499e-002
      -1.1440364560044831e-001 -3.1372221276326294e-002
      -3.4330629992321469e-002 2.7389305890780487e-002
      9.4113050138910914e-003 -6.3546383863282907e-003
      4.9206894635918447e-001 -5.0368686717491909e-003
      1.1254144438735359e-002 6.1100437915792470e-002
      6.9419114199429213e-002 -3.8219847353489690e-002
      -8.3287777042344496e-002 -4.6849679742632898e-002
      -3.5651204042697053e-002 4.3769378916111386e-002
      -6.9791649601400593e-002 2.5636399802026543e-002
      8.2624177795834072e-002 -8.7533330906075402e-002
      9.0271387867884703e-002 1.4104808574245316e-002
      -6.0381622988642233e-002 6.1556188519501689e-002
      7.7495256016738442e-002 1.7356772477441101e-001
      8.4537249342837378e-002 -1.1591810088019856e-001
      -7.4345084141388806e-003 5.7198693264895982e-002
      -1.3762019072763079e-001 -4.2488240194506850e-003
      -1.0983221920766138e-002 -1.8834946386675933e-002
      -5.7874172940731591e-002 1.5389917506514041e-003
      6.5335337783989034e-002 5.9818257050957946e-002
      4.0695225683700514e-001 -1.1799725127068068e-001
      1.3550468583565356e-001 3.1247693820787126e-002
      5.6844505371207187e-002 -5.1147326316470766e-002
      -1.7186735267134873e-001 2.9687869752275226e-001
      -5.2614130695474895e-002 2.8024897165979121e-003
      2.8201610638754586e-002 6.8150476729166284e-002
      1.0583845952012150e-001 1.1340051449351688e-002
      1.6986154479443688e-001 -5.5661857866879036e-002
      -2.2829953948419142e-002 1.5457888624428845e-001
      -3.6323408831413710e-002 2.5720651122236704e-001
      -9.0358954454774307e-002 -8.9172031644952368e-002
      2.1146646208491965e-002 1.3996424636343196e-002
      -6.8188756581961399e-002 7.7066168620205017e-002
      -3.7103182673893127e-003 -7.0150585817421396e-002
      -1.6756275879062688e-001 -1.4004424346560279e-001
      2.0748330309598448e-001 9.5566626246900627e-002
      -6.0157322013624692e-001 -9.7440328883823576e-002
      1.8539373664167449e-001 -6.4848490674639632e-003
      6.3429465370749172e-002 7.9191802623495150e-002
      -2.1456335985659258e-001 7.8071429752635271e-002
      -1.5528410361716374e-001 -5.6884217258812583e-002
      2.1315224127465696e-001 5.7532710887326276e-002
      -8.0425030356274952e-003 7.1211069886822853e-002
      1.0272471889418266e-001 8.6184347497521283e-002
      -1.0977157884739515e-001 -2.2879571741147124e-002
      -1.5421368188590109e-001 2.3510116043404508e-001
      -4.0475970181279401e-002 6.7018367578701013e-002
      1.2117739733862755e-001 5.0564784319218681e-002
      -4.1120078287263759e-002 8.1987904297961545e-002
      7.9947167655055593e-002 -6.6990724036854854e-002
      -7.2669810681261229e-002 -7.4216928592172202e-002
      3.2285239912156977e-001 1.1963941307224697e-001
      -1.7595201419258821e+000 -4.5358755380935874e-002
      2.1844940958479334e-001 6.3977031693332517e-003
      1.1157616608189574e-002 7.2838130096249384e-002
      -3.2652409081589168e-001 1.1843359412863183e-001
      -1.0813646934404067e-001 -5.7368933554268482e-002
      -6.2065320960846118e-002 1.5573903001284289e-001
      2.7659373494035716e-001 4.9912760629420704e-002
      -4.7472859531574492e-002 5.3767466593559021e-002
      1.8416925482815594e-001 -1.3241370460648641e-001
      -2.4984229152075885e-001 1.3828451182747317e-001
      -1.9612820922142915e-001 8.7587430932829405e-002
      1.1775429801260810e-001 1.8009321650807317e-001
      -1.3271264033569916e-001 1.4527030255092666e-001
      1.6136067869659068e-001 -1.3286269011829996e-001
      1.9363459772774240e-002 -8.6971093864046028e-002
      2.2274110819005893e-001 1.1262500146929566e-001
      -1.4029902313599862e-001 1.2728153180555177e-002
      8.3644171541125245e-002 1.2540590403266452e-001
      -1.0622220066797951e-001 1.1178213970543209e-001
      -2.8824939646308878e-001 -3.8943864160685446e-002
      -1.0147333212721916e-002 -6.2075328815759737e-002
      -7.2115257715007194e-002 1.4441735219555293e-001
      3.0483715402531922e-002 -1.2731510510287294e-001
      -2.1751145923428686e-001 1.5290520610762318e-001
      1.4613022257719480e-001 -1.0772753863211913e-002
      2.3400461047127070e-002 4.2748478455968492e-002
      -1.8210630263121572e-001 1.0986048980584770e-002
      -2.8613779324108794e-002 -1.1102618991767897e-001
      1.3780216262614234e-001 1.4665624569581123e-001
      2.3780695345057928e-001 3.2017081428969751e-002
      -1.9104777972881662e-001 1.3827254898495822e-001
      2.1181813265592722e-002 9.5088144005849112e-002
      -3.9617911161606462e-001 -3.9451973819511175e-002
      2.2793274962657088e-002 5.2338311836428279e-002
      6.9300998103400208e-002 1.9861372440462552e-001
      -8.9595626289954072e-002 -5.6904528001618458e-002
      6.4089705481054318e-002 -7.1840628205731671e-002
      -1.4177652162985499e-001 -4.0361863439941560e-002
      1.9310922744895859e-001 7.1952618720967698e-002
      3.3625665305463681e-002 -5.0991177783554546e-002
      9.3141589254328458e-002 -3.7425106537470984e-002
      9.1753038159053862e-002 -7.3322937706231869e-002
      -1.0439774507119473e-001 1.7340654219118790e-002
      -1.9267172280136408e-001 -5.2069056917026325e-002
      8.8291149492038590e-002 -5.2461938813448246e-002
      4.2771527625377705e-002 1.0371067174959310e-001
      -3.2238768253844009e-002 6.2583205100466166e-002
      -3.7990425268941606e-002 8.6471427936118769e-002
      6.3856121453204029e-001 -1.1453872437767229e-001
      2.6590642983042638e-002 5.2159515801770582e-003
      -6.2217046041162499e-003 -7.3181062540467579e-002
      -1.1374618782306507e-001 2.7243374845476117e-002
      -1.7659290795703395e-001 3.1811041956663046e-002
      -1.1282581021219169e-001 -3.0083838657706117e-002
      -1.4841603080544897e-002 -1.0870998469412402e-001
      1.0762407381342812e-001 2.2807697594951309e-002
      1.5820902663368139e-001 3.4944322072542527e-002
      -7.2390091983732030e-002 5.5545424063876685e-002
      -4.8773689081138194e-003 -4.1195143540236095e-002
      4.0119090975858800e-002 -4.7524977607303186e-003
      -1.3995769523962104e-001 6.5580929310330230e-002
      1.3277153691564958e-002 9.4332927928781812e-002
      4.0585305495555148e-002 1.1321330200535498e-001
      3.8647557738978822e-002 -2.4920039603773755e-002
      3.9124764855054101e-001 -2.8970526941800828e-001
      -9.9549253981037825e-002 1.5772839390008734e-002
      2.2719970885915101e-002 1.0789044383517185e-001
      -1.2503710298289228e-001 -1.6489178039337887e-001
      1.1466201018017058e-001 9.2264458100308894e-003
      -2.0656897230717500e-001 -6.5213207195123787e-002
      -1.0879867518052169e-001 -2.3219241078648081e-001
      6.3685418596553340e-003 4.9238760293060575e-002
      -1.4598016686504389e-001 2.1717771467338793e-002
      -2.0102019454776521e-001 -4.9629035598527771e-002
      3.0016363726810050e-002 -7.5791048807513847e-002
      6.8937767550606988e-002 6.9862309993357810e-002
      -5.9765561316732886e-004 -5.7954346120045484e-002
      4.7268177085665948e-002 1.4580144256077868e-001
      -1.2127391032718274e-001 -1.4953794728289468e-001
      -4.1908660153323590e-001 -2.3285560473178551e-001
      -1.0105510493298537e+000 -1.9414733493488223e-001
      -5.1521733821202585e-002 2.4793376621883283e-002
      5.9374144984581404e-003 -9.1855662242757624e-002
      -1.0798884407819942e-001 -1.4718909547224568e-001
      -2.3743997424855104e-001 4.3700381800017951e-002
      2.4985947420894879e-002 -1.1836687943695010e-001
      -2.7445697862676449e-001 -1.0095768961500647e-001
      1.6927953654939668e-001 -2.0599169984801356e-002
      -2.0452702295582750e-001 -2.7861427453162252e-002
      -2.2637680708798605e-001 1.1777281263111881e-001
      2.3580516092291393e-001 -2.7836824818393280e-002
      1.6026348014523062e-001 -9.3084738118505265e-004
      8.7301345539658959e-002 -1.4818680308125839e-001
      -6.3425915787848203e-002 4.4004175548019282e-002
      -3.3352443397968695e-001 -1.3364828573568513e-001
      -7.6289483245350051e-002 -9.7810471164864313e-002
      -5.2420502236525557e-001 -7.7330358093631608e-003
      -5.9005250232981206e-002 4.3067457564829978e-002
      1.4263901793305953e-001 -8.1730511776875486e-002
      -5.9648632630123280e-002 -1.1392310376100542e-001
      -2.8063772166340394e-002 -3.2154052676224322e-002
      5.2301728631741512e-002 -6.8803245873560348e-002
      5.4133439006800288e-002 8.2016135767781592e-002
      1.5606899229475004e-002 6.3285232698846269e-002
      -1.7548053211484288e-001 7.4431777579660310e-002
      -2.1462366596622312e-001 -6.0687489655610917e-002
      2.9982287006599279e-001 9.9996637270513514e-002
      3.0012461905335939e-002 -1.2755923550730791e-002
      5.8945236298075625e-002 -8.6771903038650483e-002
      -7.8496966508757204e-002 4.3386832530579386e-002
      -1.4528609894405209e-001 -2.7094511953188530e-002
      4.7773468514371330e-002 7.4865263081360474e-004
      -5.5998337489368288e-001 -3.7834200500799026e-002
      -4.0767477085091680e-002 -9.7198162873204713e-004
      6.2994851878249974e-003 -1.8388901215068615e-002
      -1.2545363279907798e-001 -2.6951813127050812e-002
      7.7130132923729422e-003 -6.4169390946346522e-002
      -4.1294866569867049e-002 -2.2037882476940059e-002
      -1.0252145498073933e-001 1.4123339123343220e-001
      1.6583954886789862e-001 6.3809500242346731e-003
      -2.7312817537990475e-002 -5.7177775789876505e-002
      2.0182265078549793e-002 -4.1866516456711918e-002
      1.9429571724151912e-001 8.5707718981327313e-002
      1.3511600727619746e-001 1.1745063358993504e-001
      -1.3078569880762478e-001 2.0359226136726645e-002
      4.6706642572298125e-002 -5.5909773681922167e-002
      8.3151450746181937e-002 -1.0248408073272713e-001
      9.3843190118958253e-002 -3.7818279031050908e-002
      -1.4533556077482390e+000 7.9448962291564729e-002
      4.9064961184790160e-002 -1.1499050568872156e-001
      -1.2846688852117139e-001 1.0847887676401041e-001
      -9.3330435802745110e-002 5.6564470108613825e-002
      5.1111725659479731e-003 1.9160171083788888e-001
      -1.5325256416509919e-001 -1.1113365950008561e-001
      -2.1097502987102934e-001 8.9015629669491780e-002
      7.1982329733527722e-002 5.2936626369235164e-002
